439 100
similarity -0.15385 -1.2824 -2.2054 1.7283 -0.14887 1.0317 -0.79063 1.6922 -0.71931 -1.9836 0.67988 0.035578 1.6867 -0.27822 1.7379 -0.74786 -0.4725 -0.59701 0.9827 1.1976 0.23304 0.47486 -0.014077 -1.0394 0.0072206 2.7818 -0.011447 0.43425 -2.9056 -2.6664 -1.2474 -2.5466 0.85076 0.59374 -0.36914 -0.0040463 -0.20469 0.19022 0.35196 1.0328 -1.176 -0.033233 0.74835 2.1132 -0.87949 -2.6723 1.8107 0.75486 0.65107 0.46103 -1.1728 1.0541 -1.4635 1.1531 1.0983 0.80423 -2.5043 1.4438 1.05 0.0082937 0.51292 0.3936 -1.1396 -0.42966 2.5031 0.52067 -1.9025 1.651 -0.51953 0.8295 -1.8109 2.9688 0.2563 2.0953 0.71049 0.3032 0.37336 -1.799 -0.862 3.0077 1.7205 -5.4464 -0.85474 -0.53182 1.8455 -2.0598 -0.88797 -0.32902 0.24377 0.41985 1.2759 -2.4834 -2.5923 0.098057 0.66937 -0.68804 1.2162 2.6 1.5298 0.22029
dollar 1.1485 0.62779 -1.6199 0.0061124 0.076097 -2.7049 0.35871 2.3041 2.553 -1.3692 -0.76021 2.5408 3.5312 -0.57805 -1.575 -0.54181 3.2677 -2.1955 0.96135 2.3085 1.5336 -5.3162 0.080089 -0.63706 -1.0182 0.16498 -3.711 1.1263 3.0577 2.6783 -4.3034 0.17823 -2.8647 -1.877 -2.8488 -5.7504 0.45971 3.5343 -0.2258 -0.25025 -2.0443 -3.4724 0.50871 0.22937 -0.68156 -2.8957 -4.8237 -3.6218 0.18534 -0.41559 3.0898 -0.19708 -1.8087 -0.88707 -3.184 0.49417 -1.9816 -2.2106 -0.28746 1.8812 1.1102 -0.63322 -0.29368 -0.72169 1.2076 4.0653 -3.0167 -0.30765 1.2712 5.6068 -1.7263 1.4423 5.7738 4.0403 2.8285 1.7152 3.3076 -2.5933 3.2172 -1.1695 -0.094676 -5.7949 -3.0704 1.3813 -3.9284 -1.5267 2.0978 -1.1285 -1.3431 -0.68482 -1.9625 -4.7024 -2.722 -0.76574 1.5107 -2.8022 -3.6452 2.658 -0.84744 -0.433
focus -3.4452 -0.32413 -3.069 1.1108 -2.303 4.0265 -1.9652 -0.16074 5.2497 -3.4252 4.6814 -0.7478 6.624 3.0903 4.4659 -2.6399 4.0905 2.0658 1.4442 1.3626 1.3807 -2.4524 0.66912 -3.0351 0.91651 4.0217 -0.63406 -0.28108 -1.4415 3.0836 -1.0487 -3.83 2.1819 1.2044 -3.0156 -2.0786 -0.91789 1.6599 -1.1057 3.0222 -5.441 3.3159 0.37763 1.8095 0.72751 -1.0254 1.6643 0.057569 1.6975 -2.8375 -2.3426 -0.52515 0.63354 1.507 -2.6412 3.3816 -0.98442 -1.7732 2.1429 1.5869 -1.0145 -1.0531 -4.7572 3.4356 2.9994 0.65243 -2.1374 1.0534 1.9881 2.0591 -0.19472 1.2605 2.0063 1.8133 1.0042 -2.6097 -1.9414 2.3311 -1.4697 1.331 0.79826 -4.8664 0.7437 -2.4434 0.091516 -3.6968 1.367 0.27363 -0.9414 0.11999 -0.99807 -0.86121 -2.211 -1.7125 1.2531 -4.4413 1.795 1.7652 2.3992 2.0971
month -0.61549 1.3042 -1.4893 -0.47081 2.6953 -2.1201 1.29 0.063708 4.0783 -1.424 -1.2891 -1.0583 -3.5671 -2.9799 1.7407 -2.929 2.0901 -1.8822 0.29659 1.6513 1.7284 0.55783 -1.4678 -3.3305 0.96683 1.1699 -0.39506 1.6356 -1.2446 -0.46165 -1.4616 -1.3559 -6.9019 2.2046 -2.6783 -1.0938 1.023 5.959 -4.4134 3.1405 -0.86703 -2.6068 -1.9168 -0.24641 -2.2438 0.045665 -5.7219 -1.5274 -3.4501 -2.8647 0.08124 4.2702 -2.5778 1.9905 -0.98207 0.2225 0.092934 -0.44856 2.8015 -2.2975 0.92968 -6.0391 0.71769 -3.5937 -0.28466 1.2093 -2.5694 -1.0302 -1.1817 -0.35522 -1.1883 1.6025 2.7781 2.2659 3.7216 -0.91387 -0.88993 -2.0449 0.62294 -0.37937 0.31924 -2.741 -1.7546 2.2775 3.3496 -6.1509 0.53976 -1.4024 2.7829 1.7627 -5.2308 3.6062 -3.6359 -3.4856 1.2119 -1.1068 -2.3136 1.8823 -0.67561 0.44883
mile 2.5394 -4.549 -2.4956 -4.0203 2.3954 0.045666 4.6147 -2.1865 4.9966 -5.3955 4.6984 4.5872 -5.3097 -5.1909 0.98184 4.1244 -4.9886 -1.251 -1.1459 2.1178 -0.89123 -0.39075 -1.2144 -2.3887 0.95594 1.6631 -0.6167 2.4339 0.18204 -2.5398 0.15943 -4.0483 0.98872 3.89 -6.6945 -0.27015 0.13077 2.7207 2.4568 3.65 1.8753 0.21546 2.4314 -0.6691 -1.0505 -1.6174 -2.4084 -6.4305 -5.5494 1.0744 -1.3778 0.33295 1.2708 0.79225 3.0793 4.6691 -4.4362 -7.7092 3.5108 -0.91533 0.76089 -1.6534 3.7355 3.472 -2.032 0.16578 0.95059 1.2932 0.76799 1.7593 0.90943 -0.79629 5.2267 4.2513 3.9676 5.4229 2.6248 1.8256 -2.1002 1.6592 -1.5505 -2.7152 -0.91079 7.0775 0.70445 -0.73814 1.4793 -0.14959 8.6322 2.1177 0.61388 0.57312 4.1484 -4.8504 0.58888 -2.9944 -1.5371 -5.605 1.0968 4.9273
computation -0.15261 -2.1934 -0.68844 2.3036 -0.77387 3.3493 0.73201 0.019164 2.828 -1.1098 1.3421 0.55139 3.5657 0.38279 3.8457 -1.1942 0.88914 -0.60166 1.7827 0.46541 3.2483 0.48457 1.3623 -2.7937 -0.64193 3.8209 1.2179 1.6845 -4.5567 -1.2481 -2.7816 -2.713 0.3727 1.6893 -0.25156 -1.1675 0.30345 1.3417 -0.3198 1.0352 -1.7398 -1.8482 -0.29127 1.856 -1.7828 -0.37869 1.2907 -2.2732 -1.3539 -0.34508 -1.5306 1.242 -0.96498 2.7013 0.37353 2.5254 -3.3578 0.4787 -0.66081 1.2214 -0.66436 1.6159 0.66956 2.1037 1.8211 2.075 -2.1804 0.9424 -0.0053572 2.9912 0.47317 3.5028 1.1467 4.3546 0.23399 1.0278 2.5671 -2.9939 -0.95533 3.516 -0.301 -4.7068 0.14893 0.57265 2.1661 -2.9226 1.1112 1.4651 -0.4437 -1.1334 -0.91132 -1.1176 -0.91264 1.1995 1.9122 -1.8107 0.2774 2.1358 0.0918 -0.17501
skin -0.97218 -0.82649 -4.7236 6.3581 1.6776 -0.89076 -1.4975 0.2561 1.4674 2.4222 3.9286 0.95296 3.2294 -3.54 -1.1189 -0.21321 2.2915 -0.69532 -0.35479 0.023299 2.4003 2.6833 1.2863 2.2571 2.1374 2.0708 3.5764 -4.5233 -3.9666 -6.9942 -2.1294 1.4103 5.2556 2.538 -1.7003 0.76275 -3.37 3.4359 -2.8827 -1.8966 -3.4351 -3.8649 1.0231 2.5966 -0.3249 4.3162 7.0496 -7.7557 -1.0984 5.6367 -1.4756 -1.9958 0.1541 -0.27242 -1.7811 2.4113 -5.1541 -4.1666 -1.4636 -2.3815 -1.2627 2.4289 -3.016 -2.4862 4.1169 0.10777 0.18265 -0.24538 2.4293 3.4897 -1.6314 1.2822 2.5525 5.2751 -1.1115 3.8666 3.3229 1.3062 -1.523 0.52703 -3.4246 -6.5018 -1.4068 1.5609 -0.0865 -0.73012 7.0026 2.9075 1.7326 -0.97362 0.33111 -4.0334 1.4179 -2.2882 2.313 3.5694 4.0179 5.0022 5.739 -2.5444
children -1.9538 -1.7893 3.3358 3.387 -2.9917 0.77155 0.38071 -1.2304 2.4153 -1.5275 1.4975 0.86191 0.93047 -2.5479 1.4004 -0.97154 2.2751 -0.175 1.143 1.1932 0.50473 2.4167 -1.116 -1.4535 0.051679 3.0746 0.39495 1.0314 -1.5406 -4.0454 -3.735 -3.2559 -0.7983 0.30443 0.92643 -0.25754 -2.3215 1.4067 0.038156 -0.77686 -4.8895 -0.54855 -2.176 3.7396 -2.5625 1.0931 1.2235 -1.9062 -2.0641 2.9619 2.4425 -0.61668 1.2196 -1.0628 2.0806 0.82129 -3.5031 -1.7915 2.4851 -1.2092 0.77325 0.80676 0.89522 -0.52408 -0.7114 0.85123 0.88456 0.68205 -0.22622 2.2653 -1.0096 3.1677 -0.57122 1.5556 1.1076 -1.1037 0.88481 -5.4634 1.3009 -1.3251 0.48407 -2.212 -2.9404 0.56997 3.6474 -0.4703 1.8999 1.9115 -1.7863 2.5019 -0.39795 1.692 1.0386 -0.6566 2.7803 -4.9833 -0.12982 0.66811 3.6488 1.6906
row 0.090857 -1.1548 2.0267 5.4635 -0.83403 -0.14134 -0.15446 2.84 8.4347 -4.3006 2.0538 -3.1424 -3.2611 -3.9288 6.4799 -5.0391 0.30222 5.9276 3.2646 4.1081 -3.5745 2.9079 -4.4235 -1.31 0.72592 3.6131 -2.4365 -1.9706 -3.444 -3.6253 -2.1403 -0.17476 -4.1787 4.4456 -1.1142 3.6168 5.5127 2.9067 -5.0689 1.6435 0.19406 -6.9184 5.127 6.6909 1.5847 -0.02265 -1.1119 -3.9417 -1.2378 1.6983 0.57605 1.8482 -4.7099 3.874 -1.4587 -3.4948 -1.8906 -2.6943 4.1957 -0.74669 -2.9188 -6.2446 3.8631 1.2664 5.7797 -2.1471 -4.7807 0.1225 -3.7997 -5.0887 -4.6502 1.6352 2.2987 1.6511 6.5336 1.6144 -1.934 1.893 1.117 -2.8526 0.31592 0.99399 -1.7856 4.9084 -4.6937 -0.55543 5.2464 -4.1141 2.8345 -2.9334 -1.9348 -2.3782 -2.7365 -8.6089 -0.78218 -3.2971 -4.4269 -0.69236 1.6805 -0.79055
wizard -3.5754 -1.6724 0.17147 2.7539 -0.85282 1.581 -0.87505 1.5719 -1.6272 0.39907 -0.30653 -0.047859 1.1447 0.63313 1.0993 1.4058 -1.1531 0.010635 1.0611 1.3437 -1.567 0.74548 0.26884 -0.62076 -0.34774 -1.3106 1.9145 -0.69341 -2.1197 -2.3693 -1.3156 -0.098184 0.22037 0.076623 1.5114 -0.22336 -0.42532 -2.4706 -1.8302 -0.8082 -0.21013 -2.2786 0.066381 3.1169 -1.2351 2.2827 0.74742 0.44321 -2.8511 0.24056 -0.12026 -0.73117 0.082319 -1.621 0.92267 1.788 1.1737 -0.66375 -0.15082 3.0923 -3.7484 3.2759 2.1995 0.18471 1.0091 -0.90372 -2.685 1.9143 -4.0356 2.8632 -0.44958 3.1457 0.18481 0.35045 1.3188 1.6629 -0.47687 -1.3979 -2.0212 3.4779 -0.6509 2.4734 -1.031 -3.7487 1.4056 -1.3345 -0.042181 2.059 -0.65257 -1.3635 2.6193 0.31953 -1.4933 1.5105 1.6009 -1.5677 -0.092992 1.4357 -1.2124 -0.93001
disability 1.1435 -0.87349 -0.20705 2.6134 -1.4801 2.6833 1.3833 -0.10626 2.3909 -1.9236 2.493 -0.044205 0.14616 -1.8341 2.4855 -1.1244 3.1019 -0.62198 1.2217 0.85336 4.2308 2.0941 -1.0558 -1.6078 0.54263 4.3606 1.6637 3.2053 -3.0811 -0.33044 -2.2663 -4.117 3.1546 0.3257 0.004505 -0.95085 2.2252 0.61686 0.66785 -0.88611 -3.0601 0.41674 -3.366 0.85747 -0.40978 0.22649 1.2673 -0.71107 1.1286 -0.034427 1.1858 2.7084 -1.5064 0.72171 1.2181 0.59443 -1.5531 -0.34008 -0.19348 -0.58732 -0.091955 1.3722 -0.97441 1.1284 0.4128 1.4374 -0.64445 -0.26882 2.0977 2.1273 -0.2849 2.5121 -0.0060786 2.3686 0.35314 -1.3685 3.0072 -3.7299 1.0087 0.4599 0.49836 -6.5027 -0.4307 1.4725 1.9885 -0.81824 3.2487 1.9526 -1.6271 0.99917 1.1107 -0.90513 -0.91853 0.89842 1.3353 -2.3152 0.030809 1.7908 0.49314 -0.64528
environment -0.22781 -0.81237 -0.48064 0.71775 -2.1324 4.8189 -0.10985 -1.3814 4.4065 -1.2673 1.5701 0.14547 1.4994 -0.71394 1.4653 -3.268 2.3192 0.68778 1.3949 0.24166 0.13916 0.67785 2.009 -0.37873 -1.7428 3.9749 2.1751 1.5582 -2.2794 1.3659 -1.3156 -1.9105 1.4392 0.58983 0.57661 -1.489 0.83696 2.9889 0.18754 0.92665 -1.3913 -0.27284 -1.9562 0.57194 -2.384 -0.48074 1.3893 -0.56937 0.27132 0.09322 -2.8737 -0.72353 -1.4936 0.8326 0.88363 2.9284 -2.4637 -0.26449 -1.545 3.2051 1.1243 0.23368 -2.341 0.82474 2.6612 1.6737 -0.64191 1.6013 -0.30844 2.2593 -2.1385 0.030792 -0.097583 4.1207 0.51472 0.19951 2.4441 -2.2901 -0.072621 1.4207 0.5032 -4.0678 -1.2506 0.19795 0.28833 -1.8252 1.5158 1.3154 -0.4437 2.1464 -1.8749 -0.99432 -1.5676 1.2026 2.9405 -1.3146 -0.51082 1.5317 1.2099 1.5022
terror -1.8599 0.25546 -3.4841 3.7186 -0.19704 2.1069 -1.1133 4.5041 2.6364 -0.23755 3.7664 -0.19653 3.8509 -4.5453 0.57592 -0.63658 -1.2326 0.79682 1.0648 1.8393 0.88201 0.27594 1.4624 -2.1787 -2.4682 6.0626 3.3444 3.9197 -0.67605 -1.3557 -2.6547 -2.7023 0.55694 -1.9963 1.8049 2.3953 1.5826 -0.8583 1.2206 2.4188 -3.7605 -1.4135 -1.9666 5.8344 -1.1699 -0.88235 1.0312 -0.8856 -0.71154 0.096036 0.32361 4.7611 1.4073 2.2561 -1.4414 1.0688 -2.2725 -3.2906 -2.8669 -0.9712 0.43359 -0.5412 -1.5381 0.086592 -1.5485 0.86157 -4.6601 0.7268 -1.4115 2.3763 -1.5174 2.3373 -0.60204 5.4695 -0.93712 -0.084306 -0.96027 -3.0881 4.6358 1.8185 2.9523 -1.7842 1.6762 -0.70903 0.71555 -1.2872 -2.9249 -1.12 -0.44267 1.4827 0.012694 -4.7072 -3.121 -2.491 1.6731 -4.9766 1.0087 0.70541 -1.1257 1.4256
smile 0.52439 -1.1096 -2.8796 5.465 0.9408 0.90899 0.41155 0.51346 -0.78452 -0.85308 3.8189 0.41104 -1.134 -1.3272 0.062617 1.3572 -1.4551 0.44282 1.2917 2.4606 -2.2961 -0.87056 1.1529 3.6109 2.9671 -3.0578 1.3312 1.8371 -0.39798 -4.1889 -1.6941 -0.4956 -1.0031 0.21044 -2.6617 -0.096094 -0.51883 2.9548 -5.0555 -1.7082 -0.11745 -2.2924 0.60023 3.1106 -2.0707 1.1643 2.9128 -0.2274 0.2535 1.6024 -1.2584 -1.1294 0.13352 -1.9614 3.2965 -1.2152 -1.8047 -3.2483 2.2462 -2.6265 -0.28952 2.7326 2.5424 0.28572 2.2735 -2.5331 -0.26401 3.9342 -2.2095 4.2957 2.569 1.8 -0.064113 2.6247 1.6003 0.71757 -1.6078 2.5473 -1.6039 0.68259 -0.77807 -3.7252 -2.8668 -0.94463 -3.3808 -0.66815 2.2119 2.6141 1.4818 -3.1557 3.4338 -1.7922 -1.7554 -2.4333 2.386 3.0454 3.7368 1.6954 3.3227 1.8775
woman -2.1928 0.3324 0.052875 4.4589 -2.8874 2.2088 -5.3598 0.26478 0.037411 0.0076691 6.0283 0.12902 -2.0137 -5.6518 1.1582 -2.4367 -1.1435 -2.9314 -2.1782 2.417 -4.0239 2.3723 0.20992 -0.19519 5.3547 -0.93639 0.27733 1.1462 -3.2508 -3.1124 -4.199 -0.75514 1.7516 0.55541 -3.5544 1.4667 1.3864 0.70029 -5.0112 -3.8743 -2.4279 -4.327 0.70286 4.7972 -2.6792 2.1246 1.2437 -3.6503 -2.9386 3.5864 0.070513 2.6324 3.8633 -2.3473 3.0214 -0.71372 -2.5921 -1.7521 1.5813 -1.6471 -1.6924 0.71457 0.36111 -1.4211 -0.53426 -2.2188 0.68001 1.9634 -1.7917 -2.4864 0.82312 6.5573 0.61515 -0.80852 2.8915 -0.5582 2.7946 -3.6511 4.2361 -1.393 1.2779 -2.082 -5.663 0.20947 2.5619 0.87408 2.1663 2.9879 -1.5071 2.193 -3.4638 2.2587 -2.4494 -0.66549 3.5776 -3.0069 2.1842 -0.78142 1.8764 -1.7018
string -0.8159 0.71494 -2.151 6.2223 -0.30193 2.4365 -1.2652 1.3593 3.9748 -1.9404 2.421 -0.10486 2.3012 -2.0961 5.711 -1.1765 0.81728 -0.70549 4.4973 3.7411 0.2557 0.83664 -1.3821 -1.9584 -2.2034 4.0453 0.099515 0.41365 -6.6762 -5.0924 -2.6818 -2.3917 -0.42635 3.1311 -0.075917 -4.9742 1.6722 4.749 -0.25493 2.567 -0.037526 -1.6708 3.5144 5.9302 -1.9838 -1.8845 -1.2713 -1.8472 -2.7764 1.113 -1.7012 3.3117 -1.332 1.889 -2.818 1.3079 -2.1276 -1.8288 1.9898 -3.595 -2.8633 -1.6873 -1.7487 2.83 3.7102 2.8999 -3.9428 1.3454 -0.82638 1.7629 -3.6579 2.8036 -0.52364 6.605 0.74477 -0.79371 1.4514 -1.3781 1.1045 2.8132 1.7481 -2.2714 -2.0571 -1.4422 2.0093 -3.1682 0.70238 -2.4915 0.036075 -2.5144 -1.8641 -2.6056 -3.6626 -0.93052 2.1563 -6.0581 1.6473 5.4095 0.20685 0.17239
Maradona -1.5471 0.47394 1.3414 3.58 2.9038 -0.9439 -2.7824 -0.051363 -0.16619 -1.8681 2.0011 -2.4649 -0.331 -0.16156 1.0829 -0.70233 -0.83872 -0.48592 -1.669 0.37155 -0.10493 1.7183 -1.769 0.063592 -1.4168 -1.646 -1.5635 1.0819 -0.1557 -1.7703 -0.21137 1.3258 -1.813 1.3481 0.43617 0.028733 2.6723 -0.71067 -1.4921 1.2308 -0.51102 -0.36524 -1.4564 0.73736 -2.8975 -1.2187 1.9976 -0.10394 0.74535 0.68636 -2.3406 -1.3098 0.51516 -1.2558 0.85622 0.50935 -0.20264 0.94201 1.3453 -0.72633 -2.2882 -0.6159 -2.0591 -2.0653 -3.0684 -0.53883 1.6001 0.27957 -3.5389 -0.061067 -0.49638 2.8675 1.9484 -0.54617 -1.3633 -0.18442 2.6727 -3.6566 -1.3284 2.0448 -2.787 0.8902 -1.4958 -1.3767 -1.4582 -1.3078 -0.36447 0.98401 0.26089 -3.2528 -1.7159 -0.16889 -0.67313 -2.2722 1.7197 -1.2037 3.4953 0.27557 0.13612 -0.15724
liability 1.1524 -1.1065 -1.4296 -0.84899 0.32628 1.1601 1.4658 -0.20693 2.5052 -1.0171 2.3846 -0.65774 1.8725 -0.64203 0.47247 -0.955 1.6311 -0.81537 1.3938 0.1384 2.4545 2.304 0.039024 -1.5116 -0.75393 4.8416 1.4987 1.0429 -3.6072 0.67346 -2.8396 -2.6213 2.0358 0.00081441 0.60054 -1.4284 4.755 0.52667 2.0376 -0.39734 -1.5106 -1.9496 -0.89887 1.2606 -1.42 -2.7475 -0.58317 -0.28883 2.7279 -0.31687 1.1829 3.9389 -2.1857 1.115 -0.29836 0.46888 -1.7345 0.7483 -0.53363 1.0899 0.11986 0.6559 0.56414 2.1349 1.5425 -0.89111 -1.442 2.3817 2.4542 2.6331 -1.2857 1.3723 1.9548 3.2996 0.087582 -0.37549 2.997 -2.9945 0.14681 1.107 -1.914 -5.7401 1.252 1.4239 -1.2091 -2.63 2.1282 -0.082348 -2.7201 0.9645 -0.49821 -0.94131 -0.97247 2.6034 2.0587 -1.7056 1.2893 2.5577 0.080957 0.22524
ticket -1.848 -2.7499 -0.44362 -0.49578 2.1508 -1.7566 0.204 0.40736 0.021683 -5.0136 -0.37632 1.8564 -1.8393 3.2757 -0.33709 -1.7943 2.0788 0.077573 -0.81998 3.0531 0.18203 -0.19188 0.3165 3.0928 -0.096741 -1.7563 -2.561 1.407 -0.40186 0.37883 -1.937 -4.4839 -1.6642 0.99895 0.018503 -2.5678 1.327 3.0134 -0.75294 3.3991 0.12074 -2.7131 2.5433 0.24269 -1.3605 0.41131 2.5703 -4.2582 -1.8668 -2.8342 -1.0731 2.9389 -0.46459 -1.8833 -3.4799 -1.1958 -3.9782 -0.067873 0.77344 1.304 2.8644 -2.466 4.3439 0.41719 0.5533 0.59724 -2.5476 -0.14726 0.77389 2.0617 -0.8796 1.0643 3.1143 1.4321 1.3853 -1.1002 1.3331 -3.9919 3.9723 0.06175 -0.26532 1.0173 0.82757 -0.1745 -1.9959 -0.67571 1.7564 2.0007 -2.8781 -2.4142 3.3581 1.473 -3.8498 0.22857 1.6847 -1.3234 1.5672 0.81737 -0.88993 1.417
school -2.8221 -5.4494 2.3721 1.3804 -3.9602 0.63232 3.4709 -1.3554 4.2312 -4.2607 4.1208 -0.33158 -1.6708 1.0742 4.7158 -3.652 0.69829 -1.8458 1.9198 0.78979 0.78817 2.37 2.5114 -4.985 0.25795 0.57691 0.47477 2.1298 -3.6186 -5.0921 -2.8641 -1.483 -2.1102 -0.53497 -3.3184 -0.33284 0.26318 3.8447 2.5045 -2.1076 -4.1322 -0.37301 -1.1852 2.1217 -3.3493 1.3658 1.3881 -2.2252 -3.5494 -0.29626 0.97907 1.0461 0.44679 -0.85698 1.0523 -0.14464 1.5477 -0.65999 3.2814 -0.55819 -2.051 -0.61531 1.3195 -0.22122 -1.6829 4.2061 1.0788 1.3625 -0.53593 3.3107 -1.5926 2.1981 -2.9023 -0.30994 1.3515 -2.966 0.21576 -4.8496 1.6105 0.0071525 2.735 -0.29246 -2.725 -2.5514 1.1338 3.1975 1.1881 2.1127 -3.0162 -0.62121 -0.1364 4.377 -0.72827 -1.3582 0.49776 -2.3945 0.87322 0.1723 0.26495 1.4029
gender -3.4697 -1.6204 -1.3323 3.2926 -1.438 3.1351 -0.36849 0.22433 1.1686 -4.3432 3.7655 0.2125 1.3365 -1.5179 3.6567 -1.7754 0.88759 2.8231 -1.9024 2.0787 0.73978 2.5702 -0.38263 -2.1429 2.9222 2.6214 -0.24261 0.060494 -3.903 -2.1326 -1.6859 -1.6938 3.4995 -1.2471 -0.03956 1.5202 1.3646 1.0759 0.53485 -1.2268 -3.6662 -3.3128 0.18184 2.0484 -2.0474 -0.88204 1.6733 -1.5163 2.6077 2.2663 -0.12348 0.87561 -2.4013 2.0732 -1.2203 1.5823 -3.3746 1.6639 2.9648 -1.2097 1.0796 1.3647 -0.3346 -0.8243 1.3622 -0.49105 -0.023077 -2.2912 2.1059 2.8109 -0.91993 5.9587 1.1952 0.59987 1.2109 -1.4976 3.8775 -4.1685 -1.1702 4.3884 1.6988 -6.0075 0.30401 -0.10613 2.8844 1.8461 3.4954 2.9239 -0.18355 1.0179 0.89506 2.1971 -4.7084 1.3053 2.21 -3.7578 2.3128 2.4548 1.6825 -0.37544
brother -2.2536 -0.29296 -0.16609 2.6531 -2.5605 2.954 -0.917 2.0686 -0.39673 -1.9006 -0.13997 -2.7182 0.23057 -5.3458 2.987 0.033515 -0.28671 -0.50122 0.11118 2.0626 -2.3867 3.6817 -0.67952 -0.52889 3.3323 0.65183 0.083495 1.1555 -1.5412 -3.3119 -3.4174 1.2243 -2.4155 -1.571 -0.39874 0.0391 -0.11804 0.3723 -3.5939 1.0725 -0.68586 -1.5617 -0.77269 3.656 -2.3773 1.6292 1.9963 -1.5507 -1.6554 -0.062433 0.51539 -0.90414 1.4745 -2.5979 1.3366 -0.41909 -1.6909 -1.0296 0.84019 -0.71563 -1.728 0.94681 -1.2761 1.3549 0.2594 -2.0976 -0.8434 4.0619 -0.47954 2.2681 0.2987 3.098 -0.38485 -0.057067 0.098195 -1.9184 0.41279 -4.5456 0.36692 2.9773 -2.3743 0.41841 -3.8041 -0.067883 3.5254 -1.2123 0.70927 -0.28663 -1.7288 0.13855 -3.7218 -1.2106 0.23078 -0.046311 0.98605 -4.0397 0.76291 2.4977 0.46159 -0.67679
team -5.1125 -2.4386 0.52113 3.4489 -1.3577 5.4337 2.8817 2.3021 4.2956 -4.1074 4.468 0.38788 -0.12851 -0.67523 3.4393 -3.2833 3.0576 -1.3637 -2.0687 -0.9039 3.1441 4.446 0.99577 0.16638 -1.308 2.6255 -0.20012 0.66488 -0.46037 -3.4036 1.7036 -1.978 -0.41895 2.3027 -0.93105 -2.198 1.4759 -0.5168 -4.2003 1.1117 2.998 1.1235 -1.7955 4.17 -4.4533 0.45183 2.336 -2.3455 -1.101 -1.2972 -4.5773 -1.9139 1.2899 -2.8224 -0.53678 7.0555 0.49935 2.9194 0.92735 0.63339 -1.8994 -0.36907 -0.087477 -1.5985 -0.28978 -0.31378 -6.0513 0.1425 -5.876 2.9024 -0.2987 3.3319 4.2401 -3.6064 1.9337 1.2254 -0.06805 -5.567 -0.36727 0.45828 -0.74943 0.20592 0.70412 -1.8564 -3.3809 0.43006 3.4644 -1.6184 0.081844 -6.6181 -2.1923 1.6517 -0.05831 -4.5553 7.1706 -1.1141 0.25957 5.729 -2.009 -2.1435
mammal 1.1697 0.06405 0.045667 1.344 -2.7551 2.9382 -1.0214 0.67331 3.1653 0.56404 0.6977 3.062 1.6355 -1.9201 -1.5117 0.92143 -2.5247 -4.5956 -0.53983 1.498 0.44099 1.3905 2.9023 0.014722 -2.6634 3.0343 0.89891 0.43503 -1.6152 -0.75796 0.015514 0.24457 0.97199 5.2644 1.3917 1.0777 -1.1351 0.042988 1.1355 -1.5481 -2.7425 -1.296 -0.096174 2.6371 0.76491 0.99266 2.3256 -1.9309 -3.0611 1.2664 0.26016 0.31913 0.48721 2.4085 -0.010082 4.0959 -2.1821 -1.8821 1.1706 1.7793 -2.2652 2.1875 -0.4865 0.10536 0.025008 0.34804 -1.724 -1.5172 0.79125 0.46515 -1.3837 2.9304 2.3454 3.1843 1.6358 1.0074 1.4346 -2.9155 -1.6507 1.4544 -0.33964 -4.6484 -1.624 0.88702 2.6955 -2.4901 1.7133 1.1939 2.9663 2.712 -0.5537 -1.9363 -0.57685 -0.43972 3.8025 -1.6988 1.977 2.3103 0.5118 0.50968
round -3.0771 -0.98246 -0.30882 5.1574 4.1188 0.51021 1.5997 0.78196 4.9547 -3.1704 0.49832 -0.25314 0.11748 -2.0126 0.69776 -1.0706 2.0897 2.047 2.4951 1.9698 1.4544 1.981 1.7531 0.45554 -0.67366 1.4262 -1.2689 0.56239 -3.5233 -2.5413 -0.092417 -1.1227 -2.3664 3.6824 -1.1574 -2.5075 1.5088 2.1432 -3.834 1.7091 0.99 -1.1202 3.7098 4.1395 -0.68836 -0.4022 -3.4848 -4.0993 -3.2658 0.90496 -2.112 2.3924 1.3665 -0.1393 -2.8448 0.3918 1.7883 0.21291 1.6567 -3.1415 0.92139 -1.7752 0.49075 0.22453 2.8811 1.357 -0.73047 -0.40892 -0.85569 0.29348 -0.16459 0.75388 0.43182 3.5465 3.4882 1.9949 0.099531 2.5023 -0.67678 1.9177 1.7635 0.062993 -1.387 1.3656 0.41082 -2.0204 3.3841 1.8561 2.0622 -4.229 -0.87851 0.88679 -2.2886 -5.8397 5.0408 -2.5389 -3.0825 0.084249 -0.77832 3.0534
clothes -1.5051 -2.4325 0.53473 3.6226 -0.13949 -0.87934 -2.0396 -0.6838 1.7287 -1.0786 -0.79656 0.87786 1.3702 1.2813 2.5703 0.10508 1.6507 -0.2313 0.72805 2.1586 -1.3054 -1.216 -0.26568 -1.0653 -0.69682 0.30486 2.0441 0.051071 -4.7089 -4.6888 -3.9435 -1.0663 0.59226 0.96582 0.092568 0.35096 -2.0949 3.3029 -0.69048 -0.19671 -1.7216 -3.9029 2.0468 2.488 -3.1434 1.0753 2.9525 -3.5535 -0.083428 1.95 -1.2359 -0.74764 1.8324 -4.2247 0.94579 2.7819 -2.6498 -2.4268 -0.29244 -1.7163 -0.18318 0.5286 0.64994 0.83635 0.97662 1.1763 -1.9156 0.28815 -0.67655 3.4376 -2.2396 0.5596 1.9367 5.7276 -0.035959 -0.69725 0.9266 -1.3156 3.1968 -0.14672 1.959 -1.3872 0.24028 0.84678 0.33855 -0.79905 1.4232 1.8686 -1.712 -0.14816 -0.21621 0.36712 2.717 -0.48925 1.3929 0.39531 3.8259 0.25217 5.7087 1.1464
carnivore -1.7556 -0.87507 -0.055104 2.0036 -1.4108 0.080133 -2.5382 0.34037 1.8377 -0.071012 0.33991 1.5006 0.63359 -0.42212 -1.233 0.1214 -1.8746 -2.6143 -0.36964 1.5194 -1.9003 -0.31576 0.94041 0.64019 -2.4482 1.484 -1.9526 -0.37282 -1.2762 -1.2016 0.13585 -0.60577 0.59775 2.7086 0.7783 -0.14639 -1.0435 1.7747 -0.18687 -0.69413 -1.724 -2.0083 0.61073 2.04 -1.6246 0.14637 1.7444 -1.1774 -1.9623 -0.39182 -1.9648 -0.54478 0.74357 0.55215 0.57969 2.3428 -1.4195 -0.29078 0.83867 1.475 -0.65744 0.94172 1.5033 0.31715 -0.069344 -0.86242 -0.3762 -0.033913 0.97397 1.0531 -1.9033 1.9388 1.8216 2.0156 1.5986 -0.46084 1.3357 -2.5353 -1.4042 0.00549 -0.60804 -2.2085 -2.7315 0.098573 1.353 -1.2768 1.8123 1.7532 0.57766 -0.059837 1.5165 -0.8009 -1.2413 -0.33813 1.1973 -0.34221 0.96651 0.77274 0.86615 2.1332
sign 0.022986 0.91395 -1.8751 1.4328 4.2117 0.57426 -3.1035 1.2889 0.98063 -1.1178 2.604 0.24136 4.2419 3.8818 0.20062 -5.9507 0.042181 -0.50329 1.2968 2.67 4.3056 -0.41094 -0.1818 -0.39981 2.2226 0.00092357 0.39071 3.0884 -0.32179 -1.6693 0.86508 -1.705 0.40289 2.0668 -3.1196 -2.9561 -2.1328 3.2211 -2.6589 4.5642 -0.83347 -2.8521 0.87869 -2.475 2.905 1.2665 2.2944 2.5235 0.6692 -0.60825 -2.0762 2.5529 -3.1875 -2.0823 2.0209 0.18426 2.0809 -0.77629 2.9197 -1.882 0.70828 0.28859 -1.1517 3.8993 -0.19731 -2.5826 -3.224 0.81279 0.87665 1.574 -1.8859 2.985 -2.5176 6.3676 3.6546 -1.5283 -3.3385 -0.32245 1.9861 2.6161 2.5863 -4.9053 -4.1372 -1.1617 -2.8882 0.58705 -0.25905 -2.6001 -1.6005 -5.045 -1.2116 2.1642 -6.5785 -0.86351 2.6934 -3.505 -0.9192 3.247 1.5406 2.0903
street -1.1882 -1.4553 -3.6926 1.8989 -2.5341 -0.72282 0.066376 -0.99347 2.2954 -1.6512 2.214 0.56868 0.48675 -0.71235 2.6222 -2.9669 1.9726 -0.74222 2.6969 4.5851 -3.9911 -2.2429 -1.368 -1.4217 -0.28582 1.7101 -1.7175 3.3958 -3.6525 -1.9644 -2.8591 -1.5716 1.4266 1.2036 -3.508 1.9011 -1.3633 5.481 1.9652 1.6294 0.60913 -0.73797 2.5932 1.6074 -2.4831 -1.1499 1.8967 -3.0094 -5.1992 1.5556 -0.7867 1.1003 1.56 -2.3127 -0.52445 -0.065333 0.0679 -2.0241 2.986 -0.91562 -2.8151 -1.8166 1.6712 0.30752 -0.61852 -0.097318 -2.1287 2.5277 -0.38542 2.6292 -3.6945 0.1166 -0.76023 6.3104 1.1918 1.559 2.044 -0.21263 3.4197 2.1411 2.3877 -1.5948 -2.8923 0.13587 0.656 0.41281 0.46234 -0.4541 -1.2652 -2.8592 -0.019544 0.19468 0.20971 -2.3137 -0.56316 -0.36002 0.91054 -2.5917 1.8756 3.8405
video -1.6729 -0.929 -3.5293 2.0323 1.9401 4.3697 0.20885 1.1502 4.1617 0.48159 0.7385 1.4423 2.1119 2.7662 1.6242 -1.8115 0.75312 0.07514 5.1615 0.48203 -0.54205 -5.6551 1.8814 2.6128 -1.01 0.26256 1.9498 1.9846 -1.0539 0.42415 -6.0736 -2.7698 -0.89526 1.1072 2.7356 -0.4157 -1.2862 -0.3252 -1.9643 4.7767 0.96574 -2.0412 2.5778 1.9527 -2.2974 4.2695 4.8706 1.1335 -2.0435 1.8556 -2.9724 1.8516 1.2053 1.4565 1.6668 -0.49063 -0.75418 -0.75771 2.4532 0.2674 -3.7529 2.7618 0.033655 -3.5354 -1.7914 2.6004 -5.3141 -1.2737 -2.3121 0.68895 1.4827 9.1013 -0.012714 -1.0794 -4.9648 2.1131 0.81913 -1.7737 1.232 1.9326 1.4579 1.3777 2.4658 2.616 3.2455 -3.9967 -0.54775 -0.69922 -2.3278 1.0264 2.4337 1.5532 -2.6118 -1.3194 -0.98337 -3.6928 1.8765 0.93351 1.9328 1.5063
lawyer -1.8408 2.3952 1.4243 0.11196 -3.2269 5.1191 -1.2676 1.1099 0.55688 3.0621 2.0162 -4.0167 2.2468 -4.6052 0.46207 -0.9704 -1.9872 0.044309 -1.5498 -1.5777 -0.29113 3.9889 0.37186 0.1698 -0.54004 0.83911 2.8936 2.2075 -1.2963 3.1547 0.16863 1.4592 -0.13521 -1.9848 -1.767 3.1588 3.1944 0.61564 -3.7654 1.9011 -1.3676 -1.861 1.0457 3.739 -0.14975 0.90807 -0.89343 -1.104 2.7161 0.22583 1.1554 1.5567 1.5253 -3.2398 2.1597 0.54589 0.52253 0.072944 -1.8852 -3.4505 -1.3933 -0.58469 1.1164 0.37772 2.0656 -0.99004 -2.1371 7.8737 -1.4648 4.0568 4.3911 4.8839 1.5626 -0.81326 -0.38273 -6.0786 4.8579 -3.7107 3.7493 1.1315 -0.67253 0.3514 -2.4318 0.83093 1.9233 0.26906 3.1861 -1.2216 -2.4899 0.86783 -4.0623 2.2684 -1.2813 5.4667 -1.3162 -0.9476 1.2908 3.7357 -2.0625 -1.0381
depression 0.65211 -0.39007 -0.69048 2.4237 -0.91732 1.6039 -1.7631 1.0066 2.8818 -2.1531 2.1654 -0.55381 0.26118 -2.4559 2.1764 -0.81004 1.6976 -0.035841 1.5763 2.3683 2.659 1.6405 -2.0328 -2.8611 -0.87175 3.4639 -1.2564 1.3266 -1.4975 -1.7562 -2.7703 -1.7349 0.69097 1.1104 -0.93223 -0.47396 0.16739 -0.25088 0.38998 -0.57929 -3.257 -0.22476 -2.6106 2.7044 -2.7525 0.042805 0.19612 -2.8306 0.37907 1.8445 -2.2501 2.5283 -2.2803 2.1388 1.9848 0.11528 -1.431 -1.5614 0.19477 -0.16048 -0.45639 0.77161 -1.7608 0.44609 1.5862 1.597 0.42863 0.607 0.84772 4.2602 -1.7787 2.8909 -0.8653 3.3398 2.3596 2.3743 1.312 -2.3893 2.1072 0.27218 0.76411 -6.5495 -1.0843 -1.449 3.4301 -2.5954 1.8943 2.4342 -0.83523 -1.6094 -0.86855 -2.4065 -2.2935 0.074805 2.0706 -2.2387 -1.5261 3.1074 1.3805 -0.34729
index 3.255 -3.1881 -0.63297 -4.9695 0.8997 0.92066 -0.12547 3.1851 1.6978 -3.4412 2.7433 4.3881 1.5969 1.8631 5.4837 2.9391 7.6884 -0.060089 1.1899 5.3228 0.83772 -1.7969 7.1322 -4.1665 -3.4003 3.5103 -3.052 0.80037 4.5106 5.1967 -5.7643 1.4832 0.21912 -0.35763 -6.6261 -2.0748 -0.40714 3.7099 0.6044 -1.6961 1.3774 -1.6024 1.8796 -0.51703 -0.93704 0.54258 -5.0153 0.44648 0.50143 2.3027 0.42746 1.2721 -1.48 2.3708 0.74459 1.8589 1.0264 3.4621 1.347 -1.6811 -2.7054 3.4917 2.1245 -1.8619 1.3862 4.377 -1.4543 -6.8051 0.92392 -0.50116 -4.0172 3.7702 2.7251 7.9474 3.7203 0.76111 -0.17521 -2.3534 -1.1226 -0.72314 1.216 -7.723 1.6394 4.152 2.1436 0.092218 3.1234 -1.5343 -0.92888 -1.4007 -2.5176 -1.8728 0.41659 1.3665 -1.1743 -0.99004 -0.16101 2.6388 2.6859 -0.9594
sun 4.793 -7.9486 -1.2186 4.6973 4.1917 0.16094 3.7553 0.65531 2.9256 -0.53018 2.761 1.1018 7.0821 -5.1068 -0.092528 -0.96867 -2.2694 2.4843 0.62912 -0.31273 -0.81605 -5.4526 3.6516 -0.51715 -5.466 0.86486 -2.3215 2.7091 -1.9831 -1.4151 -1.7325 4.2513 -0.57915 9.0776 -7.2814 0.20998 2.4208 -0.5494 -2.7019 -1.2515 -2.8309 -2.5924 3.6169 8.1457 -1.4771 2.3792 3.946 -7.0551 -7.8275 1.8379 0.57552 -7.2729 -1.1416 -2.295 0.35668 1.193 -2.19 -10.887 2.2998 1.4391 0.3911 2.1945 -3.2229 -7.3581 2.6349 4.285 1.9251 1.8068 1.4506 1.9864 -5.0821 0.85703 0.65713 9.4925 1.907 5.1798 -2.0515 0.44258 0.5318 1.512 0.30804 -5.9986 -7.1271 2.3203 -7.6773 -5.1345 2.3265 6.8927 0.96946 -4.0144 1.8373 -1.6191 -0.95912 -3.5948 4.0663 6.1817 6.2652 -3.1517 10.859 0.71387
cell -0.7335 -0.54869 -2.7408 0.071035 -1.2772 3.2342 2.5426 7.083 4.7533 2.3425 4.1928 2.2968 7.2143 -3.3256 4.5871 -1.0183 -3.0562 -2.0337 1.0408 -0.48457 -1.2271 2.173 1.4786 -3.1738 -0.54516 0.83531 -1.5469 -0.71905 -6.6841 -2.3289 -7.6779 -2.8067 -5.2278 2.8803 3.3711 0.61416 -2.5909 4.856 -2.0212 2.4671 -4.2726 -4.6368 1.5944 3.2258 2.2631 4.7207 4.8064 -1.7263 -1.8322 0.99137 -1.9128 1.7331 2.4734 2.4985 -0.67974 -1.7505 -4.8481 -3.5466 2.1189 1.3026 -2.2219 3.7731 1.3006 5.9955 -1.1863 -1.603 -3.1223 -2.2067 0.71339 2.1738 2.9236 4.8695 -2.6342 5.6891 -1.5263 2.0513 1.3368 -4.3776 2.5273 1.338 0.67958 -2.6703 -2.1276 4.7862 4.4101 -0.17974 1.8821 -0.70176 0.75913 -0.38993 -2.0377 0.51229 -0.68795 -0.3319 0.0072632 2.8959 -2.2434 1.4011 2.4236 0.15843
nurse -2.1363 0.042234 1.8847 1.1495 -3.4311 1.6695 -0.9372 -0.50057 1.3376 -0.24159 4.0102 -1.9923 -0.98229 -0.92188 2.7181 -0.26731 0.16861 -2.1795 -2.8878 0.4348 -0.26159 5.4593 -0.87446 -1.0545 1.9236 -1.9278 0.54548 1.5592 -1.6917 -0.23654 -0.9142 -0.71023 1.2897 1.5969 -3.7154 -1.6109 -0.13199 -1.6463 -0.42079 -5.1226 -4.4879 0.038424 -3.8673 -0.40735 -3.9881 3.8899 3.7984 -1.2221 -2.9038 2.768 2.1028 1.8605 1.6879 -1.5638 4.1724 -0.53318 -0.77381 -0.012666 1.5343 -1.2722 -2.0451 -0.022374 1.8742 1.7535 1.2556 1.0683 1.2629 0.80134 -1.8609 1.4759 1.9159 4.1708 -1.1027 0.19581 0.61298 -1.8316 2.801 -1.1547 3.5544 -2.4835 0.45786 -0.18488 -2.1282 1.385 3.7556 0.83337 4.5362 2.4602 -1.1095 0.67878 -2.7532 0.83566 2.0644 -1.9018 2.5855 0.73158 0.93928 3.7782 -1.0003 1.0685
bird -0.61234 0.45167 1.4951 2.8624 -1.1661 -1.4759 -1.772 0.097344 1.9785 0.50359 1.9546 4.2563 1.9033 -2.1231 -2.9579 2.3096 -1.6942 -3.682 -0.72173 4.4354 -2.7378 1.2004 4.8867 2.3937 -1.761 -1.2782 0.45303 -1.4526 -1.2441 -2.3212 0.71749 0.79346 -2.6925 7.2324 -0.20444 1.0248 -3.5295 -0.024005 -1.7673 -2.4715 -2.2361 -3.5792 0.019775 4.6224 0.68092 0.77653 2.3227 -2.997 -8.2496 1.14 0.32982 -0.11062 2.4454 1.768 -0.72705 3.1373 -1.386 -2.3069 2.3992 3.1936 0.32032 3.035 3.6444 -3.5181 0.51972 0.033344 -2.4211 -1.1662 1.1232 0.41091 -3.4378 1.9072 1.3669 2.4502 3.5719 1.2564 2.2808 -4.8622 -0.71525 -0.9956 0.22118 -2.3957 -3.4582 0.89565 0.76703 -1.3034 3.0036 -0.60085 3.5353 3.0521 5.0578 -5.203 -2.5074 -2.9205 3.7236 -1.3772 1.2644 4.3702 -0.6256 2.6165
water 1.3813 -3.0409 1.4887 -1.9491 -0.54972 -0.39228 0.83291 -1.7223 9.5409 -1.0394 0.24744 3.2418 5.7173 -2.7645 0.30934 -3.0554 -1.4122 -0.29859 1.6268 -1.894 -0.35494 3.934 3.4636 -1.338 -1.8101 1.7125 2.8657 3.108 -4.3462 -2.6527 -4.7209 0.54048 -2.4531 5.7445 -2.924 -4.5443 -2.3416 4.3814 4.4909 -0.46133 -0.67607 -0.89513 -0.65801 3.6669 -3.7077 -3.1114 5.5201 -3.0839 -6.7596 1.329 -4.6023 0.25603 -4.145 -1.4134 2.0187 1.7859 -4.7609 -6.0924 0.52017 -0.28472 -3.6833 -1.5942 -3.7307 1.1854 1.1277 1.3637 -2.3949 0.51472 4.7909 1.9794 -2.4323 -0.56248 2.6555 5.1658 1.2022 4.1566 4.3926 -2.7949 1.8395 1.6401 2.6011 -1.7386 -3.0833 1.9676 -2.1192 -1.7128 4.6949 3.8391 1.7993 -1.0085 -0.77564 -0.27016 -0.12569 -2.3347 3.4507 -0.3508 2.303 0.082402 5.9038 0.57049
baseball -1.066 -2.8471 0.17911 3.0799 0.61849 0.86608 1.0661 -1.1919 1.3612 -1.86 0.80552 -0.21714 -0.59584 1.473 -0.49011 -1.8494 -0.9585 -0.50161 0.31364 1.5389 0.90001 -0.056819 -0.93419 -1.0174 -1.5432 1.5065 -1.6043 0.067598 -0.56179 -2.684 -0.29189 -1.5957 -1.6507 -1.2831 0.84728 -0.34822 1.2781 3.2934 0.22551 1.4773 0.39345 -2.246 0.74682 3.1763 -1.1712 -0.67409 2.0423 -0.24809 -0.43051 -0.53901 -1.3815 -1.0692 0.8944 0.28452 -2.1046 3.4088 1.7636 -0.59072 1.323 -0.10609 -3.2091 1.4421 0.60656 -0.96297 -0.34329 -0.72638 -2.4165 -1.4708 0.7081 2.2442 -0.70629 2.2054 2.5755 -0.24829 -1.0866 -0.46399 2.088 -3.8275 0.31561 2.1625 1.3599 -1.202 -1.9998 -1.8217 0.29055 1.3609 2.8226 -0.027642 -1.4944 -3.4566 0.73116 -0.85279 -2.0133 -2.5901 0.6137 -0.51917 1.4099 2.6075 -0.4912 -1.0436
change -0.17877 -1.6072 -0.41771 2.4986 0.45978 4.2665 0.41556 1.6861 2.643 -3.0663 1.0709 1.6244 4.2014 0.4458 0.09346 -0.03302 0.38883 2.2094 0.42961 1.5343 2.8663 2.5812 -1.2194 -1.8529 -0.084438 2.0632 2.5889 -0.048545 -2.027 1.436 0.7983 -4.4805 -0.024545 1.5447 -0.57668 -0.8493 2.515 2.8628 -0.24498 3.6315 -5.1152 -0.24656 -1.0086 3.3156 0.31887 0.46719 3.7443 1.9158 3.7791 -1.4586 -2.8991 0.00067668 -5.2418 2.1613 1.1975 2.5394 -1.5599 1.6057 -1.8545 2.9124 0.12573 1.3951 -0.80837 3.3009 1.0721 1.2856 0.40837 0.71449 1.139 0.77171 -4.7048 2.7128 0.80795 3.1457 2.6521 -0.38783 1.3529 -0.016515 0.67552 2.2787 0.7618 -6.3709 -2.7873 -0.41724 0.14452 -1.6385 -1.9353 2.4055 -1.1454 -2.7333 -1.9405 -2.5739 -5.7462 -0.06494 1.5819 -0.94083 -1.3457 2.4971 2.1507 1.6352
buck -3.5571 -1.9648 1.2175 -1.1831 -0.81952 -1.378 -0.25629 0.1762 2.1677 -1.4118 -0.32258 2.4073 1.4076 0.67245 -0.276 0.75132 -1.6443 1.2814 -0.60087 3.251 -2.6404 -3.3272 -0.41662 2.2531 2.8574 -2.3836 -3.1811 -1.5256 0.14268 -2.6918 2.8309 -1.875 -0.87198 0.58942 -0.95301 -1.3788 -1.5704 4.099 -1.2453 -2.1262 1.491 -4.3491 1.0782 1.4552 -1.3343 1.9212 -0.7125 -2.6482 -2.8857 -3.964 0.02558 -0.33953 -1.8872 -4.6222 -0.56265 0.04939 -1.9303 0.93236 1.2782 -0.18498 -1.722 1.0898 1.736 5.9301 1.2461 0.162 0.23807 2.0562 3.7856 2.6888 -2.558 -0.32904 1.3659 3.095 0.18626 2.2608 1.3641 3.4127 4.0206 1.158 2.7069 -1.9009 -4.9058 -1.1809 -3.3892 -2.2128 0.054835 2.0542 0.32103 -3.952 1.241 -2.2907 -3.7871 -0.2921 0.81598 -2.688 0.71592 2.5351 -1.3954 1.9678
substance -0.51765 -2.4605 -1.1292 1.4464 -0.27167 1.7791 -0.53402 -0.36744 3.4889 -0.34688 2.5145 0.22023 1.0631 -0.33951 0.13343 -2.354 -0.14403 -0.014761 2.3677 -0.81066 2.9974 0.99999 0.2312 -0.79685 -0.26977 1.972 -0.28801 1.5151 -2.8048 -1.6006 -3.4797 -3.2168 1.5915 -0.55573 0.32493 -0.32943 -0.63228 1.6974 1.5508 0.50277 -2.3788 -2.3445 -0.11633 1.7486 -1.4657 -1.1724 1.9598 -1.4398 0.34981 1.5521 -3.9526 4.3228 -0.65384 1.1176 0.14691 2.6785 -2.8868 0.58328 0.27107 -1.1413 0.058494 -0.095599 -1.2592 -0.29091 0.71087 -0.40907 -0.37495 0.22768 1.1862 3.3565 -1.4228 1.8588 1.2898 2.8599 0.70077 1.3126 2.4518 -3.4713 2.2744 3.5587 0.53643 -3.1132 -0.82584 0.55315 1.1456 -2.0174 2.7032 0.49022 -0.13925 -0.44415 -2.846 -1.2038 -2.4248 0.66508 3.3311 -2.4552 0.61819 3.8666 3.3017 -1.7849
experience -0.44121 -2.8491 -0.40693 2.9342 -1.8703 4.4273 0.42611 0.87968 1.6314 -2.2003 2.756 -1.1711 0.67759 1.3453 2.7979 -1.3244 1.8795 -0.70627 -0.085055 1.5689 1.8081 -0.23808 -0.21587 -0.031808 -0.32203 3.6038 -0.24242 1.2361 -0.8028 -1.5781 -2.4638 -2.88 0.64815 1.4482 -0.056617 -1.8132 -0.40056 0.7922 -0.73328 1.7925 -1.6574 0.28031 -0.99286 1.369 -3.1636 -0.73807 2.4376 -2.1434 1.6393 -0.67449 -3.14 0.36044 -1.6827 0.54642 2.2237 2.2735 -2.0396 -0.62911 -0.81836 0.90982 0.38658 -0.45762 -0.22461 0.49748 2.4236 1.726 -1.9234 1.8084 -0.19688 2.1914 0.12848 1.8499 0.65635 2.4107 0.64444 -0.15679 0.71239 -1.3986 -0.68985 1.4595 0.3759 -3.2939 -0.16377 -1.0187 2.5873 -2.5193 1.9242 2.3501 -0.99301 1.2371 1.3577 -1.1187 -1.4623 0.53314 2.6657 -1.8715 -0.24189 2.4592 -0.27556 -0.36925
credit -3.2356 1.4702 2.2731 -3.3141 1.5042 -1.4781 1.9436 3.1017 3.7478 -2.2491 -0.10115 -0.22242 1.5637 1.6226 -1.4049 -2.7096 3.0266 1.3619 1.9137 2.8756 1.4198 -0.83857 2.09 -2.0177 1.3277 -0.30733 1.2957 1.516 -1.3911 -1.4303 -4.648 -1.9224 0.27175 1.0355 -0.62495 -4.0566 1.6297 4.4509 -0.44242 0.83241 -2.44 -1.0745 -0.99392 0.85686 -3.571 -2.6005 -3.9249 -0.23458 1.1564 -2.1213 -0.93371 3.0546 -3.1816 2.7343 -2.2241 -3.1458 0.95883 1.4356 -1.377 -2.4104 -1.85 0.89426 0.98168 3.2781 2.399 1.2966 -1.0829 0.22419 3.3278 3.3968 0.64432 1.6812 -1.0747 9.707 0.25614 -1.5719 2.0272 -2.0215 3.4851 0.49749 -3.6502 -7.6074 0.085866 -0.67796 -1.3723 -1.4726 0.94558 0.25891 -4.7765 0.49925 3.8649 -2.8661 -0.28339 0.98088 1.7644 -0.73981 -0.24977 2.2881 1.5236 0.080234
airport 1.4163 -0.21796 -1.0961 -1.9551 -1.5395 0.25757 -0.047963 1.369 1.0708 -1.4784 3.0671 1.791 1.8089 -0.87609 1.8157 -2.4814 -0.27632 -3.1721 -1.772 2.0588 -1.421 1.937 3.419 1.2593 -0.28735 1.8524 1.9146 3.4798 -3.2973 -0.18738 -1.7444 -3.5712 -2.6999 1.2712 -0.6127 -0.54834 2.8063 1.2876 -0.20046 3.3053 -1.6896 2.4617 1.0021 1.2557 -2.5904 0.91419 2.4017 -4.7517 -2.9913 0.080964 -0.75926 2.9602 2.7468 -0.49098 1.2374 -0.37453 -1.3742 -3.6635 2.2152 4.7265 2.2242 -3.5851 3.0082 1.4736 -1.711 2.6032 -2.046 1.4599 -1.2254 0.98924 -1.0217 -1.0052 -0.35836 4.2831 2.7561 -2.7867 2.8192 -2.1784 2.9745 1.6533 3.2144 -0.55672 -0.034115 1.7749 -3.0285 0.25204 -1.1683 -0.36684 1.0234 -3.594 -3.6978 0.1512 -0.083458 -1.6029 0.96323 0.35564 0.66343 0.84779 0.9818 1.6165
defeat -1.1085 -0.0080666 -1.5984 4.8771 0.78141 1.0732 -0.10053 0.17814 0.57355 -5.1815 -0.067914 2.0017 -2.1137 -2.3708 -1.1419 -3.0188 -0.54594 2.1783 3.9723 -0.57628 4.8673 3.9071 0.6855 0.26879 -1.5461 3.195 -2.4381 -1.8846 -1.4023 -0.16027 0.29421 0.18585 -0.46738 0.69631 -0.067599 -1.3755 2.7086 -3.8673 -3.535 1.2767 -1.8644 -0.040497 0.98537 2.7282 -3.0401 1.6277 -1.4551 -3.0722 2.7332 0.18489 1.3686 0.77277 -3.056 -1.6787 0.28867 -0.38169 -0.8401 2.4943 -4.1481 -3.4125 -2.3989 -2.5813 -1.73 0.51882 -0.92226 -2.0533 -1.3965 4.2892 -2.4854 -2.1058 -2.4007 0.060916 -0.41811 2.0966 3.4613 1.2442 -0.28374 2.0553 0.84639 -0.30539 -0.64272 -2.5541 0.92966 -1.3849 0.52293 -3.4823 -2.2208 -0.56329 2.8802 -6.7738 -2.4855 -5.2171 -2.9997 -3.3019 3.3778 -4.697 -1.8753 2.0237 -3.5334 1.7582
popcorn -1.3304 -3.4126 -0.30294 2.1516 -0.93716 -0.99594 -0.9088 -1.071 -0.4282 1.8135 -1.9478 -0.66329 -0.017989 0.74376 -1.234 0.37832 -1.5206 -0.37511 3.5481 1.0377 -1.2618 -0.80764 2.6418 1.5414 -0.8093 0.76351 -1.9491 -1.1651 -1.9201 -0.80284 -1.5529 0.12304 -1.4613 0.15173 -0.31245 -0.56104 -1.0884 0.92007 0.18285 -0.01747 -2.4314 -2.1823 1.1799 1.6257 -0.13437 0.44791 3.4039 -0.8441 -2.832 1.92 -0.89575 0.93876 -1.396 0.71938 -0.67836 0.099812 -2.5989 -3.3068 -0.2984 -0.038231 -1.6095 -0.094846 0.79529 0.11414 0.36957 0.25087 0.55785 -0.18498 1.5251 2.4373 -1.8307 1.0704 1.46 -0.31241 -0.073622 1.1736 0.017278 0.0933 -0.023449 -1.5465 0.94574 1.5377 -0.5622 -0.78378 -1.1036 -1.6896 2.5587 0.56992 -0.85805 -0.36351 1.4569 0.49451 -0.22871 -1.2772 -1.6628 1.2196 -0.6402 0.77975 2.233 1.1216
implement -1.7481 -1.5308 -0.9924 0.85806 0.071821 3.6996 0.887 -0.66792 2.9825 -0.42542 1.926 -0.95885 5.6013 0.70744 0.48943 -1.9622 3.7511 0.22582 1.2573 -0.29509 4.3508 2.2117 1.4374 -2.9965 0.16151 3.6453 4.5186 2.6218 -1.2138 1.1722 0.26384 -3.4762 0.97003 0.85418 -0.42603 -2.5138 2.154 3.3232 1.1541 1.2253 -2.1631 0.80444 -1.5489 0.39191 -0.65053 0.059902 -0.68842 0.9992 2.7489 -2.3244 -0.79328 2.4935 -0.90089 2.1812 -0.3802 2.2739 -3.2782 1.2726 -1.9587 1.3274 -0.71764 -1.5578 -1.5926 4.9361 0.98004 1.5657 -0.063185 -0.072022 0.8505 1.735 -1.707 0.52638 -1.2407 4.7766 1.7986 -1.2741 1.7397 -1.3274 -1.5179 2.0971 1.3859 -3.8858 -0.81498 -0.57581 1.6212 -2.2734 -0.48049 -0.47467 0.4897 -1.3772 -2.8954 0.77747 -2.412 0.74746 1.9738 -3.3693 0.79585 2.5572 0.70155 1.8408
quarrel 1.0249 -0.4594 0.71112 0.59804 0.60079 -0.15667 -1.1393 -0.22076 1.4898 -1.2396 -0.068046 -1.5258 -1.0853 -2.5224 1.1387 0.60607 1.3545 -0.23185 -1.1895 0.3692 0.10148 1.1738 2.0491 0.23109 -0.95952 1.4178 -3.4098 0.83278 -0.59569 0.26393 -1.8542 1.1742 -2.8731 -1.4929 -1.1697 0.81935 0.69362 1.0243 0.73164 0.67536 0.19564 -1.3931 1.17 -0.99121 -0.3863 -3.0507 -1.3705 -1.1738 -1.171 0.99125 -1.2699 1.3736 -0.65682 0.40731 -0.44829 0.31225 -1.1074 -1.3181 0.67802 -0.38944 -0.69305 -1.5247 0.63808 0.9136 3.5222 -0.32562 -0.38155 -0.0078775 -1.1524 1.0168 -0.2842 1.9864 2.7755 2.1073 3.3417 0.49836 0.23876 -0.35181 0.12261 0.61332 1.0519 -1.4322 -1.6 -0.29178 0.90554 1.0797 0.55681 -1.9154 -0.05594 -0.38685 -0.91217 -1.3946 -0.96939 -2.099 -1.3352 -1.097 -1.5635 -0.42984 0.54707 -0.46068
maker -2.7122 -2.4735 -2.3084 -0.41025 -0.19885 1.9078 -3.7825 0.47983 2.0882 3.9604 1.8308 -1.6706 4.5146 0.45938 0.57808 -0.24872 1.7675 -2.5898 5.0392 2.6277 3.6477 0.16682 3.2952 -1.5433 1.5899 3.9111 1.3593 -1.9224 -7.5097 0.74998 -7.9851 0.38823 -4.6866 -2.4209 -2.1999 -6.8655 2.2506 2.6483 -4.1181 -1.2186 0.85303 -6.9169 0.016927 5.0516 -3.0767 0.15144 0.40884 0.3369 0.0063642 4.4417 -2.5758 0.30693 -0.92993 -0.3685 -1.2571 3.1674 -0.83687 1.1281 0.07944 3.0348 -3.6274 3.8312 0.38467 5.0482 -1.4713 -0.10747 -0.94222 2.133 -1.854 -1.7464 -3.9497 5.1113 6.2177 -0.09001 4.1547 -0.89391 1.4767 -1.5927 -1.2021 -0.015547 0.16517 -1.9189 -4.9538 -4.2915 -0.28865 -4.6491 0.86203 -0.65336 0.61128 -4.6925 -4.2326 3.8123 2.973 2.9838 -3.9862 0.36244 -4.086 4.1737 -3.4669 3.7033
love -3.5627 -4.0626 1.2825 6.8429 -1.0484 1.36 -1.1328 0.86852 -1.1888 -3.0095 -0.080452 -2.3036 0.82435 -1.1377 3.36 0.77758 -0.023462 -1.081 -1.7665 0.40801 -5.1538 -1.5371 -2.7617 1.8415 2.9076 0.27527 -3.1327 -1.47 -0.18115 -3.0402 -3.7607 4.2771 1.6939 -1.6151 0.41917 -1.0185 -2.0773 0.28168 -1.7654 0.58988 -2.2267 -4.7917 -2.3481 4.4093 -4.2189 -0.67062 4.4916 -0.18751 2.2032 0.55741 -0.4435 0.30306 -1.5177 -4.0666 4.5322 1.822 -2.9335 -2.0283 3.8616 2.2089 -1.1736 2.7327 -3.9086 2.1694 2.6823 0.48483 -0.25846 1.3875 0.66317 2.3386 -0.95165 1.3526 1.113 2.6312 1.4866 -1.5722 -3.1996 0.090833 -1.574 0.23365 1.0438 -3.5039 -2.9869 -2.9136 0.49159 0.76229 0.24107 4.5198 -0.10606 -2.0698 8.5147 -1.6711 -4.7811 1.5597 1.05 -4.3179 3.4967 1.8231 2.3205 -0.62328
family -1.3627 -1.1078 0.98873 3.6502 -4.2814 2.3127 0.85675 1.6808 2.5108 -3.2767 -0.086515 -2.5777 -0.89232 -3.4915 2.3337 -1.5716 -0.36331 -2.2 0.0051908 2.4553 -0.38089 3.7194 -1.0122 0.1933 0.49614 1.374 -1.1155 1.2898 -2.4677 -2.9853 -3.6214 1.0311 -0.76716 -1.0874 -1.2563 1.0478 -1.4146 1.2867 -2.6226 -0.068709 -0.93207 -0.17571 -3.0131 3.5678 -1.6307 -0.071909 2.9135 0.047305 -0.12663 -1.1667 -0.94181 1.1516 1.2451 -1.852 2.4536 2.1895 -2.0607 -3.9681 2.5898 1.0201 0.65573 0.35004 0.82993 1.4889 -0.17045 0.7994 -0.27618 2.9668 -2.8083 0.30702 -1.4754 3.9625 1.0963 2.714 -0.82899 -2.3629 2.5066 -4.2145 1.5707 -2.1566 -1.0038 -2.4501 -3.2327 -1.4177 2.6245 0.62037 1.4828 -0.2449 -2.7688 1.4845 -0.22823 0.6769 -0.43052 0.70875 1.2017 -4.033 1.2099 0.62728 2.3318 0.22225
Word 2 0.0 0.0 0.0 0.0 0.0 0.0 0.0 0.0 0.0 0.0 0.0 0.0 0.0 0.0 0.0 0.0 0.0 0.0 0.0 0.0 0.0 0.0 0.0 0.0 0.0 0.0 0.0 0.0 0.0 0.0 0.0 0.0 0.0 0.0 0.0 0.0 0.0 0.0 0.0 0.0 0.0 0.0 0.0 0.0 0.0 0.0 0.0 0.0 0.0 0.0 0.0 0.0 0.0 0.0 0.0 0.0 0.0 0.0 0.0 0.0 0.0 0.0 0.0 0.0 0.0 0.0 0.0 0.0 0.0 0.0 0.0 0.0 0.0 0.0 0.0 0.0 0.0 0.0 0.0 0.0 0.0 0.0 0.0 0.0 0.0 0.0 0.0 0.0 0.0 0.0 0.0 0.0 0.0 0.0 0.0 0.0 0.0 0.0 0.0 0.0
Word 1 0.0 0.0 0.0 0.0 0.0 0.0 0.0 0.0 0.0 0.0 0.0 0.0 0.0 0.0 0.0 0.0 0.0 0.0 0.0 0.0 0.0 0.0 0.0 0.0 0.0 0.0 0.0 0.0 0.0 0.0 0.0 0.0 0.0 0.0 0.0 0.0 0.0 0.0 0.0 0.0 0.0 0.0 0.0 0.0 0.0 0.0 0.0 0.0 0.0 0.0 0.0 0.0 0.0 0.0 0.0 0.0 0.0 0.0 0.0 0.0 0.0 0.0 0.0 0.0 0.0 0.0 0.0 0.0 0.0 0.0 0.0 0.0 0.0 0.0 0.0 0.0 0.0 0.0 0.0 0.0 0.0 0.0 0.0 0.0 0.0 0.0 0.0 0.0 0.0 0.0 0.0 0.0 0.0 0.0 0.0 0.0 0.0 0.0 0.0 0.0
crisis 1.5011 1.9443 2.1043 1.6212 -0.82401 1.8367 -2.9438 2.5041 3.4218 -1.9423 1.6349 -0.47086 3.2079 -3.9867 2.3452 -1.9619 1.858 3.5482 2.5106 3.2257 0.23064 1.0358 -1.8027 -6.7586 1.0127 6.3534 -1.3037 1.915 -3.3728 0.66502 -2.4153 -2.0704 -2.9425 2.5014 -1.2534 -1.3704 6.259 1.7296 -0.49271 -0.35803 -2.2077 1.402 -3.6649 1.6985 -0.73092 -2.0127 -4.6624 0.78178 2.0449 1.2431 -4.6387 2.4163 -4.5851 1.5573 2.7929 -1.0582 2.0391 1.734 -3.892 1.5706 -1.6325 -1.3995 -1.7168 1.3462 2.5379 0.51252 -2.6808 3.9965 -0.29613 2.552 -4.5366 2.499 -0.16191 4.3914 3.9629 5.3561 1.6787 -0.26886 2.223 -3.7571 1.461 -4.2323 0.635 -2.2946 -1.7531 -2.586 -0.81959 0.079436 -0.78316 -0.76086 0.28763 -5.5463 -2.1967 -4.188 4.4565 -0.5609 -2.939 1.77 3.8362 -0.82554
landscape 0.14135 -1.0857 -0.99312 3.5672 -0.93883 2.6551 -0.57298 0.072258 1.9459 -2.0226 0.99158 0.61211 1.8215 1.3154 1.7565 -1.668 0.38072 -0.13912 2.7581 1.4153 -1.4589 0.39118 -0.15746 -1.5404 -0.65333 3.2783 1.9336 -0.52136 -3.0301 -1.004 -0.73213 0.36963 1.5704 2.8859 -1.4514 0.48844 0.10855 1.2002 -0.99534 1.9235 1.5576 -0.94442 2.5932 1.4325 -1.8005 -1.7864 0.8431 -2.5701 -1.9664 0.072938 -2.1974 -2.4843 -0.81673 0.44202 2.159 1.7192 -0.45508 -2.8946 -1.0679 4.0119 -1.9124 -0.68279 -1.8492 -1.7654 2.5001 1.6405 -1.336 2.0761 -1.8348 1.395 -2.0784 0.37276 0.6845 3.9246 1.4329 0.72271 3.4831 -1.3373 -1.7373 1.9057 0.84972 -3.277 -1.3612 -1.358 0.45308 -0.38423 1.6751 0.52288 0.34476 0.78705 1.1217 -1.5369 -0.41044 1.2144 3.3714 -0.56515 1.159 -0.88591 1.9767 1.8418
confidence -0.29421 -1.1651 -0.54769 1.2977 -0.88295 1.6693 0.87616 1.8651 3.2077 -3.1871 1.1618 0.64307 2.432 -0.96213 2.4149 -2.9007 2.5819 1.9962 2.5241 0.38333 1.5014 0.070687 2.6563 -1.6192 1.1917 3.2256 -0.24132 2.3791 -0.32263 -1.5204 -3.7902 -0.62163 0.19159 1.1916 -1.5635 -1.8679 -1.055 3.45 -0.42942 1.8046 -2.1317 -1.1718 -2.4234 2.6386 -2.3418 -1.688 -0.54206 -1.1955 3.04 -0.55557 -2.2006 1.8842 -3.6255 -0.38869 2.0266 1.1764 -1.9832 0.095295 0.663 -1.1067 0.092882 -0.16171 -0.59584 1.7268 1.5497 -0.055155 -4.8018 2.1846 0.15721 1.6702 -3.1401 0.76098 -1.2227 1.4016 1.527 -1.6935 -0.50179 -1.7828 1.5013 2.3241 -0.28353 -6.7525 0.68817 -0.50405 0.2356 -3.3693 1.5907 -0.92404 -1.4261 -2.1634 0.38386 -3.4199 -2.4101 0.065851 4.0261 -0.67434 0.81081 2.0558 -1.5384 -1.2625
eye 2.6243 2.7406 -3.3065 2.4874 -2.096 1.2724 -1.0959 5.5668 1.4571 3.0984 9.7578 3.1292 6.8873 -0.76461 -0.022532 0.16867 4.5607 -1.1436 1.2969 3.7229 -0.81321 -0.29478 0.18797 -0.48116 2.1218 -0.83724 2.8007 -4.9792 0.39485 -4.622 0.15381 0.79956 1.241 4.0485 -5.901 3.8855 -2.1435 4.3191 -5.6382 1.3493 -1.726 -7.3476 -1.728 1.687 1.3118 1.4872 5.7377 -8.6056 -5.6169 2.7628 -0.12575 0.081973 -0.31455 -4.5506 -3.1313 -4.407 0.38591 -5.8025 5.5259 -1.7735 -0.41183 3.0011 4.8233 -1.9789 4.3332 -1.4306 -1.1089 4.0283 0.51071 2.5394 0.33828 0.48149 2.5584 0.49727 -2.0547 0.90526 -0.65175 0.79791 -2.0448 3.888 -2.2644 -4.4063 -2.2847 -2.4329 0.20833 0.25891 6.6551 6.259 -3.6669 -4.1774 5.8387 -7.2448 2.4447 -4.647 3.5536 4.3861 10.995 4.8814 1.8229 0.73428
troops -2.5987 -0.19368 -2.8227 4.1291 -1.5089 3.5729 0.79043 2.7563 4.1683 -4.57 -1.486 4.5083 4.4749 -3.3219 -1.5923 0.06915 2.7749 -2.5676 0.14993 0.24167 3.9122 2.7556 -1.537 -3.0521 -2.1857 2.9207 4.5828 5.1239 0.74005 1.2581 -3.4445 -3.2906 -3.0692 2.5869 -2.0323 -2.0573 -2.5718 -0.45298 0.28639 0.20655 -1.3877 -1.4812 0.16605 3.682 -1.25 -3.3078 -1.143 -0.97145 -5.0676 0.45056 1.3828 3.148 1.2822 3.01 6.2606 -1.8703 -3.737 -3.4929 -3.4326 -1.1184 2.4834 -4.3668 -1.5134 1.3545 -4.515 -0.052808 -0.42421 0.10122 -1.4 7.3978 -1.7544 -0.69606 4.7858 0.97966 4.2032 -3.0941 -0.40309 -0.39296 4.6741 -1.5003 4.2769 -5.0352 0.92579 2.3695 -4.9347 -1.1108 -3.8071 -2.2539 0.3366 -0.67863 -2.3859 -0.16287 7.0884 -7.5138 6.8612 -4.5398 0.88312 -0.85032 2.1585 1.1378
hospital 0.07154 1.7766 -0.53586 0.20577 -1.7068 -0.67708 0.20296 0.30886 2.1205 -1.9227 1.7525 1.2845 0.44402 -2.8413 1.9073 -2.8464 0.57267 -3.7701 -1.0158 -0.3514 0.98603 5.4096 1.2793 -2.2236 0.31457 0.6575 0.86409 1.6575 -3.104 -2.3006 -3.7689 -2.063 -1.9987 0.83787 -3.1888 0.14894 -0.64896 0.36213 0.49068 -1.1111 -3.343 3.6136 -3.2766 -0.59224 -1.702 2.5067 2.2449 -4.0128 -2.8119 0.64245 -0.62368 4.0153 1.2699 -0.36107 2.2252 -0.85609 -0.14145 -1.9146 2.8114 0.78611 -1.482 -1.3713 0.79601 1.191 -1.7223 1.9374 -0.082623 0.08259 -3.0064 0.0081039 0.6839 1.1886 -1.0771 1.5166 0.70305 -2.3827 2.5234 0.1201 3.1823 -0.20126 1.4299 -0.91898 -2.1871 0.32835 2.5769 -1.1413 3.7728 1.3651 -1.7815 -1.2306 -4.6893 -0.48274 2.0515 -1.1473 1.6103 -0.50184 0.20831 1.6113 0.73741 1.774
impartiality 0.27248 -1.1482 -1.6308 1.3826 -1.5726 2.3688 0.20387 -0.50792 1.3071 -1.2389 2.0238 -0.10026 2.4195 -1.2542 1.4099 -1.1587 1.8042 1.2232 1.5023 -0.094223 1.813 1.0211 1.5616 -0.87458 0.46675 4.4252 2.0094 2.2933 -0.45303 -0.35931 -2.4458 -1.2075 2.0636 1.2197 -0.20745 1.0544 0.99958 1.6907 0.80108 0.13634 -2.8007 -0.73047 -0.67399 1.7378 -1.228 -2.7172 0.66956 0.32393 2.6649 1.2839 -1.2706 3.361 -3.3386 1.6201 -0.26674 2.6505 -2.9134 -0.25699 -0.017541 -0.791 0.087024 0.92572 -0.65685 0.15752 1.4351 0.32662 -0.96437 2.4974 0.3827 0.61123 -1.2139 2.4516 0.64024 2.1079 -0.11734 -2.1659 3.3159 -1.8745 -0.042592 1.2609 1.4926 -3.8331 0.87999 0.70458 -0.066129 -0.66271 0.029777 0.057757 -1.2132 -1.1484 -0.43802 -0.61733 -3.2858 2.3501 1.8842 -1.8967 4.002 1.5633 -0.25332 -0.42235
physics -0.59856 -3.8425 1.8422 2.3363 -1.6155 5.1732 2.2514 -0.46417 0.75451 0.24081 0.044514 0.70897 2.5117 0.3015 2.9931 0.23174 -1.6584 -0.9649 0.26072 0.34195 1.7285 -0.83608 2.6833 -2.4847 -0.68301 1.0772 0.025418 -0.47806 -2.5899 -0.92809 -0.72219 -3.0441 -0.27208 1.1774 -0.5709 1.3762 0.61502 -1.2447 0.87751 -0.6761 -2.6474 -1.6335 0.45593 2.062 -1.8379 -0.67216 3.012 -0.47594 -2.1496 0.65183 -0.53626 -0.43694 -2.8176 2.0779 -0.32612 2.3197 -0.29695 2.6759 1.1003 -0.017282 -2.4685 3.2665 -3.3896 1.2785 1.0218 3.8243 -0.35372 1.1493 -1.5404 3.2143 0.80134 2.0433 0.69393 2.7777 1.39 -0.75636 0.04415 -3.0238 -0.75586 4.4245 1.3048 -2.5629 0.22386 -0.60864 1.4825 -0.82333 2.6605 4.4458 0.075539 -1.1708 -0.68392 2.1489 -0.35855 0.96687 0.68351 -0.37509 0.030856 1.0092 0.23708 -0.61821
live -1.4912 -2.457 0.5692 4.3725 -1.8564 2.2636 2.7119 -0.92298 3.2569 -6.5103 -1.5129 -0.24915 3.7622 1.8737 -0.34783 -2.7041 -3.0985 -0.13623 -1.7157 3.2292 0.30446 -0.15049 -3.0427 1.8366 -0.68712 7.4497 -0.73975 -0.34017 0.92181 0.18886 -4.2408 -0.77307 2.4224 2.87 0.77695 -2.1364 -2.06 2.8619 -0.40454 4.1038 -4.0862 1.321 -0.51981 2.2426 -0.6235 3.4657 5.1601 -3.4164 -1.6109 3.1203 2.1589 -0.72172 0.050353 1.6356 3.3011 1.9386 -2.6242 -3.4624 2.0895 2.1749 -0.97682 -0.0075916 -0.078891 1.9227 1.6598 1.7096 2.6325 -0.8766 -3.7531 0.19702 3.1902 1.1141 -1.1803 3.8601 -0.58709 -0.8442 -0.2105 0.072309 -1.2815 -0.89215 0.14831 -0.9604 -6.3958 1.2441 5.4971 -0.97052 -0.5704 1.4451 -2.8987 -1.3439 4.535 1.2445 -5.3608 -2.0099 1.8213 -2.3226 2.9924 -2.652 4.1999 3.0703
music -3.1875 -4.3699 0.10228 5.2877 -0.87719 2.9446 -0.84323 0.66287 1.0835 1.7397 -1.9888 -0.8775 2.2149 2.7678 1.1554 1.5243 2.5218 0.22267 4.726 2.7551 -4.5217 -3.5284 -0.69621 2.9499 -0.99551 2.7229 -1.6885 1.0928 -2.2253 -1.2869 -4.9698 1.8113 -0.8647 0.71259 -2.9803 -0.33467 -1.2068 2.8557 0.93523 5.8626 -2.0255 0.51621 0.38873 1.7457 -3.412 1.3037 2.7651 -0.98355 -1.8649 2.1744 -3.7715 -1.2894 -2.0718 2.6818 0.47467 0.3283 0.60575 -0.22899 4.0869 0.27387 -3.6556 3.347 -3.09 1.8027 0.48992 4.2794 -2.2902 -1.7919 -2.6872 6.4005 -0.31826 5.9142 3.0862 1.8959 -2.105 0.36666 3.5063 -3.354 2.396 2.3606 -0.69015 -0.018897 -1.8079 -2.3052 1.8724 -0.48567 -3.1061 4.6595 0.5304 -0.25113 5.4015 1.1154 -2.2015 3.3523 2.5313 -1.3235 2.5147 -0.51508 0.61452 -0.99838
type -2.7177 -3.5666 -1.796 0.29246 1.5827 1.8597 -0.44603 1.0628 -1.1925 1.5451 4.6275 -0.57941 2.446 1.3166 0.15467 -0.53163 0.13437 -2.3212 -0.22707 1.2719 0.27427 -0.40061 -2.483 0.37817 -1.2531 2.4245 -0.26377 -2.5311 -3.408 -2.4579 -2.2244 -3.3249 0.67029 1.7682 0.92161 -0.4667 -1.4801 0.5838 2.2488 -1.5298 -1.6914 -4.1484 -1.3052 -0.99499 2.286 1.5856 3.6704 -0.76037 -1.8978 0.42283 -2.3223 1.9535 0.66237 -0.088623 -1.2653 4.6073 0.31011 2.0453 -2.78 3.2056 0.037853 3.5828 0.88998 0.37498 1.5356 0.88122 3.0631 1.1845 1.2995 2.3749 0.036992 2.5793 0.98502 2.2717 -1.0136 5.0957 -0.69495 -1.8118 -0.75329 1.6188 -0.42172 -4.3731 -0.32733 3.2809 1.2386 -0.25396 1.6316 2.7235 -0.022604 3.3318 0.65447 -0.62484 -2.1091 0.54397 1.4685 -1.4249 0.71102 2.4367 0.62657 -1.3415
midday 0.99114 0.38303 -1.6138 1.0629 0.68006 0.36969 1.6091 -4.3323 -0.57115 -3.7356 0.64817 1.8728 0.89237 -3.3927 0.33116 -1.3292 0.90337 0.69033 0.38542 1.437 -0.92934 -0.16207 0.76528 -0.81229 -1.5624 0.51135 -1.4882 1.7835 -2.438 0.52101 -1.0229 -0.32822 -3.3333 1.579 -4.7958 -0.75964 -2.8019 1.9277 -2.5344 1.6657 -0.60329 -0.13278 0.40698 0.95072 -2.1791 0.10518 -3.4309 -3.9912 -2.8917 0.17612 -2.6737 1.9697 1.1917 0.19955 -0.91336 1.2876 0.24761 -4.3974 3.2232 -0.12948 1.684 -1.1989 -0.32278 -1.1313 -0.055954 2.8422 -0.46448 0.80253 -0.61641 0.20913 -2.7729 0.6061 0.28574 2.5532 2.9805 -1.0845 0.45329 -0.17417 2.5328 1.3927 1.9079 0.36024 -1.0786 1.0918 0.3792 -2.8453 0.48702 -0.0023748 1.8037 -3.3867 -0.61365 0.10954 -2.8689 -3.7673 -1.1881 0.59349 -0.16415 -0.85654 0.89906 0.23246
possession -1.9244 -1.509 0.47841 2.3367 -0.16768 1.3434 0.80588 -0.39094 2.1802 -2.482 3.391 1.0608 0.73421 -1.6783 0.19614 -2.0267 -0.50852 -1.3855 4.6169 -0.84815 1.7939 0.01853 -0.59896 -0.79584 -0.50642 2.044 -0.96975 1.3711 -2.2003 -1.4945 -1.6038 -0.50796 -2.4172 -0.73159 1.2442 -0.72313 0.36166 0.39224 -0.14083 1.1594 -2.1197 -3.0767 1.6812 3.0163 -1.4628 -1.0335 0.12177 -2.7009 -0.028116 1.0613 -1.4812 3.2027 -0.52141 -0.063936 0.8308 2.0648 -0.33072 0.59819 1.3595 -2.3019 -1.4274 -0.39155 1.6224 1.4923 0.63349 -1.3015 -2.8389 -0.04905 0.33523 1.0647 0.20912 0.95716 1.5186 4.0052 2.5459 0.52286 1.7039 -2.631 1.1664 3.3047 -1.3442 -1.8949 0.18773 0.058463 1.4607 -2.7413 -0.26362 -1.1657 0.075253 -0.84955 -3.6651 -0.55591 -1.8482 0.51315 2.2639 -2.4681 0.52343 1.558 -0.04048 0.53582
holy -0.69071 -4.2746 -1.8587 5.2522 1.1239 3.3781 4.2761 -2.6446 3.4689 -3.4732 0.85016 2.3099 3.1619 -2.0952 4.9823 0.46166 -1.7246 -2.6283 -0.47124 0.73453 -3.1084 -1.1647 3.0381 -6.7704 -6.6236 2.7043 1.4025 1.6881 -2.7808 -4.7688 -4.9122 2.2578 1.168 3.5222 -0.55353 6.0143 -5.4923 0.4311 3.3234 4.219 -2.3571 -4.6309 -0.89003 4.9382 -0.17117 1.1902 2.184 -4.7257 -1.2794 1.357 -0.79522 3.0169 -3.1873 -4.7726 4.6966 1.9905 -3.7169 -3.4656 -4.1763 -0.2646 -0.11162 3.0514 -0.69296 2.859 -0.87372 -1.2014 -2.4546 2.5574 -0.2331 -1.1873 -3.965 1.5718 5.6417 3.9009 1.3152 -0.71466 2.3045 -1.9722 1.2264 2.4199 2.9955 2.1638 -4.3736 -1.9028 -1.8254 -0.71978 -4.006 1.1217 -1.0574 -1.3541 2.8137 3.9907 -7.1628 -2.5931 -0.75524 -6.1971 1.8085 1.179 1.5277 1.8787
company -1.2173 -1.1391 -0.53561 -1.5202 -0.076662 1.0008 0.094502 1.2508 2.9553 0.96294 2.354 -1.0156 1.8617 0.84458 1.8013 -0.94658 3.3533 -3.2676 0.17279 1.8037 2.5472 3.1167 2.7132 -0.50524 1.2752 2.1664 1.2541 0.58602 -3.5472 2.4814 -4.4524 -0.57238 0.10202 -0.39521 -0.71269 -2.9735 2.5478 4.1719 -0.90255 0.6232 1.1326 -0.84014 -0.89994 2.1019 -2.8452 -2.0954 -1.4796 -0.24303 -0.70338 -0.95963 -1.8353 1.1148 -0.8756 1.5261 0.97106 2.0686 -1.2776 1.1924 1.3803 3.5709 0.31462 2.0663 0.79465 2.8491 0.26582 2.1883 -1.6478 1.5842 -0.55109 1.4917 -0.83545 4.3363 4.2576 2.7171 -0.21746 -0.03525 2.5576 -3.7032 0.039646 -0.84325 -0.16197 -1.6502 -1.3639 -1.5708 -1.1091 -3.9793 1.0464 -2.2966 -1.1723 -0.08515 -2.7642 2.627 0.055851 1.5832 1.3783 0.3669 -1.1784 2.942 0.55129 1.1148
benchmark 0.20359 -0.4496 -0.98192 -0.87863 0.81617 1.3783 1.5778 0.48112 0.57759 -2.2972 0.41819 1.281 3.4366 0.69488 1.2555 0.29841 4.155 0.79084 0.93562 1.3152 -0.18285 -0.23776 0.9322 -3.8253 -1.6667 0.94047 -2.1745 0.82488 0.85872 1.2726 -2.1134 0.054125 -0.049795 -0.5037 -3.5004 -2.0068 0.74848 3.0183 -0.96369 -1.9131 -0.45739 -0.66259 1.2268 1.2477 -0.2145 -0.95388 -3.2419 -1.8051 0.13485 0.54578 -0.44215 1.2638 -1.9184 0.97232 -0.23961 2.1763 -1.32 0.69958 1.5979 -0.10175 -0.2246 -0.16407 -1.0623 -0.15919 0.29333 1.5993 -1.1942 -1.8099 -0.1637 1.2366 0.16601 1.313 0.9785 2.4837 2.7159 0.26501 0.79677 -1.9573 -1.1224 2.4997 0.47735 -3.0024 -0.47676 -0.0089227 -0.03513 -1.2483 1.5636 -1.2475 0.37907 -0.7249 -0.4337 -1.2056 -1.4516 -0.92325 0.50967 -0.98955 0.48645 2.3512 -0.68209 0.52183
Wednesday -1.347 3.4428 -1.4837 -0.26193 0.66738 0.80205 0.15355 -3.1757 2.1694 -2.448 -0.14742 1.5498 1.0603 -2.9051 0.34164 -1.8938 0.91493 -0.20833 1.1507 -0.39357 0.22625 0.9053 1.6051 -1.2104 0.97553 1.1929 0.065103 2.5001 -1.3839 0.23077 -1.1258 -0.83357 -3.8448 -0.21127 -2.7661 -1.8317 0.36076 1.5414 -2.3586 2.5603 0.11592 0.1562 0.13437 0.64192 -1.8388 1.8528 -2.8411 -0.72689 0.036548 -1.0818 -1.4488 2.8862 0.57763 1.3716 -1.1971 0.47833 0.32501 -2.9201 2.4233 -1.0756 0.41075 -2.2065 -1.2656 -1.4716 0.36082 0.092817 -2.0869 1.4286 -1.1831 -0.57373 -2.6261 1.6411 0.53336 -1.1196 1.0729 -1.8553 0.78361 -2.2558 1.8204 1.5581 1.3191 -0.41307 0.49471 -0.071316 1.5412 -2.9316 1.2876 -2.6307 -0.19283 -2.8723 -3.3299 0.70845 -2.9694 -2.5373 -0.54304 0.20357 1.1927 -0.2718 -1.1122 0.94669
phone -1.3945 0.070716 -0.4856 -0.45605 -1.1821 1.1647 0.93268 4.0541 1.6405 -0.17517 -2.7197 -1.3343 3.0193 0.99294 1.2218 -2.1269 0.39039 -0.2443 -1.1591 3.6255 -0.39285 1.833 1.7966 2.0606 3.2706 -1.5445 1.719 0.60193 -4.9354 1.8922 -6.3247 -4.9699 -5.5178 1.7039 1.3041 -1.271 -1.2073 3.8804 -3.1138 0.69537 1.0313 -3.8561 0.041157 1.7393 -1.0737 5.3575 2.6588 -0.89167 -0.95506 -0.64222 -4.9296 1.4419 2.4105 0.025793 0.32368 -0.78152 -3.3011 -4.4833 0.51787 -1.7286 -1.1611 2.003 2.9415 2.0236 -1.129 2.9096 -1.9128 2.0108 -0.24315 -0.65058 2.8888 8.142 1.1934 4.7168 -3.3432 -0.32955 3.1781 0.19764 7.8818 3.4266 -0.3002 -1.0907 1.1696 4.5361 2.4164 1.1137 -0.5522 0.52457 0.37642 -0.58776 1.9318 1.42 -1.6723 -4.1368 -1.2194 -2.3872 1.4549 1.0348 2.6488 -0.27721
American -1.8187 0.23344 -1.5262 1.9402 -1.3193 1.2322 -1.5369 -1.887 2.3404 -0.28408 -0.29192 2.2316 0.58205 -1.6343 2.122 -0.57655 2.184 -0.21285 -1.2967 2.6877 0.25056 0.14093 -1.7193 -0.94446 -0.69096 4.0605 1.4061 0.31849 0.096462 -1.1867 -0.44876 0.96591 -0.35514 -0.82525 0.88642 -2.4954 0.966 3.2174 -0.38759 4.2919 -2.5414 -2.2758 -0.1918 2.3558 -2.1126 -3.0971 -0.33208 1.4236 0.94556 1.1506 -2.4082 1.3239 1.5281 1.3807 0.24336 -0.31702 -1.9359 -2.7188 -0.28342 -1.0482 0.67281 0.24897 -0.71604 1.9263 0.6001 0.40825 0.044535 0.45273 -1.3686 0.27004 -0.87477 2.5609 1.248 -0.43776 1.0834 0.00033827 2.9806 -4.2561 -0.36905 2.3513 3.3729 -3.6814 -0.12933 -3.0271 1.1049 -1.972 1.9222 1.3037 -1.1353 -0.051157 -0.54846 -0.63722 -2.6237 -0.50993 2.323 -1.7823 -0.53811 0.99094 -3.5428 0.88133
train -1.3329 -2.7937 0.82438 -0.5476 -1.3877 2.0993 3.5548 1.7904 0.65801 -2.023 4.8959 1.3489 -0.053117 -3.5105 4.7748 0.14138 0.75737 -2.4139 -2.2594 4.7998 0.16277 -0.41994 0.76392 -1.0985 -0.2343 1.6537 1.4958 4.1438 -4.1499 -3.7194 -2.4594 -3.4056 1.6161 0.33234 -1.1 -5.3643 0.28076 1.4831 -0.085244 0.6114 -1.3257 3.6234 0.29804 0.22509 -3.4898 1.9164 3.1201 -5.6648 -5.6442 -1.6763 -2.053 2.9397 2.715 1.3498 0.45728 0.35688 -1.842 -2.1376 2.114 2.6577 -2.1549 -2.6589 0.76879 4.0709 -1.2544 3.0268 -4.239 1.3388 -0.13785 1.2247 -0.44394 -0.88148 0.061629 1.4275 5.1247 0.93204 0.50727 -1.9392 2.9201 1.5238 5.3509 -1.3982 -1.1459 1.9901 -0.82998 -0.74506 -1.4987 0.80033 1.9834 -5.0075 1.0024 -2.4775 -1.0151 -2.3083 2.6868 -0.70261 1.343 -1.417 2.856 0.14859
baby -0.99013 -0.27992 2.292 2.4472 -4.0363 -3.3315 -3.116 1.4563 0.8827 -0.32519 -1.9207 -0.72705 -0.74739 -4.1481 -0.70618 1.1308 0.049756 -0.19192 1.2073 2.646 -2.7251 0.15501 3.255 -0.29794 5.758 -2.9077 0.088508 -0.81074 -2.4855 -7.6855 -3.2771 0.2841 -0.77116 2.4211 2.7079 -0.16711 -1.383 -1.4476 -1.4803 -6.4015 -4.9458 -4.2706 -2.2603 1.2036 0.99903 5.0318 1.5736 -1.3363 -3.4785 4.2348 1.3155 -1.3037 1.5693 -4.1652 2.3456 0.53861 -5.1758 -1.8089 4.268 2.5628 0.85133 0.11891 0.55912 3.4963 -2.0144 -1.944 0.70712 -0.32137 3.084 0.061156 -1.5663 6.9928 -0.58549 1.62 1.0971 -0.22361 -0.53544 -1.6391 2.4382 -4.725 -1.8678 -1.6934 -5.0375 0.33486 1.3245 -1.4692 5.5273 3.205 -0.18968 1.8184 -2.1051 1.5122 -0.6977 -2.9503 2.7458 0.52841 1.7997 3.3112 6.4352 1.7497
effort 1.0328 -1.6162 -3.4582 4.3888 -1.5812 4.9987 -0.23519 0.14043 8.4845 2.9283 5.5077 4.4159 2.1664 -3.031 -0.92593 -0.51182 5.5686 0.29593 2.564 -2.2175 0.29657 0.57703 1.4898 -4.1919 0.32911 3.7651 -0.68466 2.4224 -3.6696 -0.58897 -0.88039 -1.1681 -1.565 1.277 -0.47736 -0.51998 1.1032 1.5528 -3.1156 4.6367 1.2507 0.27198 0.32546 1.0262 -0.77131 -0.56604 -2.043 0.12808 0.47246 -1.958 -2.8319 1.1842 -1.1188 -0.58706 0.90508 -0.16851 -3.0339 1.4016 -3.6714 -0.40813 -0.54105 -4.023 1.1573 3.2241 -0.3663 4.1328 -4.3386 2.2226 1.0577 3.7279 -1.0977 -1.901 -0.85752 1.7075 1.2219 1.1631 1.9843 -3.7899 0.3333 -1.8566 1.1494 -4.6482 1.859 -1.6641 -1.603 -2.7704 1.1704 -0.30075 -0.8134 -1.8274 0.8953 -2.5832 -0.80213 -1.2525 4.1864 -3.461 0.58676 2.1337 -1.823 0.25694
decoration 0.092888 -3.2922 -0.88424 3.2636 0.85278 1.1261 -0.57307 -0.94659 1.6107 -0.86429 -0.17977 0.63937 1.2763 0.93546 1.5882 -0.92306 1.8349 -1.8712 2.0955 0.2523 -0.56686 -0.23696 0.72205 -2.3333 -2.044 2.5793 2.1584 2.5405 -4.7143 -1.316 -1.0419 -0.41029 -0.96415 1.5909 -2.6697 0.037599 0.66092 2.9982 -0.53227 0.98422 -1.0445 -2.3275 1.0011 1.3856 -1.7196 -1.2359 2.2677 -0.49323 0.56536 0.37003 0.011612 1.5007 -0.99832 1.2135 0.78773 0.85681 -2.4926 -1.5042 -0.51099 0.22775 0.73845 0.5935 -0.48254 1.8512 1.3754 0.91797 -1.1248 0.092228 -1.2219 0.6459 -2.7485 1.9252 2.5447 4.7676 2.7206 0.16817 2.1601 -2.2971 -1.4337 0.51191 1.8702 -2.4736 -0.41534 -1.233 1.285 -1.3637 1.371 -0.6301 -0.73929 -0.38174 -0.77396 -1.2412 -0.13967 1.1036 2.1175 -1.7935 2.9425 0.95473 0.98249 0.74386
rook -3.3271 -2.5554 -1.0588 2.5453 -1.7016 0.087293 0.072159 0.041916 2.8115 -3.7833 2.319 0.40213 -0.18401 -1.1666 1.5529 -2.5989 -0.62301 -0.020312 -0.53429 1.7503 -0.89062 1.4284 0.31699 -0.78343 0.65922 -1.1942 -0.25491 -1.0837 -1.5437 -3.1667 0.47041 0.63568 -1.7058 3.1845 -1.4458 -0.11853 -0.31815 0.20801 -1.3595 0.73706 0.24942 -1.2766 2.6513 2.2482 -1.3483 0.73613 1.7349 -3.1391 -2.2728 -1.2443 -0.79851 -1.7307 0.23722 -0.89137 0.97513 0.93691 -0.72573 -2.614 3.6794 0.19391 -3.0681 2.1364 0.80676 0.88315 3.0903 -1.1085 -1.3661 -0.11739 -0.28948 1.2985 1.5316 -0.027039 0.80473 1.4494 2.1771 1.5587 0.25697 -1.2304 -0.30477 2.6697 1.0119 1.9786 -3.0661 2.4026 2.2105 1.26 3.8695 -0.85655 -0.8544 -1.1028 1.4139 -2.9066 0.093574 -1.9793 1.802 -0.56586 2.0488 -0.16927 -1.0616 -0.070886
word -1.4865 -4.265 -0.2066 4.3571 -0.02061 1.2666 -0.039851 1.6588 -0.69305 1.0351 2.0752 -0.2094 0.92673 3.3996 1.5548 -2.5321 -2.5321 -1.0451 -0.71635 2.4158 -0.58988 -0.039599 0.18272 0.053641 0.89616 -1.9977 2.546 -1.5546 -2.601 -3.4864 -4.7916 -1.5199 0.48637 2.0373 -1.6267 3.1863 -4.0271 0.54963 -1.3105 -0.56868 -4.394 -6.4017 -3.1727 -0.05996 0.96665 1.094 -1.9539 0.83665 0.74617 -2.3351 -5.3983 2.7697 -0.60852 1.0522 1.2128 -0.53935 -2.1994 -0.70659 -1.5206 -3.5551 -2.0789 -0.49328 -1.4594 -1.847 0.69674 -1.7949 -0.043042 2.2206 -1.6689 5.7325 1.5126 4.2259 2.0839 3.2108 0.16269 4.2809 2.3453 -1.3661 3.3422 3.7773 2.2753 -3.3718 -0.70036 2.3747 -3.6468 -0.69572 -0.15535 1.6309 0.1245 -0.94226 4.4781 -1.2095 -7.6226 -0.8753 5.1653 -3.8377 0.038853 2.2871 3.6986 -0.61566
science -0.33452 -4.2157 0.98327 2.1245 -3.6415 4.959 0.52905 -0.48321 3.1221 0.19306 2.1929 1.6705 3.089 1.0556 4.6608 -0.15028 -0.76369 0.18861 0.84094 -0.70741 1.2069 -0.61369 3.8091 -4.5873 -0.43198 3.199 0.13726 0.41613 -2.0983 0.60598 -0.20198 -3.506 0.6119 0.90656 0.2785 0.4305 0.14355 -0.3695 0.55912 1.0944 -4.8174 -1.6214 -1.3658 1.8901 -1.3578 -1.6711 1.8769 0.12361 -1.627 0.4747 -0.89301 0.1608 -3.3688 3.6853 1.2198 3.9394 -2.1531 1.4116 -1.0242 0.43614 -1.1537 2.7618 -4.6258 0.17369 1.6831 3.5955 -1.9542 1.8156 -1.6573 2.6297 -0.34506 3.2567 0.74892 1.1125 1.8096 0.24031 1.6452 -2.9899 -0.856 2.7469 2.6704 -2.7926 0.56111 -2.5574 1.7332 -1.6802 2.9638 3.633 -0.85623 0.35401 0.10348 0.2595 -1.5085 1.9002 1.9184 -1.1172 1.1472 1.041 -0.21864 0.81252
challenge -1.6567 0.37233 -1.2578 3.2695 0.22543 3.144 -0.76482 0.3682 2.5777 -0.8102 2.9317 0.93238 1.9805 -0.04204 1.9918 -2.0344 1.0569 1.1204 2.8582 0.2241 1.0043 2.0145 0.40822 -2.1109 -0.48598 3.6286 0.27055 2.4637 -2.3186 -0.45891 -0.66798 -1.0597 0.055823 2.5306 -0.60401 -0.98662 3.3624 1.9397 -1.5644 1.2496 -1.6774 -0.22794 -0.99469 3.2097 0.35316 -0.92533 2.0474 -0.063184 2.5508 -1.6081 -1.2576 -0.2282 -2.3282 -0.65996 1.6951 1.1545 -0.44226 1.5301 -0.8996 -0.17669 -1.5197 -0.88078 -0.087856 1.4092 1.8152 -1.0701 -2.2234 2.7827 0.29827 2.1702 -0.20232 0.87771 0.4571 0.45037 2.689 -0.016508 -0.61407 -1.1209 1.0379 1.7623 0.046599 -3.2994 0.34619 -1.4985 -0.64585 -3.2169 0.56799 1.5206 1.2131 -1.9742 -0.87155 -0.25184 -3.109 0.32161 1.6389 -3.4075 0.041146 0.81623 -1.1703 1.8459
critic 0.10074 0.2952 -3.5193 1.7169 -1.0959 5.8681 -5.1979 1.77 1.2709 2.293 3.3602 0.53086 1.3294 -2.5965 2.0796 1.5688 1.7854 1.2125 3.6637 3.7844 -2.4421 0.42259 -0.93945 -2.0741 -1.9617 4.2249 2.3015 -0.10333 -0.76079 2.0922 -2.8369 -2.9681 0.073666 1.4955 -3.1609 0.22263 1.6973 3.7079 -1.2791 1.9748 -5.7436 -1.7744 -2.2321 2.3162 -1.6343 -1.2396 2.6768 0.64641 1.047 0.20245 -3.0375 2.0961 -3.814 1.1514 1.0902 -0.75768 1.6694 -1.887 -2.9161 -2.1813 -4.7134 -1.858 -5.4532 -2.0751 4.7629 -1.1096 -0.59072 4.9567 -2.6779 2.503 1.0442 1.4515 -0.26937 1.2637 -0.23647 -2.9268 2.4556 -3.4464 -1.094 1.7407 1.8045 -1.2298 0.37653 -3.7943 -0.18757 -0.1456 -1.891 -0.75094 0.90981 -1.3412 -0.37638 -1.6607 -0.97081 4.3426 -1.0916 -4.1892 0.31183 5.3825 -2.4952 -0.022454
cat -2.9105 -1.2794 -1.2596 2.5114 -3.1742 -0.020903 -5.589 2.7891 0.96898 -1.0634 2.4861 2.2646 -1.1751 -3.9008 -4.7042 3.2309 -0.62508 -2.7737 0.35024 4.7951 -4.5685 -1.4103 2.9209 0.3371 2.5215 -2.592 -0.40462 -4.6573 -4.6241 -3.2164 -2.8631 -2.0052 1.5318 6.0691 1.7054 0.60806 -4.2065 2.3841 -0.64969 -7.9654 -1.3459 -6.9086 -1.1618 5.1984 -0.32815 3.8886 8.2542 -0.7103 -8.7086 1.5608 -1.4967 0.52897 2.133 -2.5387 -1.0622 6.0183 -3.0568 -1.9484 2.8655 2.7161 -5.2091 1.3571 5.0353 -1.3112 2.374 -5.6891 -3.0465 0.46657 1.3267 2.4163 -3.1633 3.9524 0.33372 5.9149 1.7851 1.5262 0.43798 -4.0899 1.5292 -6.0089 -1.5123 0.044895 -5.4835 2.9185 1.3249 -0.41164 3.7258 0.65767 2.1427 0.38961 5.044 -4.5021 0.52269 -1.8328 4.9773 -1.2966 2.8501 4.5182 6.2223 2.8806
fauna -0.64315 0.031187 3.3356 4.3281 -0.37181 1.6343 -3.5304 -0.29426 1.0311 -1.8615 -0.24503 2.214 1.4958 -1.6923 -0.4997 -1.2405 -1.3679 -2.7141 -0.33517 -0.44917 -2.249 2.1896 3.3399 1.0837 -2.464 0.92343 -0.62842 -1.2858 -2.0572 1.2752 -0.4253 -0.076191 0.93007 6.9276 1.3766 -0.318 0.54323 0.19504 1.1611 0.47755 -0.471 -1.1427 -1.4286 2.8842 -1.1094 0.15109 3.9632 -1.673 -1.0965 0.90829 -2.4147 -0.98359 0.7154 -0.8118 1.8275 2.9863 -0.45122 -2.1601 2.0819 0.85687 1.1399 -0.57011 -1.905 -3.7972 1.6693 -0.35208 0.6633 -0.25131 -2.9482 -0.59455 -3.2988 0.15927 2.5536 5.1327 -1.1052 2.6636 1.799 -2.604 -3.2831 -0.90828 -1.1745 -3.1596 -1.7697 1.431 3.8011 0.41902 1.3528 3.1893 0.97588 1.477 4.3433 -1.6119 -2.6185 0.59455 3.6849 -2.6717 2.7372 0.10764 -0.54111 0.43166
example -1.0321 -2.5107 -0.45728 0.77446 0.063246 1.6182 -0.76969 0.72746 0.52589 0.20818 1.5697 0.64947 1.5296 2.3532 1.7605 -1.1699 1.0627 -0.81315 -0.58161 0.97728 -1.1262 0.60307 -0.61365 -1.8146 -1.4879 2.4357 0.51054 -0.40229 -1.9385 -1.3548 -0.40328 -2.5724 0.18223 1.691 -1.2318 -1.8844 -0.31741 1.3826 -1.1587 0.73759 -2.7685 -2.4477 -0.8172 1.8981 -0.92944 -1.3752 0.29113 0.35213 0.35302 -0.802 -1.537 0.88402 -0.30084 0.45545 1.3162 0.29132 -1.7757 0.79029 -0.44787 -0.20349 -0.64494 -0.69011 0.85259 0.22742 1.726 1.393 -0.086004 0.93019 -0.11528 0.206 0.36271 1.6745 0.99999 2.8501 0.53321 0.84542 0.83167 -3.0758 -0.47967 1.4724 1.5855 -3.522 -1.5369 0.34867 1.9943 -2.4271 1.274 1.4024 0.60414 0.079731 -0.75618 -0.51128 -2.9096 1.9136 0.66126 -1.8774 1.05 2.0797 0.98351 0.99533
history 0.66992 -1.5211 -0.00044211 3.0959 -0.81294 4.4257 1.1192 -2.6095 1.9484 -0.66769 1.1209 -1.9568 0.68584 1.8825 3.1452 -1.6 -0.73026 -1.6595 0.29403 1.6424 -0.33452 0.72579 -0.91351 -1.9431 -0.94218 4.0945 -0.98362 -2.0879 -0.84162 -2.5975 -1.7463 -1.5913 1.8724 0.95161 -2.0195 2.0521 1.4266 0.17531 -0.16281 3.3489 -0.88955 -2.1311 0.93594 2.3931 -1.224 -2.479 -0.82634 -1.8675 0.14574 0.97441 -2.79 0.60905 -2.0505 0.85549 0.64682 1.135 0.28949 -1.3726 -0.76738 -0.093232 -2.4138 -1.331 -1.0077 -0.76451 0.25331 0.1559 -2.4678 1.7223 -1.6587 1.1853 -1.0732 2.7467 2.4976 2.1871 0.74537 1.2459 1.7951 -3.2088 -0.64726 1.274 2.2559 -3.7236 0.90332 -3.8981 3.4938 -0.32677 1.2275 0.38105 -0.80041 -0.19465 1.7869 -1.6948 -3.2223 -0.22093 3.467 -4.3343 1.0304 1.4735 -2.3458 0.30784
vodka -1.1034 -4.7598 2.0133 -0.53634 0.24163 -1.0053 -0.70326 -0.30164 -0.68234 2.1189 -0.83371 -0.74295 -0.39339 -1.7442 -4.4359 -0.68282 0.40472 -2.7827 0.60173 -0.70984 -3.766 -2.2518 1.3331 3.4147 1.9522 -1.3038 -2.5822 1.4005 -3.1765 -0.26904 -3.2535 2.1688 -1.0197 0.53056 -0.83022 -1.8083 -1.6106 1.1289 2.1355 -1.5571 -1.7869 -1.8531 2.6377 0.53764 -1.833 -1.3343 3.135 -1.4021 -0.56654 3.674 -5.0721 1.1298 -0.65035 -2.2198 -0.60895 -1.9209 -3.8258 -1.5773 -2.1851 -0.82394 -0.91952 -1.8471 -1.7877 0.0050716 -0.37109 -2.3335 -0.060893 -0.88281 -0.84789 2.3782 -2.9734 -0.52876 2.1352 1.3812 1.5878 2.3085 -1.9358 0.76009 2.4491 -0.7419 -1.1288 2.0013 -0.13451 -1.1715 -0.80677 -2.9331 -1.0701 1.7458 -0.73827 -2.1546 -0.67448 1.3094 1.2727 -0.085872 0.3684 -2.587 -2.1141 0.42091 3.8627 1.2784
calculation 0.84437 -1.8069 -1.5639 -0.77979 0.11541 2.8333 -0.082372 0.23658 3.0237 -1.9923 0.27475 1.096 2.2815 0.82473 1.8349 -0.41285 1.0058 0.44134 0.048934 0.058154 2.7801 0.16615 0.14721 -3.5179 -0.98385 2.4102 -0.16449 1.201 -2.0913 -0.5698 -1.4906 -2.9992 0.38952 1.6748 -0.041217 -1.0875 0.80186 1.3886 -0.68241 -0.15416 -1.2214 -1.8844 -0.37482 0.84856 -0.41306 -1.0825 -1.1629 -1.4511 0.50388 -0.97889 -1.5287 2.4764 -2.2909 2.1064 0.041479 1.5441 -3.9647 1.3644 -0.46152 -0.044556 0.40551 0.30795 0.88633 0.85413 2.5234 1.8526 -0.28438 1.1994 0.15132 2.9523 -0.77557 1.8255 1.4884 3.2812 0.69372 0.84005 2.1369 -2.9279 -0.70492 1.7848 -0.12487 -5.3573 1.2654 1.0627 -0.23268 -2.0803 0.54621 0.76804 -0.70522 0.070616 -1.9581 -2.1395 -2.9457 1.1508 2.0481 -1.1238 0.1268 1.4771 1.4462 0.34569
fuck -3.1421 -0.96917 0.28507 2.0827 -1.0721 0.39927 -1.2181 0.11976 1.4264 -0.60018 0.28604 0.48646 0.18968 -0.27717 0.064536 0.17443 -1.3637 1.2909 -0.96318 0.86352 -2.2236 0.35898 0.68296 1.2842 1.9244 -2.2656 2.2924 -1.6865 -0.62184 -2.3673 -0.25674 -0.65359 -1.3475 0.4337 0.91029 0.72486 -1.2615 -0.12773 -1.2635 -2.2459 -1.5153 -4.3044 -0.58034 0.42776 -2.0226 1.1937 1.9273 0.49975 -1.4554 -0.97105 -1.2829 0.80268 0.11249 -0.26567 0.30021 1.0408 -0.19042 -0.58728 0.40866 -0.2233 -2.2727 1.0895 -0.73304 1.9626 0.45755 -1.0462 0.89993 1.1448 0.81729 1.4025 0.21114 -0.14588 -0.41781 0.71773 0.87196 1.4588 0.072206 2.7168 1.922 0.035799 0.64119 1.7665 -2.4604 0.60064 -3.1061 0.061285 0.26307 0.83917 -1.6398 -3.9064 1.7619 -3.8465 -2.3519 0.0094139 1.5675 -0.98469 0.94176 3.3462 -0.029839 -0.58629
currency 0.40952 0.58507 -0.63126 -1.6806 -1.7704 1.9336 -1.0769 2.3008 1.7757 -1.6517 -0.41869 -0.11585 3.7482 0.37617 -0.52372 -1.1015 3.2926 -0.73696 2.6778 4.7584 0.66619 -1.4881 1.5625 -2.1547 -0.40525 1.6646 -0.91513 1.5504 0.20002 3.4138 -3.3602 -0.87915 -1.443 -1.2157 -2.193 -2.6069 0.72643 2.1039 2.5997 -1.6906 -1.5994 -1.3637 0.21518 0.38789 -0.24332 -3.4698 -3.3838 -2.0867 1.3036 0.51846 0.45429 0.40269 -2.5925 1.0757 -3.2124 0.34455 -2.2726 0.3563 -1.3161 1.0673 2.1466 -0.025509 -0.43975 0.24179 1.7727 2.2318 -2.3438 -2.4172 0.3128 4.6934 -0.31449 0.54477 2.8876 5.1455 1.559 0.48623 3.6 -3.5561 3.2812 0.95539 -0.71527 -5.7262 -0.8903 1.3952 -2.0968 -0.77404 -0.25819 -0.84462 -0.718 -1.8977 -0.79853 -4.7666 -2.6637 -0.097082 4.5853 -3.2498 -2.2998 2.7424 0.72636 0.74562
stroke 2.1277 0.67584 -0.51392 4.5846 1.4939 0.40732 -0.029305 1.0142 2.8486 -2.4874 2.6805 1.1452 0.69211 -5.3942 -0.77175 -0.34757 0.78423 0.42657 -0.21554 2.4211 4.2183 2.801 0.34816 -0.044499 1.9268 0.96993 -2.7828 1.1413 -3.5504 -2.8981 -1.4564 -0.48057 -0.18007 3.1668 -0.14066 0.34636 -0.36703 -0.080913 -1.7304 -0.24065 -2.4112 0.97009 -0.10872 1.4155 -1.0294 1.855 0.29184 -4.2134 -3.0328 1.7255 -2.0185 0.4576 -1.343 0.84076 -0.60774 -1.3616 -0.64216 0.45824 0.30436 -2.6661 -0.43394 2.2976 -1.0808 0.62014 -0.15971 1.4927 1.0841 -0.7634 -0.73972 1.1701 -0.15043 2.9909 0.43945 2.1063 2.6464 2.5318 -0.61557 0.59106 1.0434 2.0951 -0.77594 -2.5388 -1.2168 0.36353 3.0853 -3.128 3.4433 1.0287 0.20451 -2.811 -0.88501 -4.9496 0.74868 -1.4903 1.8061 -2.0145 -2.0518 3.8479 -2.9955 1.6848
serial -1.4442 1.5648 -0.14315 2.8839 -0.93307 2.1021 -1.5629 2.0698 1.1032 2.0564 0.66567 -0.86203 0.7051 -0.88206 3.6777 -1.5485 -0.74826 -0.15103 1.4454 1.2016 -0.5604 0.77073 0.10438 -0.7561 -1.384 2.704 1.3243 2.8844 -3.1336 -1.1143 -1.9622 -1.9236 3.5374 -0.72178 2.0225 0.69967 0.37136 0.017204 0.10486 -1.0969 -2.8202 -2.0215 2.0803 3.6829 0.081826 -1.2004 -0.088709 -1.7745 -3.7265 1.877 -0.85219 2.8091 1.0266 3.1895 -0.098276 1.8307 -2.8581 -1.1436 -0.29543 1.6408 -3.7646 -0.089084 0.89571 -0.82588 1.0281 1.366 -2.8956 -0.4699 -1.9895 0.85289 0.81016 3.2752 -0.32803 3.817 -2.5726 -0.30909 1.6819 -2.2244 1.6551 3.6789 0.42924 -2.4038 2.9215 0.20916 3.0057 -1.6514 -0.35704 -1.3251 -0.45121 -0.79469 0.874 -0.4618 -3.4232 -0.56102 0.27758 -5.4663 2.0268 1.7585 -1.1512 -1.7113
association -0.54114 -1.2243 -0.52038 -0.05807 -1.0379 3.0034 0.14552 -0.88889 2.5571 -1.2435 1.729 -0.75154 1.6811 -0.37765 2.5233 -2.1336 2.8814 -1.6028 -0.48128 0.81857 0.24423 2.7923 -0.58131 -0.60067 -1.6926 5.4951 0.6452 2.1908 -2.4681 1.1903 -0.38191 -1.2769 0.2547 0.39276 -0.6061 -0.71689 1.2779 3.1146 0.26493 1.6808 -0.55866 -1.2934 -0.91032 -0.042267 -0.58824 -0.44296 0.89054 0.49585 1.8258 -0.91746 -2.0779 2.8583 -0.30577 0.55461 0.50431 1.5106 -1.5434 -0.13253 0.49837 -1.8404 -0.39636 0.61382 0.018487 1.1617 1.34 0.53824 -1.2404 0.56417 -0.15981 1.1024 -2.4392 2.8624 -0.18706 1.2291 0.067727 -0.63859 3.8138 -4.6399 -0.4914 0.4537 1.5692 -2.9586 -1.7381 -2.4311 1.7318 -1.4278 2.271 -1.0458 -0.50219 -0.35487 -1.2231 0.16649 -1.3027 2.3576 0.71339 -1.1936 -0.40297 2.2328 -0.46189 -0.59065
information -0.13192 -1.5882 -0.53843 -0.016535 -1.0868 3.8143 1.4879 -1.6301 3.5182 0.7104 1.4258 -0.60114 3.4342 1.0514 2.6876 -1.1986 1.399 -0.14817 0.72456 -0.52495 2.7686 1.4569 2.7916 -1.8556 -0.29917 3.402 2.4448 2.4158 -1.1379 0.86657 -2.1103 -4.5958 0.66318 0.0813 -0.62576 -2.948 -1.6098 1.2181 0.080848 3.3013 -2.0672 -1.8144 -3.431 2.4116 -0.57042 -1.1505 1.9188 -0.29481 1.2194 -1.0464 -3.9078 3.9073 1.1642 3.1324 2.2961 0.58381 -2.7528 -0.39744 -0.19045 -0.48035 0.28998 1.7098 2.2682 0.51799 1.2739 1.4536 -3.145 0.46918 -0.42342 1.2293 -0.96639 2.6106 1.2797 4.0714 -0.058548 0.34802 3.0137 -2.7091 2.2197 4.2165 0.53627 -4.2387 2.4173 2.2806 1.3344 -4.0279 1.5783 -0.96775 -2.7607 1.5944 -0.057063 0.51248 -1.9909 1.3557 2.3759 -2.7044 1.4486 1.5935 3.0897 -0.074632
recovery -1.0202 2.2614 -1.2183 1.9879 -0.33593 1.4771 0.70884 1.2487 5.4374 -2.255 1.1744 1.3706 1.4061 0.34104 1.0453 0.23327 0.19308 1.1604 1.1003 0.83294 1.8027 -0.091355 0.46924 -2.1439 -1.5424 3.3875 1.221 3.8456 -1.1008 -1.2473 -1.2595 -2.2799 -0.71931 0.92442 -1.9575 -4.3837 0.53598 1.1475 -2.6883 0.63381 -1.3496 -0.08857 -2.4017 1.018 -0.33065 0.89625 -2.793 -3.1917 0.63931 -0.46746 -3.6668 -0.3233 -3.9427 1.0709 1.8037 1.3941 -1.7127 -0.20133 1.1382 1.2041 0.87837 -0.54299 -0.36672 5.0288 -0.55078 1.2606 -3.351 0.76592 2.433 1.2328 -2.5412 2.3928 0.51536 5.3213 4.3017 2.5717 2.3281 -0.52957 0.028811 0.65207 0.49618 -6.2075 -3.1492 -1.405 2.3364 -3.769 1.3707 -0.91964 -1.7354 -0.8958 -2.0824 -4.5625 -2.9444 -0.26968 4.5654 -0.41814 0.81662 2.9313 -0.26912 0.45361
travel -1.1514 -0.53575 1.9342 0.24474 1.206 2.8189 2.3217 -0.40892 3.0345 -3.5631 1.4891 -0.5981 2.3765 2.0457 0.43419 -0.98937 -0.69401 -0.46458 -3.6829 5.4425 1.1449 0.077507 -0.42954 -0.14473 -1.0944 3.2491 1.2025 2.4574 -0.96068 -0.55304 -0.21899 -2.9395 -1.6877 1.7401 1.4175 -5.0022 1.4442 0.91405 -1.3231 3.6276 -2.1395 1.5941 -0.644 1.071 -2.0052 2.566 4.0443 -4.3358 -0.21255 -0.17703 -0.92753 2.7642 -0.51703 1.0825 0.6344 1.3021 -1.7921 -3.5202 1.3219 1.6033 2.4447 -2.3007 1.4189 2.2917 -0.27098 2.7168 -1.2813 0.45454 -1.0044 -0.21354 -0.93772 -3.0987 1.6094 4.1193 1.8844 -2.9903 2.8415 -2.6095 2.8848 0.21444 0.9959 -2.3179 -1.6182 -1.3581 0.14302 -1.091 -2.5651 0.46935 -0.23726 -0.83144 1.1253 0.32342 -1.7398 2.3261 -1.1714 -2.1759 1.3964 2.1762 2.8545 2.3305
boxing -2.5244 -1.2313 -1.5478 8.3149 0.97616 2.6796 0.64928 -1.9813 1.3477 -3.5317 0.53125 -0.29872 1.0641 -1.8914 1.0682 -1.6685 -1.0013 0.0094824 1.2419 4.1857 0.74991 -0.79829 -0.76205 0.1856 -1.1253 3.6737 -0.77101 4.1879 -2.9307 -2.9635 -3.5146 -1.7071 0.70396 0.081756 -0.84922 -0.80564 0.96611 1.7188 -0.22214 0.4381 -1.2234 -4.0042 0.63776 5.0111 -2.9493 -0.32266 3.2408 -2.2681 -1.8547 2.4986 -1.2338 0.11026 -0.83406 -0.59191 -2.82 3.2571 -1.5504 1.5606 1.8472 -0.5303 -3.1059 -1.5209 0.73731 -0.58569 1.547 1.5046 -3.1906 -0.46772 -0.84488 3.8552 -2.6517 1.4329 3.7414 0.93957 -0.52251 -0.66936 3.3646 -2.2093 0.86973 3.5618 1.8449 0.069985 -1.8545 -3.4576 0.94791 -0.48008 2.071 2.0937 0.1677 -3.6788 -0.73676 -0.98187 -0.70083 -1.6913 1.0109 -3.6758 -0.71947 1.8795 -1.2062 -1.3443
arrangement -0.74488 -2.0095 -1.6862 2.4306 -0.33583 3.0161 -0.12428 -0.96711 2.5408 -0.29767 0.29048 -0.73172 2.1456 -0.23835 0.64697 -1.5167 3.5926 -0.38866 0.28957 0.65996 0.37353 3.5413 -0.73994 -1.3725 0.097117 3.5817 1.4464 2.5157 -3.0902 -0.30191 -1.2225 -0.63216 -0.11876 0.55145 -1.0045 -0.2899 1.7544 0.65486 -0.70634 1.2394 0.49007 -0.49421 0.13206 0.18659 -0.61932 -0.34473 -0.33607 0.093329 2.3403 -0.60896 -1.9677 3.7675 -1.3162 1.2056 -0.5007 1.0666 -1.6691 0.28753 -0.22244 1.279 1.3821 -0.094174 1.5308 2.3978 3.0988 2.1848 -2.0326 2.298 -0.75093 1.5791 0.15771 1.9614 -0.2532 3.7575 0.67332 -1.3021 1.4851 -3.8529 -0.079992 1.652 0.69154 -2.2621 -1.6725 0.65213 -0.17183 -0.96468 0.7394 -1.0412 -0.13709 -0.48498 -1.3412 0.68166 -1.6578 1.3425 3.1399 -1.385 1.7646 1.6524 2.5499 0.47892
delay 0.25009 3.7361 0.64942 1.3006 -0.20282 2.3308 0.2999 -0.47956 5.1268 -1.4794 -0.1665 -2.4219 2.4296 -0.53018 1.4661 0.22972 1.3012 1.7673 3.1182 -1.0326 6.04 2.9503 -0.28099 1.2236 0.73819 2.666 3.1159 3.0776 -4.4629 0.60505 -1.2369 -5.6409 -0.075444 4.495 -0.66406 -1.8519 3.8206 -0.42915 -0.21497 2.4266 -4.1287 1.1138 1.3083 -0.24629 0.92568 2.7151 -1.3207 -2.389 1.5774 -1.1398 -2.1891 6.3239 -4.689 1.1729 -0.6184 1.681 -0.37593 -4.094 -0.37098 0.0357 1.8152 -2.0273 -1.015 4.9985 0.47011 4.0839 -1.2229 3.3759 5.2781 0.58413 -1.9024 3.0201 1.0447 1.8828 4.4649 -1.409 -0.088333 -3.2033 1.1205 0.13313 0.6307 -3.0857 -0.43836 2.8476 -1.411 -4.4434 -0.19438 -1.9732 0.72018 -5.8832 -2.7987 1.7053 -7.1985 -3.0354 0.37108 -3.5912 0.19743 2.2844 -0.15596 0.94865
criterion -1.2874 -1.2251 -1.7398 1.5686 -0.31164 2.4563 -0.61488 -0.79308 1.0347 -1.0301 1.3156 0.6962 1.4123 1.158 2.4795 -1.0073 3.3233 0.2038 0.35103 0.70361 0.30448 1.9239 0.2081 -2.2353 0.35481 3.1062 0.65727 2.4685 -1.3808 -1.1946 -2.3221 -2.5706 0.79679 1.9224 -0.85305 0.113 2.1131 2.0245 0.64032 -1.5446 -2.4428 -0.54906 -0.49595 1.8162 -0.92529 -0.78909 0.071793 -0.5281 1.354 -0.016418 -2.437 2.2446 -1.5322 1.5641 -0.84262 1.6607 -1.9516 1.2018 0.014859 0.09215 0.095174 0.47605 -1.2748 0.45381 1.7826 0.26788 -0.8506 0.99017 0.23834 2.614 0.1045 1.5956 0.28259 1.4906 2.5574 0.271 2.4711 -5.5693 0.43191 2.8403 0.73821 -1.7511 1.1 0.88833 1.152 -2.6379 2.374 -0.48078 -1.441 1.0443 -1.1011 1.1498 -2.9893 1.2486 3.179 -2.7695 1.6741 1.3324 -1.2568 0.57449
forest -0.99932 -1.3583 0.071494 3.7266 0.91697 2.3025 -1.1193 -0.73772 6.3986 -4.0345 0.31139 2.7253 4.4923 -3.2988 0.44343 -0.59451 0.051939 -2.4334 1.2676 0.88439 0.044275 3.1323 3.3933 -1.2496 -3.2224 3.3171 1.1123 3.3173 -4.041 1.1526 -2.1659 0.53043 0.024679 4.3757 -1.6604 -1.2381 -0.42253 2.2336 0.42728 2.5308 -0.022655 -0.52079 1.0038 3.2655 -3.174 -1.7148 -0.38803 -1.6587 -4.9631 -1.8934 -0.96207 -0.94222 0.27538 0.28338 2.0499 2.1461 -2.5912 -4.9509 0.41306 1.7848 -2.6455 0.16085 -0.79515 -2.2997 1.0931 2.1727 -0.38563 -0.8224 1.6785 0.30321 -3.5727 -1.8523 1.8152 7.8892 1.0068 -1.1859 4.6987 -3.1768 -2.0057 3.0229 -2.0 -4.8523 -3.6298 -0.63241 0.21179 -0.40597 3.046 0.10762 1.1947 0.56944 1.6494 -2.5499 -2.2131 -0.67486 5.7466 -2.608 -0.38907 -0.35142 1.04 3.6669
animal -0.97917 1.5303 0.13179 4.0792 -3.4691 1.7069 -2.75 0.52227 3.7965 1.3552 2.2158 3.0681 0.65861 -5.0333 -1.3447 1.7674 -0.90743 -2.3151 1.3176 1.4642 -0.34015 -0.10168 2.0252 -0.505 -1.4352 2.9896 1.1931 0.2022 -2.4975 -0.47009 -0.72878 -1.2573 1.2602 3.1276 -0.031119 0.48475 -2.026 1.5746 1.5539 -1.1788 -3.6083 -2.564 -2.2549 2.214 -0.71211 -0.078863 5.3855 -0.064288 -3.4975 2.3797 -0.10304 1.6569 1.3347 0.0027011 -0.38605 5.1141 -3.5154 0.92317 2.318 1.8873 -2.7005 1.822 1.1627 0.16655 0.024492 0.86612 -0.93024 -1.5442 1.4275 1.3765 -2.4285 2.8563 2.1041 3.7676 -1.1778 0.07041 3.4449 -5.8386 0.068791 -1.0522 1.0718 -2.5904 -2.5815 0.83991 1.3653 -2.7412 3.7833 0.28055 1.6497 1.9376 0.88101 -1.5879 -1.8954 0.87021 3.5285 -1.723 2.1565 2.0715 2.3494 2.9511
interview -1.3081 -0.61158 -1.013 0.10095 1.0087 4.2232 -0.83139 1.0315 2.1917 -1.1498 1.2122 0.17469 0.95988 -0.97277 0.58423 -1.5929 0.25412 0.64728 -0.82542 1.1368 0.72952 1.5567 0.95888 -0.63003 0.077504 1.6451 3.2818 2.8252 -0.32926 0.41431 -2.6579 -1.3736 -3.2293 0.58771 0.22851 0.75335 0.35763 1.732 -4.3707 4.4244 -1.6812 -0.73544 -0.74759 0.60076 -0.38945 -0.027048 -0.16928 -0.29898 2.8979 0.11383 -5.2195 1.7041 -0.22343 1.4212 1.7047 -1.3716 -1.4527 -1.0699 0.23264 -2.106 -1.3037 0.050378 0.03277 -1.8631 2.8609 1.7073 -0.83421 2.9807 -2.9345 -0.18045 2.7271 1.6494 -0.91749 -1.1806 -1.0234 -3.3467 1.5991 0.24138 -0.17192 -0.36529 1.958 -1.732 0.013946 -0.38554 3.9887 -0.86998 1.0801 -0.60293 -1.3581 -2.3318 -2.1249 1.0296 -3.0826 -0.12549 -0.40948 -1.4783 0.53569 3.4747 2.5221 -1.4323
place -3.7086 -5.2142 -1.5563 2.1538 0.80801 0.55346 -0.20214 -0.40626 3.0307 -2.8843 1.155 -0.75214 1.2337 0.69348 1.8057 -4.8509 1.8632 0.97461 2.6466 1.7783 -0.30801 2.5051 1.796 -1.3559 -2.7352 2.2988 1.3258 -0.90877 -2.6377 -1.9288 -0.63964 -2.2711 0.57378 2.0485 -1.0014 0.7208 -2.804 1.159 -1.7551 1.431 -2.4896 0.042783 1.2287 3.6229 -1.3459 -1.9224 1.0005 -3.4513 -1.3585 -1.587 -2.2673 2.3222 -0.22673 -0.78257 -0.36495 -0.051596 1.9654 0.13998 1.7909 1.4506 1.758 -3.9682 1.5058 0.7057 -0.73765 0.74692 -1.8112 -0.63668 -0.81736 -1.1476 -0.82555 0.4973 2.2708 4.6716 2.6694 -0.092103 -0.70522 -0.78094 0.45281 3.9477 1.5702 -2.912 -3.7122 2.1369 1.841 -2.7912 2.5029 3.3677 -0.88439 -2.4187 -2.1477 0.95553 -2.5687 -2.0859 6.1601 -4.3217 2.8046 0.28985 -0.35364 3.1413
furnace -0.17881 -2.5909 0.20736 0.21111 -0.055695 1.1866 -1.1571 0.70702 2.6121 0.47047 -2.2836 0.55098 0.74465 -0.40104 1.6567 -1.532 0.10929 -0.063913 2.0029 0.98502 0.26981 1.3762 1.4261 -0.41062 -0.52908 0.82977 1.1742 0.43888 -3.8031 -0.30678 -4.1898 -1.1386 0.22287 -0.54424 -3.0389 -1.01 0.32107 1.5157 -0.86338 -0.64538 0.13194 -1.6573 1.0332 1.7894 -3.2539 0.27069 1.0317 -3.1648 -3.3359 -1.0788 -1.653 -0.014486 -0.34859 1.1209 1.5835 1.7238 -1.1972 -1.7761 0.69276 0.50199 -1.4239 -0.96758 -3.1949 1.9033 1.549 1.4628 0.095482 -0.74478 0.55791 0.18595 -1.3532 -0.47671 1.7616 3.6982 2.3185 1.3289 -1.0735 -1.7043 -1.0288 0.29279 0.19013 -0.086936 -0.6109 0.6447 -1.515 -0.63706 4.2953 -1.6064 0.25027 -1.9305 -0.78869 -1.883 0.35771 -2.8298 1.4379 1.7018 1.3296 -1.378 0.89055 -0.46782
stock 0.99127 -1.5888 -1.0853 -1.6984 1.5284 -3.652 0.02552 2.0458 1.5638 -3.4476 -2.2961 0.44797 3.0401 0.35154 -1.011 -1.8758 5.9753 -1.5303 2.3562 5.5707 -0.099562 0.12168 3.8501 -2.3031 0.712 -1.7259 -4.2459 -0.58988 1.9101 1.2147 -5.4073 0.0067287 -1.393 -2.9468 -3.6547 -3.894 -0.73816 1.8498 2.784 -0.63925 0.48786 -1.9687 -0.23759 -0.24847 -3.2999 -3.1709 -4.8253 -3.4207 -2.2189 -0.30439 -0.58165 -1.4721 -1.6303 2.8971 -1.5053 2.8794 0.36745 -0.5271 0.32888 1.6382 0.050097 2.685 2.1032 0.40836 2.8683 3.1884 -1.2889 0.54841 4.5904 3.997 -1.7838 2.3188 6.213 7.2915 2.3644 -1.79 0.22068 -2.0265 0.67162 1.3752 0.13851 -2.4374 -0.555 1.2813 -2.6117 -5.8023 1.4008 -1.5895 -4.091 -1.8308 -0.99771 0.22937 -2.0194 0.21601 1.501 -1.3078 -1.6608 2.7216 2.719 1.9889
minority -1.7949 -2.4796 -2.8778 2.6779 -2.205 3.0137 -1.0107 1.0731 3.5961 -3.1694 1.6462 1.763 0.67208 -1.629 1.8829 -3.3481 1.7005 -0.76926 1.8678 1.5889 0.88832 4.5644 0.95073 0.23493 -0.59596 6.1577 -0.37341 0.057321 -3.4384 0.79824 -1.5045 -1.3142 2.2233 -0.64071 -0.28838 -0.68294 0.14033 5.3409 2.853 0.11028 -2.2024 -1.1155 -0.43502 1.1238 -1.43 -2.738 -0.78579 0.51875 1.9819 0.4611 1.1319 1.2088 -1.0827 -0.41157 2.2315 0.17371 -1.0964 -1.4406 -1.7319 -2.8721 0.2401 -0.83378 0.57576 1.3443 1.4096 -0.11747 -1.2904 -0.27546 1.0479 0.91148 -1.7653 2.9666 -0.71775 1.0031 -0.14668 -1.2735 2.2338 -2.7845 -0.56442 1.805 0.95339 -4.3325 0.6051 0.33875 0.18777 -1.0624 -1.3754 1.348 -0.40401 0.75181 -1.3169 -0.070666 -1.3923 1.5228 3.16 -4.0899 -1.2845 0.17976 1.3221 0.14393
lad -3.3423 -4.5501 -0.8529 5.607 -1.9786 4.0343 -1.0077 0.26476 0.67897 -1.9122 3.7879 -0.90631 -3.2166 -1.2498 1.3156 -1.116 1.3151 -3.5715 1.4396 2.2947 -5.6042 -0.95665 1.1438 2.9391 1.6461 -4.0114 0.43549 2.9416 0.018077 -4.4163 -2.1193 -0.63728 3.0608 1.3174 -2.7719 -0.086115 -1.3704 -0.31453 -4.5232 -3.3048 -2.674 -2.9665 0.27789 0.57145 -3.0593 0.69572 1.0406 -1.5061 -3.5038 4.2981 2.7255 -0.45594 -0.80208 -5.7364 0.97174 2.5098 0.82908 -0.75952 -0.43934 -0.17284 -4.2128 1.4166 -0.17289 -2.1604 0.7823 -1.8784 -0.23503 2.9338 -2.3304 0.68979 -0.58875 1.1577 -1.7897 0.96554 2.3786 0.8565 -0.45032 2.3934 2.3945 0.29838 3.0214 2.7018 -4.9173 -0.75803 -3.5966 3.0407 -3.8782 0.82415 0.04925 1.7993 -0.015095 -4.8049 0.90638 -1.9635 4.8057 -1.0225 1.8746 0.12779 3.7286 -0.018721
thunderstorm 0.13785 -1.0742 0.72331 2.2949 0.24168 0.84013 -0.92652 -0.024084 2.0892 -2.7301 0.63538 1.6138 0.64151 -3.0449 1.412 -1.5507 -1.0546 0.77618 1.7324 1.6144 0.79361 0.43143 1.0182 0.72861 -1.4455 2.1813 0.71965 1.4401 -0.76794 -2.253 -1.9535 -1.2409 -2.143 2.7693 -2.1432 -2.1005 1.3772 0.78199 -0.78394 2.0514 0.020166 -0.021608 -0.16046 1.9262 -2.0059 1.5345 0.17755 -2.7354 -2.8484 -1.0368 -2.1292 0.31163 0.40382 2.4355 1.5839 0.98366 0.19103 -1.5414 0.44054 0.51605 -0.94284 -0.03484 0.013746 0.33052 1.1653 2.0185 0.029242 4.0241 1.3329 1.5421 -1.3408 1.6963 -0.35674 1.8062 1.8646 1.6991 0.34866 -0.6532 1.4502 1.4203 -0.12203 -1.8764 -1.4531 -1.2698 -1.6924 -1.5132 0.092821 0.70249 1.2554 -1.9693 0.75492 -1.5497 -2.5544 -0.75091 1.1409 -0.0044488 0.39429 0.522 0.74806 0.091011
collection -1.9398 -2.0195 -1.1568 2.5442 1.0484 -0.035883 -0.82515 -0.19443 1.8066 -0.34342 -0.23834 0.60259 1.5761 1.3442 3.1778 -1.3746 1.4616 -1.8425 2.4739 1.2677 0.38871 0.48139 -0.61548 -1.5844 -1.7465 3.2132 0.92635 1.4564 -2.9436 -1.7832 -0.23129 -0.3711 -1.7071 2.207 -1.2751 -0.97265 0.13503 3.2371 -1.0291 2.4999 -0.22325 -2.4517 0.68371 1.6331 -1.2822 -0.95518 1.5017 -1.8747 -0.94412 0.93789 -1.5545 0.76668 -0.40752 1.3359 0.86965 2.0025 -2.342 0.14792 0.73957 -0.14103 0.11633 0.33108 -0.23517 1.4784 0.49532 1.9891 -1.6259 0.95426 -1.5699 2.1477 -1.1392 2.4293 1.4248 5.1668 1.6097 -1.3812 3.0321 -3.0246 -1.5302 -0.4657 0.45493 -1.6131 0.83606 -2.3596 2.8152 -1.5746 1.0122 -1.1868 -1.2883 0.34266 0.16103 -0.37217 -0.98402 2.0973 2.2287 -2.6447 1.8145 1.4334 1.1288 0.46643
abuse 0.23206 0.45278 1.2139 4.9005 -4.4349 -1.0364 -0.7853 -2.116 2.8835 0.38021 7.9859 -1.4942 2.3339 -5.6124 1.8252 -1.7684 -0.3587 -0.21385 2.3361 -2.3251 4.0374 1.3748 -3.7411 -4.4203 -2.456 7.8245 0.93302 4.9927 -4.642 -0.21796 -5.5009 -5.002 -2.7296 -2.7459 2.6583 2.6147 3.8848 -0.52298 5.1529 0.21476 -3.91 -3.4 -3.3153 3.6301 -3.3348 2.5905 3.6184 -0.57833 3.6372 4.991 -0.42646 2.9399 -1.7556 1.5479 6.0643 -0.12393 -3.2026 0.25217 2.3254 -5.0245 -4.4104 -0.83452 1.5764 -0.6994 0.54208 -1.2237 -1.1506 1.9187 1.3615 -2.0898 -2.7063 4.1621 -0.0059549 4.5576 -2.4186 0.10459 0.70467 -2.2474 1.9537 0.38017 0.86231 -3.4891 -0.9389 -0.081423 3.5421 1.9518 0.40173 -0.93378 -1.2613 -0.77887 -1.336 -4.8121 -3.2536 1.853 0.64434 -6.6256 -0.3188 3.5495 3.7351 -1.7069
Yale -1.0746 -3.8291 1.0956 3.1045 -1.1847 0.34855 -1.1084 -2.5288 2.742 0.89917 1.4647 1.7912 -0.044594 -2.5591 6.1741 -1.6302 -1.9937 -1.1757 1.3143 0.1325 1.5335 -0.10218 2.8494 -4.3169 0.26032 -0.75523 0.97776 0.067149 -1.6778 0.22289 3.2982 -1.458 -1.2071 0.20012 -1.1527 1.4154 -0.52266 0.40986 1.5188 -1.8326 -4.9852 -2.4013 4.6019 1.8923 -3.2451 -3.091 1.387 0.36842 0.18302 -0.89043 -2.6917 0.68853 0.99675 0.44147 0.12457 -2.6235 1.8267 -0.16856 2.0469 -1.7697 -0.76361 4.5833 -1.4265 -0.32638 3.3155 2.9001 -0.035431 2.7726 -4.8543 3.4422 1.854 4.8817 -1.2185 -0.34752 0.12508 0.012638 1.6517 -6.681 -1.4559 1.498 0.26475 -0.97386 -0.46679 -5.2101 2.7783 -1.565 2.7921 1.813 -5.3458 -0.21133 -1.3022 2.8617 -2.02 0.020579 0.67825 0.040593 -2.3982 -0.059386 -3.9449 -2.2574
president -1.0699 0.68097 -2.1056 0.50146 0.89568 4.4392 -0.78467 1.084 0.24496 -1.0168 0.15524 -1.6656 1.3504 -1.9416 1.6958 -4.2049 1.2616 2.78 -0.44045 1.4737 0.15566 2.42 1.7108 -2.1978 2.1984 3.4534 1.1418 1.9889 -0.89732 1.5175 0.23789 -1.3836 -1.6066 0.14466 -0.882 -0.47348 1.587 3.1668 -2.2258 2.6408 -3.1922 -1.2993 -0.8838 1.6103 -3.3872 -0.94682 0.032948 0.7111 1.808 -0.6844 -0.7065 0.3886 0.93754 0.23147 2.1597 -0.44446 -0.47309 -1.0648 -2.3005 -1.56 0.28708 -1.7655 -1.8934 1.858 0.19164 -0.95169 -0.97675 2.8609 0.049197 2.3511 -1.3445 2.9426 1.0159 -1.5512 1.1053 -1.676 3.3566 -3.4733 0.48266 2.2426 1.178 -0.45779 -1.2617 -3.4877 0.58685 -0.7611 0.87838 -0.75739 0.061572 -1.5273 -4.3556 0.65761 -2.3055 0.12942 4.1931 -2.6029 1.1757 3.6829 -0.64908 0.62151
cabbage -3.4837 -3.3909 0.25528 2.9979 -1.777 0.14049 -0.86029 0.18366 0.46046 0.43606 0.37039 -0.68104 -0.14209 0.080626 0.8604 0.40039 -0.35308 -1.4138 1.1453 2.0423 -1.2234 1.4541 2.2399 -0.71689 -0.28595 0.54634 0.36566 -0.046834 -3.4788 -2.577 -2.3578 0.71194 0.20796 2.2592 -0.33362 -1.6856 -2.1508 2.0448 0.21934 -0.78234 -2.0036 -2.5642 1.6874 0.81835 -1.4474 -0.27474 2.154 -0.41065 -1.1977 0.32556 -0.92446 1.3259 -0.8305 -0.1124 0.45414 1.7628 -3.0677 -3.9676 -1.6885 -1.0194 -0.72451 0.2883 0.027203 -0.30256 1.5569 -1.0597 -1.2258 0.30756 1.394 3.0331 -3.271 -0.73281 1.6398 3.708 2.1108 0.99624 1.655 -2.3448 0.24887 -0.42496 0.57263 0.17032 -1.6717 -0.36499 -0.97933 -0.50576 2.8228 -0.66006 1.2491 0.11205 1.8114 -3.0277 0.25923 -2.1958 1.1366 -0.62667 1.0068 0.2199 4.2513 1.0655
law 2.0541 -7.0863 6.0587 13.068 -1.7921 8.2705 8.5462 -3.1357 1.7725 1.7503 6.3078 2.5802 7.1303 -6.0603 -0.26499 -5.2502 4.4911 -0.83413 -1.2241 -0.38221 3.0293 -0.2374 3.4055 -2.8049 4.4789 8.7481 7.6144 1.8999 -0.3332 7.2954 5.4679 1.3742 5.631 3.3351 -2.2088 6.7709 9.9046 0.41597 6.1114 -4.5839 -5.746 -4.4084 10.467 -1.2064 3.2029 2.1506 -5.78 1.0538 -1.1224 0.61844 -0.89327 9.0163 -4.8012 -2.0196 1.6576 -2.604 -0.19825 2.8206 -3.6081 -1.5236 -4.6238 -9.8758 1.9816 2.0756 4.8962 0.9433 -5.8202 6.6226 1.7877 10.922 -0.89206 3.3136 -0.53288 4.5911 -5.7354 -8.2622 8.5516 -12.857 14.159 5.7656 5.1866 -7.0076 1.6026 4.5142 -3.0653 -0.00072977 0.65988 -0.47372 -0.2533 6.7437 -8.5231 1.0452 -6.7189 11.205 7.8308 -7.0217 3.0183 0.97915 7.4567 1.791
man -1.453 -0.42598 -1.0054 6.7034 -4.4664 6.7615 -7.3822 4.4388 0.22946 -0.40821 11.615 0.12126 -1.0975 -8.8061 0.84074 -4.6675 -1.3455 -6.1959 -0.10901 3.2309 -5.5637 3.0612 -2.5236 -0.67816 4.5095 -1.4013 -0.99499 2.2507 -4.587 -5.4869 -5.1994 -2.6403 2.6668 -0.55371 -4.6158 1.8615 -0.016828 0.71983 -10.882 -4.6145 -1.7755 -7.4744 2.0474 6.3014 -5.0238 0.97623 1.913 -4.4617 -7.2843 3.9225 -0.50228 3.5339 5.3549 -3.7212 1.0779 1.9414 -1.6247 -0.010387 -0.38832 -0.73108 -6.9042 4.1992 0.40164 -1.3806 -0.29127 -6.0754 -2.4832 4.736 -3.8409 -1.8331 2.2901 8.4948 3.5205 -0.63812 5.4972 0.62998 4.4809 -5.7162 6.4581 3.6957 0.87305 0.35734 -10.184 -1.0821 1.0547 0.82536 -0.29529 2.6492 -2.2752 0.19868 -5.2161 -2.2013 -4.0957 -1.7853 7.3521 -4.2623 4.4464 -1.449 1.3204 -1.572
attempt 1.601 -0.38435 -3.5352 2.5208 -1.5905 3.3443 -0.66741 1.3402 4.9584 3.5878 3.8384 2.9772 1.2389 -5.1083 -0.97192 -0.73112 1.8968 2.877 0.96885 1.1734 0.55098 2.0052 0.86828 -3.8638 0.85328 2.197 -0.59066 0.8842 -5.8037 -2.2964 -1.6632 0.29296 -2.4191 0.85365 1.0172 1.0315 0.15404 -0.31803 -1.6256 3.541 0.46949 -3.4852 1.9894 1.821 -1.0127 0.23716 -2.238 -1.6096 1.1483 -0.49193 -1.6868 2.258 -1.4413 -1.2113 0.10415 0.37025 -2.7882 1.498 -0.43833 -0.29759 -0.43969 -2.179 2.7804 1.2515 -0.84895 1.9805 -2.972 0.65032 0.32971 0.20061 -1.1574 -3.3334 -2.0543 0.77961 0.20277 1.0345 0.96448 -3.678 2.1569 -0.11561 0.91109 -2.2782 1.1009 0.25021 -0.66575 -2.7865 -0.53268 0.16114 -0.23808 -3.4353 0.40342 -1.4663 -2.6099 -0.29038 1.579 -5.1003 1.9075 0.13721 -2.4085 0.43263
liquid -0.55274 -3.9476 -1.07 -2.1255 1.2598 0.16847 -0.1767 -0.48979 4.0875 3.6471 -1.6592 2.1035 4.4695 -0.67319 -0.61409 -1.6046 -1.1654 -1.0689 2.6321 0.8919 0.99269 0.45382 1.0206 -1.5098 -1.2604 -0.16759 -0.059026 0.11063 -2.8369 -1.7236 -3.757 0.50677 -0.88723 -0.97873 -0.61114 -3.5563 -1.2602 2.647 3.9201 -0.98551 -2.1639 -2.5263 0.58627 2.4009 -1.0232 -2.6382 1.8698 -3.2293 -0.67905 2.7282 -3.0136 1.5763 -2.483 0.70633 -1.7603 3.1125 -2.5301 -1.6454 -1.4768 1.0255 -0.07927 2.7697 -0.056612 2.2515 1.4244 0.79626 0.25615 0.24482 3.1022 2.1778 -1.2777 -0.84738 1.9741 5.394 1.4676 3.645 0.88485 0.099588 0.080396 1.0161 -1.1276 -0.45187 0.49656 1.241 -1.7302 -3.6596 2.6416 0.73343 -0.56677 -0.69568 -2.3433 -0.25466 0.31992 -0.10462 2.7214 1.779 1.3915 2.1284 5.3593 -1.9398
Mexico -2.467 1.7237 3.3336 2.5707 2.3025 0.94688 -3.1569 -1.6347 0.19576 -3.2524 3.1338 1.1554 -0.20087 -2.0143 0.56751 1.82 -1.2202 -2.8273 -1.1941 0.61372 0.66524 1.1215 1.2645 -1.9059 -3.0706 0.7508 -2.3657 1.5072 1.5434 0.12455 0.42373 0.50014 -1.1927 0.013323 0.51131 -2.5899 0.68963 3.9251 1.3562 4.4983 -0.73541 0.63353 0.70024 1.7474 -0.76076 -0.71903 -0.6607 0.046875 -1.653 1.0052 -1.4427 3.8065 6.3295 0.84082 1.2889 -2.2047 0.35867 -3.829 2.5692 2.5081 0.53522 -5.9007 -0.91941 -0.013595 -4.0419 -0.73423 -1.3243 1.2577 -1.7108 1.5792 -1.3937 -1.3062 0.042667 2.2981 -0.65645 0.27406 1.3552 -3.9992 0.085189 2.3974 -0.78882 -3.7757 -0.74754 -2.5567 0.34346 -2.5506 2.0189 0.2087 0.65589 0.44995 -1.4832 -0.23897 -1.079 -0.52391 0.29897 0.54515 -1.8461 2.1433 0.36469 0.58828
departure 0.058008 0.635 -2.1176 2.0843 0.047107 2.7085 0.011794 1.9266 0.40521 -1.4554 0.028485 -0.69949 0.72106 -0.21322 1.532 -1.1613 1.2563 1.9215 0.0027505 2.1528 1.5439 3.3451 -0.64415 -1.0558 -0.88641 1.5499 0.45265 2.6276 -2.7849 -1.181 0.8594 -1.8292 -2.4145 0.69709 -0.98702 0.95559 1.954 -0.76403 -1.2758 3.3864 -2.1853 0.64721 0.058381 -0.39922 -1.9961 1.0623 0.19579 -1.6251 1.6385 -0.87022 -3.1366 -0.23731 -2.9656 2.5709 1.4731 0.33883 -0.76614 -1.8508 -0.21637 0.16465 0.85332 -0.75508 0.2016 1.8412 1.385 1.8214 -1.9435 2.7694 -0.28406 0.55166 -2.1982 1.6641 1.2955 2.1031 1.3125 -1.5052 0.67089 -1.6744 -1.1579 2.1854 0.059926 -2.028 -0.26031 -0.44911 -1.2459 -2.1779 -1.1121 -0.87843 -0.1888 -1.8881 -2.5002 -1.2814 -1.9788 -0.079012 1.0681 -1.7138 0.81893 4.2222 0.70952 0.50978
shore -0.40462 2.2722 -1.5106 -1.9997 -2.6132 -2.165 -0.17148 -1.0411 5.7376 -4.9323 2.3181 4.1329 5.9384 -2.5264 -0.28169 -0.83452 -0.32592 0.035559 1.8972 3.1876 2.359 2.341 1.7475 -3.1179 0.23573 0.71036 0.19671 1.7279 -1.4348 -1.4683 -0.97461 2.2903 0.086063 4.4951 -1.8858 -6.9363 0.2127 4.8518 -0.98543 1.2744 0.81176 1.0121 2.8638 4.7461 -1.8712 -1.8201 1.5029 -1.5688 -1.5501 -1.214 -1.8794 -0.96469 0.51367 -2.1067 1.1504 4.242 -0.75924 -6.1694 1.833 0.69484 0.42327 -2.3558 -0.39782 5.6393 -0.42093 1.7045 -2.0395 2.1144 -0.60151 1.8799 -3.2147 1.1958 -0.74793 6.5988 2.2077 2.074 1.4466 1.614 1.2238 1.5451 2.3448 -0.098325 -4.9472 -0.17467 -0.27925 -0.74316 -0.86857 -0.18992 0.67974 -0.83536 0.29122 -1.4572 -2.9807 -2.1528 3.4448 -4.9321 1.9034 -0.31707 1.0826 0.17424
deposit -0.68449 -1.2563 -0.65653 -2.7858 -0.31029 -0.75574 1.5484 -0.24422 2.8443 -2.2719 -0.94316 1.0331 3.3756 0.39906 -2.0773 -1.1365 1.3869 -2.6987 0.089126 1.339 1.4088 2.2706 1.4123 -2.3793 0.98377 0.57591 -0.71165 2.072 -0.72795 1.198 -1.4314 -1.1665 -2.3168 0.93109 -1.5398 -3.8366 1.3917 2.1331 0.93762 -1.1779 -0.75647 -3.0078 1.0277 0.29676 -0.90188 -2.3913 0.20406 -2.3273 0.68253 -0.78094 0.76396 1.8374 -1.3543 1.1559 0.3603 -0.54941 -2.7097 -0.78673 0.24121 -0.25023 0.93699 1.2013 4.1913 2.4414 -0.40429 1.0054 -0.23174 1.7264 1.5777 1.0992 2.3664 0.31811 1.1592 8.0466 -0.18523 0.029166 1.323 -0.5362 -1.4516 -0.37684 -2.6694 -4.4982 -0.42907 2.4348 -0.72661 -0.20046 1.0612 -1.474 -3.4711 0.38128 -1.5469 -0.29889 -0.58975 0.43567 4.1901 -1.6035 1.6457 0.57684 1.8176 0.30554
egg -4.4759 -4.0774 3.5181 0.91027 -12.976 -1.5554 -0.37253 2.7587 2.5306 6.9393 -4.8067 4.3893 0.62736 0.29742 -1.9734 1.16 -1.3537 -1.4271 0.22887 0.96113 -3.7134 4.3074 6.9699 2.2052 1.2958 -0.97707 -1.4658 -1.8699 -4.2065 -2.1843 -0.053814 3.8033 -0.72938 4.8719 0.42229 3.8425 -4.5957 2.4299 -5.208 -7.2784 -4.6259 -8.4174 4.5777 -1.9781 0.36344 1.4417 1.1781 -4.3736 1.8868 1.0354 1.9143 1.3773 -2.3454 1.2168 -3.0928 0.39244 -8.1257 -0.90845 -3.8443 0.28495 1.4848 1.8938 4.6516 -2.6513 4.2504 -0.13068 0.29805 -0.71977 6.8134 0.90986 -3.5036 2.3299 1.8455 2.2196 -1.1388 3.1198 -2.423 -1.1077 0.21939 -5.853 -1.6121 1.4679 1.049 -0.02323 -2.6617 -0.36423 11.518 0.63988 3.3666 3.2908 5.6056 -1.6115 -4.7837 -8.2903 3.8612 2.0668 2.4198 -0.046484 5.317 0.65643
wine -4.4502 -6.8101 4.2489 0.42711 -0.13641 -1.1636 -0.12267 1.6102 1.9012 3.1081 -1.0617 -2.2062 1.8231 1.9624 -2.3965 -4.1474 0.48623 -4.7636 0.40925 0.95198 -4.0165 0.94668 3.4198 2.6606 -1.9059 -0.50723 -4.8968 1.0984 -1.359 -1.4712 -0.88127 2.5944 -2.1363 7.1473 -4.4098 -4.3023 -1.1236 6.443 0.29555 1.2113 -2.857 -2.3034 3.3078 2.2021 -3.5163 -3.9432 6.5579 -3.3198 0.92503 5.7793 -7.419 1.8006 -4.5823 -0.72732 -0.3552 1.6011 -3.1955 -2.679 -0.85278 -1.1562 -0.15199 -0.63217 0.6083 -0.19061 -0.94768 -0.38458 1.2107 -0.52468 -0.50167 4.3769 -5.8011 -0.93579 5.9606 5.7143 1.4907 2.8022 2.2885 -3.4709 3.5148 1.0225 -0.11396 1.0661 -3.0891 -3.4952 1.3517 -2.3133 1.0679 2.1149 0.36606 1.1255 1.9301 -0.7748 -0.05575 0.9511 -0.19241 -2.0924 -0.72624 0.1422 1.6863 1.6386
office -1.6779 -1.9909 -1.0597 -0.055146 -1.2737 1.4627 0.3774 1.1449 0.41464 -1.483 1.8543 0.39883 0.65025 1.1249 4.2098 -4.0577 -0.056957 -0.48286 0.92387 -0.74145 2.7236 2.8769 2.3542 -3.3827 0.075483 -0.63313 1.9627 3.929 -2.8958 3.6629 -1.9854 -3.093 -3.5886 -0.74462 -2.9924 3.7479 1.6203 5.582 -1.3095 1.7117 -0.346 -1.3312 0.35374 2.1525 -3.1165 -0.094944 0.96084 -2.0083 -0.87985 -3.4722 -1.7313 3.0075 0.5901 -0.81063 3.1757 -0.67656 -1.3524 -4.1722 0.44092 -0.42157 1.4653 -4.5597 3.7326 0.41373 0.43257 1.3826 -1.8089 2.1362 -1.5611 -0.32352 -1.6752 1.8528 -0.76121 1.8815 -0.04861 -2.8214 3.7353 -1.2722 3.2493 1.6931 1.4342 -0.00056784 -0.78467 -0.60088 1.5242 -1.2564 3.9644 -2.3554 -3.2232 -2.371 -4.8968 0.18664 -0.38663 0.1469 3.335 -2.1276 0.8625 3.0351 -0.33946 0.60339
rabbi -1.6736 -1.922 1.0534 3.5918 -3.5081 1.5152 -2.8391 3.2413 -1.6482 -1.1906 2.4242 0.42945 -0.39357 -1.8593 0.319 0.73008 -1.5806 -2.5597 -2.6067 4.9816 -3.4484 0.69583 2.1776 -4.0535 -1.8542 -0.20038 -0.01461 1.2127 -2.057 -0.67251 -0.19838 0.20635 -1.9948 -0.6514 -2.8779 5.9692 -3.3839 3.6099 -1.4439 -0.18544 -2.0905 0.12649 -1.3067 0.49594 -2.3395 2.6272 0.51055 -0.70468 0.2105 2.7737 4.32 3.0253 0.75925 -2.9629 2.0593 -2.2275 0.071706 -0.31103 -3.1923 -2.6613 -1.608 2.7806 -1.6335 -0.56513 2.662 -0.11096 0.54589 2.2291 -0.33616 -0.43976 1.4511 2.4279 1.0048 0.12902 -0.50522 -1.0106 1.0982 -4.7712 3.3027 -0.30027 1.0801 1.1604 -2.1324 -0.33813 0.54037 2.0864 0.92208 -2.6491 -0.078326 -0.38381 -0.20962 2.3772 -3.6404 0.31892 2.2594 -0.90951 0.63605 -0.64854 -1.5873 0.47618
entity -1.9444 -5.3149 -1.4638 1.1622 -1.3694 4.0934 -0.90326 -0.026669 2.4946 -1.7341 2.5728 2.0314 4.1503 0.58919 1.2421 -2.67 2.5959 -2.3809 2.1369 2.7382 0.76455 3.8398 1.2342 -2.7414 0.31086 7.1494 1.3459 1.2115 -3.5075 1.576 -3.2247 -0.13515 4.1956 -0.48403 -0.75722 0.91852 3.531 3.3855 1.7038 2.4674 0.93522 -1.6447 -1.7194 2.4074 -1.6505 -1.5168 -1.2584 -1.6124 1.6057 -1.7768 -0.99004 5.6075 -1.0128 1.8859 0.30209 1.8092 -2.1197 -0.4745 -3.0988 2.7117 1.0405 2.0357 2.5822 2.6149 1.7111 0.090661 -2.0659 0.9959 -0.54534 3.3487 -0.17267 4.3181 1.3754 4.9862 -0.93157 0.79934 1.6656 -4.8294 0.20326 2.0127 0.15293 -5.1705 -0.83049 -0.55633 -0.78285 -4.2044 2.9633 -0.50821 -0.54696 0.50573 -0.24866 1.0398 -2.579 4.2975 7.8876 -3.652 1.9999 2.6786 1.8304 -0.4307
attitude 1.197 -1.6693 -2.0184 2.7076 -3.5223 2.7914 -1.5967 0.69141 1.6247 -3.5328 3.732 -0.45653 -0.11401 0.29679 1.3884 -2.4386 3.9011 1.8287 -1.1569 0.93268 -0.95059 -1.0031 -0.50663 -1.5999 -0.26671 0.94155 -0.18982 -0.62175 -0.69449 -1.4382 -0.2554 -1.3083 1.9264 1.1164 -0.1117 1.1773 0.53435 0.56056 -0.77428 0.89934 -1.6835 -1.4592 0.3274 0.072975 -1.7133 0.0024633 1.4657 -0.42264 1.9445 1.8507 -2.9766 0.022697 -1.0079 -0.071375 1.0639 3.1349 -2.6287 -0.12182 0.91079 -1.9097 0.39174 -0.51438 -0.66039 0.81395 1.3021 0.30468 -0.52193 2.7586 -1.6418 3.0831 -0.42129 0.79822 0.30586 0.69384 -0.11584 -0.40612 -0.23871 -2.3791 0.63144 2.0587 1.253 -5.1367 -1.3659 -0.70051 -0.55672 -0.56876 -0.19557 1.9415 0.23067 -0.71108 0.876 -2.7558 -1.6352 1.4042 2.7369 -0.85651 0.79228 2.3071 1.1192 0.58374
