439 300
similarity -0.30862 -0.35551 -0.14787 -0.2245 -0.091382 -0.26995 0.16066 -0.038831 -0.12226 0.28608 0.17689 0.20356 0.29472 0.14168 0.11399 0.044578 0.31194 -0.44862 -0.42358 -0.34529 -0.0046428 0.2726 -0.24942 -0.14512 0.502 -0.085801 0.14097 0.2143 -0.17968 0.071856 0.29146 -0.25305 0.37175 0.11881 0.34085 0.064049 -0.33958 0.16259 0.15981 -0.19821 -0.31411 0.15955 -0.23126 -0.16446 0.12788 -0.40521 -0.23059 0.054828 -0.1276 -0.11241 -0.059604 0.14817 -0.069561 0.020567 0.34883 -0.28318 0.27355 0.14183 -0.019713 0.078075 0.04965 0.514 -0.20553 -0.32741 0.00050896 0.18275 0.07415 -0.04321 0.23471 0.19584 -0.16358 -0.026821 0.035894 -0.00089904 -0.14035 -0.040515 -0.1716 -0.26464 -0.2445 -0.12511 0.068017 0.076455 0.12633 0.23801 0.026798 0.14063 -0.24992 -0.020716 0.19168 -0.45567 -0.088948 0.15134 -0.25682 0.12589 0.31018 0.15123 0.28301 -0.30948 0.0065767 0.33499 0.15449 0.095959 -0.20984 -0.12706 -0.037335 -0.14511 -0.21506 0.21374 0.30618 -0.061891 0.0088309 0.32805 0.019545 0.04404 0.26819 0.20481 -0.058646 0.19792 0.13092 0.067342 0.0016546 -0.15852 -0.30692 -0.092229 0.088687 0.050571 -0.17353 -0.49384 -0.28026 0.30757 -0.10234 0.29951 0.13903 -0.28343 0.24845 -0.3748 -0.15495 0.19153 -0.21511 0.034983 -0.15378 0.15378 -0.12501 0.16406 0.14626 0.28324 -0.0046682 -0.046576 0.11336 -0.019135 0.1371 -0.24054 0.12253 -0.24534 -0.16155 -0.44392 -0.14496 0.10248 -0.16126 -0.33472 0.29699 -0.0009117 0.092494 0.2912 0.020429 0.40501 0.27809 0.38442 -0.12266 -0.16952 0.19973 0.18116 -0.26278 -0.16218 0.1289 -0.051801 0.33197 -0.22168 0.0079281 0.18657 0.15505 -0.037131 -0.16523 0.066653 0.053443 -0.15168 0.16564 0.28202 -0.16325 0.29767 -0.1576 -0.47541 -0.31182 -0.26602 0.087122 0.13966 0.31962 -0.21809 0.010102 -0.25723 0.14179 0.14895 0.22415 0.024127 -0.15513 0.002516 -0.13347 0.53919 -0.027457 -0.29118 0.2053 0.2473 0.31316 0.38104 -0.5368 0.0050046 -0.027984 -0.21894 0.004749 -0.048643 -0.089145 0.076204 -0.19451 -0.043768 -0.1899 -0.15444 -0.034957 -0.0090178 -0.3137 0.17442 -0.061424 -0.14254 0.28043 -0.25091 0.18296 -0.29392 -0.14054 0.22396 0.033592 -0.2914 0.19098 0.29284 -0.2207 0.28281 0.28109 -0.36255 0.038663 -0.030804 -0.1557 0.075228 -0.050534 0.10107 0.28347 0.59334 -0.22089 0.25516 -0.096512 0.0059177 0.45309 0.11548 0.058106 0.24621 0.20033 0.10285 -0.19148 0.48128 -0.24997 0.41845 -0.11307 0.22081 0.040001 0.035819 0.2826 0.017359 -0.13542 -0.16999 -0.30928 -0.22603 -0.20832 0.15838 0.32714 -0.18493 -0.1544 0.12922 0.28541 0.078276 0.17792 -0.078347 -0.075652 0.14513 -0.2221 0.17765 -0.058656 -0.52699 -0.20822 0.20602 -0.24417 -0.31302 0.18356 -0.056377
dollar 0.46183 0.17495 0.21602 -0.20453 0.11098 0.067034 -0.015043 -0.036736 0.21114 -0.092036 -0.0060087 -0.1585 0.0051458 0.18899 0.38154 -0.17764 0.33217 -0.38934 -0.21144 -0.37082 0.16515 -0.062728 0.17351 0.0019099 0.25014 -0.002739 -0.31763 -0.023302 0.11261 0.13966 -0.027654 -0.72953 -0.0091549 -0.044193 -0.2 -0.077228 -0.14459 -0.26307 -0.15311 0.028081 -0.070517 0.1223 -0.32337 0.4752 0.44602 -0.13719 0.28952 -0.042902 -0.18567 -0.25947 0.3159 -0.069765 0.099746 -0.22028 -0.13579 -0.37023 0.0018913 0.30811 -0.21539 -0.16539 -0.066717 -0.040569 0.43086 -0.26432 0.077892 -0.299 0.14279 0.36049 0.28541 -0.050787 0.20546 -0.2025 0.18255 0.091546 -0.16863 -0.20633 -0.3848 -0.24093 -0.11234 0.27789 -0.052462 0.23804 -0.095725 -0.69046 0.35128 -0.13674 -0.35471 0.10185 -0.0129 -0.14195 -0.32072 0.16106 -0.049691 -0.49992 -0.17546 0.25997 0.10128 -0.34421 -6.1518e-05 0.29497 -0.43768 0.16003 -0.23646 0.045402 -0.48799 0.0237 0.054102 0.26456 -0.19403 0.15787 0.018015 -0.35771 -0.056352 -0.12726 -0.24192 0.25754 -0.73255 -0.63476 0.068126 -0.033832 -0.1604 -0.15772 -0.017735 0.065167 -0.046112 0.18869 0.48208 0.21734 -0.1233 0.1864 -0.13513 -0.19187 0.20831 0.48086 0.1066 -0.039557 0.44746 0.16082 0.070045 -0.16686 0.472 0.30949 -0.12971 0.014752 0.56796 0.0039128 -0.10685 0.14833 0.4939 0.18936 -0.39923 -0.63833 0.12821 -0.21032 -0.3582 0.027313 -0.10781 -0.25237 -0.35206 -0.3043 -0.16024 -0.26954 -0.11042 -0.049479 0.39053 -0.093726 0.041241 0.43772 0.020052 -0.24104 0.54759 -0.26663 -0.33214 0.16554 -0.052355 -0.23123 0.38338 -0.0077656 0.39765 -0.0047841 -0.053215 0.025258 -0.08454 -0.12942 -0.021099 0.17222 -0.089976 0.010759 -0.38514 0.10163 0.24416 -0.51989 -0.50686 -0.21128 -0.084697 -0.32103 -0.63689 -0.60827 -0.36623 0.03744 -0.039912 0.081928 0.29428 -0.068625 -0.50406 0.038692 -0.47644 -0.33727 -0.35824 0.076491 -0.060827 0.032707 -0.12809 -0.4807 -0.10485 -0.2704 -0.19676 -0.15807 0.36018 0.21809 -0.21698 -0.018 -0.54262 -0.28062 -0.34824 -0.1422 -0.12246 0.11388 0.39234 -0.095611 -0.063797 0.034648 0.10919 -0.12607 -0.15951 -0.40779 0.031093 0.24564 0.35643 -0.16444 0.14599 -0.050105 -0.25576 0.16046 0.40856 0.42324 0.23707 0.28396 0.6915 0.3694 -0.25877 -0.073238 -0.22103 0.099792 0.21579 0.024795 -0.009726 -0.15638 0.081549 0.26368 -0.19728 0.15822 -0.46502 0.7232 -0.22372 -0.080348 -0.29424 0.17803 0.45028 0.015629 0.2112 0.3183 0.10743 -0.46017 -0.066942 0.23538 0.43245 0.63901 -0.27969 0.059292 0.16735 0.38969 -0.11975 -0.22303 0.12499 0.35391 -0.26721 0.23292 -0.19069 -0.0075819 -0.28468 0.049103 0.15214 0.084193 -0.41747 0.29784 -0.081657 -0.075865 0.3347 -0.054241
focus 0.031447 0.11478 -0.31417 -0.42514 0.19237 0.15784 -0.035175 0.061928 -0.090338 0.10558 0.06594 -0.15858 -0.11328 0.41701 0.14294 -0.025088 -0.18469 -0.50522 -0.097842 0.02154 0.0088332 -0.012562 0.14821 -0.1561 0.036825 0.10358 0.47902 0.15621 -0.091094 0.035368 0.1604 -0.33464 0.029466 -0.16882 0.090852 -0.046808 0.11625 0.066413 0.50702 -0.030829 0.082778 -0.17993 -0.067383 0.046203 0.045119 -0.015117 0.094647 -0.27854 -0.29428 -0.24855 0.096632 -0.2442 0.034644 -0.19342 0.50627 -0.21892 -0.39424 0.083105 0.048131 0.054455 0.15541 0.23749 -0.024284 0.13012 -0.10982 -0.16246 -0.31705 0.16598 0.31612 0.038811 0.13293 0.0066266 0.10549 0.021564 -0.10358 0.093665 0.0069075 0.12484 0.040127 -0.11014 0.071068 0.23864 0.24059 -0.23911 0.19029 0.00032209 -0.37425 0.27193 3.2592e-05 -0.36661 0.09457 0.27876 -0.01962 -0.012608 0.16521 0.10074 0.1183 -0.2713 -0.094815 0.041146 -0.0073213 0.1216 -0.18458 0.01263 -0.10567 0.48841 -0.11789 -0.049838 -0.27829 0.055461 0.23582 -0.24259 -0.3064 -0.16954 0.23663 -0.054447 0.48821 -0.040684 0.056876 0.19482 0.10215 0.065671 -0.020844 0.12241 0.083531 -0.22306 -0.057246 0.047494 0.069534 -0.036745 0.44735 0.13531 0.16535 -0.14665 0.38093 -0.11888 -0.1399 0.19784 0.22747 -0.19711 0.15926 0.29913 -0.037904 0.15248 0.076549 -0.26425 0.056769 0.14727 0.45805 0.095071 -0.011824 -0.14845 0.072689 -0.25434 -0.21375 -0.17413 -0.058109 -0.32365 0.1402 -0.031319 0.012331 0.04147 -0.29148 0.10464 0.06565 0.23165 -0.080481 0.10613 0.11959 -0.19488 0.1673 0.17602 -0.11031 0.15006 -0.036643 -0.087508 0.17278 -0.023962 -0.27495 -0.4346 0.13063 0.12092 0.057798 0.065858 0.079175 -0.058674 -0.030448 -0.19487 -0.18013 0.058956 -0.054239 -0.2386 -0.15795 -0.14185 0.14677 0.09962 0.24036 -0.23532 0.16534 -0.15926 0.24257 0.53177 -0.031903 -0.16967 -0.037688 -0.24369 -0.098632 0.035996 -0.3207 -0.23644 0.10963 0.12473 -0.28527 -0.24475 -0.35073 0.22732 -0.20464 0.053187 0.092432 -0.29542 -0.32945 0.092917 -0.075848 -0.036325 -0.14184 -0.28098 0.080885 0.16431 0.34991 -0.39326 0.18339 -0.18405 0.072032 0.17097 0.10575 0.035567 -0.043394 -0.085364 -0.073582 0.093076 0.031266 0.32785 0.010996 -0.01811 -0.081201 -0.18602 -0.00039359 -0.2146 0.13424 -0.012295 -0.25415 0.11822 0.33537 0.13909 0.037533 0.22171 -0.13971 -0.14399 -0.057142 -0.015636 0.066538 -0.48676 0.43313 -0.10405 0.10953 0.12272 -0.057154 0.16671 -0.16354 0.076429 -0.031749 0.14729 -0.13494 0.23869 0.26734 0.18128 0.044935 0.15025 0.14801 -0.20392 0.28047 0.194 0.34536 0.088611 -0.11368 -0.0011871 -0.010144 0.14052 -0.18483 0.020632 -0.043687 0.27391 0.071313 -0.12198 -0.33689 0.14464 -0.056544 -0.16416 -0.02364 0.017154
month 0.43697 -0.019362 0.047344 -0.1997 -0.17369 0.038962 -0.13908 0.18118 0.02178 -0.11089 -0.15305 -0.046101 -0.019333 0.022907 0.11622 -0.28347 0.21341 -0.13445 0.061844 0.021379 0.2083 0.12093 -0.020728 -0.32299 -0.044899 -0.13361 0.036148 -0.0054479 0.10142 -0.088902 0.13949 0.27314 0.43679 -0.21115 -0.0042828 -0.10637 0.10667 -0.16823 -0.17197 -0.29619 -0.092704 0.33885 -0.15485 -0.052871 0.084705 0.015924 0.10727 -0.21123 0.1829 0.35351 0.14283 0.0034534 -0.26028 0.040463 -0.0094496 0.13834 0.14476 -0.35028 -0.055598 -0.29266 -0.078774 0.018434 0.025494 0.024428 -0.12967 -0.21544 -0.026506 -0.23414 0.37227 -0.22204 -0.18894 -0.4843 -0.045427 0.081811 -0.12478 -0.027499 -0.20825 0.16353 0.026807 0.17186 0.036018 0.092835 0.26885 -0.090697 -0.0090963 0.23476 -0.10476 0.29983 -0.0033294 -0.32046 0.1724 -0.23357 0.078352 -0.007707 0.062916 -0.12074 0.17717 0.17067 0.010885 -0.177 -0.28988 -0.22643 -0.43264 0.12846 -0.0198 0.26847 0.15511 0.048201 0.035844 0.33877 0.083017 0.2347 -0.14491 -0.18971 -0.19583 -0.10405 0.19459 -0.29086 -0.073716 0.168 -0.19659 0.20834 0.15772 -0.26351 0.04878 -0.064126 -0.038304 0.02874 -0.19097 0.12463 0.13365 0.32108 0.081491 0.25568 0.14726 0.098926 -0.087428 -0.052729 -0.18689 -0.40502 -0.12507 0.15918 -0.1652 -0.042009 -0.0664 0.0061761 0.089463 0.012643 0.39064 -0.087214 0.085418 0.097025 0.14668 -0.010762 0.069707 0.014848 0.023427 -0.0019104 0.022073 -0.016569 -0.26602 -0.072116 0.018991 0.33147 0.086712 -0.13502 0.023223 0.27104 0.028768 -0.35714 0.20967 0.00076613 -0.10463 0.23676 0.056078 -0.026724 0.00086445 -0.086091 -0.13951 -0.062403 -0.38636 -0.098818 -0.070573 0.035676 0.18197 0.10787 0.055566 0.25542 -0.13559 -0.099815 -0.10397 0.069709 -0.31245 -0.084012 0.26786 -0.033944 -0.090047 -0.18059 -0.0055542 0.16401 -0.3133 0.060049 0.24543 0.025782 -0.23654 -0.0058306 -0.28765 0.038906 0.043706 -0.12211 -0.28402 -0.33562 0.064962 -0.18334 -0.13173 -0.03814 -0.088255 -0.11865 0.10682 0.01823 0.2064 0.43279 -0.11054 -0.03819 -0.19548 0.0060287 0.17646 -0.39286 0.33005 0.046073 0.11079 -0.16741 -0.087592 0.23997 -0.034144 -0.19872 -0.14653 0.19933 -0.039896 0.012056 0.12996 -0.29025 -0.00087759 -0.21363 -0.13216 -0.058299 0.26634 0.0093606 0.0044057 0.12419 -0.050705 0.027137 -0.26633 0.0084646 -0.20637 -0.10356 -0.25131 -0.17199 0.32797 -0.16696 0.17156 -0.071031 0.043676 0.08758 -0.031261 -0.038279 -0.14903 0.1907 -0.022169 -0.2162 0.15162 0.097179 0.13718 0.078088 0.10827 -0.38821 -0.040428 -0.35703 -0.070566 -0.11889 0.16567 0.0099433 0.10266 -0.078336 -0.035631 0.15104 -0.23279 0.22604 -0.05251 -0.068605 -0.11097 0.40118 0.12009 -0.11003 -0.1316 0.31177 -0.237 0.0019551 -0.10753 -0.011898
mile -0.087681 0.064931 0.29299 -0.10578 -0.34085 0.12192 -0.16668 0.03977 0.36906 -0.11368 -0.13619 0.058309 0.28499 -0.24476 -0.16028 -0.041939 0.22433 -0.038153 -0.21145 0.027496 0.53493 -0.27797 0.12754 0.12798 0.090512 -0.43313 -0.13413 -0.12737 -0.22565 -0.23614 -0.03743 0.055321 0.21696 -0.33618 0.18271 0.24507 -0.37043 -0.16729 0.2143 0.032989 0.28955 0.0012982 -0.36223 0.11794 -0.12079 -0.16991 0.067133 -0.19982 0.25292 -0.14681 0.36696 0.013102 -0.25237 -0.18117 0.22807 -0.08956 -0.19909 0.058109 -0.55527 -0.045298 0.10343 -0.20505 -0.20759 -0.63064 0.28137 -0.071468 -0.03573 0.28905 0.2165 -0.18427 -0.060371 -0.25264 -0.10071 -0.24727 0.10367 -0.4712 -0.023929 -0.0072833 0.17619 0.17221 -0.036272 0.064299 -0.47581 -0.16067 0.0097954 0.12062 0.056745 0.10357 0.031183 0.089769 0.37587 -0.14873 -0.075628 0.45684 -0.01754 0.34048 0.62517 0.0042003 0.36338 -0.048708 0.0262 -0.32233 -0.4214 0.0888 -0.23239 -0.145 0.12116 -0.39208 -0.26954 0.07561 -0.055773 -0.11443 -0.24736 0.076575 -0.12007 0.042237 0.10951 0.22256 -0.35655 0.095892 -0.072747 0.034767 0.1763 -0.31073 0.36527 -0.1639 -0.16283 0.30267 -0.29043 0.36182 0.24395 0.18206 0.088485 -0.023769 -0.15072 0.17022 0.16842 0.49094 0.41941 0.026226 -0.27574 0.33671 0.22857 0.096054 -0.070129 0.28694 0.09886 -0.47874 0.19176 -0.17299 0.065052 0.05193 0.14443 -0.31527 0.11022 0.053757 -0.057255 0.036482 -0.16603 -0.11587 -0.037472 -0.18046 0.15431 -0.044258 -0.060261 -0.078708 -0.047383 0.28347 -0.15082 0.13552 -0.063836 -0.44751 0.40279 -0.060406 0.067889 -0.32653 -0.2589 -0.15214 0.034368 -0.17999 -0.11046 0.099751 0.29889 0.31578 -0.19066 0.01187 -0.2286 0.4108 -0.31056 -0.1377 0.024132 -0.15565 -0.04244 0.059979 0.26284 0.10992 -0.32103 -0.030708 0.16069 0.041639 -0.3303 0.087843 0.45214 0.098389 -0.23559 -0.43967 -0.05609 -0.39714 -0.089463 -0.43095 -0.77442 0.017027 -0.0023949 0.43527 0.18768 -0.27488 0.034891 -0.51642 -0.50023 -0.42154 -0.29402 0.033953 0.097644 -0.1189 -0.0279 -0.57994 0.1335 0.32175 0.1392 -0.47083 0.22663 -0.087144 0.17383 -0.30698 0.19797 -0.21805 -0.39874 0.45953 0.038008 -0.43277 0.17611 -0.281 -0.0024975 -0.13574 -0.379 0.067591 0.049457 -0.24311 0.29237 0.26029 -0.1466 0.47761 0.048255 0.16766 0.019881 -0.38287 0.36505 -0.77217 -0.22533 -0.35144 0.19136 0.32916 -0.10052 0.58015 -0.045887 0.19562 -0.091507 -0.028883 -0.4426 -0.28538 0.41662 -0.18982 0.32759 0.081273 0.25603 0.10652 0.11613 -0.11802 -0.078185 -0.0031024 0.17219 0.21126 0.44256 0.23247 0.41245 0.14186 -0.23308 0.36537 0.20458 -0.04319 -0.2441 0.21937 -0.019042 -0.21915 -0.12563 0.19841 -0.19559 -0.16234 -0.211 -0.26267
computation -0.10744 0.17518 -0.30831 -0.6153 -0.21822 0.0968 -0.21259 0.29415 0.11217 -0.23006 -0.44962 0.56554 0.33915 0.18831 -0.0078916 0.066965 -0.042883 -0.33683 0.1938 -0.30247 0.0322 -0.19708 -0.17349 -0.15957 -0.35817 -0.10349 0.30777 0.14665 -0.41401 -0.029517 0.52778 -0.28341 -0.021256 0.23383 0.054748 0.13896 0.044245 0.31131 -0.12164 -0.097482 -0.26073 -0.022147 0.28058 -0.03115 -0.0026522 -0.29047 -0.08524 -0.36841 -0.24958 0.39581 0.10608 0.13155 0.2492 -0.11904 0.023635 0.18505 0.00077276 0.2077 -0.0031084 -0.094311 0.12709 -0.2123 -0.22473 0.088643 -0.29971 0.4581 -0.66373 0.3916 0.07309 0.025713 -0.073029 0.0060019 -0.38757 -0.12597 -0.056988 0.09766 -0.48748 -0.40409 0.38125 -0.28205 -0.066894 0.10233 0.11824 -0.17629 0.0041499 0.14603 0.069812 0.23037 0.052889 -0.28647 -0.14903 0.29622 -0.47305 -0.15663 0.15986 0.18813 0.21795 -0.51242 -0.17668 0.12758 -0.035823 0.080448 0.10745 -0.091865 -0.12989 0.18217 0.23849 0.11192 -0.2551 -0.45646 0.080631 0.17863 -0.18449 -0.31835 0.37737 0.15893 0.026544 0.44163 -0.063965 -0.29702 0.45463 0.1204 -0.19125 0.015023 0.22872 0.13781 0.5296 0.21048 -0.02256 0.14343 0.09048 -0.072011 0.052617 -0.17264 0.59355 0.079989 0.14151 0.074559 0.43511 -0.36818 -0.038756 0.4568 -0.033428 0.087114 0.26952 0.086445 -0.1332 0.19783 0.29183 -0.024079 -0.1301 0.11357 -0.24219 0.16025 -0.12448 0.22127 0.088229 0.17851 0.20904 -0.45887 0.30404 -0.24537 0.42967 0.23671 -0.2031 0.33334 0.01541 0.15136 -0.25146 0.096952 0.2945 0.10311 0.23866 0.0055072 0.31947 0.035635 0.22747 0.12949 0.0095648 0.069524 0.20159 -0.13824 -0.007455 -0.15406 0.26606 -0.079294 0.38575 0.31147 -0.034544 0.028713 0.4088 -0.26769 -0.1027 -0.14559 0.10611 0.11513 0.0051885 0.18422 0.13241 -0.55117 0.066604 -0.25557 0.34571 -0.16845 -0.24988 -0.065123 0.3385 0.1311 0.04783 -0.31635 0.014919 0.28267 -0.17175 -0.081489 -0.39981 0.096217 -0.18714 -0.27685 -0.047729 0.012996 -0.063629 -0.012177 -0.043743 0.15396 -0.24443 0.09665 -0.12104 0.082452 0.12175 0.25574 0.022409 0.33706 0.53223 0.078835 -0.090112 -0.30358 -0.29104 0.15006 0.037665 -0.078879 0.079956 0.0066163 0.21116 0.18117 0.095187 -0.26774 0.15802 0.33586 0.029907 0.55258 0.00021101 0.62163 0.014311 -0.031515 -0.50663 0.11855 0.24856 0.021206 0.27042 -0.16878 0.39633 0.37833 -0.0012065 0.0078332 -0.15519 0.19186 -0.36924 -0.058159 -0.28172 0.047466 0.061105 -0.23438 0.070947 -0.013923 0.031675 0.25376 0.23729 0.28547 0.26163 0.3317 0.08394 0.055916 -0.26604 -0.19165 0.43967 0.11659 0.41588 0.162 0.073141 -0.012298 -0.53148 0.15916 0.04403 0.054729 -0.33494 -0.18401 0.10486 -0.035088 0.19287 0.086718
skin -0.48877 -0.082489 -0.29457 -0.44313 -0.29138 0.23138 0.14704 0.4008 -0.037274 0.46383 -0.30801 0.64635 0.078793 0.22459 -0.1538 -0.033781 -0.20214 0.15286 -0.59919 -0.4185 -0.15397 -0.17263 -0.12145 0.087548 -0.46013 -0.097276 0.1465 0.19923 -0.057025 -0.46146 0.45072 -0.28167 0.046745 -0.01245 -0.49762 -0.12811 -0.2367 -0.34673 0.32659 0.39323 0.14046 0.47414 0.054254 -0.087882 -0.22392 -0.10587 -0.22754 0.20155 -0.25177 -0.043031 0.51395 -0.20265 0.14556 -0.013747 -0.034674 -0.416 0.1318 -0.11594 0.36987 -0.082689 -0.056048 0.11105 0.057046 -0.32219 0.15317 0.063164 -0.2939 0.18086 0.18658 0.036818 -0.18403 0.089357 -0.27102 -0.1317 -0.28102 -0.091843 -0.72504 0.22371 0.11059 -0.24188 -0.27375 0.53213 0.027392 0.29266 -0.044419 0.20855 -0.11774 0.27087 0.07998 -0.13484 -0.18337 0.00036132 0.064584 0.24626 -0.026062 0.15057 0.27677 0.26641 0.022406 -0.073255 0.0088707 -0.015038 -0.12033 0.01126 -0.049046 0.20068 0.078329 0.34582 -0.41772 -0.11804 0.23171 -0.64568 -0.30683 -0.25451 0.075959 -0.089018 0.36206 -0.089846 -0.31713 -0.21324 -0.054205 0.33519 0.34407 0.12624 0.14036 -0.023664 -0.26018 0.34668 -0.20568 -0.35488 0.15238 0.35529 0.33344 0.11171 0.22942 -0.52126 0.13747 -0.094512 0.38425 0.18157 0.060901 -0.1597 -0.19593 0.45681 0.012583 -0.061601 0.53806 -0.54379 0.20554 0.2816 0.23386 -0.49704 0.38531 -0.10987 -0.20451 -0.16299 -0.19729 -0.085014 -0.03561 -0.46003 0.15972 0.092019 -0.0322 -0.48723 0.67887 -0.35101 0.28106 -0.032344 -0.08721 -0.17648 0.40127 -0.018242 -0.19612 -0.377 0.17363 -0.10976 0.36894 -0.2693 -0.29659 -0.34153 0.031676 -0.27135 0.1621 -0.20553 -0.1605 0.32453 0.23798 0.25834 -0.031298 -0.083822 -0.072546 -0.29804 0.083388 -0.099603 -0.35706 0.021472 0.078644 0.10805 -0.27082 0.089139 -0.15607 -0.14561 0.0075221 0.18513 -0.12158 0.185 -0.069108 0.23104 0.11468 -0.012134 0.030825 0.22607 0.035459 -0.082006 -0.14223 -0.13165 0.14334 -0.43517 -0.33882 -0.22661 -0.077607 -0.13161 -0.53375 -0.19608 -0.52181 -0.36592 -0.37206 0.18573 -0.20427 -0.086962 0.15531 -0.020962 0.12016 0.19255 -0.060272 -0.071073 -0.20887 0.099593 0.17027 -0.08838 -0.13518 0.13828 -0.12767 -0.12745 0.25982 0.25895 0.064836 -0.054826 0.07123 0.23247 0.14938 0.034282 0.28293 -0.17128 -0.1088 -0.11477 -0.019935 0.023734 -0.10449 0.15918 0.062867 0.31387 0.59725 -0.072661 -0.067175 0.018671 -0.44849 -0.30718 0.068253 0.047959 -0.27849 0.10413 -0.020983 -0.27106 0.043546 0.043143 -0.22584 0.3158 0.073756 -0.19749 0.35359 0.41007 0.23736 0.18528 0.41109 0.23967 0.36068 0.055 -0.056756 0.072573 -0.4888 0.04824 0.39598 -0.037993 -0.33816 0.17112 -0.10291 -0.29014 -0.022507 0.22541
children -0.12227 -0.27484 -0.070878 -0.60389 -0.014344 -0.019987 0.266 -0.030485 0.21586 0.15329 0.016266 0.54027 -0.10905 0.33474 0.021499 0.37842 -0.097533 -0.073354 -0.034018 -0.325 -0.57068 0.086636 -0.24248 -0.017262 -0.35755 -0.027224 0.15656 -0.30555 -0.24317 -0.099163 0.06781 0.051964 0.033128 0.25609 0.039766 -0.13144 0.086818 -0.14186 0.10967 0.32457 -0.14244 0.059837 0.083607 -0.10969 -0.072927 0.089567 0.056139 -0.063714 0.020352 0.066685 0.073783 0.023561 0.28458 0.047599 -0.068362 -0.076944 -0.2535 0.28528 -0.30946 -0.04805 -0.027375 -0.026374 0.10461 -0.50963 0.093981 0.31589 0.037281 -0.18462 0.29311 -0.045719 -0.48965 0.096494 0.15739 0.22676 0.070672 -0.21295 -0.35844 0.52904 0.21482 -0.047755 0.3613 0.041861 -0.12056 -0.086559 -0.23043 -0.25278 -0.31411 -0.12205 -0.15014 -0.37296 0.14286 -0.093151 -0.24492 -0.18364 0.013398 0.31132 -0.058151 0.10734 -0.14072 0.19281 -0.048125 0.1471 -0.43655 0.15276 -0.20926 -0.26551 0.001968 -0.20527 0.06724 -0.12357 -0.25123 0.044374 -0.37645 -0.19335 -0.051553 0.18641 -0.15879 -0.15616 -0.20948 -0.25166 -0.022494 0.27893 0.096574 0.13537 0.096211 0.060363 -0.39343 0.10742 -0.14586 0.20378 0.031343 -0.051796 0.27381 0.04352 0.17434 0.17723 -0.032853 0.21962 0.0051629 -0.020724 -0.20287 0.42686 -0.34605 -0.11414 -0.2412 -0.14485 -0.019004 -0.25802 0.28436 0.20196 0.35317 -0.40002 0.03975 -0.39161 -0.28051 0.16227 -0.035313 -0.090464 0.037825 -0.062569 -0.084288 -0.053212 0.1136 -0.24275 -0.049895 0.018436 -0.12032 0.1983 -0.36747 -0.1094 0.29113 -0.23844 -0.14699 -0.16165 0.033025 -0.031644 -0.027274 0.016142 0.15951 -0.0033315 -0.079808 -0.22637 -0.34709 0.21059 -0.022078 -0.026461 0.083777 -0.075133 0.030257 0.16916 -0.032817 0.5063 0.0046548 0.036335 -0.34205 0.10536 -0.00093152 -0.0022346 0.16621 0.095752 0.29035 0.12101 0.075479 -0.024501 -0.089804 -0.24972 -0.35291 -0.23215 -0.06702 0.077653 0.11048 -0.086452 -0.053302 -0.1331 -0.25772 -0.046229 0.0003798 -0.24197 0.058089 0.00059571 -0.21638 0.086641 0.47208 0.16857 -0.061443 0.1123 -0.0059089 -0.012323 -0.56322 -0.037302 0.23415 -0.42653 -0.12975 -0.19118 -0.24289 -0.15612 0.0011342 0.10698 -0.3059 0.078939 -0.07199 0.073313 -0.2371 -0.26811 0.043202 -0.0053597 0.019009 0.14493 -0.41662 0.35405 -0.195 0.26943 0.0070674 0.17695 -0.14542 0.084503 -0.055107 -0.13116 0.33817 0.1786 -0.1463 0.041006 0.32192 -0.080928 -0.20214 0.21471 -0.23518 -0.096516 0.013897 0.045916 -0.070938 0.066608 0.071717 0.012645 0.20069 0.052454 0.25752 0.39484 0.11826 -0.17473 -0.15023 0.23105 0.37571 -0.18577 0.13754 -0.15548 -0.2756 0.11228 0.10124 0.11457 -0.13526 0.4973 0.045934 -0.023352 -0.36405 -0.024843 0.13119 -0.12919 -0.094182 0.10906
row 0.21494 -0.22222 0.060381 -0.051872 0.18945 0.095412 -0.036625 0.30119 0.085882 0.30815 -0.074169 -0.078966 0.010476 -0.050222 0.00053878 -0.008471 0.22904 -0.48443 -0.042302 -0.17904 -0.010695 -0.39618 -0.060156 -0.14584 0.16252 -0.57837 0.08058 0.094896 -0.15061 0.081466 0.049586 -0.19055 0.30687 -0.30974 0.055525 -0.42578 0.097519 -0.18365 0.0028913 0.16056 0.3808 0.20594 -0.268 -0.14212 0.086486 -0.15779 0.1112 0.16148 -0.30154 -0.0045328 0.17861 0.34064 -0.18509 -0.1366 -0.050127 -0.030235 -0.02282 0.17402 -0.011152 0.18938 0.098127 -0.11507 -0.070808 -0.29764 0.25834 -0.4866 0.28312 -0.1343 -0.05089 -0.34638 -0.64895 0.061754 -0.3349 0.26873 0.48214 -0.046719 -0.46012 0.26237 0.035936 -0.06347 -0.0024476 -0.088744 -0.093674 -0.2052 0.14778 -0.019868 -0.23029 -0.00092416 -0.032216 0.095252 -0.22443 -0.15425 0.21149 -0.118 0.11267 -0.11613 -0.14249 -0.043965 -0.23159 -0.16964 -0.34507 0.031946 -0.20617 -0.18888 0.24046 0.12135 -0.43393 -0.24962 -0.25961 0.048807 0.15902 0.57171 -0.055166 0.082406 0.047889 -0.043598 -0.14809 -0.23653 -0.095686 0.19543 -0.43158 0.32006 0.059216 0.17632 0.10214 0.1041 0.22 0.070639 -0.26729 -0.0030009 0.054483 -0.0061254 0.45514 0.074251 0.48743 -0.21279 -0.32056 -0.23731 -0.1548 0.076878 0.10936 0.56101 -0.081476 0.020346 0.055242 -0.011316 -0.23159 -0.1401 0.3599 -0.076043 0.47 -0.18822 0.42663 0.1479 0.0027671 -0.27713 0.13241 0.06821 -0.039079 0.060843 -0.25241 0.19042 0.14415 0.31269 0.32393 0.3812 0.34541 -0.031293 -0.22657 -0.49724 0.16155 0.052454 -0.18085 -0.092906 -0.19371 0.038963 0.1596 -0.006291 -0.093722 -0.191 0.010235 -0.41486 0.29445 0.35232 0.11153 0.11164 0.19055 -0.19085 -0.21049 0.10339 0.16994 -0.30894 -0.33423 -0.11887 0.21355 0.34035 -0.26884 0.019181 0.27198 0.59601 -0.16421 -0.010603 0.066612 -0.25037 -0.28142 0.14681 -0.11579 -0.19561 0.15247 -0.23331 -0.018757 -0.056205 0.26308 0.16882 -0.061653 0.0055054 -0.13958 0.028715 -0.13659 -0.030447 0.12258 0.06458 -0.075906 -0.0461 0.10211 -0.010762 0.13415 -0.41273 0.32217 -0.0209 -0.11188 -0.35925 0.44791 0.3526 -0.13771 -0.034159 0.28821 0.23049 -0.51649 0.16573 -0.12246 -0.1998 0.084794 -0.34891 -0.029323 -0.052908 -0.25825 0.17202 0.13723 0.019395 0.078368 0.68333 0.48184 0.22294 0.13117 0.073403 0.235 0.22001 0.036858 -0.15625 0.12012 0.068192 -0.2044 -0.18805 0.37679 0.32244 0.18962 0.11936 -0.056081 -0.48876 0.23664 0.096113 0.047453 -0.38966 0.32631 -0.1508 0.30721 -0.4176 -0.13073 0.40185 -0.40075 -0.21091 0.0035906 -0.37848 -0.18147 0.32375 0.065739 0.38885 -0.11323 -0.099164 -0.0739 -0.003115 0.2265 0.13631 -0.0015556 0.16283 -0.22379 -0.2068 -0.22386 0.39535
wizard -0.058877 -0.46403 -0.28893 0.039122 0.18887 -0.037385 0.027227 0.45062 0.21252 0.23235 0.10391 -0.09557 0.33495 -0.12747 0.37275 -0.16916 -0.42791 0.083587 0.10819 -0.39719 -0.38978 0.039938 -0.59135 -0.18765 0.13169 0.078857 -0.10632 0.10983 -0.15931 -0.35009 0.39163 -0.44561 0.046468 -0.090821 0.21856 -0.26336 0.27932 0.051139 0.39944 0.071453 0.45147 -0.074959 0.4721 0.046239 -0.33589 -0.22198 -0.3119 -0.047972 -0.48408 0.31586 0.34744 -0.18427 -0.18158 0.32754 -0.52073 0.14896 0.18674 -0.26535 0.26574 -0.33444 -0.1694 0.16109 0.3878 0.30344 -0.025377 0.076683 0.068844 0.16955 0.10542 -0.019902 -0.10794 -0.059327 0.10818 0.17896 -0.48345 0.1137 -0.36092 0.14715 -0.12538 0.29858 -0.14483 -0.053891 -0.24165 -0.31201 0.13426 0.24179 0.037858 -0.11992 0.26531 -0.648 -0.32197 0.51738 -0.072479 -0.29145 0.52909 0.13799 0.60317 -0.37503 -0.30983 0.40558 0.31127 -0.37298 -0.392 0.13461 -0.52362 -0.01718 -0.082176 0.037384 0.15663 -0.34698 -0.12235 0.16204 -0.26506 -0.1749 -0.017645 0.32697 0.14263 0.33723 -0.17448 -0.00084863 0.35864 0.21596 -0.37693 -0.049328 0.06571 0.12285 0.16528 0.19842 -0.047972 -0.048596 -0.54313 0.064135 -0.15893 0.097517 0.30292 -0.036825 -0.58129 0.2185 -0.36448 -0.043422 -0.092086 -0.33184 -0.23188 -0.06124 -0.19458 -0.43652 -0.03708 -0.13162 0.11369 -0.39095 0.16296 0.068012 -0.073369 -0.20229 -0.2576 0.23537 0.12349 0.31122 -0.25943 0.2824 0.12217 -0.33533 -0.10156 -0.2743 -0.14043 0.1148 0.45246 0.24081 -0.35345 -0.10691 0.78412 0.036567 0.16582 -0.10426 0.16063 -0.00225 -0.1639 0.0025037 -0.21496 0.033329 0.17471 -0.24923 -0.074602 -0.058224 -0.10893 0.19 0.51504 0.17734 -0.42583 -0.19319 0.3207 -0.18749 -0.10793 0.067419 -0.074044 0.087785 -0.13748 0.13936 0.27658 0.28548 0.20804 -0.27529 0.28623 0.11363 -0.71515 -0.0865 -0.14196 -0.0045082 0.044062 -0.55957 -0.3193 0.15219 0.044 0.12452 -0.53763 -0.19461 0.41851 -0.64688 0.28845 -0.071827 0.0089479 0.42575 0.42891 -0.15073 -0.064154 0.19245 0.030618 0.26617 -0.16782 0.47724 0.030935 0.30897 -0.26061 -0.12914 -0.12573 -0.0091535 0.12927 0.20255 -0.17628 0.71039 -0.032444 -0.28499 -0.52759 0.1045 0.3762 -0.51408 -0.13214 0.15225 0.08846 0.38956 -0.087984 0.24623 0.23945 0.1852 0.070813 0.14717 0.22022 -0.42948 0.10878 -0.061748 0.29723 0.061119 -0.016983 0.23691 -0.1705 0.14901 -0.045974 -0.22819 -0.04804 0.162 0.13908 -0.11361 -0.00066058 0.47757 0.20736 0.11714 -0.29375 0.50575 0.042357 0.18058 0.017499 0.20354 -0.020609 -0.14415 -0.1006 -0.15451 0.40127 -0.057186 0.0035533 -0.32762 -0.017965 -0.15171 0.081017 -0.047137 -0.27169 -0.29614 0.48856 -0.18183 0.25806 -0.0046851
disability 0.10951 -0.37451 -0.19722 -0.77908 -0.34667 0.3099 -0.10002 -0.041253 -0.16888 0.051684 -0.34952 0.57141 -0.14734 -0.093941 -0.59249 0.090672 -0.070617 -0.056446 -0.48585 0.12412 -0.33405 0.04949 -0.15805 0.15527 -0.17325 -0.2342 0.2792 0.32698 -0.29014 -0.17948 0.52535 -0.052679 -0.098889 -0.046837 -0.15659 -0.11981 -0.19351 -0.031737 0.080967 0.22836 -0.13753 0.26108 -0.155 -0.23315 0.10265 0.018625 0.16081 -0.17927 0.1304 0.26195 -0.026582 -0.42971 0.070284 0.078753 -0.031779 -0.072221 -0.19299 0.13722 0.31087 0.65015 -0.1238 -0.042446 0.047031 0.35732 -0.080131 0.13768 -0.095866 -0.00060077 0.073949 0.15138 -0.27184 -0.36243 -0.19232 0.0030239 0.3372 -0.34057 0.18886 -0.047106 0.32247 -0.11134 0.37303 0.27474 -0.044663 0.053741 -0.12974 0.10233 -0.15049 -0.0019943 -0.51084 -0.32453 -0.044217 0.03068 -0.39235 0.00082167 0.10296 0.060351 0.11428 0.3542 -0.12795 -0.13322 -0.0021869 0.051659 -0.28689 -0.17044 -0.21007 0.21583 -0.14185 0.3711 0.073333 0.15697 -0.16422 0.38117 0.031767 -0.37828 0.24686 -0.057837 -0.25454 -0.35247 0.077741 -0.01652 0.14923 0.28533 -0.23258 0.25153 0.25075 0.049676 -0.18794 0.34369 0.251 0.51038 0.2367 0.070379 0.28092 -0.20204 0.038629 0.5222 -0.38475 -0.136 -0.016135 0.11284 -0.16166 -0.34132 0.13187 -0.27884 -0.0019265 -0.24166 0.19434 -0.22287 0.10649 0.090835 0.54743 -0.05138 -0.084664 -0.25424 -0.60938 -0.18787 -0.53248 0.14879 0.052219 -0.032029 -0.58451 0.21001 0.18523 -0.20762 0.19217 -0.37217 -0.34138 0.27286 -0.49775 -0.18245 0.14404 0.099906 -0.018493 -0.33738 0.02489 -0.099516 -0.12275 0.023375 -0.12568 -0.27122 -0.23463 -0.14558 -0.2968 -0.20147 -0.17863 0.35181 0.23183 -0.053897 0.11169 0.06294 0.097546 0.069263 0.18891 -0.17325 -0.16756 0.2968 -0.26539 -0.061268 0.10572 -0.27811 -0.052323 -0.08755 0.32436 -0.29789 0.066901 -0.27342 -0.10159 -0.25965 0.026248 -0.28996 -0.27567 -0.19422 -0.38893 0.16644 -0.46337 0.055748 -0.46754 -0.06211 -0.10455 -0.26941 -0.22134 -0.31097 0.0082905 0.036787 -0.61331 -0.084762 0.038189 -0.28019 -0.068984 0.23286 0.14588 -0.28886 0.11276 -0.12596 -0.26658 -0.59223 -0.17356 0.070204 0.21477 0.29452 0.12266 -0.25951 -0.094944 -0.010248 -0.054921 -0.059103 0.12178 -0.034312 0.3157 0.22324 -0.51225 0.41421 -0.00023924 -0.0049511 -0.026643 -0.14103 0.061607 -0.1685 0.23948 -0.37334 -0.2926 0.25872 0.26305 0.073952 -0.0075691 0.34691 -0.11472 -0.60238 0.38074 0.11262 -0.26755 0.06596 0.046946 -0.38273 0.1239 0.34273 0.45677 0.17661 -0.35356 -0.093789 0.42392 0.06235 0.22813 0.13074 0.44817 0.19054 0.0091089 0.25585 -0.059097 -0.078398 -0.45179 0.27768 0.11338 0.17048 -0.26415 0.021554 0.3147 -0.076811 0.32773 0.30533
environment -0.0028047 0.075077 0.13932 -0.62095 -0.39573 -0.12356 0.14157 0.54895 -0.15346 0.10281 -0.26775 0.38371 -0.27294 -0.015983 0.13796 0.32446 0.14359 -0.2739 0.23794 0.43051 -0.25977 0.15021 0.021149 -0.066726 -0.058825 -0.16715 0.061071 0.090255 -0.1818 0.070312 0.21239 0.21451 -0.06401 0.046994 0.11297 -0.086941 0.18383 -0.30555 0.047936 -0.027571 -0.094617 0.30589 -0.050942 -0.20525 0.45238 -0.0969 -0.072771 -0.033362 -0.0067 -0.019863 -0.043435 0.0057932 -0.15418 0.074968 -0.27205 -0.11917 -0.40863 0.35405 0.041719 0.29313 -0.25046 0.073613 -0.15799 -0.00095623 -0.0045598 0.36321 -0.21439 -0.11746 0.2314 0.099509 0.14229 -0.056453 -0.1121 -0.12159 0.016724 -0.20444 -0.15422 -0.12089 0.30868 -0.21135 0.025758 -0.15014 0.15936 -0.26569 -0.059151 0.2305 -0.26512 0.069896 -0.12031 -0.082843 -0.27344 0.074074 0.0384 -0.42431 -0.37744 -0.1172 0.052978 -0.13419 0.31699 0.069699 0.13191 0.11878 -0.14127 0.064675 -0.22075 -0.13462 0.023743 -0.35285 -0.29653 -0.16802 0.057304 -0.031738 -0.40601 0.25225 0.062426 0.11871 0.46003 -0.074039 0.028158 -0.012021 0.066326 0.20227 -0.20589 0.26156 0.17612 -0.031542 0.28354 0.45839 -0.066646 0.35099 0.44427 -0.12508 0.17226 0.026791 0.41149 -0.27223 -0.075641 0.1018 0.28914 -0.3606 0.28371 -0.051104 0.42146 0.11267 -0.060444 -0.00025257 -0.04712 0.20083 0.0032921 -0.10257 -0.099016 -0.11997 0.13751 -0.28509 0.098778 -0.23627 0.14143 -0.32365 0.24045 0.024307 -0.10671 0.093843 0.14328 -0.09798 0.17382 0.046108 0.36787 0.052649 -0.027626 0.077976 0.078211 -0.092735 -0.32659 -0.2208 -0.37081 0.03967 0.33097 0.015166 -0.088235 -0.26389 -0.13771 -0.28195 0.059487 -0.021142 0.1234 -0.069692 -0.10256 0.16136 -0.34714 0.23577 0.28366 -0.35351 -0.42486 -0.096882 -0.15848 0.021295 -0.073557 -0.1341 0.31619 -0.10971 -0.068594 -0.31648 0.0056672 0.18566 0.15789 -0.14083 0.10033 -0.069057 -0.18042 -0.1646 0.1438 -0.11936 0.083187 -0.28905 -0.1508 0.15546 -0.21999 -0.25136 0.22447 0.13078 0.094023 0.092336 -0.17698 0.030298 -0.31269 -0.22192 -0.24755 0.18856 -0.31549 -0.07627 0.24145 0.37911 0.14862 -0.24447 0.0091411 0.0035596 0.17023 -0.12419 0.20545 0.01911 -0.11658 0.32576 0.097583 0.10822 -0.03718 -0.13559 0.31494 0.10169 0.054323 0.53471 -0.30968 -0.211 -0.32186 -0.22682 0.34422 0.19879 0.31224 -0.18629 0.27861 -0.14684 0.059611 0.27942 0.60706 0.21992 -0.26318 0.15323 -0.24298 0.094361 -0.099815 0.046865 -0.12088 0.27281 0.25719 0.1067 0.20401 0.41533 0.30141 -0.14693 0.20607 0.018573 0.30699 0.20546 0.51812 0.08502 0.16394 -0.085653 0.16111 0.17028 -0.0056872 -0.27036 0.12283 0.19728 0.50627 -0.21313 0.12072 0.051473 0.017405 -0.037426 -0.38001 -0.20167
terror -0.27527 0.058188 -0.32745 0.43777 -0.10114 0.079441 0.087073 0.37528 -0.15582 -0.20644 0.17687 0.16267 -0.16975 0.1276 -0.12707 0.099469 -0.1866 -0.14997 -0.11724 -0.18095 0.44518 0.066445 0.1489 0.013095 0.27862 0.23278 0.23295 0.37595 -0.23399 0.12136 0.11858 -0.33589 0.37786 0.31997 0.3779 0.10915 -0.45069 0.025651 0.018453 0.0076846 0.1475 -0.11435 -0.064064 0.10196 0.041607 -0.037108 0.10859 -0.081179 0.01404 0.27891 -0.36249 -0.62556 -0.007275 -0.1386 0.076294 -0.33811 0.12247 0.31888 0.38744 0.28619 -0.16334 -0.3509 0.47682 0.026462 0.14802 -0.0058047 0.10803 -0.20987 -0.016211 -0.23556 -0.252 0.11385 0.29505 0.019513 -0.15746 -0.073445 -0.3219 -0.1701 -0.33851 -0.077344 0.51683 0.40193 0.33707 -0.50438 -0.18897 -0.23595 -0.027991 -0.30197 -0.22625 -0.54799 0.16892 -0.28543 0.057611 -0.065807 -0.0056059 -0.074271 0.18677 0.063525 -0.08835 0.044208 0.12448 0.12739 -0.50753 -0.22083 -0.3023 0.11988 -0.12032 0.010324 0.17279 0.096469 0.056691 0.2498 -0.17238 -0.043537 -0.30338 -0.047364 -0.28959 -0.3201 0.08733 0.094345 -0.43913 0.14254 0.14584 0.10654 0.16467 -0.27474 0.024304 0.10731 0.05251 0.05125 -0.064148 0.28325 -0.089843 -0.33264 0.084349 -0.11899 -0.1373 -0.24748 -0.25415 0.26244 -0.20126 0.087821 -0.15336 0.45646 0.21303 -0.10588 -0.008655 0.24393 0.14019 0.33421 0.59055 -0.38112 0.43819 -0.21174 -0.18275 -0.15422 -0.080483 -0.095594 0.34812 -0.053605 -0.34039 -0.076691 0.20802 0.19865 -0.49406 0.042365 -0.26626 0.25206 -0.26886 -0.12989 0.053138 -0.55409 0.24647 -0.15085 -0.11583 -0.0023489 0.029356 -0.04827 -0.30591 -0.31476 -0.29405 -0.73208 -0.17593 0.070413 -0.22167 -0.29857 -0.25049 0.45933 0.15603 0.017137 0.066863 -0.51123 -0.012949 -0.16621 -0.044289 0.46224 -0.11996 -0.24818 0.25554 0.25618 0.19807 0.17197 0.0032669 -0.18867 -0.51315 -0.23401 -0.08896 -0.29281 -0.48483 -0.48637 0.13142 0.36022 -0.21823 0.16725 -0.13668 -0.23883 0.050479 0.023429 -0.14388 0.072606 -0.11863 0.050327 0.058555 -0.020837 -0.056361 0.16914 -0.59949 0.064413 0.10762 -0.19709 0.78941 -0.1888 0.20724 -0.055291 0.17383 -0.080062 -0.10415 -0.20132 -0.0042557 0.27544 0.30824 -0.099709 -0.28623 0.2938 0.19494 0.031693 -0.065545 0.31616 0.096262 0.74871 -0.043936 -0.17993 0.15938 -0.083907 -0.1365 0.27995 0.1848 -0.53701 0.37588 -0.27148 0.081519 -0.08496 -0.039202 -0.11891 -0.43904 0.18342 -0.055844 0.18815 -0.34569 -0.030028 -0.092366 0.13168 0.10504 0.13227 0.26364 -0.05952 -0.039654 0.030104 0.99888 0.12571 0.35828 -0.0063133 -0.052377 -0.32832 0.32674 0.099822 0.069808 -0.033677 0.14798 0.035883 0.26549 -0.17545 0.16342 -0.19224 -0.28382 0.35045 0.17976 -0.55435 -0.35003 0.27878
smile -0.22791 -0.49195 -0.34786 0.1638 0.38434 0.15013 0.042204 0.74918 0.038211 0.11806 -0.31158 0.045836 0.18478 -0.27998 0.062021 -0.31071 0.2791 -0.17885 0.14527 -0.14532 0.12426 -0.11701 -0.20602 0.043607 -0.54035 -0.27128 -0.14005 0.0092613 -0.2318 -0.3692 0.59795 -0.80928 0.4128 -0.30822 0.1015 -0.19959 0.10213 -0.10178 0.068808 0.22629 0.24255 0.14499 -0.1726 0.25361 -0.37149 -0.15324 -0.020682 0.13233 0.26462 0.16892 0.24957 -0.16062 0.12006 0.27665 0.073162 0.020807 0.64202 -0.20579 0.17522 0.16445 0.042738 0.14555 0.12642 0.10943 0.017786 -0.02888 -0.037456 0.05649 0.008298 0.44182 -0.080777 0.078637 -0.29335 0.043713 -0.57866 -0.091048 -0.46853 0.41996 -0.10442 -0.47979 0.22256 0.16007 0.058756 -0.13259 0.043202 0.14274 -0.14931 0.198 -0.23183 -0.13261 -0.17911 -0.0998 -0.051268 -0.060922 -0.20615 0.32785 -0.0031152 -0.1126 0.0026787 -0.02775 0.26057 0.35727 -0.39471 0.053468 -0.35154 -0.37984 -0.17395 0.0909 -0.074855 -0.021027 -0.039754 -0.14484 -0.072675 -0.017979 0.14643 -0.11755 0.0049106 -0.21618 0.0526 -0.14517 -0.27006 -0.060011 -0.24234 -0.093153 0.62759 -0.045014 -0.37165 -0.28976 -0.26667 0.045338 0.13671 0.32236 0.10269 -0.20785 0.12263 -0.033191 -0.48283 -0.3218 0.25926 -0.037707 0.24125 0.078544 0.065243 0.036543 -0.083833 -0.079314 0.75092 -0.2696 0.14279 0.03855 -0.03961 -0.71233 0.1115 -0.29011 -0.18024 -0.0018167 -0.34192 0.15823 0.27038 -0.27995 0.11746 0.084724 0.33801 -0.26811 0.22801 -0.3376 0.1792 -0.15341 -0.026234 0.21554 0.092106 0.21946 -0.052942 -0.0050329 0.22881 0.0022776 0.38795 -0.14866 -0.032179 -0.020271 0.11218 -0.027168 -0.032403 -0.046043 -0.29494 -0.059863 -0.15831 0.046448 -0.24929 0.23924 -0.084537 0.052806 -0.093854 -0.1725 -0.11598 0.34561 -0.30285 0.507 0.08134 0.53702 -0.19185 0.19967 0.16722 0.29161 0.077255 -0.057388 0.031148 0.22416 0.071759 0.026075 -0.21134 0.020109 0.14583 0.054226 -0.29042 -0.07566 0.07123 -0.43301 -0.28466 0.1708 -0.0515 0.073328 -0.22742 0.05288 0.051448 -0.47867 0.0345 0.34461 0.17288 -0.24275 -0.31889 -0.2994 -0.044978 -0.40838 0.093151 -0.39217 0.24524 0.11659 0.020122 0.30054 -0.04758 -0.15391 -0.11155 -0.11608 0.16358 -0.28599 -0.060617 -0.047334 0.28068 0.43595 0.11488 -0.0022351 0.41753 -0.27462 -0.19836 0.28826 -0.010207 -0.19221 0.33834 0.29509 0.37654 0.17331 0.10074 -0.30285 0.19497 0.30924 0.041048 0.083536 0.031465 -0.19973 -0.09298 0.19845 0.24739 0.31555 0.24279 0.0068377 0.24419 0.046918 0.17388 0.075011 0.35441 0.28139 0.15908 0.010177 -0.023154 -0.009796 0.05549 -0.11194 0.025999 -0.33899 -0.25285 0.099154 -0.16645 -0.020529 -0.18892 0.12507 0.11202 -0.026898 0.10913 -0.13562
woman 0.12221 -0.038845 -0.21119 -0.097962 -0.043367 0.40965 -0.20349 0.64853 0.1866 0.26586 -0.13677 0.16491 -0.22931 0.087336 -0.13954 0.077374 0.025975 0.096207 -0.092189 -0.17352 -0.28279 0.058772 -0.15532 0.1863 -0.50898 -0.029963 0.17225 -0.31164 0.018396 -0.18977 0.19245 -0.30983 -0.11568 0.11853 0.054233 -0.30163 -0.49202 -0.18963 0.11257 0.16321 -0.16072 0.057442 0.036175 0.10195 -0.1014 -0.028257 -0.35422 0.15719 0.093024 0.23642 -0.16161 0.027222 -0.079607 0.38842 0.11891 0.048756 -0.058138 0.36058 0.09569 -0.15167 0.42894 0.090217 0.036128 -0.50027 0.1155 -0.32693 0.29965 -0.1919 0.31009 -0.05455 -0.3574 -0.31864 0.032277 0.519 0.089156 -0.21815 -0.39539 0.004645 -0.085659 -0.068054 0.19882 0.21253 0.46591 -0.06448 0.072773 0.14252 -0.12942 -0.20541 -0.066442 -0.274 -0.021531 -0.21434 0.14595 0.29796 0.18427 0.42343 -0.095869 -0.10638 0.15872 0.15151 0.14152 0.10088 -0.75409 0.27197 -0.51583 -0.082585 -0.26766 0.063624 0.19703 -0.2909 -0.13045 0.2946 -0.18297 -0.056568 -0.13005 0.42212 -0.085498 -0.12296 0.10299 -0.12812 -0.12318 0.071776 0.039067 -0.059436 0.49155 0.11357 0.038296 0.19987 -0.2531 -0.21688 0.24658 -0.028872 -0.15646 -0.068739 -0.14328 -0.089439 -0.18988 0.014095 0.077494 -0.060584 0.060344 0.3228 0.13011 0.2151 0.10162 -0.17222 0.22078 -0.25237 0.0018135 -0.097447 0.53827 -0.38322 0.31276 -0.37489 -0.25485 -0.096379 0.067348 -0.19173 -0.075396 -0.45817 -0.10651 -0.03617 0.095389 -0.21937 0.022394 -0.01226 -0.44745 0.15117 0.089286 -0.091658 0.13352 -0.40242 0.098177 0.010629 0.27617 0.023265 0.37253 -0.06645 0.11247 0.070912 0.107 -0.17723 -0.2038 0.057028 0.074292 -0.046213 0.09064 0.22165 0.092644 -0.29049 -0.08442 -0.14719 -0.18725 0.10928 -0.25688 -0.028284 -0.39535 -0.13805 -0.31873 0.17299 -0.038484 0.13598 0.15825 -0.18411 0.15008 0.059281 -0.078689 -0.12587 0.25644 0.19977 -0.18779 -0.14528 -0.0026718 0.425 0.11233 -0.11252 -0.26396 -0.20835 0.30117 -0.011662 0.60641 -0.10802 0.27877 -0.26225 -0.18972 -0.16913 0.19149 0.03788 0.098009 0.18102 0.10862 -0.34443 -0.027839 -0.44445 -0.06633 -0.068328 0.0060278 0.28759 -0.10395 0.07077 -0.25536 -0.199 -0.13436 -0.077206 0.086787 -0.20566 0.087462 0.12641 0.08567 0.006557 -0.10889 0.35982 0.36376 0.12551 -0.22308 -0.30278 0.076113 -0.34341 0.05729 -0.066449 -0.0066651 0.049042 -0.032244 -0.036565 -0.26233 -0.042689 -0.0069653 -0.056174 -0.1082 -0.0578 0.0014541 0.091182 0.19376 0.12187 -0.0035771 0.07158 0.18692 0.026499 -0.37979 -0.18489 0.17779 -0.031362 -0.017715 0.052904 -0.45963 0.14407 0.12166 0.28821 -0.41528 -0.21946 -0.094933 0.29585 0.31449 -0.093231 0.012708 0.0034776 0.088037 -0.33868 -0.036965 0.16648
string -0.052381 0.035503 -0.017944 0.093583 0.21143 0.035535 -0.044849 0.3216 -0.032864 -0.0037338 0.014763 0.113 -0.026836 0.36712 -0.023832 0.0071514 0.29096 -0.38691 -0.072157 -0.026003 -0.093299 -0.013135 0.020295 -0.24615 0.29004 -0.22963 -0.25398 0.18966 0.31918 0.2591 -0.031886 -0.2654 0.1965 -0.30109 0.082766 0.13593 -0.070998 -0.24531 -0.13366 -0.053174 -0.11754 -0.34346 -0.26968 -0.07392 0.29235 -0.11059 -0.22027 0.31155 -0.26036 -0.18289 0.26629 0.022423 -0.19976 0.12285 -0.18319 -0.15851 0.25879 0.17246 -0.057895 -0.11581 0.29173 0.23422 0.24796 0.18944 -0.15934 -0.40679 0.027743 -0.30814 0.093514 -0.39599 -0.10366 0.20288 -0.1142 0.14536 -0.085648 -0.019169 -0.14876 -0.20434 0.19977 -6.0069e-05 -0.089087 0.14068 -0.12975 -0.1382 0.26731 0.15674 -0.4953 -0.56163 0.05553 -0.43197 -0.2577 -0.30629 0.022244 0.018423 0.34487 -0.37567 0.12804 0.073876 0.029026 -0.072105 -0.048697 0.14026 -0.11841 0.10124 -0.19295 0.49024 0.091076 0.0017562 0.15145 -0.2729 -0.01024 -0.02687 -0.12704 -0.22765 0.022496 -0.10676 0.11314 -0.30042 -0.055241 -0.34152 -0.17567 0.28765 -0.19623 -0.17986 0.52831 0.14923 0.11283 -0.17194 0.0015734 -0.0086492 0.046547 -0.25668 0.11895 0.010034 0.4566 -0.35376 -0.12026 0.13192 -0.096684 0.069264 -0.24768 0.11915 -0.51998 -0.14822 0.017057 0.18117 0.14217 0.051296 0.088987 0.20867 0.47865 -0.01143 0.41681 -0.17278 -0.17494 -0.34132 -0.3546 -0.035982 0.013353 -0.027812 0.20926 -0.047237 0.16362 0.46238 0.019894 0.10381 0.23018 0.45022 -0.55756 -0.26002 -0.096666 0.04104 0.17681 0.23135 -0.15255 -0.022498 0.21722 -0.15074 -0.1185 -0.0051023 0.099802 -0.32276 -0.12414 0.074261 0.36078 -0.085864 0.35331 -0.11085 -0.28517 -0.34678 -0.25998 -0.48703 -0.041484 0.27818 0.036314 0.19907 0.0076841 0.018704 -0.16262 0.16397 0.0042959 0.059295 0.15841 0.18871 -0.39966 0.47608 -0.1655 -0.21598 -0.22613 -0.23742 -0.53526 0.10789 -0.074385 0.056974 -0.41531 0.073095 0.31789 -0.17397 0.19598 0.11261 0.31563 -0.27994 -0.0043616 -0.093237 0.21059 -0.13909 0.04895 0.23808 0.083604 0.12687 0.12957 -0.094994 0.098441 0.0075663 -0.07814 0.09322 -0.039689 0.18671 -0.21919 0.097534 0.2744 0.15741 0.055724 0.17155 -0.078392 -0.19221 -0.24729 -0.18284 -0.072568 0.015618 0.18549 0.13141 0.090412 -0.15129 0.056043 0.11957 0.16579 -0.050281 0.19786 -0.11545 0.37048 -0.042323 0.16805 0.1453 -0.32034 0.44319 -0.33723 -0.060292 -0.0099873 -0.088234 0.052705 0.1147 0.1913 0.1304 0.001103 -0.20768 0.1177 0.11243 -0.19077 0.16422 -0.034634 0.21172 0.26705 -0.23351 -0.063299 0.22485 0.24314 0.020605 -0.14371 -0.32634 0.15886 0.31772 0.24177 0.2927 0.10778 0.21983 0.16162 -0.10422 0.063513 0.51806
Maradona -0.12587 0.057635 -0.2007 -0.22117 -0.32659 -0.014396 0.31281 -0.19916 0.10377 -0.039953 0.3529 0.0035155 0.10209 0.33482 0.13889 -0.25124 0.098763 0.46976 0.20807 -0.073955 -0.59088 0.17162 -0.24362 -0.40608 -0.38287 -0.25844 0.1767 0.56604 -0.012143 -0.22621 0.4147 -0.42912 -0.0095978 -0.0043454 -0.15593 0.048855 -0.27266 0.15535 -0.10138 -0.28193 0.31014 0.45715 0.057198 -0.0056126 -0.051593 0.18152 -0.46131 -0.045067 -0.048449 -0.20694 0.33959 0.287 0.088412 -0.12269 0.08592 -0.14673 0.17317 0.18531 0.25054 0.11363 0.0022863 -0.25484 0.34078 -0.091017 0.15465 -0.43943 -0.54063 0.3568 -0.04131 0.37016 -0.61167 -0.40245 -0.10945 0.73216 -0.14344 0.0002559 -0.022964 0.34657 -0.3493 -0.46509 -0.25179 0.20378 0.18162 -0.54185 0.21305 0.18353 0.0056853 -0.44751 0.53933 -0.19416 0.098599 0.21923 -0.3644 -0.25496 0.017346 -0.18886 0.50093 -0.55043 -0.3995 -0.061966 0.33051 -0.38673 0.14738 0.23006 -0.44266 -0.015804 -0.18038 -0.3053 0.074559 -0.24167 0.35617 0.34845 0.23983 -0.59658 0.36837 0.2596 -0.041668 0.20708 -0.43324 0.51876 -0.40847 -0.27264 0.11712 -0.22803 0.13442 0.01899 -0.54177 0.057354 -0.16302 -0.27852 -0.26252 0.038665 0.21304 0.33351 -0.086788 0.071584 -0.44973 -0.18592 0.27475 -0.13713 -0.14345 0.22496 -0.017301 0.07606 -0.010882 -0.18701 0.46254 -0.2613 -0.079663 -0.11717 0.16335 -0.20603 0.20496 -0.40281 0.081987 0.24618 -0.20197 -0.25199 0.12261 -0.29231 0.2691 -0.39546 0.24771 -0.53112 0.13967 0.10083 -0.16917 -0.12516 0.13163 0.02053 0.049161 -0.33278 -0.18743 -0.63793 0.63138 0.11046 0.59275 -0.10863 -0.3264 -0.42425 0.41044 -0.78565 -0.30867 0.56294 -0.24057 -0.20969 -0.024326 0.30739 -0.20426 0.21041 -0.2067 -0.24453 0.15034 -0.032629 -0.02574 0.07686 -0.45075 -0.50313 -0.077598 0.6547 0.29409 0.11062 0.5457 -0.067706 0.041034 0.75546 -0.104 -0.12682 -0.21429 -0.23198 -0.073084 0.21667 -0.079523 0.031257 -0.33626 0.37937 -0.28525 -0.63286 0.13955 0.096369 -0.052998 -0.26321 -0.35193 -0.20067 -0.12537 0.23023 0.4737 -0.27867 0.17033 -0.079195 0.12763 0.13333 0.41815 -0.45191 0.43227 -0.22072 0.22883 0.033619 -0.34445 0.3064 -0.45535 0.1776 -0.46466 -0.49053 0.14932 -0.1163 0.3053 0.39668 -0.39251 0.42235 0.29433 -0.071667 0.17349 -0.18191 0.0068634 0.12589 0.033247 -0.53276 0.10323 -0.36967 -0.33473 0.066592 -0.090091 -0.70314 0.079632 0.21983 0.059983 0.31996 0.00095028 0.24005 -0.0092332 0.031918 -0.22124 0.1225 0.11656 0.087521 0.17625 -0.084458 -0.20074 0.15586 0.41357 0.15587 0.55124 -0.43076 -0.53219 0.10611 -0.0061917 -0.18857 -0.30077 0.13966 -0.015822 0.057443 -0.44879 0.43164 0.013225 0.10156 -0.52135 -0.22058 0.094372 0.19574
liability -0.095516 -0.25149 0.050216 0.041265 -0.24676 0.55859 -0.049867 0.34475 -0.2324 0.32486 -0.19162 0.1087 -0.0089944 0.40196 0.0097429 -0.036651 -0.015491 -0.48226 -0.20212 0.040343 0.08747 0.080872 -0.18508 -0.18091 -0.26374 -0.19071 0.074654 0.27797 -0.21236 -0.026461 0.44725 -0.16523 0.0076731 -0.22872 0.50327 -0.047585 -0.2944 -0.33115 -0.43763 -0.1268 -0.12377 -0.2862 -0.23864 -0.015525 0.66485 -0.12093 -0.023894 -0.20373 0.29293 -0.31783 0.33326 -0.054698 0.088678 -0.23848 0.17811 0.16725 0.07065 0.05725 0.27779 -0.094031 0.16463 -0.11122 -0.065045 0.074106 -0.481 0.12179 0.1832 0.10908 0.56434 0.34025 0.016649 0.36205 -0.079498 -0.23487 0.28868 0.23011 0.42366 -0.26999 0.38778 -0.32458 0.11708 0.18758 0.27284 0.35721 0.46924 0.46896 -0.22312 0.040794 -0.15637 -0.17038 0.033329 -0.038257 -0.19131 -0.38463 -0.012837 0.16156 0.27054 0.11502 -0.14417 -0.1685 -0.041693 0.070574 -0.14172 0.067109 0.10331 -0.1772 -0.23352 -0.15911 0.29397 0.062879 -0.050391 -0.0015694 -0.25383 -0.38991 0.06749 0.0026168 0.18297 -0.06159 -0.027295 -0.074633 -0.046777 0.12979 -0.27075 0.0044775 -0.22507 0.085273 -0.44502 0.28201 -0.043687 0.46727 -0.143 -0.10431 0.067862 -0.07749 0.022092 -0.18558 0.0051442 -0.3278 -0.22837 -0.042589 0.29973 -0.53465 -0.027361 0.050077 0.088383 -0.12039 -0.52393 0.40771 -0.19805 -0.15832 0.20694 -0.1861 -0.12783 -0.43041 -0.36009 0.10778 -0.13545 0.38636 -0.064058 -0.12968 -0.13948 -0.39289 0.0037467 -0.22487 0.28738 0.073113 0.067 0.14537 -0.1277 -0.070419 0.30222 0.026896 0.15252 -0.076162 0.30311 -0.045771 0.18347 -0.21758 -0.22546 -0.23437 -0.03961 -0.028907 0.10663 -0.13439 -0.024156 0.25876 0.24779 0.067064 -0.38692 0.16388 -0.15504 -0.26704 -0.36222 -0.39197 0.093039 0.069554 -0.079691 -0.0658 0.085105 -0.19796 -0.08031 -0.51287 -0.00035344 -0.1042 -0.11973 -0.26029 -0.22208 -0.014439 0.1939 -0.42273 0.056608 0.15868 -0.18517 0.24019 -0.2051 0.092404 -0.014726 -0.02527 -0.05585 -0.39425 -0.13842 -0.34584 -0.2104 0.10472 -0.54695 0.013578 -0.040448 -0.21489 -0.12468 0.0096257 0.7032 0.10553 0.2031 -0.21455 -0.057981 -0.27781 -0.36798 0.23424 -0.18826 -0.07916 0.4451 -0.18377 0.10827 -0.23825 -0.06381 0.18128 -0.050378 0.11538 0.56359 0.24568 -0.40257 0.18348 -0.11944 0.05993 -0.040293 -0.25792 -0.28887 0.12658 0.18272 -0.040172 -0.25891 -0.036055 0.083546 0.24127 -0.29492 0.29343 0.019679 -0.45478 -0.24602 0.58725 -0.15473 -0.0041057 0.29831 -0.079717 -0.035033 -0.049431 0.28216 0.28982 -0.047336 0.01699 0.11657 0.26433 -0.0012447 -0.27534 0.23319 0.11686 -0.21908 0.17736 0.11008 0.0086608 -0.056179 0.28697 0.056701 0.18168 0.030099 0.18401 0.10464 -0.21099 0.070547 -0.28534
ticket 0.5931 -0.21588 -0.07948 -0.23435 -0.0073725 0.17994 0.069435 0.23663 0.018578 -0.26577 -0.052754 -0.30977 -0.124 0.33226 0.015745 -0.16094 -0.26363 -0.087628 0.5486 -0.47823 0.23116 0.20369 0.021305 0.065727 -0.051475 0.675 0.3387 0.028144 -0.071096 0.15803 0.034285 -0.29554 -0.089084 -0.33239 -0.089646 0.22576 0.23446 -0.2908 0.1152 0.11924 -0.098502 0.13472 -0.082984 0.26993 -0.18971 0.4608 -0.15606 0.079072 -0.3833 0.13191 0.3652 0.030515 0.33113 0.27075 -0.075968 0.42407 0.084935 -0.30521 -0.0037125 0.11971 -0.19678 -0.25139 0.16601 -0.18453 -0.005887 -0.20533 0.256 0.067188 -0.030316 0.098942 0.2016 -0.078494 -0.14729 -0.055384 0.26517 0.17278 -0.41394 -0.22633 0.24897 0.071847 -0.26941 0.27267 -0.37004 -0.21488 0.56039 0.015543 -0.34341 0.26523 0.44379 0.042652 0.15784 -0.29291 -0.19085 0.24669 0.041138 0.22574 0.34988 0.12838 -0.13159 -0.28727 0.3502 -0.58779 -0.26094 0.046867 -0.17992 -0.27905 -0.38582 -0.38596 0.1526 -0.15876 0.10151 -0.0068143 0.16591 0.008154 -0.13088 -0.11708 -0.067025 -0.11826 -0.069198 -0.1789 -0.38051 -0.27167 -0.3425 -0.13218 0.23541 -0.15807 0.12892 0.050501 -0.19911 0.2012 0.42768 -0.0068985 0.13418 -0.035222 0.28155 -0.1103 -0.17465 -0.31577 0.077704 -0.1279 0.34917 0.00047262 0.28598 0.12102 -0.41549 0.062276 -0.11177 -0.46359 0.12567 0.046855 -0.19418 -0.26527 -0.27184 0.0056966 -0.013355 -0.14945 -0.26147 0.15007 -0.38472 -0.18584 -0.27307 0.2259 0.076723 -0.34372 -0.1089 0.17265 -0.33394 0.60032 0.12042 0.0032622 0.2334 0.15172 -0.017552 -0.53261 0.037407 0.23984 -0.079649 0.19456 -0.18874 0.35671 0.13944 -0.27943 0.31347 0.17382 -0.22262 -0.10234 -0.15977 0.15642 0.018218 0.1113 -0.10432 -0.11023 -0.32091 0.021267 -0.19676 0.23111 -0.46035 -0.041454 -0.33046 -0.15898 -0.20823 0.18678 -0.10939 0.051435 -0.13086 0.20466 -0.14662 -0.30775 0.0091029 -0.07355 -0.18618 -0.19851 0.054323 0.048111 -0.29599 -0.1428 -0.1555 -0.29617 0.33568 -0.1986 -0.38753 -0.24396 -0.070689 0.12553 -0.32208 -0.34098 -0.21291 -0.45394 -0.14994 -0.27529 0.21693 0.018264 0.068808 -0.32515 -0.037836 -0.14276 -0.048257 0.24918 -0.43537 -0.00010915 0.5523 -0.46699 -0.044165 -0.13798 0.30992 -0.082341 -0.12462 0.35221 0.36216 0.29956 0.12216 -0.14398 -0.21391 0.19114 0.13877 -0.0065515 0.40012 -0.87185 0.44926 -0.046503 -0.086816 0.0057489 -0.33911 0.12123 0.11329 0.017641 -0.13384 -0.6536 0.042418 -0.1257 0.044378 -0.048541 0.30521 -0.093158 -0.19412 -0.27774 0.3454 0.20525 0.29731 0.042703 0.44819 -0.19837 -0.1667 -0.47767 0.076944 0.39838 -0.33888 0.32582 -0.49356 -0.15923 -0.052974 0.38244 0.3592 -0.15703 0.13568 0.20422 0.070855 -0.13525 -0.17348 0.2955
school -0.072883 -0.29773 -0.2582 -0.41468 -0.12472 0.32994 -0.2248 -0.019986 0.12724 0.065783 0.016886 0.30293 0.062315 0.19317 0.17268 0.096796 0.16535 0.049552 0.1939 -0.15161 -0.21151 0.048385 0.158 0.12985 -0.10955 -0.13247 0.31171 -0.15691 -0.22081 -0.08955 -0.34922 0.065032 0.10184 0.055638 0.28396 -0.077558 0.034137 -0.30699 0.11136 -0.050834 -0.13017 -0.044989 0.35267 -0.016907 0.19494 0.16482 0.065108 -0.41766 -0.10702 0.064031 0.35759 0.1365 0.34658 -0.46562 0.0058811 0.074594 0.0087629 -0.064179 -0.16864 -0.11282 0.025823 0.063964 0.10897 -0.31564 0.26135 0.2111 -0.022839 -0.44903 -0.023566 -0.020465 -0.44057 -0.085514 0.00047885 -0.14633 -0.031368 -0.038121 -0.32645 0.45139 0.033747 -0.019864 0.31786 0.18561 -0.14129 -0.208 0.025627 -0.35958 -0.37983 -0.22909 -0.067757 -0.080272 0.08525 -0.0016922 0.034323 0.054377 0.24591 0.076085 0.14811 -0.075971 -0.03379 -0.2163 0.13921 -0.096682 -0.43649 0.35946 -0.33651 0.16302 -0.17335 -0.098003 0.22065 0.037886 0.08835 0.12217 -0.29741 -0.0071489 0.13405 -0.1083 -0.34274 -0.27741 -0.34945 -0.066447 -0.043859 0.10544 0.19463 -0.0025791 0.36235 -0.044573 -0.11397 0.23509 -0.065067 0.19443 0.05959 -0.15143 -0.18065 0.0097967 0.25106 -0.049603 0.15061 0.12592 -0.20155 0.21069 -0.3963 0.38107 0.050251 0.1276 -0.18871 -0.14792 -0.018802 -0.25309 0.29836 -0.18167 0.056811 -0.10221 -0.10819 -0.32834 -0.0026982 -0.27227 -0.085905 0.066035 0.063834 0.01089 -0.11162 0.064483 0.10942 -0.11052 -0.064262 0.14417 0.12978 -0.041395 -0.20965 -0.16998 0.39393 0.16935 -0.11998 -0.24096 0.25147 0.18621 -0.046571 -0.018601 0.068038 0.010237 0.1885 0.029392 -0.36271 0.18115 0.095094 -0.3658 0.22764 0.32211 0.10975 0.18872 0.18849 0.42843 0.12445 -0.25896 -0.098565 -0.076702 -0.32354 0.062891 -0.012121 0.011595 0.25369 0.27834 0.11653 -0.017762 -0.21542 0.059285 -0.22292 -0.0010049 -0.18789 -0.134 0.11382 -0.15636 -0.27283 0.37632 -0.65669 -0.32844 -0.12603 -0.10476 0.16777 -0.15075 -0.29923 0.098068 0.34947 -0.16215 0.21723 0.092654 0.027018 0.13445 -0.21023 -0.030031 -0.26158 0.0071617 0.031465 0.10009 -0.098539 -0.18082 0.24018 0.047281 -0.06494 0.0716 -0.087346 -0.14802 0.33586 0.106 -0.20494 -0.24158 0.28377 -0.065407 0.17491 0.22223 -0.58562 -0.027194 -0.2003 -0.18229 0.032334 0.045187 0.14182 -0.11039 -0.31975 -0.16427 0.1713 0.22967 0.25804 -0.06112 -0.023489 0.80919 -0.16491 -0.075605 -0.030549 0.06333 0.36541 -0.24004 0.028262 -0.0647 -0.0045752 -0.073388 0.49789 0.46336 -0.089123 -0.26197 -0.23372 0.14352 0.61989 -0.23355 -0.0063044 0.16999 -0.13837 0.039833 -0.31369 -0.030204 -0.096059 0.24505 0.17432 0.19198 -0.22195 -0.1831 0.19716 -0.02561 -0.10813 0.071433
gender -0.020803 -0.34788 0.11418 -0.97389 0.03989 0.18684 0.20203 0.19012 -0.040122 -0.13814 -0.21146 0.59338 -0.22968 -0.15812 -0.29703 -0.063827 0.13759 0.10935 -0.39839 -0.048997 -0.1295 0.030925 -0.10338 -0.3061 -0.35287 0.32761 0.7653 0.053372 -0.45244 0.017406 0.35589 -0.15056 -0.43875 -0.025059 0.10595 -0.056177 -0.16985 0.39997 0.2235 0.21346 -0.19554 -0.13449 -0.1577 -0.25808 0.080724 -0.30398 -0.19895 -0.41716 -0.28442 0.33871 0.22856 -0.11063 -0.23777 0.067578 0.089617 0.071216 0.1397 0.19859 0.076904 0.020234 0.080869 -0.011482 0.053234 0.10588 0.029135 0.31612 -0.29215 0.14716 0.058851 0.058331 -0.16196 -0.078815 -0.076191 0.095588 0.71664 -0.51888 0.04478 -0.19383 0.066712 -0.059281 0.15142 0.17003 0.1652 0.071223 0.033681 0.28148 -0.41647 -0.16757 0.14114 -0.21444 -0.39599 -0.19387 -0.24741 0.14165 0.18221 0.22528 0.19152 0.060986 0.504 -0.27018 -0.047965 0.07526 -0.52695 -0.31037 0.012882 -0.10233 -0.17927 0.26334 -0.17943 0.0027568 -0.17591 0.74004 -0.24932 -0.42822 0.23269 -0.044349 -0.24127 -0.0064565 -0.065001 -0.21871 -0.15243 0.27105 0.10163 0.20617 0.23145 -0.62446 0.0086509 0.30255 -0.2692 0.36419 0.30719 0.31003 0.006853 -0.1351 -0.20067 0.10677 -0.36914 0.159 0.12676 0.10604 0.08473 0.22215 0.32272 0.13127 -0.039274 -0.61177 0.29736 -0.36387 -0.16696 -0.017353 0.38088 -0.18474 -0.23584 -0.58162 0.075938 -0.41058 -0.37161 -0.30484 -0.19052 -0.52981 -0.54666 0.27125 -0.16731 -0.087586 0.46219 0.06775 -0.4942 0.030071 -0.21286 -0.026129 0.0073308 -0.21941 -0.13904 -0.19934 0.23147 0.065483 0.54453 -0.043499 -0.21213 -0.33237 0.21161 -0.40648 -0.15266 -0.25226 0.023115 0.51308 -0.18233 0.30156 -0.36437 0.3489 0.078696 -0.34166 -0.46461 -0.11735 -0.25953 0.0010046 -0.44276 0.36293 0.30687 -0.24346 0.18612 0.047755 0.34069 0.068958 -0.22561 0.26719 -0.10587 -0.080358 -0.066825 -0.06433 0.18194 0.16613 -0.01765 0.0012163 -0.24314 -0.006321 -0.31084 -0.27742 0.043108 -0.12139 -0.042067 -0.29001 -0.25531 -0.060739 -0.33553 -0.050361 -0.054462 -0.078922 -0.030965 0.25787 0.084455 -0.13056 0.095674 0.033839 -0.1091 -0.40093 -0.11003 0.46483 0.08328 0.23553 -0.17093 0.26073 -0.15471 0.24352 0.053907 -0.10561 0.48904 -0.25809 0.3371 0.10706 -0.18588 0.085501 -0.048448 0.30329 -0.16127 -0.001935 -0.21108 0.045744 0.23043 -0.16233 -0.037813 0.35861 0.12544 -0.14049 0.27548 0.30264 -0.20427 -0.12145 -0.1658 0.24014 -0.13586 0.17474 0.055071 0.217 0.065915 0.1423 0.18637 0.34256 -0.092732 0.15433 0.41339 0.16363 -0.53193 0.33646 0.16763 0.308 0.041295 0.29719 -0.39707 -0.18327 -0.13111 0.046669 -0.0042341 0.27512 -0.39982 -0.10118 -0.21728 -0.24044 0.062932 0.3719
brother -0.40368 -0.41112 -0.081206 -0.18215 0.084818 0.126 -0.0080987 0.48075 0.038072 0.29554 -0.20212 0.042766 0.086314 0.3674 -0.10215 -0.056036 -0.030183 0.01673 -0.091009 -0.30018 0.017783 -0.20419 0.14827 0.089134 -0.05831 -0.38826 -0.17066 0.10591 -0.29718 -0.11513 0.31586 -0.038551 0.4512 0.24557 -0.25784 -0.33881 -0.19738 0.20665 0.076534 0.026701 -0.092727 0.13664 0.14561 -0.10435 -0.0055264 0.40252 0.034541 -0.0082791 0.19011 0.029172 -0.075742 -0.16541 0.046921 0.037977 0.10217 -0.0078678 0.22271 -0.10756 0.17032 0.074077 -0.37079 -0.014939 0.17787 -0.50454 0.077706 -0.08136 -0.13516 -0.047591 0.3091 0.10581 -0.16963 -0.09539 0.28566 0.45288 0.086468 -0.037978 0.0049783 0.24682 -0.0393 0.15135 0.24436 -0.025945 0.099468 -0.29832 -0.052326 -0.30011 -0.54622 0.33794 -0.15933 -0.22374 -0.1932 -0.12644 -0.091839 -0.30832 -0.045438 0.4085 0.010037 0.089051 0.032427 -0.42286 0.48741 0.31582 -0.38311 0.28903 -0.26613 -0.40062 0.071339 -0.026513 -0.00092671 0.15717 -0.28677 0.06461 -0.17821 0.48065 -0.21024 -0.057681 0.34793 -0.21897 -0.14704 -0.04009 0.054301 0.052683 0.086058 -0.27875 0.029198 -0.00088128 0.25932 0.31072 -0.24568 -0.075875 -0.30581 -0.20839 0.21518 -0.018433 0.15096 0.04372 -0.6621 0.15852 -0.23312 0.098411 -0.41044 -0.10154 -0.15912 -0.30891 -0.11365 -0.034096 0.1119 -0.41211 0.25916 0.070658 0.074962 -0.015003 0.33574 0.061275 -0.20986 -0.23586 -0.077882 0.37176 -0.10822 0.034015 0.015523 -0.38398 0.3101 -0.39678 -0.14577 0.24127 0.0022009 0.36334 0.30703 -0.36554 0.55018 -0.022002 0.32914 -0.18999 0.2346 0.3707 0.071877 0.0038691 0.11752 0.32931 0.16 0.11343 0.044925 -0.16965 0.255 0.55013 0.36041 0.33014 -0.10722 -0.35112 0.038833 0.070884 0.0058401 -0.12589 -0.17466 0.062484 -0.55746 -0.26872 0.087915 0.44269 0.17221 0.28633 0.12951 0.36148 0.11363 0.025398 -0.27562 -0.27493 -0.19739 -0.15689 0.30357 0.026644 -0.010081 0.57957 -0.082669 -0.16087 -0.086398 -0.31382 0.35935 0.2739 0.10405 0.37823 0.2965 -0.070603 -0.2817 -0.048565 0.2701 0.14461 -0.22146 -0.20319 0.19861 0.18688 0.12747 0.11624 0.15838 -0.12258 -0.024304 0.56299 -0.12759 0.19385 0.16104 -0.019844 0.021517 -0.2779 -0.011151 -0.37545 -0.25539 0.21744 -0.18453 0.16951 -0.012464 -0.10749 0.26725 0.15259 -0.11066 -0.25235 -0.065868 -0.45224 0.2051 0.030378 0.31834 0.0073769 0.1908 -0.11616 -0.35454 0.17792 -0.17358 0.025331 0.13889 0.16704 -0.1034 -0.12089 0.011518 -0.0083507 0.38023 -0.0047226 0.16867 0.14431 -0.048531 0.25624 -0.23083 0.43494 -0.028756 0.16946 0.30956 -0.16595 0.14463 -0.29699 -0.17644 -0.062854 0.28059 0.32773 -0.064249 -0.21368 -0.17427 0.088614 0.11334 -0.27504 -0.04384 0.10365
team -0.32892 -0.011727 -0.25922 -0.01697 0.021811 -0.11778 -0.1227 0.38584 0.52197 -0.019847 0.14781 -0.072348 -0.14664 0.072741 0.48886 0.14372 -0.15923 -0.056934 0.17413 -0.15986 0.064681 0.061634 -0.048079 0.12896 -0.028876 -0.085393 0.24511 0.049148 -0.027245 -0.44598 0.10772 -0.44745 0.15469 0.19755 0.167 0.23113 0.025337 0.15707 -0.013458 -0.094189 -0.066096 0.19276 0.19374 -0.22298 0.18817 0.18418 -0.073827 0.081653 0.21721 0.045462 0.21983 -0.085827 -0.12027 0.11398 0.073238 0.0072456 -0.15032 0.031442 0.23122 -0.1287 -0.019995 -0.14619 -0.0056275 0.10493 -0.061815 -0.27367 -0.12672 -0.20357 0.25729 -0.016279 0.0057499 -0.11046 0.060761 0.29149 0.32441 0.25898 0.14779 0.032558 0.37725 -0.17488 -0.37562 0.20659 -0.034291 -0.0001302 0.0059349 0.069268 -0.14294 0.20056 0.15905 -0.18618 0.32503 -0.14624 -0.12742 -0.25442 0.15003 0.21402 0.18853 0.050333 0.1256 0.028777 0.23222 -0.20626 -0.00040516 0.18543 -0.40506 0.018589 -0.2672 -0.14015 -0.087334 -0.16452 0.25673 -0.10086 0.17661 0.14643 0.24469 0.18389 0.017367 -0.36688 -0.17477 0.015902 0.0032591 0.11001 -0.21225 -0.039219 0.058085 0.074444 -0.0045378 0.24196 -0.10493 -0.089189 0.012744 0.15485 -0.069659 0.062969 0.19386 -0.022587 -0.075903 -0.091735 -0.05328 -0.074168 0.032851 0.088935 -0.059948 -0.080023 -0.0063991 0.11727 -0.0068114 -0.19518 0.05485 -0.44396 0.14489 0.131 0.12882 0.05894 0.15225 -0.083223 -0.32139 -0.025981 0.033746 -0.24525 0.17214 0.10253 0.13902 -0.096107 -0.086857 -0.20269 0.1835 -0.033194 -0.10601 -0.17826 0.51144 -0.057382 -0.28383 0.034598 0.34997 0.3007 0.20356 0.043298 -0.18427 -0.17718 0.21203 0.0785 0.092738 -0.06039 -0.099233 -0.12526 -0.056387 0.091344 -0.22808 0.19431 0.16689 -0.34997 -0.28839 -0.45635 -0.2884 0.028321 -0.44857 -0.47244 0.14075 0.30136 -0.030326 -0.031809 0.11127 -0.13947 -0.26525 0.30806 0.40797 -0.018099 -0.086489 -0.32252 -0.030221 -0.010231 -0.34615 0.27958 -0.24374 -0.061781 -0.29345 -0.20377 0.041938 -0.0063985 -0.065779 0.60437 -0.4146 -0.20579 0.1128 0.074638 0.42193 0.029 -0.080903 -0.077568 -0.34497 -0.072155 0.33458 -0.071881 -0.11275 -0.3509 0.11785 0.021657 0.078607 0.21642 0.012915 0.1607 -0.19331 -0.21125 0.16891 -0.059012 0.31315 0.075203 0.108 0.11963 -0.28422 0.35328 0.088459 -0.1214 0.13043 0.15481 0.28261 -0.053161 0.21852 -0.22041 0.19912 0.027014 0.19613 -0.14233 0.055869 0.21082 -0.0939 0.21632 -0.088411 -0.076909 -0.11893 -0.12879 0.06993 0.10309 -0.23579 -0.35789 0.21205 0.0046788 0.25955 -0.088773 -0.031261 0.33961 0.13494 0.052594 0.14786 -0.11474 -0.133 0.18842 -0.086623 -0.11563 0.16094 0.25267 0.011072 0.27664 -0.015523 0.13258 -0.1058 -0.095899 -0.10187 0.057107
mammal -0.2818 0.09081 0.41308 0.11537 -0.19432 -0.089482 0.34017 -0.39683 0.15172 0.47126 -0.72193 0.19037 -0.5998 -0.15897 -0.38637 -0.16335 0.033745 0.28231 -0.13318 0.025687 0.12947 0.17136 0.0010976 -0.23339 -0.090878 -0.38758 0.46954 -0.48888 -0.046354 -0.23348 -0.024097 -0.49604 0.37349 0.095307 0.24546 0.013779 -0.5286 0.09897 0.38172 0.019206 -0.037381 0.73331 0.0018764 -0.0020875 -0.10845 -0.032643 -0.17448 0.36121 0.23292 0.21964 0.26903 -0.25962 0.5794 0.025424 0.19315 -0.13263 0.36306 -0.013026 0.35282 -0.32794 0.17376 0.40316 -0.49191 -0.17821 0.04185 -0.051971 -0.37925 -0.079815 0.1036 0.19029 -0.36421 -0.24628 -0.42156 0.25784 -0.31887 -0.075402 -0.27356 -0.02718 0.19923 -0.25872 0.12045 0.56804 -0.17489 -0.39505 -0.13433 0.32984 0.23137 -0.086128 -0.09188 0.045712 0.23233 -0.068249 -0.72142 0.12632 -0.4119 0.017002 -0.12396 0.027963 0.43226 0.40102 0.074295 -0.37792 -0.012813 -0.042304 -0.040665 -0.21566 -0.092947 -0.3199 0.14912 -0.78815 -0.11457 -0.092787 -0.26629 -0.4402 0.36186 0.31502 -0.24087 -0.23491 -0.20809 -0.32413 -0.2704 0.26224 -0.40849 0.39407 0.37263 -0.14097 0.56446 0.19784 -0.10504 -0.28567 0.31323 0.039313 -0.35807 -0.1701 -0.10584 -0.18464 -0.20997 -0.047413 0.62389 0.11706 -0.18424 0.021917 -0.40513 0.075259 0.16175 0.34909 -0.10889 -0.37995 -0.12322 0.12909 0.63219 -0.3715 0.15151 -0.32978 -0.48622 -0.19361 -0.14282 -0.41153 0.38541 -0.51326 -0.14327 -0.25703 0.038365 0.18891 0.12786 -0.042366 0.38256 0.0086729 0.072281 0.071961 0.71704 -0.34489 -0.20115 -0.082339 0.17308 0.10211 0.29792 -0.43501 0.093107 -0.37588 -0.095245 -0.14953 0.096707 0.15948 -0.0048395 -0.27126 0.46766 0.19571 -0.073192 -0.027719 0.3905 -0.42416 -0.48528 -0.43863 -0.22943 -0.21339 -0.18071 -0.53514 0.28663 -0.67187 0.099888 -0.35132 0.41995 0.31177 -0.31359 -0.66876 -0.19402 -0.019796 0.14502 -0.18854 -0.17649 -0.067275 -0.14618 0.20007 0.0084025 -0.0029079 -0.011152 -0.57235 0.23121 0.11525 0.44436 0.33013 -0.19108 -0.19389 0.22557 -0.1563 0.039594 -0.036726 -0.33058 -0.26467 0.28991 -0.49989 0.19926 0.22971 0.32445 -0.094542 -0.55506 -0.1827 -0.13129 0.21084 -0.39608 0.13272 0.30102 -0.013719 0.14835 -0.2333 0.24206 0.033697 0.0029219 0.62431 0.47291 0.16394 0.07307 -0.042692 -0.31035 0.36629 0.17244 -0.17618 0.58614 -0.017201 -0.34546 0.15976 -0.00088537 0.53425 -0.18739 0.0077623 -0.37242 0.18414 -0.097943 -0.061875 0.0068613 0.27782 0.19157 -0.074964 -0.15752 0.12774 0.46553 0.15603 -0.12453 -0.012658 -0.012285 -0.1775 0.36446 0.55822 -0.032351 0.11751 -0.10385 0.13232 -0.36155 0.27907 -0.38873 0.19367 0.18601 0.08209 -0.1043 0.052778 -0.036126 -0.2621 -0.04073 -0.31703
round 0.35726 0.14711 0.013348 0.029884 -0.12257 0.21726 -0.227 0.1522 0.23345 -0.026334 0.29853 -0.14254 -0.19509 0.022287 -0.25595 -0.51436 -0.02187 -0.56435 0.051494 -0.12525 -0.21465 -0.1779 -0.30228 -0.32977 -0.038255 -0.21145 0.23463 0.055142 -0.22468 0.018601 -0.074266 -0.33495 0.095994 -0.065415 0.004726 -0.28108 -0.10136 0.085137 -0.16667 0.092054 0.051289 0.045982 -0.092254 -0.039458 0.1363 -0.2059 -0.064008 0.41253 -0.17772 -0.10842 0.39878 -0.25842 0.11964 -0.012951 -0.34099 0.17919 -0.14008 0.15741 0.057967 -0.15016 -0.62589 -0.14844 0.039321 0.0010389 -0.23381 -0.59416 0.25536 0.15305 -0.010233 -0.33193 -0.16092 0.35588 -0.32098 0.057911 0.12742 -0.25604 -0.24634 -0.0052036 0.12185 0.40834 0.23687 -0.11112 -0.081226 -0.47627 -0.16099 -0.02632 -0.19966 0.021473 0.4232 -0.20952 -0.21513 0.39729 -0.19203 -0.25991 -0.33706 -0.054656 0.21378 -0.033253 0.1901 -0.088233 0.0040405 -0.11679 -0.19111 0.27819 -0.23494 0.25495 0.10123 0.060406 0.10369 -0.35465 -0.21583 0.077726 0.37302 0.19045 0.011889 -0.33026 0.37077 0.002353 -0.065766 0.50341 -0.20394 -0.14354 0.23437 -0.066075 0.28858 -0.12591 0.10739 0.060549 -0.12082 -0.11529 0.26367 0.19226 0.018651 -0.067484 0.11966 -0.041235 -0.30971 -0.0044455 0.13593 -0.072126 -0.19301 0.065072 -0.18325 0.050332 0.18646 -0.13226 0.092535 -0.15394 0.67266 0.038234 0.22859 0.02977 0.13557 -0.08637 -0.14499 -0.25322 -0.18111 -0.050197 0.054148 0.080286 -0.0064121 0.29147 0.33447 0.20009 0.11262 -0.30799 -0.097453 0.19037 -0.36618 0.020823 0.17419 -0.0014563 0.039647 -0.11281 -0.012739 0.45453 0.40358 -0.064327 -0.41176 -0.27763 -0.44736 0.23516 -0.10277 0.12601 -0.056954 -0.080567 0.38136 -0.10824 -0.45661 0.23057 0.0058465 -0.016876 -0.047681 -0.12204 0.030764 -0.0022896 -0.27724 0.14683 -0.37256 0.21911 -0.11827 -0.0014865 0.2689 -0.099802 -0.091302 0.24758 0.012521 -0.041148 0.092077 0.18627 0.12726 0.34277 -0.25721 0.091654 -0.33143 -0.44667 0.21983 -0.47268 -0.076435 0.31155 0.11631 0.3776 -0.28677 -0.007137 -0.085255 -0.67943 0.030408 0.082859 0.058153 0.0051857 0.10923 -0.28403 0.39134 0.1157 -0.13353 0.066076 0.049289 0.12787 -0.049009 0.13261 0.085876 -0.017392 0.077023 0.059437 -0.085979 -0.088141 -0.22222 0.037964 0.17178 0.20007 0.28483 0.18961 -0.14568 -0.24663 0.048145 -0.20688 0.40732 0.089926 -0.27873 -0.16755 0.56456 0.096528 0.016191 -0.034853 -0.076675 0.067366 -0.16077 0.093215 0.23054 -0.33966 0.14595 -0.054001 0.15252 0.19683 -0.09705 -0.17739 0.19176 -0.10891 -0.16389 -0.15775 -0.2354 0.034781 0.11609 -0.17401 -0.47319 -0.1366 -0.16829 0.15798 0.27557 -0.08336 -0.16383 0.03481 0.12511 0.24102 0.081543 0.36618 -0.048659 -0.0055586 -0.36703 -0.061221
clothes 0.11912 0.15687 -0.17064 -0.37256 -0.042764 0.2632 0.22608 0.45961 0.36004 0.095917 -0.18532 -0.24177 -0.25239 0.13695 0.57114 0.16204 0.26095 -0.29435 -0.1065 -0.25632 -0.15019 -0.071832 -0.18757 0.24684 -0.42939 -0.061802 -0.0013906 0.097058 -0.00083445 0.06997 0.27722 -0.184 0.24548 -0.19905 -0.053334 -0.23667 -0.15755 -0.49606 0.18961 0.013401 -0.091913 0.45173 0.24075 -0.090039 -0.5375 -0.24771 -0.54512 -0.3023 -0.32998 -0.055918 0.36804 0.11849 -0.062852 0.065353 0.16995 0.077084 -0.19033 -0.094457 -0.24197 -0.13848 0.05265 -0.1121 0.48778 0.048277 0.052329 0.24863 -0.045099 0.14414 0.24769 0.064047 -0.065209 0.065297 -0.10928 0.25743 -0.047812 -0.17455 -0.44053 0.4015 0.15321 -0.28117 0.063635 -0.0060605 0.14446 0.034441 0.19716 0.10711 -0.34822 0.15777 -0.045406 -0.023849 -0.30469 -0.26351 -0.25219 -0.027919 0.00063081 0.13373 0.11582 0.31401 -0.12108 -0.033133 0.2301 0.002384 -0.26303 -0.39148 -0.080464 -0.11779 0.23612 -0.28558 0.018474 0.25046 0.054388 -0.0808 -0.20454 -0.11185 0.054406 0.24285 0.14871 -0.17907 0.023226 0.050555 0.070643 -0.079306 0.41815 0.15278 0.11436 0.0064183 -0.0087033 0.34387 -0.26988 -0.20005 -0.17449 0.2317 0.33031 -0.21797 0.07771 -0.084487 -0.065086 0.039224 0.04205 0.089088 -0.25169 0.093597 -0.0033258 0.54722 -0.15356 -0.20425 0.10615 -0.13162 0.0042253 -0.041323 0.22993 -0.52985 0.11686 -0.45816 -0.39395 -0.41811 0.043909 0.14469 0.37373 -0.20901 -0.32739 0.22722 0.26197 -0.13289 0.1928 0.19502 -0.17016 0.093367 0.28882 0.1649 0.21472 -0.48613 -0.041332 -0.33733 0.45746 -0.037547 0.44332 -0.25341 -0.094283 0.21776 0.10558 0.090397 0.41023 -0.0026891 0.024738 0.17852 -0.21211 0.095136 0.074837 0.023449 -0.18722 0.26245 0.19272 -0.0046538 -0.37267 -0.091577 -0.18933 0.20635 0.12131 0.27754 -0.050239 -0.089614 0.31949 0.16876 -0.11379 0.17175 0.0172 -0.14745 0.14951 -0.083203 0.051518 0.023156 0.13179 -0.28508 -0.50273 -0.26839 -0.037075 -0.23549 -0.21843 -0.37178 -0.029414 -0.19268 0.17647 -0.11494 0.0072364 -0.12787 0.11755 -0.0050272 0.23649 -0.059874 -0.2345 0.05944 0.18046 -0.0059199 -0.045159 0.106 -0.35276 -0.11149 -0.011279 -0.056241 0.14198 0.42282 -0.48758 0.082421 0.13452 -0.10559 -0.25019 0.19927 0.042213 0.10766 0.12097 0.11663 0.012163 -0.017369 -0.054146 -0.079154 0.00044135 -0.18435 0.54088 0.39604 0.09657 0.13672 -0.016204 -0.061772 -0.30636 0.35006 -0.17445 -0.082641 -0.25636 0.24246 0.069359 0.24445 0.30583 -0.073529 0.047525 0.25305 -0.11644 0.39589 -0.23737 -0.55421 -0.20507 -0.11767 0.56686 0.11788 0.35097 0.42355 0.096032 0.20246 0.081103 -0.26554 -0.026898 0.20798 0.13061 -0.053344 0.035616 -0.013582 -0.0080273 0.1615 -0.39525 -0.20841
carnivore -0.27016 0.27006 0.28149 -0.19188 -0.27192 -0.024261 0.29358 -0.33886 0.22367 0.59898 -0.41434 0.26367 -0.28935 0.17204 -0.16804 0.057228 -0.23721 0.61476 -0.26835 0.018236 0.03221 0.33547 -0.13907 0.039757 0.071385 -0.1093 0.34893 0.03889 -0.034653 0.2151 0.1846 -0.65992 -0.030701 -0.29146 0.36131 0.056946 -0.30935 0.30888 0.13636 0.12671 0.3762 0.63241 0.12519 -0.52371 -0.27527 -0.18343 -0.12054 0.15126 0.18186 0.13361 0.20127 -0.27015 0.31517 -0.30597 0.53378 -0.12107 0.4763 0.093117 0.031427 -0.19298 -0.024416 0.45562 -0.55185 -0.31492 0.09239 0.38525 -0.18576 -0.06249 0.24384 0.30262 0.094707 -0.55294 -0.24955 -0.22285 -0.092718 -0.0013184 -0.65881 0.037767 0.13601 -0.066452 0.29734 0.591 -0.21948 -0.62002 0.15807 0.52175 -0.18579 -0.18143 0.1942 -0.15822 0.24975 -0.030616 -0.49029 0.29753 -0.1077 0.25137 0.19758 -0.1705 0.051548 0.13808 0.40397 -0.15174 -0.32187 -0.3818 0.095693 -0.12134 -0.2309 -0.17251 -0.079483 -0.48223 0.058047 -0.27473 -0.090736 0.15122 0.35091 0.018614 -0.12958 0.23378 -0.50944 0.22285 -0.1749 0.36753 -0.33185 0.16481 0.12318 0.12483 0.11123 0.14627 -0.16822 0.14247 0.14598 -0.084134 -0.13183 -0.060537 0.092139 -0.25354 -0.48581 -0.069865 0.30018 0.31436 0.12749 -0.4915 -0.1381 0.13509 0.41386 0.34366 -0.29037 -0.3816 0.05979 0.25708 0.23902 -0.57912 0.41539 0.20715 -0.63809 -0.28664 0.11208 -0.35238 0.082926 -0.15867 -0.02756 -0.21881 0.29645 0.076182 0.19931 -0.080821 -0.15808 -0.27366 0.0040246 -0.12677 0.26066 -0.24497 0.093904 -0.19823 -0.084424 0.23582 0.16847 -0.256 0.22637 -0.28016 0.12997 -0.21446 -0.064042 0.01539 0.049979 -0.33089 0.40275 0.2595 0.089483 0.14628 0.61274 -0.19318 -0.34684 -0.51986 -0.046307 0.091391 -0.37217 -0.070895 0.11385 -0.0094771 0.014868 -0.33072 0.30389 0.90503 -0.14095 0.043107 -0.13766 -0.21783 0.041638 -0.16108 0.044946 0.038116 -0.29254 0.1735 -0.4347 -0.089945 0.076811 -0.2275 0.14388 0.16864 0.40389 0.10721 -0.070004 -0.10112 -0.080024 -0.30428 -0.15565 -0.030614 -0.51416 -0.25036 -0.082629 -0.25959 0.22953 0.083805 0.11332 0.056282 -0.40156 0.33944 -0.14782 0.074553 0.066993 0.29718 -0.02778 -0.14662 -0.044213 -0.42892 0.35285 0.34558 0.098613 0.52068 0.036671 0.089397 -0.036622 0.30595 -0.29652 0.24201 -0.13578 -0.29502 0.4047 -0.19119 0.045814 0.30643 -0.061823 0.090355 -0.081368 -0.31082 -0.10275 0.33158 0.094885 -0.078615 0.20961 0.0077038 -0.10721 0.14098 0.081814 0.20653 0.072763 -0.087686 0.13968 -0.15407 0.29747 0.034901 0.2448 0.33475 -0.090517 -0.20292 -0.0069592 -0.11716 0.11525 0.29946 -0.21023 -0.12864 0.277 0.12135 -0.56131 0.21095 0.089866 -0.036444 -0.015903 -0.23085
sign 0.094801 -0.03229 -0.23613 0.091675 0.052115 0.45464 0.016185 0.11515 -0.0076404 0.038383 -0.091448 -0.16194 -0.22606 -0.082546 0.10605 -0.095482 0.40035 -0.023433 -0.089998 0.033868 -0.13591 0.081895 0.09625 0.10897 -0.03006 0.034105 -0.039846 0.1811 -0.33978 -0.037776 -0.050219 -0.0096408 -0.10067 -0.054156 -0.077729 0.32872 0.25363 -0.27337 0.01832 0.045664 -0.14515 0.37918 -0.12678 -0.09627 0.031312 -0.4416 -0.21487 0.03386 0.17557 -0.67976 0.24392 -0.06729 -0.037135 0.069815 0.032765 0.024649 0.1356 -0.12186 -0.30868 -0.21792 0.021578 0.24791 0.045703 0.14436 0.055561 -0.038977 0.025406 -0.23754 0.15324 -0.41469 -0.16515 -0.10325 0.03149 -0.17615 -0.17572 -0.19873 -0.40973 0.6309 -0.072177 0.16767 -0.17743 0.062673 0.12335 -0.059023 0.29708 -0.059262 -0.49635 0.30746 -0.12846 -0.14773 -0.051531 -0.039552 -0.20013 -0.15784 0.050064 0.21006 0.26884 -0.19168 0.10436 -0.27343 0.063137 -0.038291 -0.25528 -0.0038586 -0.034228 0.27869 -0.15313 0.036647 0.32742 0.018113 -0.19942 -0.05524 0.14075 0.03752 -0.3009 0.028394 0.21113 0.32583 0.1243 0.26913 -0.20495 0.16047 -0.21558 -0.021741 0.1458 -0.17855 -0.1141 0.083522 -0.10859 0.15373 -0.42184 -0.097557 0.3179 -0.069731 -0.061099 -0.0093863 -0.1528 -0.12833 -0.074451 -0.15168 0.18698 0.07757 -0.3179 0.010216 -0.11875 0.022806 -0.035418 -0.0062689 0.11419 -0.050173 -0.11533 0.20491 0.19772 -0.12382 0.36381 -0.22025 0.077098 -0.18086 0.05156 -0.19154 -0.28409 0.36011 0.36265 -0.16118 0.27205 0.1278 0.25666 0.27402 -0.03991 -0.0026388 0.052607 -0.058424 -0.1794 0.26168 -0.014947 -0.12122 -0.17057 -0.21714 0.31756 -0.033313 -0.11404 0.18654 0.17267 0.13957 0.34752 -0.010287 -0.29154 0.05249 -0.21467 0.35659 0.020714 -0.31817 -0.04332 -0.19465 0.069912 0.019151 -0.33109 -0.39887 -0.15062 0.32492 0.20763 -0.02315 -0.030511 -0.20965 -0.072536 -0.21719 -0.12438 0.11078 0.20415 -0.25699 0.072798 0.0011155 0.28946 -0.060942 -0.41015 -0.35074 -0.049174 -0.13722 0.27702 0.11659 -0.054015 0.030127 -0.42748 0.051046 -0.23739 0.2296 -0.28668 0.026408 0.25594 0.15864 -0.042321 -0.4015 0.32729 -0.39963 0.3499 -0.14203 0.14285 0.24444 -0.49011 0.20662 0.32917 -0.27115 -0.28061 -0.0019692 -0.089303 -0.19721 -0.090053 0.24598 -0.34264 0.35684 -0.33353 -0.17045 0.32915 -0.28329 -0.020013 0.011093 -0.082208 -0.0034603 0.36799 -0.0060023 0.035002 -0.26641 0.25708 0.14402 -0.1624 0.48283 -0.23242 -0.049791 0.37126 -0.18122 0.092873 0.025678 0.24381 -0.04036 -0.079513 -0.16779 0.24465 0.043863 -0.083719 -0.12494 0.20721 -0.098585 -0.10301 -0.11084 -0.20128 0.24847 -0.31952 -0.14127 -0.11396 -0.083275 -0.051565 -0.15496 0.097616 -0.10211 0.15891 0.10644 0.18126 -0.47176 0.10787 0.15184
street 0.12262 -0.065092 -0.38194 -0.098917 0.023553 0.20838 -0.024885 0.59918 0.54192 0.037883 -0.099196 -0.031599 0.063693 -0.34333 0.1936 -0.075278 0.061807 -0.50225 0.0076505 0.14118 0.097926 0.048748 -0.094197 0.32945 0.074508 0.084366 0.21587 0.41198 -0.18754 -0.023906 -0.005481 -0.44037 0.011353 -0.18554 0.051279 -0.32602 -0.15945 -0.27345 -0.17703 -0.5997 -0.16566 0.21655 0.0821 0.066342 -0.071353 -0.21031 -0.11831 -0.15602 -0.28433 0.41327 0.22215 0.1409 0.13745 -0.14192 0.16079 0.20072 -0.19063 0.022024 -0.23501 -0.085114 0.13533 0.24338 -0.04606 -0.15721 -0.096475 -0.13491 0.041633 0.0008162 0.26391 -0.23951 -0.31343 0.06147 -0.10391 -0.052399 -0.10452 -0.085353 0.05361 0.33802 -0.099607 0.59006 0.022778 -0.20087 -0.069259 -0.28568 0.065667 -0.16728 -0.2813 0.060471 0.088466 0.0159 0.17274 -0.27231 -0.18741 0.28213 0.015505 -0.01359 -0.14121 0.00018384 -0.042524 -0.33734 0.10859 0.23467 -0.25667 -0.30501 -0.20431 0.094987 -0.048464 -0.19316 0.04008 0.25198 0.16358 0.06347 -0.28968 -0.029391 -0.39383 -0.24845 0.020608 0.23699 -0.19552 -0.14546 -0.33016 0.082769 0.06586 0.081388 0.36886 0.23554 0.26418 0.051146 -0.24861 0.084954 0.17331 -0.0070436 0.11603 0.11039 -0.15012 0.25979 0.11018 -0.2758 0.16427 0.086902 -0.0029888 0.25603 0.020316 0.12557 0.28476 -0.16222 0.17986 -0.18009 0.12689 0.17962 0.11592 -0.068848 0.28605 -0.32528 0.0044837 -0.41189 0.20624 -0.17492 0.30748 -0.03771 -0.16725 0.26127 0.52564 -0.31411 0.1104 -0.091227 -0.068872 0.073961 0.076073 -0.020859 0.16224 0.045246 -0.21947 -0.096053 0.029247 -0.024246 0.34421 0.13696 0.22251 0.098976 0.035263 -0.20799 -0.14145 0.2807 0.043984 -0.087364 -0.1084 0.35873 -0.06346 -0.038345 -0.17169 0.30005 0.47012 -0.08757 0.34004 0.07577 0.011646 0.39512 0.30471 0.14183 0.21702 -0.098139 0.28426 -0.002857 -0.05317 0.26787 -0.087553 -0.053083 0.058711 -0.083588 -0.39454 -0.2031 0.44482 0.33515 -0.37425 -0.059819 0.16466 -0.31386 0.095081 -0.26556 -0.24193 -0.044885 0.0084062 -0.1446 0.037253 -0.16094 0.47968 -0.027869 0.18852 -2.551e-06 -0.12699 -0.15299 0.1872 -0.20644 0.18779 -0.25972 -0.1421 0.11484 -0.3181 -0.13604 0.13272 -0.18883 -0.25635 -0.02125 0.11226 0.029794 0.06125 -0.05943 -0.035019 0.056976 -0.099739 0.13049 -0.011243 0.11826 0.44628 -0.076833 0.39912 -0.57562 -0.051039 0.010091 -0.1781 -0.019412 -0.018529 0.045296 -0.46003 0.18442 -0.14542 0.078832 -0.008758 0.14683 0.33263 0.3643 0.025104 -0.15764 0.56345 -0.020564 -0.046102 0.28494 -0.43219 -0.27057 0.045687 0.24173 0.41767 0.18067 0.048437 0.13085 -0.025035 0.14631 0.13888 -0.033471 -0.34986 -0.13618 0.36251 -0.15159 -0.34905 0.30065 0.097889 -0.099937 -0.15953 -0.098785
video 0.29915 -0.026364 -0.16599 -0.29888 -0.18218 0.23964 -0.27461 0.3967 0.070962 0.085532 0.10391 0.058234 -0.20407 0.24155 0.53034 -0.19587 -0.20764 -0.14754 0.15049 -0.051478 0.042411 -0.35097 0.31712 -0.14185 -0.063261 0.32243 0.23988 0.2155 -0.018585 -0.15049 -0.071895 0.2819 -0.0058062 0.032033 -0.1776 -0.25917 -0.083613 -0.097737 0.2771 -0.054607 -0.047668 0.081442 0.18967 0.066713 -0.085486 0.056196 0.0086865 0.17753 0.36527 0.44178 0.11022 0.1442 0.25418 -0.0099797 0.33616 -0.19194 0.12348 0.203 0.091907 0.18018 -0.083771 -0.099736 0.31405 -0.20602 0.10182 -0.043073 0.20999 -0.073513 0.10572 0.44856 0.027834 -0.47528 0.14 0.035067 -0.8857 0.11141 -0.032815 0.26149 -0.031861 -0.029298 0.058821 0.12666 -0.11931 -0.11891 0.15221 0.3506 -0.50505 -0.002393 0.12423 -0.35449 -0.060402 0.082923 0.074041 0.047664 0.074894 0.41756 0.28128 -0.11775 -0.1893 -0.040355 0.62711 -0.073567 0.18318 0.071156 -0.31031 -0.052862 0.045268 0.039619 -0.15147 -0.065589 0.24841 0.017917 0.1707 -0.32351 -0.24055 0.053139 0.18907 0.015988 0.29362 0.047861 -0.034253 -0.087326 -0.32589 0.093625 0.24518 -0.229 0.32094 -0.03121 0.06301 -0.075346 0.22063 -0.099337 0.047323 0.0055473 0.18161 -0.1071 -0.49694 -0.34214 -0.30996 -0.25541 -0.13829 0.41915 -0.45995 -0.24406 0.16929 0.35684 -0.21526 -0.50508 -0.11747 0.33639 -0.1968 0.10717 -0.11225 -0.17609 0.02785 -0.5314 0.43036 -0.010962 0.053654 -0.11549 -0.012466 -0.17455 0.31381 0.083755 0.31517 0.26401 0.058566 0.22944 -0.093419 -0.00068375 -0.013703 -0.014578 0.048622 -0.23241 -0.36938 -0.43941 0.10497 -0.40045 -0.33462 0.086243 0.087203 -0.35667 0.15955 0.26271 0.1827 -0.030677 -0.16866 0.34671 -0.258 -0.23904 0.099188 -0.079785 -0.32466 0.011323 0.090649 0.013351 -0.00099411 -0.20315 0.32484 -0.19445 -0.17444 0.049868 0.060625 -0.16444 -0.2958 -0.066027 -0.30953 0.13439 -0.10724 -0.0097712 -0.33788 0.075569 -0.12563 0.0066991 -0.33952 -0.23585 -0.099343 -0.55109 -0.40501 -0.03706 -0.30791 0.049872 0.27538 0.10273 0.079715 -0.016971 0.2196 -0.17562 0.16123 0.048979 -0.16952 -0.0041788 0.043658 -0.089367 -0.0033213 0.028015 -0.24682 0.14435 0.27899 0.19582 -0.30471 -0.20195 0.010235 0.12489 0.42705 -0.017803 -0.029459 0.24251 0.19431 0.29725 -0.19743 0.43084 0.19442 -0.0041865 -0.079023 0.12859 0.1828 -0.10825 0.48293 0.30935 -0.2028 0.26384 0.24605 0.064334 -0.32251 0.32271 -0.28641 -0.13694 -0.32518 0.25656 0.18072 0.08797 -0.14827 0.20999 0.205 0.13456 0.065158 0.053159 0.0018022 -0.24325 -0.067636 -0.20142 -0.066638 -0.089711 0.38392 0.3539 0.1632 0.012534 0.19051 -0.14302 -0.1299 0.18665 0.32378 0.016686 0.15079 0.23465 -0.25783 -0.066275 -0.020821 0.18708
lawyer -0.20744 -0.42276 -0.056105 -0.16972 0.025865 0.58918 -0.085111 0.43023 0.070968 0.15466 -0.092228 0.15576 -0.30294 0.097207 0.23093 0.0094077 -0.36825 -0.27503 -0.20285 -0.00889 0.10757 0.15752 -0.10141 -0.22448 0.19897 -0.090762 0.056948 0.031127 -0.34159 -0.084398 0.49699 0.035163 0.17266 -0.22236 0.15707 -0.14832 0.080093 -0.61549 -0.44543 -0.0034591 -0.44856 -0.1757 0.20817 -0.035612 -0.2506 0.20648 0.042211 0.14603 0.65736 0.14087 0.47388 -0.39734 -0.085918 0.24485 -0.067013 -0.076875 0.03128 -0.2353 0.1651 0.075728 -0.27507 0.065478 0.16539 -0.27819 -0.22384 -0.30284 0.12478 0.26382 0.27808 0.17633 -0.17373 0.070531 0.19173 -0.11717 0.11074 -0.1212 0.27792 -0.20834 0.018117 -0.42588 0.12368 0.25271 -0.082547 0.013242 0.18706 0.18082 -0.34606 0.33575 0.21319 0.17638 0.20018 0.039485 0.14759 -0.091941 0.312 0.69062 -0.041025 0.047879 0.16654 -0.2703 0.31145 0.41003 -0.18975 0.25637 -0.22367 -0.34333 -0.20502 -0.19754 0.19665 0.098512 -0.17992 0.383 -0.1963 -0.11996 -0.02218 -0.0069989 0.10859 -0.20436 0.087177 -0.066548 0.046833 0.51345 -0.12239 0.066437 -0.20285 0.38715 0.35852 0.46783 -0.49497 0.19544 0.16217 -0.19807 0.2648 0.12295 0.081598 -0.04091 0.1187 -0.30074 -0.45111 -0.11845 -0.34728 0.13743 0.17586 0.18965 -0.11704 0.33806 -0.38243 0.17004 -0.044482 0.12554 0.32208 -0.10791 0.5235 -0.066679 -0.32314 0.049679 0.17902 0.043029 0.24744 0.0033017 -0.28763 -0.20765 0.29029 -0.3439 0.37255 -0.26272 0.0060729 0.35919 0.15903 -0.21448 -0.046236 0.18297 0.39143 0.18892 0.15808 0.033136 -0.048169 -0.14047 0.015424 0.045116 0.010984 0.14358 -0.046043 -0.11223 0.083655 0.33878 0.11761 0.1709 -0.27763 0.16559 0.18209 -0.095226 -0.22185 -0.25933 -0.50491 0.12143 -0.32304 -0.034253 -0.080035 0.016983 0.029971 0.18017 0.089893 0.27781 0.26674 0.32767 -0.33607 -0.17251 0.020837 -0.23669 -0.02477 0.23027 0.0046683 0.30833 -0.20322 0.14494 -0.26465 0.10172 0.21903 0.072964 -0.18188 0.16402 0.090859 -0.067338 -0.043022 -0.007894 0.12625 0.044152 0.088228 0.045859 0.14257 -0.5589 -0.15685 0.32132 0.15114 0.34111 0.063225 0.054498 0.0075685 0.34304 0.1441 0.15646 -0.23923 -0.34786 -0.087064 -0.65802 0.088977 0.6327 0.11229 -0.044138 -0.021212 0.0049734 0.14671 -0.32871 -0.16096 -0.16447 0.17947 -0.36663 -0.22979 -0.30261 -0.070133 0.057502 -0.16553 -0.25646 -0.16982 0.38021 0.2063 0.095096 -0.25042 0.07943 -0.32914 0.098552 -0.041504 0.37811 0.17139 0.10472 -0.10363 0.12799 -0.11518 -0.18375 -0.13026 0.004498 0.3208 -0.0080676 -0.091338 -0.63775 0.068338 0.17118 0.02692 0.12832 -0.46684 0.038489 0.21095 -0.31586 -0.098752 0.11923 0.1093 -0.34371 -0.29284 -0.095763
depression -0.13332 -0.14767 -0.48031 -0.58825 -0.038051 0.13776 -0.24091 -0.36305 -0.020268 0.3305 0.3652 0.66675 -0.11686 0.34525 -0.23024 -0.22464 0.039725 -0.21852 -0.25948 -0.051891 0.37887 0.21299 0.058529 0.01721 -0.097341 -0.21313 0.27875 0.074657 -0.22599 -0.42119 -0.13972 -0.052626 -0.25193 0.32231 -0.014005 0.017157 -0.42917 0.11742 0.022101 0.23401 -0.10192 -0.10069 0.064069 -0.18774 -0.13464 -0.31498 0.28806 -0.020242 -0.39932 0.13835 0.39928 -0.28331 -0.032775 0.13119 0.13993 -0.038616 -0.10107 -0.099747 0.13151 0.15922 -0.2529 -0.17607 0.016617 0.34679 -0.050943 0.047581 -0.17115 -0.14408 0.49557 -0.12637 0.17271 -0.31547 -0.40197 0.035315 0.3799 -0.36515 -0.064239 0.047573 -0.10622 -0.17135 0.24829 -0.18545 0.0099252 -0.029019 0.17154 -0.24878 0.10305 -0.086808 -0.28289 -0.23403 -0.21038 -0.012252 -0.086561 -0.19085 -0.45886 0.45378 0.42912 0.18843 -0.093159 -0.043995 -0.28305 -0.089805 -0.50335 0.15279 -0.10994 0.35036 -0.0907 0.24411 -0.033667 -0.10881 -0.12692 -0.0482 -0.29751 -0.18366 -0.27432 0.16901 -0.1762 -0.12446 -0.01684 -0.032489 -0.53106 0.24615 -0.19393 0.62504 0.24104 0.17128 -0.13325 0.1368 -0.15385 0.13945 0.25364 0.4627 -0.0047674 0.009145 0.021827 0.064028 -0.098346 -0.089033 -0.025608 -0.066825 0.28545 0.032461 0.37534 0.065778 0.22885 0.19254 0.18956 -0.34258 0.13715 0.30627 0.54795 0.25308 0.23667 0.38683 -0.26562 0.27161 -0.26689 -0.30993 0.27022 -0.0058639 -0.12211 -0.26135 0.23267 -0.11728 0.19522 0.24114 -0.35365 0.24782 -0.12754 -0.079596 0.3411 -0.33582 -0.28222 -0.028506 0.045419 -0.10635 -0.11816 -0.081683 -0.22277 -0.17619 -0.37398 0.086252 -0.16307 -0.0070082 0.054511 0.19924 0.57565 0.035851 -0.11915 0.21593 0.20901 -0.024762 0.31608 -0.15008 0.066656 0.34343 0.014293 -0.1018 0.15439 0.32357 0.16759 -0.15444 0.15033 0.010297 0.53695 0.15444 -0.15815 0.050884 -0.062012 0.12775 -0.23563 0.016734 -0.2088 0.22244 -0.2581 0.047167 -0.042541 -0.35204 0.014161 -0.14738 -0.27837 -0.31101 -0.069866 -0.19773 -0.36001 -0.050789 -0.043428 -0.063787 -0.12875 -0.011302 -0.06107 -0.31678 0.39516 -0.083078 -0.037544 -0.74613 0.1724 -0.0148 0.10966 -0.22003 0.22291 0.20951 -0.45851 -0.010864 -0.23893 0.02125 0.028596 0.75348 -0.012194 0.7535 -0.43201 0.42078 0.12231 -0.31723 -0.55581 -0.048671 -0.18722 -0.25743 0.17341 0.50263 0.00058563 -0.37754 0.2668 0.042795 0.046045 0.084871 -0.036366 0.019582 -0.072315 0.14442 0.11554 0.18244 0.06048 -0.11408 -0.069393 0.2425 0.48981 0.23547 -0.55069 0.19378 0.49955 0.10545 0.47133 0.030232 0.26273 0.02846 0.57298 0.23973 -0.35401 -0.1564 0.17621 0.44207 -0.074344 0.15264 -0.53964 0.095677 -0.024003 -0.46278 0.28034 0.060571
index -0.29328 -0.061126 0.32612 -1.0185 0.1633 -0.57629 0.19272 -0.2045 0.43853 -0.34431 -0.30085 -0.16318 0.14781 -0.022572 0.36299 -0.44277 0.064074 -0.2573 -0.13709 -0.19674 -0.11371 -0.3095 0.029843 0.19765 -0.094315 -0.1894 -0.40055 0.50108 0.18462 0.29973 -0.14221 -0.85913 -0.55278 0.37355 -0.11172 0.62533 0.98615 0.33299 -0.082986 -0.19265 0.15659 0.42785 -0.078157 -0.32531 0.38342 0.021973 0.21034 0.13138 -0.11529 -0.19405 0.52224 -0.17818 -0.068348 0.33761 0.078831 0.07394 0.16096 0.026613 -0.096652 0.038783 -0.17715 -0.0068185 -0.51133 -0.036755 -0.15449 -0.59184 -0.4032 0.023099 0.45178 0.13985 -0.1403 -0.40075 0.48962 0.048574 -0.11294 0.03556 -0.44862 0.077454 0.0054074 0.24274 0.34749 0.39242 -0.41705 -0.38659 0.11421 0.39003 -1.0372 -0.10018 -0.45546 -0.046239 0.27778 0.36549 0.2463 -0.19393 -0.02529 -0.11157 -0.30111 -0.35321 0.14858 -0.099505 -0.67797 -0.74899 -0.62643 -0.63147 -0.20458 0.43708 -0.16765 -0.019348 -0.3195 0.2473 0.20168 0.30527 0.018486 -0.75907 -0.14171 -0.033009 -0.26353 -0.42129 0.082879 -0.0052817 -0.36411 0.9329 -0.24394 -0.11718 0.27634 -0.78034 0.23283 0.39641 -0.23022 0.22986 -0.30406 0.25152 -0.077396 0.13621 -0.23395 0.22489 0.83669 -0.33699 -0.21108 0.56895 0.17052 0.57228 0.32251 0.27042 0.27882 -0.034046 -0.39403 -0.69398 0.13366 0.38445 -0.32801 -0.48379 0.30253 -0.041665 -0.43494 -0.049589 -0.033372 0.082672 0.26388 -0.96552 0.022675 0.06258 0.11803 -0.43166 0.62033 0.054352 0.079076 0.18414 -0.51473 0.28812 0.2289 -0.35162 -0.15814 0.25407 0.72093 0.33326 0.21175 -0.17829 -0.40828 -0.067742 -0.2732 -0.39528 -0.21079 -0.17725 0.24129 0.7615 0.94663 0.35711 -0.22448 0.086217 -0.040284 -0.41995 -0.6259 0.38142 0.23092 0.28992 -0.36204 -0.29919 -0.075519 -0.075578 -0.14219 -0.07662 0.033377 0.20359 -0.3785 0.26675 0.12567 0.24326 -0.2679 -0.32494 0.29853 0.345 -0.79515 -0.42087 -0.33228 -0.20487 0.021946 0.11882 -0.23569 0.27882 -0.15796 -0.015268 0.07292 0.37141 0.0035874 -0.21311 -0.66679 0.21539 0.24351 -0.22669 0.055196 -0.01409 0.47225 -0.093933 0.21347 -0.28703 0.11677 0.48097 0.016901 -0.26574 0.46565 -0.040482 -1.2479 0.18867 -0.080675 0.26439 0.26314 0.018856 0.42756 0.4401 -0.0085223 -0.25667 -0.36013 0.079998 -0.44151 -0.18983 -0.011504 0.35382 0.43431 -0.10165 -0.26602 0.39743 -0.41396 0.4217 -0.33352 0.14404 0.40893 -0.24508 0.23387 -0.20072 0.90537 0.29777 -0.10578 0.008314 0.047468 0.12206 -0.20395 -0.20709 0.19167 0.036525 -0.098496 -0.30684 0.38688 -0.71846 -0.10926 0.088168 -0.27835 0.0027544 0.059844 -0.35706 -0.80272 0.53832 -0.056208 -0.4524 -0.59265 0.079716 -0.035202 -0.4254 -0.053153 0.14601
sun -0.45657 -0.074173 -0.2781 -0.25033 -0.024045 0.26865 0.11274 0.35171 0.054203 0.0022608 -0.14018 0.086512 -0.42796 0.38832 0.55378 0.084908 -0.46862 -0.03396 -0.07077 0.062336 0.26284 -0.45071 -0.18374 0.38384 -0.12737 0.10463 -0.16217 -0.014652 -0.24308 -0.34788 0.10087 -0.37415 0.083511 -0.12892 -0.043391 0.2398 -0.33553 0.056782 0.26758 0.03789 -0.03204 0.054417 0.164 -0.088152 0.095175 0.00076962 -0.12111 -0.070361 -0.30874 -0.23494 0.56356 0.13614 0.11518 0.10064 -0.021615 -0.1994 0.072994 0.047181 -0.20107 -0.048109 -0.01985 0.19804 0.16509 -0.29568 0.059316 0.038493 -0.1551 0.26793 0.51383 -0.32906 -0.55583 0.025706 0.020202 0.58827 -0.14551 -0.21578 -0.67906 0.58154 -0.044656 -0.13259 0.040596 -0.12933 -0.11287 -0.060599 0.082286 0.17404 0.20492 0.12091 -0.39611 -0.0065458 -0.022758 0.10106 -0.10117 -0.044093 0.093666 0.20234 0.13094 0.096147 -0.13605 0.0933 -0.12102 -0.15041 -0.11703 0.11333 -0.016031 -0.017428 0.045694 0.017179 -0.60454 -0.21589 -0.25195 -0.54162 -0.21665 0.027128 -0.32527 -0.084321 0.15029 -0.046437 -0.19999 -0.0013667 -0.50316 -0.029127 -0.15047 -0.23702 0.1739 0.19147 0.22697 -0.11116 -0.10219 0.036356 0.084563 0.49767 0.10672 -0.038381 0.077386 -0.10585 0.055934 0.065264 0.6268 -0.15185 0.18433 0.10411 0.16927 0.56318 -0.1499 -0.0044125 -0.067477 -0.19776 0.72323 -0.22753 0.051883 -0.87169 0.23499 -0.37482 -0.04357 0.032388 -0.09054 0.076319 -0.015908 -0.39049 -0.10665 0.046234 0.11943 0.072059 0.56045 0.044793 -0.13693 -0.39071 0.027503 -0.21189 0.16964 -0.041633 0.037372 -0.52197 -0.1267 0.34195 0.30673 -0.21354 -0.16059 0.42318 -0.13347 -0.3264 0.012785 0.094044 -0.22504 0.097033 0.21982 -0.0069084 -0.59161 0.22215 0.038798 -0.022962 0.070076 -0.45555 0.11756 -0.40426 -0.0060135 0.39861 -0.13032 -0.16707 -0.26722 -0.21005 -0.040471 0.27044 -0.31647 -0.11181 0.065686 0.12 0.1347 0.32725 -0.028544 -0.016333 -0.041052 -0.031422 -0.083108 -0.12126 -0.068911 -0.63435 -0.56882 -0.025578 -0.23821 0.12593 -0.16581 -0.17176 -0.23192 -0.39449 -0.39307 0.35386 -0.065026 -0.046577 0.17083 0.17813 0.21525 -0.092424 -0.1402 -0.48288 0.04082 0.49429 -0.041779 0.050868 -0.22496 -0.38027 -0.3892 0.12798 0.085327 -0.050593 0.041589 -0.1705 -0.24318 0.56219 0.045179 -0.15879 -0.0090534 0.1036 0.39622 0.2452 -0.24367 -0.030326 -0.1605 0.1411 0.038451 -0.05625 -0.10885 0.038509 -0.17305 -0.19081 0.015756 -0.11253 -0.1259 0.078188 -0.015572 -0.048356 0.43173 -0.23002 0.39204 0.094903 0.090376 0.17177 0.18416 -0.06305 0.14153 -0.11678 0.78778 -0.14469 0.052693 -0.10163 0.18858 -0.22228 0.39644 -0.44673 -0.32322 0.10536 0.26105 0.0034679 -0.30043 0.0028583 -0.14682 -0.40708 0.22704 -0.34928
cell 0.0040959 0.46469 -0.13976 -0.43633 -0.50146 0.56556 0.57725 0.34385 0.26644 0.4655 0.029112 0.23072 -0.34204 0.31235 0.022069 0.11093 0.011907 -0.26718 0.26211 -0.076049 0.31505 -0.32625 -0.012008 -0.00091295 -0.072201 0.016269 0.077712 0.10462 -0.25506 -0.25086 -0.061465 0.2732 0.07377 0.31706 0.21424 -0.03487 -0.0017732 -0.11229 0.024973 0.0058818 -0.18426 0.82935 -0.49647 0.087759 0.31182 0.084101 -0.11826 0.27354 0.0012502 0.011018 -0.027311 0.0015534 0.33129 0.017439 0.27841 -0.50935 0.15845 -0.020063 0.36409 -0.10899 -0.11186 -0.46588 0.092184 -0.15689 -0.29544 0.1939 -0.2842 -0.22138 0.21063 -0.25156 -0.14099 -0.14744 0.45737 0.12074 -0.41646 0.051062 -0.37829 0.36756 0.34199 -0.33964 0.085958 0.23734 0.11657 0.30032 0.17142 -0.028365 -0.3627 -0.066546 -0.16877 -0.15437 -0.36426 0.13647 -0.14462 -0.050416 -0.072884 0.31993 0.37469 0.049971 0.12271 -0.33172 -0.051319 -0.030334 -0.046129 -0.048428 0.32706 0.29374 0.18896 0.081232 -0.00098875 -0.0025081 0.30427 -0.10477 -0.078715 0.050831 -0.13634 -0.17731 0.40803 0.095498 0.067678 -0.51168 0.13594 -0.055644 0.039264 0.099647 0.27145 -0.17385 0.016952 -0.052803 -0.057351 0.24438 -0.065906 0.21776 0.14502 0.056847 0.19981 -0.01316 -0.10967 -0.14967 0.37701 0.059592 -0.12433 0.33925 -0.232 0.27723 0.0027855 -0.19774 0.16519 -0.3334 0.44188 0.27529 0.41854 0.19692 0.13098 0.20148 -0.078159 -0.32072 0.18154 -0.36495 -0.10139 -0.67618 0.027687 -0.018842 0.41205 -0.18938 0.054887 -0.074963 -0.076228 0.12681 0.032995 -0.27763 0.20532 -0.052536 0.17177 -0.11455 -0.034446 0.283 0.4079 -0.24167 0.062687 0.022151 -0.17745 -0.083547 -0.037588 0.075701 0.11899 -0.34191 0.17922 0.62768 -0.045148 -0.21847 0.092811 -0.51942 0.026345 -0.18751 -0.14903 0.1464 -0.0050905 -0.41878 0.12289 -0.2334 0.35271 0.12021 -0.13637 0.16382 -0.26365 -0.079507 0.045221 -0.18785 -0.11378 0.082723 0.17704 0.031399 0.23875 -0.11924 0.10415 -0.2204 -0.079898 0.16216 -0.19504 -0.39239 0.002249 0.24327 0.40881 -0.098607 -0.15624 -0.042933 0.060404 0.41171 0.20782 -0.19412 0.012183 0.11804 0.28837 0.35366 0.30267 0.053014 -0.23081 0.021117 -0.083978 -0.1204 0.12921 -0.4409 0.011719 -0.0026228 0.13594 -0.18552 0.29217 0.67187 0.28513 0.47108 0.042524 -0.15024 0.35134 -0.095162 -0.18971 0.065009 0.71086 -0.47113 0.025198 0.2969 -0.16494 -0.018064 -0.13442 -0.025584 -0.49853 0.083492 -0.25581 0.15588 -0.1053 -0.033168 -0.41917 0.12277 0.0022836 -0.1224 -0.38716 0.0040439 -0.23709 0.68582 0.4733 -0.42947 -0.12524 -0.35543 -0.0092068 -0.0024771 0.59171 0.29525 0.49317 -0.003408 -0.0078863 -0.091959 -0.2413 0.17792 0.064853 0.22725 -0.13687 -0.19041 -0.023364 -0.41697 -0.48034 0.34583
nurse -0.089206 -0.39326 0.11698 -0.39358 -0.069872 0.18777 -0.34641 0.40338 0.30857 0.23643 0.0026891 0.72507 -0.22032 0.25853 0.042057 0.031093 0.025199 0.0078941 -0.1631 -0.034734 0.10001 0.3743 -0.052871 0.21696 -0.45212 -0.32211 0.032468 -0.32675 -0.1091 -0.42286 -0.13871 -0.22367 0.071763 0.24261 -0.0088716 -0.25769 0.12512 -0.31523 0.13402 -0.10923 -0.39718 0.36427 0.00043902 -0.0083932 -0.29352 -0.099634 0.10359 0.38423 -0.19549 0.20684 0.32693 -0.23944 -0.025592 0.15655 0.33704 0.15519 0.081593 -0.35073 0.3329 -0.067657 -0.012612 -0.43278 0.06585 -0.47738 0.022219 0.18835 0.15681 -0.041827 0.16275 -0.14296 0.030291 -0.27549 -0.077436 -0.12459 0.27429 -0.012194 -0.54899 0.41257 0.16299 -0.28266 0.37388 -0.023887 0.23735 -0.12669 0.27818 -0.12961 0.068504 -0.18385 -0.43992 -0.043195 -0.068494 -0.15698 0.44345 0.087678 0.43855 0.34503 -0.14732 -0.027188 0.10807 0.18116 0.17758 0.17083 -0.26159 0.32228 -0.42299 0.179 -0.14267 -0.019755 0.21586 -0.42916 -0.13907 0.033598 -0.18948 -0.54838 0.36369 0.17338 -0.080397 -0.062615 0.062574 0.013789 -0.31117 -0.022283 0.18061 0.094232 0.029981 0.13081 0.006387 0.032105 -0.2608 -0.14431 0.24698 -0.026431 0.17682 -0.21055 -0.11976 -0.15583 0.1641 -0.16605 -0.053952 -0.10303 -0.57521 0.16905 0.030528 0.18253 -0.06745 -0.18041 -0.007099 -0.0064596 0.051107 -0.22322 0.12826 0.018593 0.34581 -0.20332 -0.19013 0.11087 -0.13475 -0.19929 -0.016227 -0.39697 0.12404 -0.29902 0.02413 -0.56336 0.23554 0.071896 -0.11799 0.050072 0.0084764 -0.097164 0.27399 -0.042468 0.402 0.14376 0.332 0.20516 0.34419 -0.16118 0.028347 -0.30609 0.22969 0.12118 -0.01857 0.031308 0.35647 0.047578 0.30015 0.10207 0.064068 0.00052707 -0.3061 0.02354 -0.42982 -0.26033 -0.020247 0.16229 -0.044444 0.019862 -0.25465 0.15074 0.070558 -0.12235 0.38555 -0.40912 0.15791 -0.11935 -0.1622 0.1688 0.026354 -0.079993 -0.38762 0.10857 -0.22023 -0.092513 -0.06137 -0.05869 -0.5712 -0.00057896 0.038733 -0.3051 0.040699 0.26195 0.054401 0.01575 0.08971 0.022788 0.35212 0.19042 -0.471 0.080522 -0.08108 -0.4483 -0.1426 -0.40392 -0.13008 -0.092243 0.19241 -0.17255 -0.12411 0.84316 -0.13453 -0.10258 0.020764 -0.11056 -0.27194 -0.088828 -0.038913 -0.082896 0.060526 0.31233 -0.37108 0.21548 0.16796 -0.097273 -0.35137 -0.47347 0.24553 -0.35137 -0.28559 0.14959 -0.034295 0.10825 0.0065201 -0.040916 -0.28187 0.40192 0.0016022 0.082226 -0.13418 -0.057139 -0.11973 -0.027676 0.28787 0.028536 0.025837 0.20165 0.43678 0.097899 -0.33343 -0.3524 -0.25651 0.034344 0.35055 0.13592 -0.10391 0.11669 -0.22454 0.29795 -0.21652 -0.1146 -0.30709 -0.16317 0.017804 -0.22565 -0.20567 0.20763 0.11752 -0.28182 0.32626 -0.086691
bird -0.36848 -0.065575 0.3701 0.054041 -0.034694 -0.25616 0.33638 -0.15972 0.28563 0.24219 -0.42684 0.25242 -0.00055974 0.17708 -0.08038 0.053023 -0.01901 0.22721 -0.064691 -0.19661 -0.046141 0.21545 -0.24885 0.28246 -0.24057 0.091664 0.36959 -0.10068 -0.36216 0.21629 -0.41146 -0.44488 0.04115 0.14068 0.14258 -0.02623 -0.10247 -0.037297 0.034218 0.091148 0.2838 0.48951 -0.071537 0.21981 -0.15263 0.29771 -0.097598 0.23255 -0.18957 0.30836 -0.066567 -0.059462 0.46075 0.31586 0.075699 -0.26509 0.56745 0.14831 -0.071918 -0.0095585 0.26503 0.43271 -0.09632 -0.33348 0.15075 -0.033007 -0.015721 0.067088 0.24196 0.26876 -0.36446 -0.13841 0.064399 0.27819 -0.42458 -0.15314 -0.51096 0.08287 -0.015565 0.11209 -0.14521 0.46319 -0.17644 -0.27447 0.14257 0.24578 -0.12867 -0.31425 0.074696 -0.27908 0.016656 0.1147 0.0077572 -0.32137 -0.17867 -0.25374 0.11066 0.15158 0.12235 0.42077 0.1131 -0.055197 -0.23104 0.24686 -0.24477 0.079917 0.048519 -0.023298 -0.12684 -0.248 0.056363 -0.14738 -0.39641 -0.2919 0.15922 -0.37447 -0.21691 0.11243 -0.1518 0.32123 -0.42983 0.47179 -0.51191 0.32701 0.060539 0.14044 0.5365 -0.22542 -0.54306 -0.29609 0.039804 0.28613 -0.4327 -0.10542 -0.021635 -0.2589 -0.30287 -0.0099659 0.31596 -0.058212 0.024539 -0.080332 -0.098435 0.068449 -0.026332 0.0531 -0.13956 -0.26744 0.094964 0.15044 0.40636 -0.4428 0.08602 -0.11399 -0.47968 -0.31347 -0.14834 -0.31515 0.47973 -0.011652 -0.071698 -0.055113 0.14212 -0.14684 0.26984 -0.11781 0.039286 0.14414 -0.19048 0.054762 0.59493 -0.21377 -0.014084 -0.33109 -0.15046 0.50603 0.29616 -0.2868 0.069848 -0.43955 0.049165 -0.21367 -0.23593 0.34507 0.10069 -0.47842 0.14898 0.42656 0.057508 0.050632 -0.064187 -0.039584 -0.31179 -0.22226 0.28359 -0.16307 -0.23028 -0.13243 -0.12208 -0.21882 0.16235 -0.056762 0.57864 0.028728 -0.10355 0.060741 -0.21921 -0.1774 0.014442 0.0042158 -0.1455 0.019827 -0.020213 0.35185 -0.031706 -0.10786 -0.28594 -0.39848 -0.047966 -0.037162 0.067039 0.16457 -0.18584 -0.46864 0.38183 0.35759 -0.27697 -0.17807 -0.21786 -0.09052 0.33199 -0.2071 0.21169 0.24249 0.11411 -0.1341 -0.38829 0.13103 -0.2649 0.13046 -0.20433 0.053291 0.027822 -0.12462 -0.3155 -0.1927 -0.079448 -0.01904 0.18532 0.38084 0.46051 -0.038496 0.18938 -0.055213 -0.41654 0.050391 0.24246 0.10923 0.033323 -0.15704 0.1091 0.15011 0.14609 0.56683 -0.20822 -0.30883 -0.40702 -0.020254 -0.11094 0.27249 -0.22074 0.123 0.4203 -0.24345 -0.041523 0.39077 0.26359 0.0046453 -0.26352 0.05391 0.10611 -0.23281 0.42228 0.097387 0.22998 0.22347 -0.062321 -0.075049 -0.18239 0.37852 -0.39014 -0.0083089 0.6301 -0.42885 -0.1161 0.14834 0.18884 -0.1413 -0.032604 0.262
