439 300
similarity -0.106493 0.188551 -0.325553 0.0108349 -0.0422906 0.213648 0.313591 0.515533 -0.380089 0.0306015 0.140579 -0.257707 0.193951 -0.00747154 0.090891 0.25542 0.146621 0.127075 -0.0181495 -0.0583347 0.195887 0.0468814 0.0644559 -0.321872 0.252677 0.0617971 -0.476632 -0.325943 -0.0575995 -0.054907 -0.150258 0.0258962 -0.00317068 0.237786 0.207569 0.220462 -0.323874 -0.107747 -0.0153164 0.0021956 0.00818875 -0.17663 0.130026 0.011254 -0.03046 0.177867 -0.0646548 0.0785736 0.371628 0.0194721 0.111263 -0.448794 0.0975233 0.0424193 -0.0536769 0.0152306 -0.259463 0.29895 -0.12339 0.102365 0.0397597 -0.107518 -0.214809 -0.0783471 -0.279177 0.0832975 0.166939 -0.136646 0.0375484 -0.383939 0.375826 0.115465 0.281675 -0.0395392 -0.275943 0.0505106 0.046219 -0.132389 0.0169705 -0.00773334 0.125705 -0.120839 0.0441164 0.219614 -0.165661 -0.123395 -0.0844179 -0.110476 0.0893399 -0.0704912 -0.244553 -0.163588 -0.13099 -0.138323 -0.113211 0.01246 0.0252281 -0.260597 -0.281935 -0.206027 0.082831 -0.0322415 0.223904 0.143785 -0.28713 0.133039 -0.171637 0.169571 0.144767 -0.339338 0.112682 -0.137531 0.0409334 0.181864 -0.174264 -0.0106229 -0.348367 0.428304 -0.0131335 0.26347 -0.261796 0.0979451 0.517821 -0.200899 0.309753 0.0638286 0.258624 0.349599 0.285192 0.0407746 0.11515 -0.114484 -0.38447 -0.103877 0.103911 -0.0156825 -0.188869 -0.452422 0.0398136 -0.114259 0.27472 -0.22579 0.0556142 -0.0363036 -0.101184 0.149731 -0.205908 0.102768 0.238827 -0.2589 0.0380393 -0.39032 -0.170032 0.035102 0.135898 0.20347 -0.164569 -0.289555 0.285623 0.0286084 0.162445 0.0367156 0.0390784 -0.579563 0.223555 -0.18964 -0.478744 0.272981 0.112973 -0.0924761 -0.485151 -0.220076 0.117948 0.206609 0.157143 -0.113674 -0.115958 -0.218485 0.581203 -0.310219 -0.0327821 0.142423 -0.0934925 0.240054 -0.259605 -0.04969 -0.0115893 0.0957469 -0.0870219 -0.163968 0.327689 -0.212554 -0.0229287 0.244717 -0.113754 0.0700901 0.118506 -0.181563 0.207548 -0.106353 -0.176226 0.175806 -0.112664 -0.0761207 0.322465 0.332421 -0.234876 -0.124353 0.375408 -0.0704206 0.0612471 -0.203308 0.309292 0.368891 0.0275789 -0.329856 -0.291392 0.195482 0.18511 0.0687272 0.11434 0.0713595 0.0123626 0.0855374 -0.132401 -0.0877164 -0.0005502 0.0169822 -0.112866 -0.0532805 0.0108139 0.255823 0.14576 0.37099 0.0875047 0.294021 0.194083 -0.237963 0.277436 -0.1062 0.0565557 -0.345823 0.257443 0.10082 -0.218117 -0.109885 -0.16901 0.238846 0.0425125 0.198825 0.131195 0.172669 0.114415 0.0837236 0.0085831 0.180408 -0.194169 -0.157286 0.202827 -0.103385 -0.0239953 -0.336695 -0.298097 0.288606 -0.0174704 -0.295637 0.226815 0.065485 0.218159 -0.177441 0.447572 0.0442849 0.347649 0.0699777 0.0544571 -0.0252488 0.349628 0.14866 -0.199926 -0.340759 -0.246107 0.0286993 0.164358 0.161015 0.193221 -0.062923 0.107592 0.764762 0.144964 -0.0551929 -0.147614 -0.173323 0.0941149 -0.108587 -0.036976 -0.170897 -0.320298 -0.211512 -0.215382 0.13234
dollar -2.17159 4.84272 -2.47605 1.15522 1.69542 2.7217 2.50783 -1.41458 1.09374 -3.2549 0.757181 -0.570119 -3.56933 -0.668098 -0.665202 1.25129 -2.52898 2.29327 -0.640505 4.26523 1.05167 1.69728 -4.59566 -3.62136 -0.549479 -0.801668 -0.110868 1.83313 0.650203 -1.21354 1.10179 -1.26178 0.687542 1.56428 1.22707 1.06289 1.04902 -1.80825 -1.90188 2.99919 0.337376 2.4029 1.37887 -4.42667 2.23535 0.980508 0.531239 -0.417257 -0.471717 0.622717 -1.92614 2.77676 1.44955 -1.81184 -2.98999 2.14871 -0.894364 1.53142 0.214008 -1.66721 0.234969 -0.148984 1.90283 -1.67815 0.826448 -0.602481 -0.240302 1.30887 -1.26897 -0.541384 3.16655 0.254783 -1.63714 -3.03364 -0.371129 3.83911 -1.55019 0.81748 1.27505 -4.03547 -2.96375 -0.743622 1.96086 0.0651636 -0.945799 -0.264082 0.482223 -1.23863 0.349188 -0.990905 -3.34216 0.0517965 0.522371 -0.675526 -0.650373 -3.06789 0.210299 0.200891 0.42723 1.51442 -0.423522 -1.06629 -1.3398 1.53399 1.25444 1.48269 2.20924 -1.79181 1.10774 -2.57797 -1.83846 0.666629 -2.05606 -0.768939 1.09725 0.656188 0.881259 3.85757 1.08919 3.57073 -1.25878 0.881019 -1.22851 -0.518982 1.4085 -0.402504 0.11163 -0.532089 0.40176 -1.58749 -0.55902 1.76956 0.496979 1.57377 -1.32691 -1.94763 1.1633 -0.629486 0.00734775 2.01885 -1.13177 1.37546 2.49611 -1.86681 2.8576 -0.844423 0.719218 3.43213 2.82822 2.30361 0.826134 0.260512 -0.579391 -0.232547 -2.68443 1.64035 -1.53945 0.697936 0.809358 1.88339 -0.884931 2.34766 -0.518181 -3.41801 0.984289 -0.154549 2.47759 -0.734797 1.23648 -3.62772 -0.693566 0.125498 -0.549813 -1.13917 -1.02084 -0.669361 -0.0824949 -2.8681 1.71219 2.48121 -1.11718 -0.557257 -0.519293 -1.58839 -1.05789 2.18839 0.461195 -2.43504 -1.21978 -1.03458 -1.01001 0.120963 -0.762484 -2.4548 0.547263 1.22232 1.20953 2.07109 2.90673 -1.05253 0.275131 0.0755612 0.420932 0.177352 2.11429 -0.0183588 -0.48394 0.983347 -1.05862 -1.28313 -1.21887 -0.440027 -0.0171718 1.47562 1.40783 1.73709 -0.583403 -1.70252 0.914954 3.65263 -1.52086 2.27721 -1.45638 0.769892 0.641349 3.7612 2.03474 1.03289 1.2827 -1.23395 -3.39512 0.684947 3.0573 2.07938 -2.12359 1.48482 -2.32028 0.794831 1.16655 -0.176997 2.99847 0.47434 0.808915 0.186965 1.80719 -1.72756 -0.457248 1.66002 -0.603838 2.42215 -3.37592 -1.16014 0.550522 2.11759 1.73795 -1.69142 -3.84952 -1.30706 1.36779 -3.03141 -0.753016 1.0257 0.27194 -0.128328 -1.60944 0.190044 -3.98419 -0.464647 -0.839659 0.310101 1.68888 -2.32045 0.3191 -0.0166985 -3.74351 -2.10463 1.31717 1.60268 2.64815 -0.168799 0.861692 0.622018 1.05789 -3.76894 -0.425309 -1.22256 -0.545115 -3.09302 1.21436 -0.709538 1.01361 -3.13101 -1.13081 -0.0323355 0.660204 -2.95526 -3.24502 -1.13303 1.40132 1.11797
focus 0.32244 -1.69487 2.0403 0.833129 -1.39851 2.67502 1.4436 2.25534 0.112623 1.98321 3.28145 -0.527814 1.45124 -1.1014 -1.1371 -1.61179 -1.50183 0.746575 -2.43202 -0.106381 -3.08178 -0.704724 -0.463048 -2.42476 -2.09221 -0.887888 1.0013 1.12213 -1.25148 0.466209 0.669123 2.17936 2.50203 -0.0640306 0.842516 -1.08578 1.9658 2.82003 0.411942 0.683559 0.524915 -1.10053 0.600575 1.9409 0.944947 0.364583 1.30851 1.27608 1.85461 0.134962 -1.18476 -1.62811 1.81311 -0.532064 -2.02536 0.673727 1.23448 0.51067 0.621483 -0.714103 1.17305 -1.06433 2.67496 -2.04764 -0.900116 0.476068 -0.699589 -1.13981 -1.33713 -2.94159 -0.93602 1.76161 -1.62736 -0.0597772 -1.59657 0.773397 0.813282 -0.799747 0.964429 0.279533 -0.254902 -1.759 0.506376 0.629452 -0.156504 0.220143 0.598707 3.24596 -1.04694 0.843701 1.19365 1.12137 -0.484718 -2.45472 -1.81383 0.284157 0.292356 -1.30805 1.68671 1.71579 -0.344045 1.72675 1.50668 0.395266 -0.0700864 0.0416665 -2.44468 -1.61711 1.3189 -0.780006 1.28576 1.22305 -2.34537 -1.69633 -1.13193 -1.49324 1.41284 -1.32905 0.294447 -1.56745 0.454679 2.15046 -0.597742 -2.09996 -3.03978 -0.195277 0.691163 -1.55906 0.424443 -0.76813 -1.28448 2.10798 -1.10022 -0.929803 -3.01604 0.408657 0.212661 0.22771 -1.45427 0.54807 0.693585 1.87563 -1.4119 -1.12541 -0.220539 -0.718685 -3.11972 -2.19672 -0.446091 0.0735238 -0.0647488 1.37715 1.64213 -0.0286462 -1.43034 1.46624 1.40188 2.59858 -1.16107 -0.248184 0.607636 1.24225 2.35766 1.71387 0.253679 0.410483 2.10926 0.744733 -1.23658 -3.46743 0.688626 -0.893284 -1.18584 1.78794 0.411764 0.941875 2.59359 -1.00653 -0.242325 -0.373809 -0.211339 1.22626 0.468482 -0.963761 -0.902011 2.44952 -2.95434 -2.06589 0.462754 -2.58862 0.459585 2.17228 -3.37467 -0.125877 -1.45745 -0.424507 0.339165 1.17692 -1.13583 1.93489 2.67968 -1.11464 0.270852 -0.0487416 2.2664 -0.278891 -2.15867 -0.303438 -2.94764 1.4003 0.707402 -0.477047 2.16033 0.714634 -0.399813 1.4701 1.84151 3.1399 0.224015 -1.37788 1.23839 1.46067 1.53323 -1.65798 1.68767 1.50745 -0.403075 1.60177 0.250994 1.91823 -0.50287 0.367344 -0.812818 1.58352 -0.356041 1.23001 0.417406 1.22969 0.799484 -0.785181 0.8385 0.693692 1.80979 -0.998132 -2.73468 -4.00521 -0.12955 1.446 0.111898 -0.286687 1.36509 -0.254552 -2.65677 4.46352 -3.8738 -1.09071 1.49045 0.656724 0.494494 -2.9315 -0.434062 1.22392 1.2453 1.64429 -1.38347 -1.59068 0.426181 -1.76868 0.034257 -1.51921 0.086153 2.76336 -1.50504 0.310107 -1.33178 0.0756146 0.0108672 -0.501847 -3.8136 0.173897 0.712956 -2.06779 0.497863 -5.1132 0.15627 -1.58818 -0.394042 0.175611 0.827992 -1.67256 -2.94545 -0.78968 -1.25782 0.072713 1.5761 2.39303 2.6744 -0.0565337 -3.10982 1.22819
month 0.214331 0.809517 0.795422 -1.36727 -0.415192 3.93473 -0.543709 -1.30862 0.477739 2.4726 3.29302 0.863828 -3.31015 0.402925 0.380831 -5.81804 -3.37811 -0.15468 -0.0787948 1.91446 4.35342 1.13944 3.64416 0.435569 -2.17639 2.93657 -1.94722 -1.04792 2.89039 0.270293 0.140928 -0.0283245 -2.47126 0.0500966 -1.38409 0.146536 4.57565 -1.02214 3.65058 -3.34705 -1.69175 -2.25962 -1.97033 -0.604483 -3.70919 -4.31048 0.638823 0.75021 -1.3319 -1.80474 3.2305 0.670646 0.711711 2.59627 0.751772 5.26182 -1.73148 -0.27296 3.17565 -4.67827 -0.28928 -0.511324 -3.40723 -2.79473 4.8493 -1.32893 1.36283 -1.63626 -2.73771 -1.12303 -2.28041 -0.554452 -2.43975 -1.5393 -6.07675 2.32629 0.426368 -2.16976 2.1086 0.663214 -4.68398 -0.977605 2.28787 1.83213 -0.492127 0.839595 -0.713754 -7.86486 1.75392 -1.98007 -3.5532 -0.598724 1.85776 -0.62593 3.72655 0.544375 1.28929 -1.33714 -0.608896 -3.83832 -0.0846549 -2.08159 -3.88005 -1.41457 -4.82936 1.23618 1.44197 -1.14912 2.15248 1.12809 -2.12716 4.53052 -0.0918368 2.97638 -3.69215 -0.835516 -1.8148 1.75338 -0.19403 0.307758 -1.95965 3.66061 1.8505 0.85859 0.748064 -3.05513 -4.34337 -1.57434 4.4311 -1.48286 -3.08962 1.46402 -1.13822 1.96757 2.67778 2.81757 -2.79098 -0.170572 -2.16825 -0.162813 -3.36242 2.02236 1.03325 -1.1371 1.23732 0.94931 1.79711 0.769164 2.31183 -2.72368 0.949514 0.446691 1.65384 2.90378 -0.114221 -2.42519 -0.926251 -0.0908692 -3.02305 3.12155 1.9919 -0.792474 0.529542 0.669946 0.222758 -0.0671431 1.16879 -1.65489 -0.490297 -1.5332 -2.30409 -2.32833 -1.46463 0.456398 0.24877 2.89566 0.816764 -0.643211 -0.451199 0.0357874 2.03578 1.54107 -2.54813 1.43797 0.231465 -5.22227 -2.25813 1.59716 0.399479 -1.9898 -1.34961 0.905256 2.59689 2.89355 4.55066 3.13072 0.16854 2.14233 -1.87043 2.29244 1.39498 -0.814688 -2.83711 1.48482 1.94157 -2.02088 2.20722 -4.66745 1.34535 -2.48434 0.92163 -6.00439 3.11139 -2.67118 -1.18376 -3.81886 -1.62336 -0.623202 2.00034 -2.49228 1.02623 1.2853 -1.51415 -0.0668452 -1.81823 1.82953 4.70239 -1.7336 2.02833 3.63116 2.11015 1.68195 1.19905 -1.64739 -3.0336 1.51111 0.666031 0.880421 1.90829 3.55899 2.16136 1.00857 1.4384 1.06896 1.85112 -0.991812 -2.31809 2.41801 -3.00814 2.13771 -3.5714 1.53773 -2.8082 0.116849 0.42241 1.31643 -2.26965 -4.05004 -0.841161 1.05232 0.553894 1.79112 3.40496 0.622788 -0.328156 -1.53987 -2.21513 0.634138 -0.679171 0.997276 2.30814 -2.89312 0.821586 2.03089 -2.96054 0.251317 -0.221149 0.0624139 1.6152 2.03259 0.724932 1.17099 1.69445 3.6266 3.92645 2.13494 2.19528 -2.24483 -1.42399 1.21104 0.148806 -0.097532 1.37027 2.68769 1.3499 -1.83301 -1.49109 -1.78005 -3.74495 -4.12385
mile -1.20978 -1.30109 -2.3461 0.679266 0.543538 0.591461 1.76573 -0.499354 2.86773 -0.411565 -0.367554 1.24222 1.27575 -0.955361 -0.291627 -2.40895 -1.77871 -0.660571 0.715155 -0.034696 0.726861 -2.12149 1.23553 -0.253318 -0.07092 -2.07804 -1.04771 -1.76614 -0.18521 0.0736004 1.28775 -0.902386 0.0482263 -0.0366688 0.660291 1.75806 0.672883 -1.94946 1.98535 -0.698863 0.686526 0.915748 0.905268 -2.57732 -1.27197 -0.20252 -1.90137 -0.188509 -0.123276 0.0250572 1.38668 -2.75956 -0.0230506 -0.0203394 -2.04677 -1.12455 -1.66654 -1.77182 -2.46567 -0.622582 -0.666366 1.33073 -1.70688 -1.04099 0.0209104 2.80053 1.70602 0.31828 -2.15398 -0.789388 -0.599353 -1.5699 -1.43669 0.223791 -1.62524 -0.473198 -0.170742 1.30131 1.29944 0.99348 -1.67628 -0.994033 2.74379 -0.524125 0.515366 0.567907 -0.919712 -1.18451 0.290819 -1.52573 -0.655841 -0.0691309 1.08232 0.861978 0.206663 0.315565 2.0915 0.884922 0.995333 -0.783866 -0.738858 -1.88346 0.0496076 -0.431366 -1.63654 2.31598 -0.560938 -0.212947 0.363995 -2.01121 -0.0793902 3.14173 0.00222369 2.62773 0.664282 -0.43067 -0.0810569 -0.246222 -2.20989 0.14462 -1.40063 -2.81138 -3.03321 0.145271 -3.3727 -0.565538 0.729593 0.506223 -0.123 -0.0510306 0.432719 -1.46532 0.856932 -2.42341 1.79054 -0.59582 -1.14635 -0.275258 0.340399 0.330763 1.39978 1.43284 0.0037232 0.321678 0.119284 -1.32422 0.588511 1.25443 1.34688 1.83452 0.740317 0.0308269 -1.15965 0.246587 2.07811 -0.423894 0.282293 -0.505443 -0.916318 -0.136675 0.804799 0.770543 3.09476 -0.490729 -0.793554 -0.819396 -1.02866 2.01327 -0.766968 -0.994187 -2.36649 0.620562 -1.12114 -1.28311 1.10322 0.344455 1.13184 1.07609 2.86277 1.20368 0.449339 2.55162 -1.30716 -1.15155 -0.590606 1.54829 1.14403 2.27738 -0.683896 1.02961 -0.151018 2.23442 0.92401 0.671196 1.9936 0.730332 0.0331944 -1.56638 0.39812 1.45326 1.90241 -0.576922 -1.85585 -1.53733 -0.0804272 -2.25973 -0.171214 -1.55491 0.438821 -0.337191 -0.0401859 -0.921342 -0.36498 -1.4458 0.411683 -0.773365 -0.535139 0.499908 -0.15255 -1.08556 -0.319239 -1.0398 0.201215 -0.505205 -1.31121 0.788006 1.124 0.920373 -0.473766 -0.587166 0.365707 2.41708 -0.313902 1.16449 0.521788 -0.106422 0.453435 -1.02546 1.32876 0.663544 0.987822 -0.31334 -0.781421 1.61884 0.170236 -0.564708 1.62678 0.192621 0.117343 1.17381 -0.0727392 -0.379652 1.06831 0.605748 -1.70965 -1.10557 -1.52255 -0.635492 2.31342 1.28701 -0.2075 0.0222295 -0.335111 -0.869194 -0.739363 0.644014 1.92802 -0.530453 -0.4235 -1.55481 0.955307 -0.328597 2.30772 -1.13656 0.50296 -0.972457 0.495231 -2.36068 -0.592133 -1.23541 0.537422 -0.546801 -0.469141 1.18714 -0.993688 -0.000366894 2.14245 0.39436 -2.86596 0.122013 1.70022 -2.11675 -0.893593 -0.133029 -0.030772 -1.25845 -0.803965 0.422926 1.10145 -2.48646
computation 0.0251808 0.179845 -0.0629114 -0.0918838 0.0366598 -0.0763816 0.0468397 0.117421 -0.0431407 -0.13789 -0.00791683 -0.0137316 -0.00582184 -0.0773811 0.043365 0.0444836 0.061595 0.0469947 -0.0136752 0.0151061 0.0408973 0.00408211 0.0857255 0.054284 0.0429758 -0.0324967 -0.0273386 -0.0408962 -0.140313 0.0109882 -0.065015 0.08035 -0.047877 0.0350107 0.0186422 0.0313139 -0.0430689 0.0797577 0.0903195 -0.107605 -0.102681 -0.072772 -0.0547004 0.106193 -0.0989359 -0.0300267 -0.0627588 0.0573096 -0.0962431 0.0684662 -0.0451616 -0.0485894 0.127685 0.0274669 0.0417737 -0.103877 0.13166 -0.0433099 -0.0166832 -0.130093 -0.010496 0.0450801 0.0231214 0.0758923 -0.0184431 -0.128737 -0.0203122 0.0546981 0.205124 0.043619 -0.0896755 0.1634 -0.0167139 0.01377 -0.00987354 0.0784758 -0.0234544 0.0320184 0.0822671 0.0604661 0.0468031 -0.0682085 -0.07108 0.0191406 -0.0150518 -0.141621 0.00336732 -0.151934 0.0680987 -0.110062 -0.00487692 -0.0471832 -0.0808752 -0.00324234 0.0814833 0.0166662 0.0460075 0.0417825 -0.0320007 0.0473726 -0.136641 0.0226406 0.0529664 -0.0469047 0.0576268 0.00632328 0.0137215 -0.0473758 -0.019886 0.0710937 -0.067143 -0.0461577 0.240486 -0.112966 0.0173159 0.0416862 -0.0344724 -0.0453606 -0.0189881 -0.0776643 -0.0712788 0.0515655 -0.100987 -0.207892 -0.112217 -0.138558 -0.00848888 0.0179749 -0.00896948 -0.0489826 0.00264994 0.0622523 -0.0818543 -0.102699 0.1034 0.101432 -0.136043 -0.120006 0.01931 -0.0857671 -0.125044 -0.0590166 0.142581 0.000608625 -0.101221 0.0238565 -0.0679818 0.114457 0.0468384 -0.1315 0.0219505 0.0705669 -0.0937998 0.0856714 -0.0883382 0.0741071 0.0196223 -0.0094317 0.0404667 -0.00854094 0.141908 0.106773 0.0532435 -0.0663633 0.0235696 -0.139879 0.043588 0.00100312 0.0388863 -0.131415 -0.160536 -0.010266 -0.0110554 0.0194895 0.110809 -0.147896 -0.0104201 0.116398 0.0888236 -0.070057 -0.0454786 0.0519329 0.0161079 -0.0897543 0.0147198 -0.100394 -0.0895317 0.168453 -0.0576306 -0.0416877 0.121102 0.0844714 0.00232065 -0.0380465 0.0279951 0.0431151 0.0503734 -0.0449547 0.12649 -0.104043 0.071205 0.00371665 0.0497426 -0.0782086 -0.0288315 0.119903 -0.0963669 0.0206643 -0.156149 -0.0188812 -0.0559416 -0.125439 -0.0174462 0.127419 0.00644434 -0.0921645 -0.169845 0.00767529 0.0263036 -0.0600426 -0.0163503 0.0948219 0.0814399 0.0420477 -0.0965894 -0.102495 0.00739945 0.0549854 0.0147199 -0.107542 0.00905219 0.0431564 -0.0575768 -0.0853242 0.0515397 0.0244037 -0.0932036 -0.0549404 -0.0490996 0.104872 0.155054 0.0532221 -0.121338 -0.0325236 0.0670794 0.090665 -0.031879 0.197241 0.126823 0.0867814 0.0364724 -0.0427084 0.0893054 0.0645713 0.00932598 -0.061741 -0.0864947 0.043664 0.0615549 -0.0808968 0.0607226 -0.00742853 -0.00536194 0.0704729 -0.00277168 -0.0724345 0.0840763 -0.0698942 -0.0319529 -0.0505213 0.00999926 0.0413804 0.114879 0.0724929 -0.0837643 0.000401976 0.0125742 0.0338756 -0.00192787 -0.0527336 -0.0256757 0.0103981 -0.0772499 -0.0379895 -0.0920732 -0.0161291 -0.0398133 0.175773 -0.017502 -0.0503687 0.0722481 -0.0812463 -0.0121848 0.00513701 0.039428 -0.0404077 -0.0310994 -0.0192706 0.0449379 0.0259922
skin -3.28123 -0.714279 -0.794576 -0.885442 -0.117025 1.75878 0.769793 2.41504 1.38381 2.21839 -0.892316 -0.59321 0.579766 -0.0333707 -0.112687 -0.0162498 -0.845398 1.13929 -1.54721 -0.625906 -0.1431 1.47722 -0.379156 -2.50376 -0.343059 -0.296555 -1.0593 -0.338545 -1.03643 1.74857 2.64954 0.850318 1.6177 1.27118 -1.49244 0.10976 2.08659 0.26699 -0.99656 0.818911 -1.3631 1.11064 1.88317 -1.69498 -0.135431 1.14832 -1.38014 0.558129 -0.426835 -0.0360243 -3.12212 -0.271688 0.995492 -1.07841 -1.69057 -2.21829 -1.33252 -2.67838 1.22828 1.52712 0.747911 0.0552882 3.81768 -1.0427 -1.92774 0.842677 1.99518 -0.602239 0.969929 -1.11414 1.85568 -1.86712 1.08392 -0.816843 0.931183 0.506204 -0.109922 -0.255332 -1.36757 0.463789 -1.19529 -2.43201 0.00408807 -1.24135 1.16765 2.28355 0.0386945 2.75159 -1.76258 -0.581206 0.324361 -0.712047 1.876 -1.49391 -1.7642 1.07564 -0.116558 1.35491 -1.40487 2.53375 2.20141 2.01721 2.30686 1.39155 0.211844 -0.344673 -0.448391 -2.75147 -1.99333 1.66703 -0.61468 -2.33926 -2.09422 -0.677281 -0.960581 -1.84786 0.46297 0.508144 -2.83616 1.54692 -0.0015817 0.100146 -2.22937 -2.03922 -0.371782 -0.567802 0.109236 1.4466 0.637625 0.438964 0.0697755 2.04059 1.02263 1.32324 -0.525854 -0.944066 0.974772 -0.49547 -0.309051 -0.147136 1.68 0.987703 -1.71304 1.98118 -1.28625 0.999289 -2.23655 1.45821 -1.24262 1.03125 -0.134277 -1.17733 -2.45006 0.714319 0.661698 0.389276 -1.6096 0.339794 -0.497717 1.57081 -1.84678 -1.01968 1.75951 -1.12478 -1.58965 -0.522715 -0.59394 0.5337 -0.345112 -0.518611 0.55071 -0.362442 0.908706 1.90837 -1.01308 0.0625091 0.79493 0.718351 0.902176 -1.3334 2.24463 0.1799 -0.475734 -0.607447 0.87263 -1.30941 2.48092 -0.270272 1.88099 -0.0607532 -2.73688 0.413576 3.10525 -0.788955 0.462927 -0.0405578 1.6372 1.43529 0.680243 0.357995 -0.274396 -0.0656506 -1.20913 -0.286475 2.04443 -0.420322 -1.40074 0.326706 0.802356 -0.292435 2.32702 -1.00884 2.28901 -0.115803 -1.35046 -0.811302 -0.918993 0.524726 1.08886 1.98714 -0.545407 -2.53331 -0.541503 0.921728 1.02479 0.681924 -1.46665 -0.894412 -0.496149 1.93643 0.4781 1.31427 -0.0188899 0.54237 -1.86979 1.3758 -0.147066 -0.965667 4.18601 3.70299 1.7074 0.153812 0.0803173 -1.40125 -2.11609 -0.517362 -1.30742 -0.199244 0.0593178 0.222587 1.25476 -0.603797 -0.71434 -0.153929 -0.756564 -0.84983 0.581017 0.325201 -1.03101 1.83969 -0.947507 2.0251 1.13299 0.62867 -2.08617 -0.789981 0.760311 1.65646 2.10841 -1.22723 0.850381 0.111369 0.788629 -0.388001 0.604154 1.48201 0.171091 1.44898 1.24489 -0.0334443 -0.232776 0.123104 -0.631791 -0.976224 0.605967 0.36707 -0.187693 2.06021 -2.02476 -0.0613755 -0.242401 2.5648 -1.78115 0.169726 -2.66737 -2.71758 -0.981499 -1.491 1.28768 1.32207
children -4.06521 -3.57848 -0.2721 -3.56492 -0.523219 2.73163 -1.40452 -0.26327 2.73888 0.153258 -3.07548 0.490002 -0.929118 -0.107422 1.33632 0.256761 -0.371235 -2.11319 -3.6316 -0.94493 -3.27851 2.1238 -2.12026 1.76135 -0.820531 1.58226 -0.171556 -1.03935 1.28791 2.87182 -2.58384 0.911437 -1.0714 -3.07952 -1.48115 -1.34039 0.489628 4.50027 -4.03452 2.53179 -0.635133 0.844252 0.563315 -3.3324 1.89303 0.323786 -0.648591 -2.8564 -0.0212304 -1.26958 -1.69061 -3.49085 -0.382042 -0.672531 -0.335993 -2.25524 -0.729691 -1.92689 -1.25363 2.28268 0.501928 1.6863 -0.220688 -1.51932 -2.2554 -0.518475 0.675679 1.10288 0.87862 -1.12192 2.37493 -1.07366 1.45504 -2.37545 -0.762073 -0.464685 0.817581 -1.50658 -1.84885 0.302795 -0.245394 -1.07664 0.0703914 0.201141 -3.20835 -0.515264 -1.62861 2.15077 -1.41023 -0.225568 1.82994 -2.79974 0.701211 1.08194 -1.45517 3.36279 -2.36627 1.38984 -0.71733 -1.94462 0.891104 0.950823 5.69202 0.00431724 -1.75716 3.07844 -0.392692 -0.232291 -0.833255 0.609577 1.00347 3.32568 0.735058 -1.26327 -0.545198 0.527688 0.172754 3.78292 -2.82309 -2.19543 -1.18504 -2.0888 -1.64191 1.78071 1.71988 1.67346 -2.55525 -1.50637 -0.16022 2.12172 -2.366 0.31858 0.883506 0.199256 -1.18497 1.80353 0.69743 -2.05133 1.92919 -0.665784 1.84464 0.3866 -0.309226 0.290969 -4.39356 1.61818 1.64832 1.84224 2.80235 0.690343 0.549284 2.23268 -1.55623 2.10043 1.37721 -0.240251 0.50981 1.52966 -1.86325 2.60407 1.07384 0.176493 1.04831 2.12096 1.50373 0.494955 0.827499 3.36925 -1.85995 1.19655 -2.98644 1.75 4.25464 -0.321675 3.02458 -2.0724 2.50933 -1.35889 0.909842 -1.8426 0.0389172 -2.68004 -2.333 0.546541 0.3078 -0.178134 -0.150469 1.53061 -0.892039 0.49071 0.455067 -1.41941 -2.35459 0.662515 -0.141821 1.36298 1.90483 3.135 -0.267069 0.37564 0.452839 -0.417529 -1.75306 -1.62448 2.69094 2.06947 -0.496988 0.210974 -4.28158 -0.142948 -0.716978 0.411403 -0.360753 -1.91356 -1.48286 -0.704041 -2.81692 -1.17238 -3.75761 2.11055 2.61731 -2.99169 -1.08377 2.01435 0.807385 0.757274 -1.69622 -2.26634 3.15295 -0.554707 -1.32203 0.360511 0.744721 -0.134219 -0.179754 -1.10119 -0.452717 -1.41959 0.936356 1.6063 0.836127 2.82955 2.41351 0.422518 0.0278292 1.04001 2.6941 -1.86712 -0.807022 0.202921 -1.54725 0.320788 1.29625 0.306338 -4.72295 0.861416 1.66543 4.02605 -2.17791 0.0244847 0.859965 0.645084 -2.20226 0.561421 0.361848 0.534499 2.19306 1.36219 3.21785 -1.25775 -0.5581 0.0638196 -0.496739 2.94886 -0.1759 0.917595 -2.00624 1.55199 1.42329 0.607232 0.0347331 -4.2239 -1.75383 -0.32731 -2.27541 -0.505488 0.928092 3.202 1.0477 -0.210777 -0.217377 2.41274 -1.22897 1.13437 -1.40599 -2.55469 -0.631146 -1.50567 0.0280409 -0.53432
row -2.86148 1.00871 0.830561 -0.325066 -0.0233014 -1.11176 0.330432 -0.803656 0.985147 -2.872 0.423901 -0.0826218 -0.405933 -1.22302 -2.07842 0.786918 -1.76138 -0.812454 -1.40736 1.46224 -0.652685 1.33626 -2.65259 0.765637 0.19464 0.606207 0.643621 -2.37109 -0.976742 1.65239 -2.91266 2.52892 0.938059 -3.42666 0.200902 1.99077 -0.0433733 0.480082 0.201777 -0.917137 0.726195 -0.653384 1.88607 -0.0934697 0.136576 -0.983858 0.0574591 1.59048 0.160143 1.77277 1.8368 -0.287977 1.0818 2.49193 -1.10488 -2.59594 2.30113 1.43766 -1.30201 1.1223 0.738587 -2.15964 0.151047 0.655017 -1.10453 1.31588 1.65595 -1.06719 -0.0559569 -3.15951 -1.63293 -1.22668 1.09056 0.412496 -0.582441 -0.625637 -0.367522 0.51909 -0.409512 -1.3782 0.860894 2.83645 -0.498178 1.25502 -0.975953 -1.35109 -1.28357 -3.34943 1.77574 -0.966696 -2.03563 0.0921676 0.563797 -2.1778 -0.553142 -4.31032 1.14732 0.335564 0.967658 0.924877 0.381054 1.33624 1.37803 2.09186 1.20741 -0.508555 0.826914 0.755194 -1.96999 -0.547336 1.82595 -1.9004 -2.45276 1.74702 2.70078 1.55984 -0.797849 1.61212 -0.0326036 -0.313965 -1.08347 2.3304 2.46021 2.90155 -1.91493 0.937589 1.6505 -1.34576 2.86506 -1.55376 -0.405351 -2.39809 0.00134484 -0.412436 2.29629 -0.569587 1.16697 -1.35216 2.92326 -1.28362 -1.90858 2.96578 -0.0228576 0.537243 1.83906 -1.3666 -0.0220968 1.1543 -1.83504 2.21224 1.45168 -0.752185 0.148904 1.94851 0.961446 0.528705 -0.665801 -0.722716 2.87021 -0.328354 0.872618 1.38475 0.771331 0.89363 0.830689 1.30143 -1.19173 0.00110923 -0.0959098 2.32442 -4.30622 1.49262 -1.26081 2.81323 1.71581 1.93507 1.04051 2.80365 1.41701 -1.24737 0.376921 -0.0301513 -1.11162 3.77214 -2.12032 2.68885 -1.85988 -2.51777 -1.03951 0.321515 0.160572 0.926345 -0.570762 1.59439 -1.25872 -2.43273 0.32258 0.671521 1.3312 0.529819 0.0610897 -0.532783 -1.61704 2.01683 0.669304 -1.16743 0.641413 -0.81468 1.9597 1.20372 0.311446 -1.59713 -1.06879 0.232058 3.71374 0.511038 -0.913363 1.067 -0.107309 0.761556 -0.895775 -1.68208 0.661991 0.927011 -1.46513 -0.452814 0.886018 -2.0252 0.638748 1.2347 0.0225415 2.33886 1.39793 -0.748416 2.53932 0.936105 2.25215 -0.665542 -2.48378 2.27682 1.17289 -1.00036 -1.45228 -0.494613 3.04257 -0.737605 1.58581 -0.911936 0.0824215 -2.239 -1.5452 1.32703 0.410543 1.35863 -2.24054 -0.963287 0.362102 2.06661 0.12739 -2.52138 1.02568 1.86943 1.96985 -2.79277 3.37027 0.319294 -1.50137 -0.905864 2.26963 -0.527701 0.361299 1.97359 1.5917 -0.469228 -0.163327 -2.78804 -2.08627 -0.584562 -1.21462 0.211682 0.761475 1.43173 1.40283 1.27779 -0.37465 -0.595643 -0.913861 1.87467 -0.689581 0.00798589 -0.352332 -1.25625 -1.14951 -1.84394 -1.26747 -3.35612 -1.56593 1.74253 0.432689 -1.8173
wizard 0.238915 -0.19329 -0.000832956 0.225823 -0.0756752 -0.0303416 0.455168 0.529956 -0.504517 0.0670673 -0.0171962 -0.586338 -0.0713826 0.153828 0.491746 0.342108 -0.074299 -0.231449 -0.0234423 -0.290927 0.277794 0.180713 -0.352006 0.134685 0.117433 0.0785503 -0.11433 -0.0583204 -0.23537 -0.21577 0.195896 0.480139 0.0356099 -0.260417 0.00526426 -0.190639 0.202459 0.227812 -0.0639036 -0.603179 -0.221024 -0.0617287 0.431705 -0.254041 -0.343261 0.296034 -0.261735 0.172602 0.319064 0.177519 -0.125282 -0.132242 0.099986 0.114916 0.0847029 0.0855609 -0.0427769 0.234116 0.0238935 0.12265 -0.0177768 -0.118124 -0.0911805 0.141927 -0.310284 -0.180858 0.330346 0.32162 0.50929 0.089864 -0.331221 -0.248697 0.0476577 -0.0510926 0.260538 0.121256 -0.117792 -0.268075 0.131387 0.370639 -0.12365 0.328148 0.0354945 -0.385648 0.148508 -0.000853926 -0.0955142 0.261626 0.241494 -0.323381 -0.108924 0.273547 -0.395125 -0.51614 -0.11257 0.396426 0.248884 -0.235934 -0.299541 -0.393386 -0.0828883 -0.257339 0.247905 -0.156735 -0.0861041 -0.0765868 -0.117769 -0.10817 -0.355023 -0.123407 -0.385555 0.313841 0.408493 -0.0953852 0.147602 0.327685 -0.417795 0.168436 0.547362 0.671299 0.111334 0.051902 0.425113 0.300358 0.227053 0.215691 0.189872 0.246581 0.109966 -0.00299757 0.274698 0.176489 0.315256 -0.326316 0.213863 -0.194073 -0.0978211 0.120155 0.406221 -0.36212 0.220729 -0.28709 -0.151242 0.134142 -0.01359 0.0232336 0.0436358 0.247742 -0.129326 0.131636 0.112052 0.436594 -0.382798 -0.134053 0.298386 0.149083 0.12962 -0.445967 0.410563 -0.163667 -0.0156732 -0.0468124 0.114149 0.292291 0.275109 -0.232874 0.00453312 0.271184 0.0982682 0.300137 -0.362651 0.0170033 0.315497 0.16381 0.468361 -0.0905705 -0.218292 0.0965507 -0.2348 -0.164706 -0.14724 -0.213364 0.236496 -0.108342 0.202792 -0.0860749 -0.121345 -0.016347 0.0550909 -0.140945 0.0310197 -0.458819 -0.148558 -0.148912 0.265572 0.216074 0.0222916 0.024482 0.0357155 0.0157882 0.108923 -0.158962 -0.324481 -0.269684 0.0123658 0.380792 -0.310721 0.0258333 -0.471109 0.167078 0.0866151 0.154574 0.327737 0.128913 0.064024 0.242702 -0.199062 0.0867246 -0.320083 0.117597 0.249647 -0.0498361 -0.479829 -0.219053 -0.211721 -0.577154 -0.139252 0.152664 -0.00900463 0.0411365 -0.065224 -0.138025 -0.0278364 0.146561 -0.0133962 0.106206 -0.115065 -0.359956 -0.19536 0.323213 -0.139078 0.223585 0.163322 -0.291925 0.29396 0.055937 -0.484358 0.00397846 0.115219 -0.236561 0.229027 0.0195978 0.177089 -0.206992 -0.239406 -0.124619 0.127648 0.149658 0.436773 0.351264 0.0233438 -0.491589 -0.249954 -0.0427945 -0.0658403 -0.163254 -0.0192388 0.284667 -0.0403359 -0.309684 0.682748 -0.171941 -0.09183 0.149143 0.0349579 0.325301 -0.297307 0.152283 -0.218597 0.300206 -0.0337421 0.088164 0.129289 0.151587 0.403275 -0.533279 -0.232536 0.28982 0.428561 -0.0890844 -0.164963 -0.333082 -0.0230926 0.245324 -0.49904 0.0753833 0.114275 -0.0553177 0.13482 0.23221
disability 0.167542 0.0254661 1.07479 -1.18828 -1.07079 1.57599 -0.451968 0.310311 0.555044 -0.102723 -0.0210815 -0.237977 -0.911567 0.891625 -0.0101142 -0.0368758 -0.0626879 -0.318872 0.0123825 -0.399651 0.454213 0.554443 -0.257139 0.772586 0.531088 0.625702 0.109156 -0.824072 -0.404549 0.945047 -0.0190783 -0.132614 -0.383525 0.621433 -0.858099 0.264186 1.71316 0.143357 -0.918758 -0.184648 -0.721742 -0.216871 -1.73109 -0.659109 0.111847 0.42448 -1.20841 0.146298 -0.0177941 0.200269 -0.213146 0.609768 0.482056 0.295621 -0.951277 -0.910967 -0.594352 -0.729547 0.506184 -0.452749 0.205291 -1.05137 -0.0982573 -0.215204 0.223145 0.504796 -0.459435 0.454382 0.00244029 0.169545 0.997849 -1.79133 1.32141 -0.349036 -0.647817 -0.640406 0.294204 2.24066 -1.24573 0.625022 -0.644307 -0.0458517 0.344684 -0.489116 0.12038 -0.00633244 0.790587 0.509444 -1.42074 1.99777 -1.21279 -1.14181 -1.26369 -0.266268 -1.04882 0.510389 0.539185 0.0520412 -0.821503 1.54821 -1.1002 0.154088 2.14335 0.313699 1.00914 -0.436204 -0.26873 -0.267126 0.629845 0.449589 0.924997 -0.324508 -1.49081 0.935381 -0.634853 0.212685 0.595008 1.44981 0.835575 -1.65272 0.680136 -0.543076 1.18564 -0.444227 0.285109 -1.29091 -1.52634 1.16438 0.471632 0.0915607 0.192848 -0.226354 0.339032 0.435909 0.880962 -0.415084 0.869072 -1.19442 0.813626 0.541038 0.188045 -0.652775 -0.286536 -0.174812 -0.39388 0.553407 -0.0288658 -0.43213 0.42591 0.629489 1.11315 0.0967247 -0.281589 1.00229 -1.24335 0.531004 -0.698542 0.976414 -0.966076 0.27151 -0.263812 -0.490096 1.17115 0.434453 -1.38511 -0.190136 0.817148 1.11857 -0.072956 0.309979 0.630164 -0.0430779 1.21217 -0.0307943 -0.314189 -1.38834 1.18753 -0.14085 -0.179273 0.958806 0.0991272 -0.469061 -0.992473 -0.924197 0.525657 0.313179 0.781184 0.212351 0.367844 0.416492 -0.375771 -1.83323 1.14315 0.138776 0.531971 -0.294057 0.383983 0.685744 0.224304 1.68166 1.11834 -0.429009 0.632686 -0.911159 -0.526376 0.67681 -2.44383 -1.51615 -0.574591 -0.754571 -0.13178 0.205513 1.24214 -0.375966 -0.853788 -0.575438 0.565467 0.0953039 -1.37397 1.16535 0.0968525 -0.924132 -0.0355039 1.1945 -0.899509 0.202533 -0.306537 -0.720013 -0.414337 0.24627 -0.276807 -0.77895 -0.659572 -0.222662 0.177076 -0.355929 -0.392351 -0.135964 0.562495 -0.188488 1.05488 0.823689 0.258957 -0.211802 -1.25133 0.483953 0.699435 0.253236 -0.661786 -1.34463 0.849175 0.779853 -0.724572 -0.0912026 -1.21278 0.898683 -0.170998 0.713632 -0.0309566 -0.367144 0.722627 2.03347 -0.585093 0.512792 0.862358 -0.403351 0.605734 0.189103 0.629561 -0.384246 -0.577584 0.381328 -0.598968 0.947848 0.192418 0.458219 -0.681761 1.07743 0.216022 0.438514 0.459518 0.87422 -0.322017 -0.78194 0.558066 0.626593 -0.517857 0.386351 -0.286556 -0.131116 0.13392 0.977064 -0.717652 -0.218518 -0.0331616 -0.646118 -0.313295 -1.13232 0.347553 -0.147204
environment -0.363398 1.01994 -1.08382 -0.183023 1.34209 1.32503 -0.300345 -1.47214 1.00674 1.89555 1.3 -1.00358 -0.360422 0.103569 1.22591 -0.562202 0.396492 0.472447 1.66617 -1.02005 -2.693 0.221829 1.30483 0.792582 -0.306744 0.81483 -1.73846 -1.05251 -2.13912 -1.68802 0.108451 1.30025 -0.752142 2.66772 -0.529629 0.112848 1.19203 -0.248565 1.25595 0.817442 -1.77614 0.99024 -1.35855 2.00745 0.0436316 -0.509396 1.3568 0.277751 1.28821 0.440689 -0.321345 -1.04115 -0.671552 -0.452398 1.20973 0.124279 -0.300515 -1.30927 0.19807 -0.744284 1.3027 -0.161445 -0.904666 1.1712 -1.38847 1.08008 -0.209925 -0.482389 0.697903 -1.22003 2.68165 0.848677 -0.697017 -0.569795 -1.29391 -0.902405 0.65118 0.639791 1.86633 -1.16327 2.29892 -2.84794 -0.090188 1.27153 -0.855602 -0.920299 1.53104 0.581767 -2.65798 0.385568 2.57401 1.04549 -1.12545 -0.0311903 0.502621 0.495595 0.474645 0.492872 -0.213081 -0.359972 -0.0750373 -0.0573315 -0.717725 2.93458 2.37945 -0.755646 -1.92954 0.0954943 2.5075 -0.283633 1.42326 -0.629948 -2.32422 -1.14033 1.31148 -1.09556 1.51474 -0.28718 -0.51998 -0.339681 -1.90129 0.540696 1.21775 -2.64438 -0.942976 -2.26547 -2.08754 -1.93174 -1.86979 -1.14886 -2.1587 1.72098 -2.06595 0.913564 -0.771431 -0.833813 0.718258 -1.01705 0.886382 0.0948742 -1.07083 -0.0177444 -2.69629 0.220509 0.800452 1.72983 -0.0508129 -1.23587 -1.67439 0.323579 0.567452 1.80708 1.17947 1.86457 1.85307 -2.76148 -1.84499 2.33084 -1.25314 0.590851 -0.999614 0.231163 0.00781322 1.9665 -1.44124 0.825762 2.66665 3.49111 -0.705509 0.052134 0.82877 0.365472 0.310907 -0.0841046 -1.2929 -1.89943 1.36985 -2.59107 -0.433507 1.84578 1.04824 1.30971 0.529789 -0.589554 -2.3287 0.444697 -1.16057 -0.71915 0.54234 0.0908112 1.18137 -1.86529 0.389515 0.360428 2.18497 -2.27199 0.685164 -0.388318 0.156948 0.150513 -2.37029 -0.290287 -0.648294 -0.681334 1.40674 -0.324414 1.87059 1.42313 -2.34817 -0.772439 -0.521892 -1.51592 0.970316 0.139485 -0.491935 -0.103848 -0.306296 0.529025 0.644017 1.50436 -0.856644 -2.95263 -1.75999 -0.418653 0.377533 1.20364 -0.871292 -2.36499 -1.05211 -0.764394 -1.55358 1.30741 -0.42994 1.12431 -3.48769 1.7265 -0.456976 4.58887 0.132701 -0.175173 -1.32123 0.938032 1.84728 -1.21796 -3.25851 -1.78662 3.31545 1.38182 1.35072 -2.50559 -0.796613 1.87844 1.42146 4.54373 -0.187047 -0.992001 -0.143884 0.0318647 0.465926 -2.31251 -0.286625 1.44378 0.541408 2.05533 0.830697 -1.25022 -0.859666 -2.24057 0.599047 1.36133 -1.97215 0.572451 0.589788 0.401703 2.15199 0.0120633 1.35862 0.635574 2.05157 -1.45152 0.173107 -2.57923 0.089433 -0.817023 0.423571 -0.335875 -2.23557 0.497536 -1.56729 -0.813137 -2.56587 -0.943922 0.434843 0.410491 -0.919645 -1.50044 -1.8706 0.167681 0.492365 1.6924
terror 3.35096 -2.23455 -0.102748 -1.35912 -0.656171 -0.0744861 0.38936 1.09919 -1.58523 -0.146377 0.866834 1.66048 1.38809 1.44816 1.32025 1.41674 -0.124669 0.106612 -0.938825 0.366131 0.435886 1.52733 -0.897437 -4.20794 3.0939 -2.2552 1.0573 1.51829 -0.483915 0.308098 0.92919 1.38199 1.30587 -1.59968 1.06355 -1.69365 1.18618 0.339618 -0.71621 2.16501 -0.314095 -1.40239 1.78546 2.00123 1.21637 -1.68778 -0.166123 -3.04517 1.91691 -1.34973 -0.525777 -3.18041 -1.04917 -0.595649 -2.09771 0.083599 0.526564 0.845162 -2.08717 -0.368746 -0.944649 -0.699508 -0.9288 0.913886 -1.27671 -0.7929 0.671972 -1.30968 0.492595 1.5736 0.948391 1.38894 -1.89311 -1.26048 0.124137 -0.615552 -1.56405 2.54617 2.40237 -0.899114 -2.27848 -0.428338 -0.259939 -2.61614 -1.84284 -0.523754 -0.994104 1.61677 -2.48032 0.61735 2.08378 -2.02161 0.748958 1.3004 -2.35896 -1.28024 3.26559 -1.15125 -0.339503 0.677791 -0.920612 0.505534 0.218876 -1.55139 -1.05061 0.23679 0.536771 0.115299 -0.334777 3.40324 0.563521 2.13466 -1.71751 1.05329 1.33695 0.801439 0.837282 -1.04249 1.05216 -0.159223 2.164 2.25403 -2.96362 -1.6135 0.442659 -2.15836 -1.07829 -0.515567 -0.912487 2.02968 -0.388823 0.00119011 -0.621087 1.29239 -1.95292 0.18865 0.696392 2.23845 -0.0152 -2.14273 -1.16804 0.779021 1.36077 1.12668 0.562538 1.41467 -0.9636 -0.148724 -1.29128 0.0622348 0.827034 0.206672 1.03663 -0.82331 1.23595 -0.0654451 0.172873 1.64569 0.223673 0.956129 1.11209 -2.01114 1.89846 2.49927 -1.60433 0.785255 -1.03901 -0.503968 1.69533 -0.685549 0.736045 1.67156 0.105497 3.49203 0.676932 2.5159 -0.380392 -0.192745 0.103738 -0.782331 -4.10102 0.552741 -1.43098 -0.577447 -2.5518 1.56601 2.23884 -0.733712 0.455192 0.56695 -1.23831 -0.916219 -0.963721 1.6093 4.00809 0.416439 2.6053 0.373758 0.745908 2.55331 0.287706 1.58468 1.31463 0.197311 1.00308 0.202443 0.00046078 -0.919101 -0.356323 0.673325 0.15222 -2.14526 0.296141 2.33727 -0.17579 1.43933 -0.593984 -0.391743 -0.831372 1.43564 -1.2816 1.02951 -0.477392 0.500154 1.21822 1.53919 2.22354 -0.889594 -1.3425 0.943599 0.761586 0.43162 -0.19897 0.33633 0.0428407 0.0873459 1.74746 1.19868 -0.397401 -0.882646 1.95748 0.624145 -1.10144 -1.94869 -0.931011 -1.61441 -0.348127 -0.974423 0.618989 0.708958 -0.27155 0.668268 0.00608929 0.901375 0.213265 -0.637532 -1.57408 0.617363 -1.16654 -2.53637 1.85257 -1.72918 1.83476 -1.48963 -0.71841 -0.353806 -0.905929 -0.391495 2.47438 -0.484093 -0.591786 -0.668931 -0.758251 0.449045 -2.16612 -3.207 -0.23732 -1.55476 -0.387098 -0.221515 0.841286 -1.52009 -0.477017 -1.29065 1.84012 1.16905 -1.19887 -0.395864 1.70895 -0.90394 0.175403 1.43635 2.16034 -0.972059 1.13113 2.2822 1.57568 0.031907 -0.479278 1.58053
smile -0.18185 -0.390218 -1.16704 0.568935 -0.990813 1.76071 0.854252 1.26288 0.359403 -0.0326701 -0.604981 -0.989284 -0.0543477 -1.85689 0.961034 -1.36785 1.30142 -0.145036 -0.326919 0.232073 0.208138 -0.0677857 0.0698933 -0.0371463 1.97188 -1.2922 -1.2064 -0.767315 -1.35096 0.220151 0.585589 0.849102 -0.896382 -0.788842 -0.660283 -1.3612 1.26658 -0.564355 -0.774373 -0.334209 -0.0224488 0.395611 1.26431 -0.60068 0.636407 1.18802 -0.00732205 0.848793 0.271285 0.811455 -1.19025 -0.340753 0.225905 -0.517526 -0.570749 0.472813 -0.419901 0.630463 -1.01832 -0.685627 -0.316166 1.30024 2.98609 0.726079 -2.15635 -0.517299 0.537282 1.03168 0.317962 -1.93931 0.440731 -1.40231 0.103653 0.596524 -0.270335 0.715768 -2.08348 -1.25806 1.1022 0.44892 0.274112 -0.990188 -0.302252 1.12154 0.784055 0.810743 0.754687 -0.806977 0.645362 -0.827293 0.532449 -0.862296 1.03831 -0.46929 -1.85138 0.950484 -0.807158 -1.95469 0.251688 -0.363096 1.90769 1.98439 0.74107 0.583017 -0.521479 0.997901 -0.0340111 -1.95538 -1.55384 0.944222 -0.585275 0.213108 -1.56982 0.373936 -0.372344 0.335572 0.444451 0.117249 0.00606297 1.27142 -0.236707 0.529246 1.13637 0.746408 -0.650883 0.383807 1.446 1.39834 0.242822 -0.480595 0.215426 -0.281555 0.396073 1.0135 -0.787381 -0.660152 1.16786 0.0117065 -0.543859 -0.00552559 1.88644 -0.0491766 -2.69944 -0.0872323 0.745725 0.590878 -0.806247 -0.0691843 -1.79402 0.250048 -0.0138555 -0.75082 -0.344669 0.789696 0.771822 0.881859 0.290004 -0.908577 -0.307046 -0.677927 -1.24076 -0.284441 0.979932 -0.147722 1.5295 1.00694 -0.825941 1.18305 0.122699 -0.324224 -0.462335 0.718879 0.471484 -0.121882 1.59206 0.33345 2.015 0.373933 1.07299 -1.74398 -0.326733 -0.634712 -1.09074 -1.17836 -0.350598 -0.244942 -0.14514 -1.0254 1.1481 -0.927966 -0.0459082 0.464735 3.05837 0.0766025 -0.450283 -1.90233 0.858161 0.0987069 -0.229026 0.756585 -0.173346 0.136687 -2.14591 0.32613 1.52495 -0.537323 -0.17081 0.0141768 1.64881 1.0444 1.33078 -0.420009 1.41345 -0.949367 -0.295103 1.50432 0.436421 1.52067 1.14958 1.763 0.839077 -0.0418644 -0.258578 1.15892 -1.16158 -0.143968 -0.442916 -0.53404 0.0763623 0.091383 -0.30164 0.613093 1.02168 0.0201473 -0.399105 0.0147863 0.760413 -1.7137 1.88907 2.26588 0.877703 -2.46753 0.720347 0.748655 -0.214676 0.474802 -0.235229 -0.401097 -0.619499 -1.07589 -0.843669 0.887829 0.419682 -0.723253 0.887794 -0.00200132 0.64379 0.573601 0.146418 0.900217 -0.146291 0.811093 0.947219 1.50765 -1.22926 -0.15285 0.638807 0.926908 -0.226355 -0.324748 0.349937 1.46687 1.66663 -1.15932 0.267128 2.32739 -1.01241 -0.997241 0.0795437 0.125216 1.80522 -0.471567 -0.486173 1.33839 0.290635 -0.950529 0.894971 1.09678 -0.857262 -0.668802 -2.12229 1.00205 -1.01068 -0.352945 -0.315249 -0.913375 -0.464393 -0.132212 1.02759 -0.691243
woman -1.16797 1.80866 -3.71075 -0.0942651 -0.304104 1.40793 0.953056 4.31229 2.53721 -0.613541 -2.01838 -0.29218 0.205272 -2.47904 -0.267828 0.231466 -0.747595 -0.93074 -2.80102 -0.411363 -1.88445 1.46242 1.22474 1.07807 1.12055 -3.21488 -0.670842 -0.936898 -1.5013 1.78395 -2.01592 2.4972 -0.654709 -2.18357 -4.00017 -0.631093 1.21753 -0.00710107 -2.14071 -0.810216 -0.768694 1.15919 -1.13923 -0.349065 0.354758 -0.984522 0.435473 1.88755 -0.355596 1.41487 -0.123488 2.15065 1.60585 0.551978 -0.673645 1.29078 -0.82794 -0.450748 0.0963657 2.5071 -3.19268 -1.77209 -1.66548 -0.721832 -1.47193 -0.32112 2.31798 -1.03994 0.576848 1.48444 -0.214437 0.879781 2.46823 -2.35706 -1.77959 0.627708 -3.25088 -0.650988 0.550422 -0.0294155 -0.629743 -2.52066 -1.93006 -1.20251 -1.65436 2.41954 -1.66793 -1.61474 1.65429 -0.420036 -1.3193 -4.11249 2.30446 2.05212 -1.99433 1.20532 -1.6071 1.69612 0.859622 0.987926 0.527803 -0.43122 2.2542 1.53809 -0.628674 1.35943 1.10241 -1.71824 -0.713063 0.870102 0.451261 1.87348 -1.30737 -0.238049 -0.696597 -2.36339 -1.42283 1.3597 0.613798 3.48833 -0.476834 0.577267 1.96429 0.986542 -1.79466 0.556222 -0.502848 -0.3729 3.00409 -0.577475 1.09458 -1.80918 -0.438398 -2.25794 3.01294 -0.262025 0.762834 -1.81498 -0.906261 -0.81569 0.905308 0.124734 -1.28663 2.57994 0.758723 0.652918 0.463125 2.10762 3.02891 1.67195 -1.04379 -1.43888 0.246549 1.85957 0.336076 -3.01593 0.501164 -0.472488 0.948072 0.687179 0.66377 0.264471 -0.907843 0.184068 0.665501 0.55346 -3.00108 -0.117469 0.442315 1.23308 -2.94816 3.73959 3.08689 2.72007 3.58887 -1.06424 1.61161 -1.48701 0.0946593 1.98813 -0.587876 1.40422 -1.01872 -0.866163 -3.70604 -2.02278 3.81059 0.190928 0.930692 0.0675972 0.572263 -0.142642 3.04994 1.82939 0.345605 -2.73291 2.36314 1.21832 -3.02691 1.7265 -0.107063 2.84825 -2.5339 -1.131 1.47675 3.49591 -1.86672 -1.49521 -0.595895 0.608031 -0.478786 -2.06553 1.33518 -1.87278 -0.134823 -1.66623 -3.10562 -0.476089 -1.18565 2.1661 -0.742931 -3.39534 -0.571946 0.411634 -3.09054 1.11245 -1.68594 -1.26715 3.29537 -0.42507 -1.50323 0.0109698 2.50538 -0.736799 1.54643 -2.73233 -1.77633 -2.30231 0.605561 2.24578 2.68082 2.22841 2.21639 -0.837347 0.373563 2.67883 0.441217 0.591396 -1.41391 -4.19152 -1.93676 -0.5653 0.381657 -0.411694 -2.50966 -0.584732 -1.21712 2.487 -0.728881 0.0472899 0.577256 -1.06213 -0.174087 -0.68954 -1.07624 0.906153 3.22299 2.54925 1.02175 -1.35617 2.17235 1.58291 1.35315 2.80499 -0.824006 2.29262 -0.281076 -2.68392 -2.86986 2.26924 2.13706 -0.160141 -0.836123 0.0575092 1.91858 1.2191 -2.15794 0.929497 -0.970441 -1.59078 -1.00153 0.812581 -0.82125 -1.0952 0.6002 -0.338149 -0.938002 -1.35707 -0.23382 -1.79185
string -1.70495 -1.40918 -1.00608 -0.33532 0.360405 -2.3607 -0.269042 0.731435 1.51965 -0.0305088 0.532424 0.207625 -1.2212 -0.612398 0.250524 1.40227 -3.08141 0.230599 -0.716936 -0.543131 0.527699 -0.281653 -1.6466 -1.23121 2.19859 -1.54866 -1.20432 1.00752 -0.568073 -0.298001 -1.92762 4.42712 0.264434 -0.637006 1.23644 1.59374 1.79845 0.31184 0.709837 0.142711 -1.19691 -0.151285 2.09241 -1.57482 -0.953184 -0.84246 1.34541 0.0665383 -0.64501 0.864048 1.36665 1.2301 0.900925 0.104375 0.29603 2.18513 0.815705 2.4137 0.0972965 -1.23607 -1.83005 0.184525 0.412944 0.839646 -0.730857 -0.274204 0.747748 -0.862743 -0.0948978 -0.908513 2.00001 -0.144762 -1.94242 -0.885373 -1.74797 -0.563263 0.0556544 -0.63188 -0.446449 -0.313744 -0.818165 1.13838 0.253477 -1.49021 0.139109 -0.834686 -0.18003 -1.39548 0.323629 0.770469 1.48281 0.953991 1.1151 -1.57863 0.562755 0.0396261 1.2749 -1.12972 2.10917 -0.112498 0.223732 -1.15497 0.385724 -1.23422 0.318451 1.00565 1.59428 1.5198 0.0172864 1.43152 -0.0707833 1.43577 -0.974836 -0.417271 0.639315 0.767651 0.295016 -0.0983159 1.61335 1.16886 -0.694912 1.07299 0.0828161 1.12281 0.633213 -0.77655 1.78895 -0.360558 1.44302 -1.98913 -0.0707878 -0.763016 1.01243 1.36518 1.3599 0.864477 0.0970936 -1.1508 1.3661 -1.02423 -1.44563 0.45919 -1.17876 0.320221 -1.06247 -2.09183 -0.654332 0.919187 -2.19603 1.67649 0.365129 0.489894 -0.697384 1.26812 0.950055 0.861098 -0.713068 -1.69094 0.323533 -0.988928 -1.84557 0.287579 0.537486 1.46678 0.000937896 0.817222 -0.702614 0.652346 0.325002 -0.965009 0.361197 0.0504016 -0.520978 1.51653 1.31952 0.825727 -0.000206282 -0.102396 1.12656 -1.81665 -0.124279 -0.397561 -0.518355 2.08625 -1.87424 -0.096166 1.10035 -1.61627 -1.25273 -0.79157 -0.893456 -0.210813 -0.222141 3.38258 -0.425493 0.950538 -2.62402 2.10743 3.17045 -0.516022 -0.19696 1.20386 0.218564 1.35389 -0.0591863 1.36752 -0.394363 -2.0206 0.865642 0.113223 1.69074 -0.0701589 1.13979 0.211777 1.7382 -0.98105 -0.247952 1.0467 -1.58363 0.172785 -0.215041 -1.06705 -1.43978 0.411952 -1.11341 -0.460925 0.855519 -0.160136 0.855139 0.134949 -0.869962 0.262343 1.79355 -0.54227 0.970425 -0.34299 1.09158 0.37582 -0.198187 1.13918 1.37432 -0.775641 0.514319 -1.00993 -0.279486 -0.465464 0.743201 3.76576 -0.826881 -0.450893 0.786429 -2.03108 -0.205338 -0.484864 0.728281 -0.0387278 -0.0797038 -1.22289 -1.28005 1.34898 2.7835 0.849591 1.20151 0.242365 -0.887756 1.38163 -2.30019 -0.203551 2.00433 -1.68167 -0.836114 0.71702 0.69557 -0.825122 -0.789355 -0.90632 -0.504596 -1.93413 -1.71853 2.04246 1.62558 1.4722 0.274333 -0.117975 -0.180482 -0.619641 -0.678571 0.574756 1.43061 0.810388 0.36702 0.257238 0.987833 0.102981 -0.221606 -0.575378 0.821902 -0.70341 -1.65343 -1.53074
Maradona -0.0900938 -0.275029 0.92596 0.0853223 0.490719 0.613546 -0.00425086 0.718253 -1.35001 -0.241766 0.902531 0.256465 -1.25818 -0.188384 -0.138931 -0.0735119 -0.027868 0.130472 0.191562 -0.388815 -0.186815 -0.0725123 -0.414467 0.448313 0.0712682 -0.373708 0.272615 -0.374821 0.221559 -0.387839 0.505537 0.72184 -0.404668 -0.0334238 -0.00678246 -0.321997 -0.546668 -0.00982149 -0.99401 -0.608471 -0.0350604 -0.476961 -0.494276 0.670826 -0.145893 0.619821 -0.194963 0.430079 -0.278255 0.611492 0.054547 0.180667 0.548244 -0.412151 0.130391 0.0605074 0.363617 0.253661 0.0491786 -0.446476 0.457589 0.24569 -0.250161 -0.0158241 -0.30996 -0.445685 0.168394 0.838236 0.588042 -0.198988 0.120035 0.349227 -0.374747 -0.495872 0.893113 0.259235 -0.541743 0.0856746 0.60911 -0.148676 -0.544926 0.283466 -0.0167664 -0.16128 -0.000288781 -0.442848 -0.207169 -0.0641134 0.552261 0.114492 -0.436847 0.721913 0.0972709 0.0157231 -0.162046 -0.343843 0.421972 -0.586422 0.232661 0.373668 -0.127427 0.50046 0.401018 -0.510973 -0.28604 0.494598 0.355728 0.137067 -0.2597 0.724236 -0.709764 0.447497 0.667058 -0.192058 0.121543 -0.133608 -0.0760715 -0.312227 0.293215 0.000699846 0.411912 -0.047711 -0.264144 -0.240847 0.559869 -0.260903 0.431574 0.749725 0.524774 0.316258 0.169724 -0.128596 0.336839 -0.365723 0.333703 -0.533089 -0.268488 0.226116 -0.438248 -0.240801 -0.444963 0.437362 -0.408791 -0.323313 0.187021 0.158032 0.0096842 -0.117109 -0.274836 0.375728 -0.194841 -0.278795 -0.757728 1.10968 0.365983 -0.443763 -0.0826977 -0.237549 0.0707624 0.0633725 -0.0321682 -0.0662567 -0.0912763 0.396755 -0.0252102 -0.58527 -0.401172 -0.119306 -0.299416 0.496083 -0.441016 -0.314601 -0.408816 0.462653 0.324317 0.0620224 -0.48659 0.245287 0.161003 -0.26153 -0.106547 -0.229912 0.298576 -0.00613595 0.449813 0.196965 0.359565 0.589046 -0.259036 -0.0111755 0.161846 0.473373 -0.382953 -0.0947043 -0.276254 0.0513663 0.861615 -0.665696 -0.172543 0.143583 -0.214674 0.243037 0.725186 0.531085 0.0944122 0.679486 0.198883 -0.215384 -0.155856 0.997066 0.500135 0.56545 0.662852 -0.0711836 -0.217866 0.0769633 0.0046535 -0.440447 0.170827 -0.360161 -0.16877 -0.0793782 -0.271818 0.499874 -0.105781 -0.32405 -0.577598 0.197045 0.268419 0.725796 -0.0239058 0.314509 0.0985705 0.0217815 -0.0225532 0.229353 0.771232 -0.596674 0.19901 0.775924 0.244371 -0.0479484 -0.530851 0.321434 -0.39227 0.297612 0.423571 -0.142317 -0.327221 -0.660082 -0.618294 -0.450663 0.785308 -0.409267 -0.225906 -0.0733303 0.218901 0.132808 0.409731 -0.135314 0.0603023 -0.203003 -0.00748754 -0.098074 -0.0458156 0.0061822 0.727807 0.152511 -0.516343 0.422262 0.539028 -0.0385595 0.48954 0.334866 -0.125026 0.279959 0.566622 -0.234405 -0.575558 0.215465 -0.0189621 -0.356627 -0.386852 0.153353 0.292137 -0.138829 0.025914 0.755132 0.815089 0.561772 0.538187 -0.598998 -0.636856 -0.156285 0.171601 0.0545933 0.0929139 -0.16995 -0.00350584 -0.946422
liability -1.59775 0.901841 1.62829 -0.229676 0.875144 0.962702 -0.728209 -0.0446591 0.555694 -0.882344 0.91915 -0.236563 -0.347569 0.0712698 0.985226 -0.520379 0.587287 0.671098 0.00432725 -0.622352 0.55642 0.152044 -0.276963 -0.652054 1.21027 -0.582665 -0.154984 -0.11645 0.0883068 -0.371149 -0.93757 -0.896056 -0.592431 0.980189 -0.115217 -0.489225 0.320447 -1.3991 -0.589929 -0.537519 0.263803 0.0299214 -1.36241 0.683816 -0.650247 0.529448 -0.808956 0.673791 0.147929 0.282471 0.615676 0.0372138 0.631367 0.273136 -1.26399 -0.0304575 0.238865 -0.614098 0.233868 -0.657922 -0.361464 0.150512 0.777859 1.04924 0.985116 -0.177774 -1.59776 -0.889531 0.852485 0.135226 0.509478 0.260402 0.213685 -1.08413 -1.56535 -0.273698 0.528981 1.24264 -0.745816 0.536246 -0.621519 0.264099 0.377699 0.27432 1.07443 0.0627381 1.87211 1.17424 -0.651114 0.613867 0.0243685 0.134145 -0.620405 -0.41934 -0.459609 0.467199 0.216911 0.452528 0.623639 0.151007 -0.131913 -0.758701 0.0526701 1.02429 0.782313 0.00986526 0.877559 0.371551 -0.18844 0.437009 0.556117 -0.32237 -1.14421 0.410338 1.72393 1.12838 0.7276 0.600342 0.441517 -1.79095 -0.436194 -1.09906 0.843894 -0.343358 -0.398226 -2.33913 -0.638892 0.118003 0.241636 0.466635 -1.08055 -0.0951841 0.923136 0.338863 1.87447 0.200286 0.492534 -0.477419 -0.0315825 0.180813 -0.582465 -1.05342 0.108219 -0.38567 -0.855788 0.104064 -1.21298 -0.538148 -0.13328 -0.286071 0.214195 0.0988726 -0.00697358 1.62621 -0.866212 0.541311 -0.252085 0.362618 0.345018 -0.506732 0.188196 0.392988 0.104165 -0.88211 -1.0575 -0.529091 0.590355 0.795962 0.804552 -0.33767 1.0935 -0.364453 0.468763 0.463065 -1.50446 0.484548 0.463933 0.136118 0.361086 0.061598 1.1068 -0.208944 0.0846324 -0.186387 -1.29102 1.12715 0.792539 0.661488 -0.219715 0.379488 0.140735 -1.34289 0.0337749 -0.0587067 -0.639034 0.476441 -0.00942905 0.343959 -0.124939 0.319393 0.824393 -1.41075 -0.109605 0.200385 -0.710213 0.162825 -1.82995 0.0917763 -0.0492578 -0.337274 0.151358 -0.890445 -0.236409 1.44201 -1.15988 1.06442 -0.299947 -0.252318 0.247846 0.403663 -0.589413 0.443017 0.110674 -0.836805 -0.0519663 0.538679 0.0875829 0.477749 0.0966576 1.24358 0.0136842 -0.98013 -1.3703 -0.513183 -0.353259 -0.344661 -0.993695 0.495569 0.0679156 0.328855 -0.196167 -0.118478 -0.167088 -0.016523 -1.23885 -1.24384 1.73847 0.757052 -0.499196 -1.18559 -0.0458208 0.87334 -1.91767 0.111652 -0.976336 0.184397 0.337064 -0.521245 0.568597 -0.66606 0.567064 1.35056 0.594711 0.492512 1.04946 -0.0380483 0.116355 -0.180692 -0.612756 0.868337 -0.748733 -0.174282 -0.682734 0.966633 0.221424 0.719619 -0.881678 0.809071 0.891136 -0.098699 0.745947 -0.808723 1.03426 -0.957282 -0.585025 0.227761 -1.66561 1.15823 -0.326215 -0.329023 0.222357 0.594979 0.178725 -0.142934 -0.959894 -0.553394 -1.18054 -0.382235 -0.0239597 0.230866
ticket 0.444482 1.02002 0.743956 0.0796161 -1.78096 0.491499 0.91517 -0.360714 4.40748 -0.863433 -1.3487 -0.836771 1.21327 -0.185047 0.176884 -0.0630758 1.63841 1.33789 -0.886257 1.56456 -0.617016 -2.45365 -1.08132 -0.360137 -1.19848 0.396025 1.27527 0.799913 -0.663073 0.327704 -1.17014 -1.47095 -0.914488 0.942959 -1.40547 -1.10001 -1.12533 -0.737876 0.125553 0.0759491 0.991259 -1.42712 -0.760405 1.31861 1.43396 1.23014 0.930599 -1.98902 0.2213 0.0385017 0.562331 1.57227 2.06163 -0.629584 -0.471494 0.277266 -0.901821 -0.10182 0.186317 -0.999377 -0.271129 0.0877837 0.903162 0.263824 0.199108 -0.571856 0.619105 1.94157 -0.14425 -2.4306 0.540258 -1.71614 0.462139 -2.99437 -1.69025 0.344204 -1.14701 0.0603194 1.51052 0.557632 0.13745 -0.329059 -1.51129 1.42243 -0.650467 1.23154 -0.791099 -3.09159 2.43227 0.162051 -2.60832 0.866711 -0.540767 2.28201 1.11133 -1.10748 0.122343 -0.332536 1.37363 0.233073 -1.23456 -0.171953 -0.169568 -0.616516 0.710279 -1.93681 2.7259 -0.74357 -1.87663 -1.32318 0.188572 0.917097 -3.18849 -0.427245 -2.42676 1.59754 1.40071 -0.511077 1.55847 1.4654 -0.781511 0.863711 0.842843 1.63593 -0.725917 1.08158 2.28788 0.695543 1.05993 -2.54021 0.77245 0.0836056 -1.0681 -0.631845 -0.546235 -0.762423 2.0382 0.171892 -1.53848 2.97158 3.22023 -0.0400629 0.391136 -0.110742 0.124135 -0.213965 0.599886 -2.38401 0.599014 1.08804 1.54402 0.985337 -1.34827 0.911949 -2.54084 0.913001 0.391085 -1.92181 -1.08112 0.844338 0.633405 2.2734 0.0163067 -2.05664 0.588782 1.32848 0.708907 0.503991 1.02544 0.215413 -0.728093 1.02451 0.675108 0.292892 -1.17617 1.25109 2.31781 -1.89972 1.33868 3.55584 0.0873163 0.876121 -0.5534 -1.43701 -1.93133 1.00057 -2.23819 1.69732 -2.53335 -0.434301 -0.0210296 -1.30056 1.18851 -0.717181 -1.18716 0.202509 -1.10905 1.12495 -0.153983 0.79377 1.3875 0.829586 -0.436615 -0.851549 -0.815498 -1.94665 0.0578389 -0.0135876 -0.599278 -0.824772 3.27043 -1.66743 0.0337075 2.44319 0.692031 2.29774 1.03553 -0.349192 0.363343 0.159664 1.09908 0.133507 0.771763 0.829558 -0.674255 0.653922 0.600067 -0.486896 -0.222135 -0.224358 0.795805 -2.50383 1.76306 -0.333469 -0.462632 0.751434 -0.740077 -1.55007 1.10241 -0.174874 0.880455 0.991837 -1.43004 -0.2142 2.59857 0.409278 0.0978567 0.97147 -1.20098 0.506419 -1.70732 -1.59343 -0.493756 -0.525096 -2.39522 0.490005 -0.300558 -0.783078 -1.46782 1.13058 0.470743 -0.416207 0.9578 1.45323 -1.51862 1.11764 -0.369431 -1.78491 0.481268 0.387376 -0.357996 -1.0626 0.559135 -1.41213 1.33211 1.74387 -1.6669 -2.05661 2.21676 -0.154365 -0.283312 -0.743395 2.26969 0.266236 -0.337082 -1.65798 1.11133 -0.801848 0.806978 -0.617391 3.49877 -0.278474 0.3562 -0.129983 -0.163858 0.369578 0.0762208 -1.27031 -1.93998 0.673404
school -0.449038 -4.22189 -3.14511 -0.802291 -0.708087 1.60445 2.27498 1.66197 -1.3735 -1.09824 -1.14794 0.903703 -2.38164 -0.353346 -1.04697 -4.03818 0.581706 -4.70551 -2.04523 0.671187 -2.61989 -1.68503 -0.107323 0.0547725 -0.337985 -1.18857 0.0749463 -1.17434 -3.60695 1.29383 -2.47831 0.11493 -0.9808 -0.870217 0.0457002 -0.743562 0.502718 0.900237 1.91009 -1.27251 -0.732729 0.111291 -2.40961 -0.877806 0.140581 1.73088 -1.56962 0.424175 -1.49597 -1.11006 1.30076 0.316435 0.595707 0.176684 0.553547 0.278188 -1.91786 -0.670408 -0.245476 -1.85916 -1.4659 0.250591 -2.16021 -2.31153 0.950234 1.38952 -0.739136 2.07691 -1.91091 -0.0320325 2.01665 -1.39635 0.34983 1.18943 -2.1721 -0.59172 -1.86321 -1.07604 0.650763 0.890048 1.08227 3.42046 1.51269 -4.40677 -1.46938 -0.346673 -1.24076 -0.359577 0.581619 -1.10825 0.585527 1.83065 -1.07607 0.549372 -2.02721 -0.158829 -1.23038 3.2603 3.47012 -0.54399 -0.671835 -1.79347 2.41542 3.10296 -0.310805 0.405631 -0.745311 -2.45865 0.701091 1.02844 -1.10128 1.64339 -1.23101 -1.00949 1.91821 0.516656 2.42572 0.397823 -1.63348 2.33329 -0.119069 -0.278163 0.756235 -0.378258 2.08798 -0.513229 -0.424923 -0.783264 0.124192 -3.6383 1.66253 -0.155658 -0.612217 -0.751348 0.445395 1.82167 -2.40489 -2.99331 1.02883 3.51469 4.02053 1.30614 -3.45766 -1.65464 0.422281 0.0893068 0.785922 -2.01713 -1.94339 0.510529 2.65036 4.32786 -0.193945 -2.41472 0.81562 -1.375 -2.74686 1.57519 -1.47485 -1.11307 1.32877 -0.0222095 2.45597 2.27949 -1.34196 0.887784 0.553945 -1.45492 0.611354 -1.21353 -0.628322 1.46793 0.810448 -0.860596 6.83869 0.27374 -3.22426 -1.08624 -3.19415 1.87049 -1.39766 -1.02357 -3.05956 1.15784 -2.08426 -1.81437 -1.88054 0.787638 -0.570549 -0.534159 0.201037 -1.92164 -1.28739 -1.28136 -1.02658 2.90566 0.950772 -0.00121694 0.377463 1.12254 1.59964 -0.70347 -0.0233435 2.05444 1.04215 3.99794 -1.40496 -4.09265 -0.369661 0.950775 -1.93302 -0.505422 0.180588 -1.21227 0.68819 1.44521 -0.21794 -1.5134 -2.3858 0.740269 2.71337 -1.17023 -0.8663 1.90495 -1.70843 0.558456 -3.85656 -0.516837 -0.0199675 -1.67372 0.00194856 -4.78369 2.37024 1.83455 0.0623154 -0.0312729 0.923326 -2.62739 1.58218 -1.86078 -2.34286 -1.34841 1.08379 0.578069 1.63313 1.44101 2.31966 -2.36225 -0.16232 -1.4289 0.868306 0.0503751 3.49768 -4.38558 -2.19004 0.848318 -0.202721 -0.132248 -0.999103 0.0211848 -3.39147 0.206201 -2.16185 3.05119 0.275413 0.0425746 -0.525004 1.96938 0.0462311 -2.4045 0.210776 -1.04195 -0.278242 -0.0380218 1.95748 0.280561 -0.94685 2.43909 -2.4082 2.32284 1.65206 -0.772983 -2.14628 0.452351 -0.14475 0.678874 -2.10053 0.751915 -0.443326 0.313625 0.16118 -1.13253 -1.4636 -0.988968 -1.56749 -0.435317 -0.77886 0.0563059 0.582817 1.195
gender 0.581161 -0.425626 -1.311 -2.93179 -1.82849 -0.113941 -1.45421 0.78585 1.10762 1.06866 -0.870267 0.547176 1.32957 0.308931 0.219086 1.16632 -0.207662 -1.57373 -0.40055 -1.40861 -0.938715 0.496258 -1.47731 -0.191317 0.125682 -1.83776 -1.63859 -1.00367 -0.0445023 0.48312 0.0843969 0.103904 0.278719 -0.42619 -0.681634 -0.839384 0.857868 -1.20401 0.923531 1.9927 -0.0823049 1.53802 0.231669 -1.34939 1.61691 0.600286 -0.0891023 2.12673 -0.555229 -0.957367 -1.95269 1.3324 -1.4648 1.50409 -0.67028 -0.26902 -0.344367 -1.32426 -1.26411 -0.366114 0.248582 0.0426489 0.100675 0.0914594 0.0070234 0.646052 -1.38512 -2.30122 0.224748 -0.228905 0.0341699 -0.409448 0.379196 0.31545 0.276992 2.7289 1.25792 0.983875 -1.15543 0.459082 -0.143061 -0.581506 -0.880663 0.755737 0.320278 0.827166 0.307318 0.134675 -0.0693887 0.389015 -1.28841 -1.74447 1.39606 -0.535404 0.608989 0.212363 0.455083 0.568595 -0.219686 0.887204 -1.73331 0.919845 1.99219 0.369969 -0.208458 0.475829 -0.919859 -1.25961 -0.699066 -0.592659 1.63981 -1.5322 -0.156313 -0.331659 -0.734877 -0.990596 0.625544 1.23564 -0.978414 -1.16583 1.82763 0.364043 1.25003 -0.232899 0.69911 -0.607797 -1.94262 -0.336676 -0.483605 -0.373928 -2.42613 0.15035 -1.60146 0.201025 -1.36169 -0.968653 0.376879 1.24844 1.7169 0.304731 1.60791 0.644314 -1.85485 -0.939081 -0.00933347 1.3184 0.73462 0.255898 1.2773 0.216268 0.459352 0.00439716 0.502155 -1.33861 -0.338309 0.108232 -0.463678 1.98988 -0.71742 0.869567 0.0852951 -0.659922 2.01521 0.45533 -1.24209 0.335777 0.468109 2.05934 -0.0612693 0.0413465 -0.0755278 -0.567535 1.95706 0.778788 0.483898 -1.20695 0.254943 -1.55732 2.1506 0.840144 1.27304 1.3575 0.160727 -1.26407 -1.26667 0.934189 0.426718 -0.532302 0.612778 -0.675505 -0.199579 -2.6829 0.306417 2.72177 -1.54657 -0.0785926 0.25356 2.18152 1.20393 0.818482 0.569529 0.919387 0.47453 1.87833 -0.18775 1.6211 -3.06578 -1.07508 0.176236 -1.7539 0.721055 -1.53723 0.687607 1.87816 -2.27512 -0.436186 0.218206 2.49751 -0.504534 0.241595 -0.178535 -0.553661 -0.166293 -0.231181 -0.930407 0.166029 -3.0632 0.98587 -0.540822 1.40856 -0.19169 -1.22627 0.165434 -1.27362 -0.464277 0.0340454 -1.19378 1.19729 1.50656 1.42869 0.328455 -0.177447 -1.57071 0.398883 -0.999017 0.348978 1.21743 0.00162505 1.14093 -0.562325 0.442169 -0.232258 -2.4214 0.492899 -1.97956 -0.319412 -0.501086 1.06446 -0.739606 -0.0426715 -0.153788 0.770493 -1.36174 -0.140556 -0.382221 -0.506791 -0.419203 0.12348 0.276377 0.575936 -1.6785 0.818553 0.49207 0.44556 1.07531 0.407676 1.41593 3.84247 0.595516 0.71263 -0.260633 0.0747836 -0.235009 -0.617647 -0.363955 -0.642754 -0.931864 1.42898 -0.468571 0.352111 -0.000483259 1.1984 0.384537 -2.00834 0.559745 0.436347 1.91614 -1.76146 0.0530306 -0.425984
brother -1.00397 -1.31621 -2.3102 1.34902 -1.48579 1.62844 -2.67498 1.10646 0.731485 2.1624 -0.000887937 0.286319 2.01929 -0.474095 0.793087 -2.05631 2.7908 -0.979143 -2.05729 -1.22879 0.353668 3.24291 1.46075 -0.222693 -0.484572 1.13927 -0.0162373 -0.440707 -2.18559 1.08543 -1.06995 2.9249 1.10738 -1.84452 -1.77245 -0.153609 0.760792 0.294453 0.319325 -0.380584 0.154987 -0.661878 -2.31019 2.24783 1.46042 0.118501 -1.0488 -0.47292 -3.32163 -0.568161 0.851482 -0.888807 1.7866 1.88535 -0.94509 -1.8077 -1.1071 -0.176034 1.30872 2.55647 -0.912143 1.08329 0.548055 -1.29624 -0.982009 -0.832023 2.30828 0.344459 0.218366 -1.9683 0.479082 2.07625 -0.0543672 0.881031 -1.84862 0.994013 0.53857 -2.12776 0.529531 -0.0600682 0.467441 0.142821 2.78968 -0.587844 -0.37055 -0.176791 0.687833 -0.310486 -1.37978 -0.118402 2.03156 -0.92071 2.02914 -1.09576 -0.929598 0.949695 1.5269 -1.83183 0.986577 1.10832 0.547933 0.834137 3.00986 3.50302 -0.995154 2.2592 0.621637 -2.33947 0.323523 0.895 -1.31706 1.88204 2.33342 -0.284812 -0.231929 0.807079 -0.926693 2.30185 1.07426 1.61321 0.674768 0.657021 -0.393226 -1.59159 -1.39757 1.3132 0.983365 1.71592 -1.22594 0.918383 0.461692 -4.83082 0.359915 2.072 -2.29343 1.50279 0.313987 0.542855 -0.706581 0.527629 -1.89512 -2.81423 -1.76867 2.0349 0.422495 2.42413 -0.0635787 1.17492 0.665712 0.517665 -0.50285 1.3034 -3.53803 2.63251 -0.856305 1.44645 2.03078 -1.10408 1.39778 -1.28553 1.71271 -0.546293 0.638898 0.900207 4.05904 -1.23375 -1.32121 -2.10877 0.632914 0.411483 -4.96774 2.06936 1.57901 1.37611 -0.385837 -2.87221 -0.48284 1.06938 -0.0468978 -0.0547257 -4.35212 -0.522888 -2.3372 -3.09573 -1.60151 0.238337 -0.130586 1.71531 1.06829 -0.539969 -0.338912 -0.934704 1.75042 -1.35008 1.41083 0.104666 0.379183 0.116178 -1.06202 2.21553 0.486893 0.373608 0.0104482 -1.01821 2.75379 2.14314 -1.98327 1.23688 1.45655 2.07902 -0.127056 1.53865 0.910626 0.274938 -2.68078 -0.273374 -3.03316 -1.02302 -2.05993 2.3062 0.817428 -0.608579 0.441093 4.2217 -2.14996 -1.8963 -0.965326 3.15652 3.19609 -0.823574 -1.13727 -0.154411 1.68614 -2.37189 0.0116178 -1.04857 -1.68734 -2.98304 1.01003 0.135358 1.08388 0.765466 1.9009 -3.95939 0.889761 1.90615 1.02748 -1.39486 -2.92149 -0.403032 -0.848553 1.22667 0.645634 -0.339165 -1.05367 0.961743 3.21288 1.59528 -0.587066 -0.500199 -0.568875 -2.30992 -0.69908 0.0225318 -1.37576 -0.544383 2.10131 1.95128 1.47503 -0.128506 1.75912 -0.381503 0.978391 1.51354 0.732934 3.37921 0.614648 0.102995 0.0880962 -0.0600026 -0.0505816 -2.931 -1.06694 -0.842226 -0.52936 -2.71654 -0.162361 1.65953 0.470112 0.287977 -2.81682 -0.00636212 -1.56227 1.39982 1.78643 -0.452212 -0.68774 -3.41087 -0.951429 -1.96471
team -2.46779 -0.530166 -0.445572 -0.918209 -0.776664 3.46496 0.659525 0.499669 -0.995085 3.21699 1.00899 -1.28415 -0.437829 -1.9255 -1.33437 -1.3552 1.00466 1.72877 -0.641808 3.1945 -2.56856 -0.846783 -2.19623 -3.74781 -2.98894 -0.60231 -0.334473 -1.17694 -1.56052 -2.97419 -0.524769 2.91571 -0.479143 -0.499122 -0.577266 1.43857 1.14376 -1.07323 0.215462 -0.752091 -2.04297 2.46659 1.34481 0.972969 0.085365 0.302907 0.00882212 2.89411 -1.64172 1.05649 0.763765 1.28702 1.36087 -1.58427 -1.30906 -0.937387 1.46587 1.2271 -1.46623 -0.0842152 -0.324519 0.475029 1.42321 1.85046 -0.0210901 0.135191 -0.598974 0.461978 2.22163 -2.59346 0.925345 1.88148 1.05327 -1.11756 -0.968306 -0.0837947 -1.57602 -0.323555 0.727204 1.03726 -0.921179 0.691675 3.08913 0.612988 -4.05901 -0.116196 -1.27355 0.576624 0.480423 0.180939 -0.891918 0.00678977 0.341003 0.617221 1.19871 -1.15534 1.11269 -0.0230921 -0.455097 1.16968 -0.407428 -0.688313 -1.17008 1.56596 1.27556 1.10747 1.19517 0.671067 -1.34832 1.5744 -3.24981 3.8943 -1.83697 -2.42065 -2.2273 -1.97763 -2.94256 0.704037 1.77368 0.935802 0.547089 -0.356465 0.902685 -2.90474 1.03663 -0.0693227 0.569126 1.00586 -0.525048 -2.31743 -1.79109 -2.0897 -0.599967 0.244429 -1.74986 -2.32974 1.47737 -0.972233 -2.35381 0.602272 -0.378977 0.643914 -0.718068 -1.03803 0.18121 2.48559 -0.638947 1.08503 0.503953 2.53093 0.436847 1.07185 -2.11763 -0.63116 -0.0769845 -3.46705 -1.64895 1.02018 -0.333554 -1.67493 -0.560224 0.28039 -0.671135 1.07294 -2.01403 1.2559 2.12545 -0.38128 0.520569 2.40054 -1.32183 -1.41436 0.782247 0.845826 0.85951 -1.09501 -0.27331 -2.12651 -2.67329 -0.314349 -1.075 0.939732 2.67586 1.84218 0.3084 0.482562 -2.62645 3.00423 -0.535649 -1.77359 1.91633 0.256464 0.593045 1.35618 -2.00663 0.109052 0.234167 -1.28594 0.377147 0.302275 0.238025 1.23127 0.921675 1.23591 0.540273 1.504 2.97276 -1.01697 1.38293 1.44773 -0.541376 2.07886 1.52416 -0.529712 1.36739 1.03159 -1.56097 2.71969 -0.0965295 0.115305 2.75026 -0.846831 -1.0006 2.78589 -2.03196 -1.06745 -2.42315 -1.39564 1.58558 2.50306 0.701335 -0.163512 -0.960138 -0.0523071 1.30719 1.94838 1.19624 -2.32464 -0.59095 1.73716 0.679518 -1.43542 0.358157 1.55103 0.634581 1.69393 2.19078 -1.33052 -1.16001 -1.86633 1.64501 1.9511 2.72191 2.10168 0.636491 0.72097 0.272336 0.137108 0.246752 -0.900269 0.579438 0.44351 0.310921 0.195728 -0.235131 1.32748 0.315331 1.01772 -0.652501 -2.26949 3.56333 -1.74919 0.501411 -1.30997 1.78723 -1.12989 0.218445 -0.24955 2.63174 -1.10205 1.94553 -3.68141 0.729587 0.821635 1.64538 -1.66817 1.7058 -0.000801538 0.265126 0.450095 -1.0969 -1.18585 -2.05366 0.215219 -0.887118 -1.5189 1.45074 -0.700495 -3.34957 -1.06321
mammal -0.555453 -0.168296 -0.603433 -0.447696 0.45926 0.23435 0.289407 0.0891316 -0.301364 -0.156751 0.305413 -0.4348 -0.360272 0.237051 0.0886013 -0.10543 -0.338367 0.241968 0.0500877 -0.0128586 0.0487787 0.150173 0.255999 -0.305002 0.265527 -0.146842 -0.102199 0.0279798 -0.0272018 0.439128 0.168076 0.146008 -0.25252 -0.207163 -0.176704 -0.123711 0.76127 -0.0454357 -0.157959 0.0290575 -0.151851 0.0801145 0.328831 -0.0274091 -0.345717 -0.324481 -0.257298 0.216873 0.34613 0.10631 -0.441601 -0.107564 -0.339363 -0.301739 0.0344235 -0.283694 -0.162391 -0.3123 -0.00105691 -0.0465022 -0.0751746 -0.307689 0.183842 0.0184045 -0.246251 0.550135 0.459753 -0.299363 -0.212652 -0.00105145 0.0310183 -0.402288 -0.0684661 0.16089 -0.0806391 0.166489 -0.00499584 -0.0515414 0.0403077 0.160118 0.0841511 -0.0640701 -0.0303219 0.183897 0.0754595 0.103883 -0.228035 0.327076 0.523126 0.0428063 0.00366359 0.297233 0.161344 0.267012 -0.363703 0.123422 -0.179457 -0.0926797 0.082001 0.251734 0.462754 -0.1345 0.243058 0.247894 0.0125043 0.126885 -0.081513 -0.00870949 0.0265843 0.816463 0.0335505 0.345635 0.0229483 -0.657526 0.00204541 0.0681323 0.00532419 -0.276264 -0.522881 0.451338 -0.475681 -0.102957 -0.0645972 0.127032 -0.398259 0.0943177 0.114334 0.0723259 -0.707538 0.203784 0.188834 0.327803 0.0757757 -0.678092 0.17659 -0.298955 -0.166928 -0.868301 0.0215407 0.00822677 0.364706 0.130474 0.0696525 0.321222 0.434076 0.104304 -0.310129 0.476169 0.332465 -0.00542905 -0.155633 -0.0437564 -0.0824798 0.370736 0.277178 -0.266252 -0.397184 0.29071 -0.000430995 -0.144474 -0.0390339 -0.0183324 0.0877883 -0.0584231 -0.226489 -0.0540204 -0.235998 0.0247622 -0.0127342 -0.393576 -0.236852 -0.0881057 0.0120099 0.219842 -0.181886 -0.468651 -0.515093 -0.248271 0.143894 0.171409 0.364977 0.115939 0.342593 -0.0465264 -0.303716 -0.191573 0.579899 0.0438663 0.123959 0.170707 -0.0839977 -0.0474189 -0.057628 0.394409 0.316866 0.341431 0.352616 -0.0883215 -0.0904325 -0.517801 0.101074 -0.0717118 0.0177256 0.0805101 0.183309 0.289838 0.0478049 0.306959 -0.0594845 0.140618 -0.172337 -0.147172 0.341855 -0.359488 0.174954 0.232564 -0.374903 -0.177629 0.393099 0.153796 0.11453 -0.237532 -0.177 -0.223244 -0.199754 0.128867 0.109974 -0.124313 0.0923558 -0.418615 -0.298045 0.283651 -0.467496 -0.084762 -0.00572669 0.231649 0.284256 0.0988084 -0.234195 0.845611 0.29043 0.451405 -0.235957 -0.130258 0.140557 -0.37654 -0.017877 0.18425 0.256754 0.112227 -0.0677101 0.572195 0.167487 0.00247342 0.274743 -0.0810043 0.230835 0.310768 0.0727899 0.254162 0.277377 0.18987 -0.324184 0.266801 -0.326439 -0.0140296 0.563053 0.0663567 0.497571 -0.337293 -0.122265 0.340007 0.0983431 0.263452 -0.128166 0.243562 -0.351654 -0.0274505 0.356338 -0.246014 0.662418 0.0043105 -0.139563 -0.0850901 -0.190742 -0.359382 -0.00813007 0.791944 -0.273446 -0.311176 -0.147546 -0.0786738 0.107311 -0.113506 0.404882 0.138921 -0.270015 -0.138095 0.450934 -0.17196
round -2.34629 -0.47953 -1.05496 -0.825468 -0.720396 -1.45289 -1.08734 -1.58508 -1.53714 -0.180733 1.57889 -1.40076 0.78545 -1.0953 -1.02811 -1.1725 -2.31342 3.13851 1.68089 3.36917 1.85592 -1.61683 0.515468 1.29437 -0.994151 -0.302947 -0.240109 -0.999951 -2.28315 -1.94398 -2.0765 2.27474 1.85931 -3.06142 -0.454963 1.39255 1.25621 -0.104588 1.39597 1.39826 -2.30219 -2.62364 0.845995 1.72135 -3.44013 0.140743 1.29255 1.61119 -0.801266 -2.14637 0.516892 3.39312 2.23757 0.927687 -1.45708 -1.47198 -1.47124 1.59999 -1.14533 0.543385 -1.07698 0.648661 -1.86052 -0.106114 0.406686 1.39993 0.516573 1.34782 -2.83457 1.60067 1.08877 -1.80399 3.76252 -0.509011 -1.06164 -0.814463 -2.94127 -2.66 0.225412 -2.20904 -0.128485 -0.118036 0.10199 1.77977 -1.80152 0.929221 0.523169 -3.92048 1.55176 -2.81973 -1.54928 -1.59311 -0.196161 -2.32795 4.98971 1.71639 0.661153 0.891639 2.27914 1.11656 -0.544964 2.30902 1.57411 -0.924488 -1.75318 1.05678 1.76293 -0.837568 -0.135566 -0.304765 -0.527537 -0.691386 -0.778893 -1.97876 -1.9625 -1.13383 -1.01561 1.22725 1.71223 -3.19274 -2.93941 1.88125 2.89793 1.65523 0.304531 0.154408 1.29892 0.684149 2.21453 -3.92234 -0.36973 -0.867484 0.757311 -0.947198 0.418903 2.90321 0.000256123 -2.23258 1.65553 -0.264424 -1.24025 1.31451 -1.67356 -0.662219 0.605629 2.46686 -1.0576 -0.473321 1.01034 -0.113712 -0.266601 -0.933671 1.75033 0.811574 1.66163 -1.98284 -1.90142 -0.818871 -2.4084 -1.07491 -0.857364 0.368892 -1.93314 -0.541163 -1.31266 0.0486072 -1.88186 -0.926346 0.0809054 -0.278168 0.429787 -2.31731 -3.52407 0.110435 1.28211 2.87039 3.14089 -0.138205 2.07877 1.85031 -1.82763 0.554378 0.567676 3.57363 -2.3351 -0.717865 -0.759914 -2.13717 -1.21818 -0.146126 -2.98272 -0.696339 0.929345 1.28356 0.803361 -0.737872 -0.312895 1.19601 0.125284 0.856318 -0.793128 -3.00624 -1.75518 4.14335 1.20043 2.41132 1.70097 -1.60858 3.03651 0.971252 3.08236 1.92647 -0.0637863 -2.23929 -0.531105 -1.3071 0.279887 0.0443258 -0.827677 -1.04467 -1.42453 1.46878 -1.58005 0.507424 0.0628256 0.367316 1.13983 -0.839743 2.33521 0.323744 1.52626 2.10974 3.09599 -0.984488 1.52336 0.115489 0.424133 1.01881 1.87102 5.07787 0.816138 -3.97828 -0.146473 -0.0473161 3.43528 0.0303078 0.319803 -0.577797 -1.10552 -0.185096 0.45318 0.976297 0.494858 0.356751 2.78215 0.940461 -0.145161 1.32946 -0.693241 -0.280055 -0.658553 0.772282 0.755046 -0.946849 -1.14878 1.67236 -2.59688 1.86988 0.00932983 -0.0497246 -2.18544 0.680192 0.10664 -2.47911 -0.0525313 -1.67703 -1.09971 -0.530971 1.47222 0.221877 1.87067 4.89712 0.304307 0.198391 -0.429696 -0.599006 0.628372 1.21486 -1.67797 1.5791 -2.01469 -2.12064 -2.24752 0.336407 -0.66511 -4.00124 -0.354008 2.20359 0.791546 -2.34776
clothes -3.51466 -2.38648 -2.60016 0.425061 -1.10169 1.70019 1.44383 2.20382 0.7864 2.71852 -2.16834 -0.848128 0.225984 -0.0343444 1.15752 0.695678 0.773035 -1.41084 -0.903794 -0.0996329 -1.84885 0.0817721 -0.386684 -1.59512 0.785532 0.570564 -0.929907 -1.36759 -0.904716 2.10931 -0.0241405 1.07163 -1.35245 2.47916 -2.01123 -1.19223 0.198149 1.12264 -2.25781 2.1412 0.0527592 -0.977171 1.32267 0.938827 -0.572452 1.29395 0.217086 -1.72255 0.396928 -0.574969 -2.1019 0.638309 -0.815318 0.892103 -0.591717 -0.601641 0.967352 -0.99594 -1.24462 2.35932 0.34134 1.74009 1.58526 -0.479311 0.479192 -1.92742 2.35003 0.44765 -0.531839 -2.52641 2.17804 -3.04066 0.610596 -2.94168 -0.142206 0.30831 0.00308639 -0.410491 0.492229 1.10832 -0.278653 1.38497 -2.02042 0.312965 0.815312 -0.100265 -0.89543 -0.851157 -1.56181 -0.932538 1.03218 0.359042 0.612046 -0.339231 -0.354363 0.19545 -2.16048 -0.424346 0.832427 -0.97906 -0.429878 0.682615 0.417074 1.63049 -1.78868 1.29083 0.204767 -2.07752 -2.63123 1.95521 -1.81684 -0.353975 0.805756 -1.61557 0.336986 1.00328 0.732884 -0.375044 -3.3039 2.49852 -1.01451 0.264105 -1.32466 0.892286 0.679562 0.821413 -0.309817 1.33224 0.298846 -1.69916 1.01357 0.69702 -0.319082 0.370124 -0.929846 -0.661927 0.760108 0.664033 -1.74022 0.72583 1.49589 0.1449 0.0859857 0.140522 -1.36681 0.294531 0.41438 -1.3272 -0.163229 0.370811 0.569235 1.80783 -1.86443 0.445269 -0.42823 -0.462175 1.0318 -1.4028 2.05951 0.193038 -0.252891 -0.0620554 1.10884 0.452785 0.351402 0.808767 -0.356605 1.85125 -1.56685 -0.0139422 -0.0570696 0.181159 0.553802 -0.676854 2.30772 -0.226616 0.650157 -0.626093 -1.51026 1.37354 0.387589 -1.47653 -2.04834 -1.77167 1.59938 -2.57735 -1.60183 0.0500255 -0.188565 -1.34793 -1.18329 -0.252386 2.5005 -1.24881 2.97915 0.704674 2.67097 1.17467 -0.433229 0.10932 0.677695 0.33514 -1.91237 0.706101 0.545589 -1.42489 -0.548048 1.29381 -0.712982 -1.84502 1.68935 -0.124366 -0.240244 0.624588 -0.831563 1.39552 0.372801 -1.3581 -0.401122 1.91538 0.169108 -0.837527 -0.95384 2.02051 0.412919 0.192812 -0.962929 0.707928 -1.37937 -0.422738 0.178672 0.91749 1.62922 -0.881261 0.617957 1.09602 -0.611389 -1.25603 3.16895 2.05001 0.0587741 -0.991592 1.54149 -0.455306 -0.35941 1.17815 -0.0746473 -0.198826 -0.69878 -0.486581 -1.66849 -2.18305 2.26738 0.953142 -1.08057 0.136147 3.50048 0.593047 0.14158 2.44827 1.11048 -0.439632 -0.349789 2.28526 0.51886 1.78567 -0.71229 -0.584576 0.491641 -0.997213 1.12539 0.133323 -0.0116278 -0.0931323 1.96179 2.5428 0.486031 -0.345542 -0.46649 -0.103501 0.739314 -2.22279 -1.07206 -0.801838 -0.109368 -0.253246 -0.46122 0.0356386 1.3489 1.37421 -0.928975 0.687422 -1.33344 0.353656 -1.07524 -1.05917 0.779376 -0.620377 -1.04922 0.712109
carnivore 0.103116 0.0712995 -0.0753718 0.00988156 0.0582822 0.042251 0.0494943 0.131613 -0.0512964 -0.0309636 0.104987 -0.0412019 -0.00707788 -0.066298 0.0603247 0.0727204 -0.00815194 0.0336504 0.0336174 0.0352559 0.0605715 0.146145 0.107885 0.0495472 0.0634246 -0.0554314 0.00411906 -0.0359049 -0.111889 0.00191064 -0.081645 0.0421608 -0.0418007 -0.102987 -0.105464 -0.00679665 0.0565528 -0.0492343 -0.00543422 -0.130433 0.0040766 -0.103899 -0.0306407 0.109738 -0.0698683 0.0183637 -0.0643957 0.05725 0.014086 0.121118 -0.0887546 0.0584539 0.0255431 0.0528598 0.0188629 0.0600896 0.090567 -0.011773 -0.0419988 -0.133939 0.0773988 0.105751 -0.0508271 0.11183 -0.061076 0.0156689 -0.121535 0.0719546 0.113514 0.0653287 -0.136093 0.113017 -0.0113054 0.0754247 0.10229 0.0419287 -0.0170264 -0.1057 0.136596 0.0470715 -0.0366133 -0.188277 0.0247476 0.0472063 -0.0320398 -0.146951 -0.0597503 -0.0547515 0.163836 0.00516082 -0.136298 -0.065785 -0.13202 -0.0494178 0.0129638 0.000112388 0.0475812 -0.0371122 -0.0113186 0.04025 -0.0993471 0.00552776 0.0946644 0.0447001 0.0355988 -0.0871454 -0.0338039 0.0938285 0.0334861 0.0285459 -0.0790505 -0.0325525 0.174147 -0.0116063 0.0118187 0.0568518 -0.0903226 0.0200474 0.039811 0.0417657 -0.0659578 0.0474935 -0.0159924 -0.00126639 -0.0901145 -0.125028 -0.0653446 0.0832262 0.11597 0.0137235 -0.0372785 -0.0844318 -0.00881207 -0.222962 0.0157874 -0.013386 -0.121534 -0.20798 0.037796 -0.0541054 -0.0202651 0.0792104 0.144809 -0.0273426 0.0666038 -0.0378599 -0.0765303 0.0999711 0.0149532 -0.0641952 -0.0472347 0.0838392 0.0608752 0.0939339 -0.0255113 0.0315883 -0.13095 0.0315676 0.0399254 -0.0619644 0.038395 0.0699678 0.0361073 -0.129062 0.0400128 -0.0491812 -0.0772126 -0.0610849 0.0528323 0.127091 -0.0460454 -0.058864 0.0469717 -0.0121949 -0.00527572 -0.0647007 -0.0295739 0.0697006 0.0089893 -0.101246 0.00713031 0.00339336 0.0962271 -0.00373062 -0.0718574 -0.103992 0.0484826 0.0551009 0.0139318 -0.030725 0.113484 -0.104807 -0.081543 -0.101255 -0.012124 -0.0882336 -0.0379568 0.0117111 0.149596 -0.0244858 0.0583768 0.0641001 0.0412248 -0.094686 -0.0281065 0.15356 -0.0846871 -0.034821 -0.114978 0.053825 0.00663471 -0.109403 0.0837757 -0.0569776 0.0419657 -0.0782754 -0.0607053 -0.0146532 -0.00174108 0.0131279 0.061237 -0.0180032 0.0259247 0.031963 -0.0752831 0.00194573 0.0225621 -0.0721953 -0.0242169 -0.159602 -0.113204 0.0786355 -0.013414 -0.119329 -0.0221339 -0.0843019 0.0020626 -0.0729179 -0.117393 0.0153392 0.135856 -0.00262508 -0.139512 -0.0477763 0.0136539 0.10403 -0.111909 0.0814622 0.0496324 0.0125905 0.055714 0.0631955 0.174425 -0.039887 0.0573527 -0.0534184 -0.036257 0.0132854 0.0527452 -0.126914 0.0618722 0.0459308 0.0189531 0.0142705 -0.0553652 -0.120767 0.0783934 -0.045562 0.0346207 -0.0470487 -0.0653558 0.0315298 0.00438247 0.0397518 -0.0698391 0.0620887 -0.140987 -0.0743359 -0.016231 -0.0331097 0.0649013 0.127992 0.0255395 0.0471215 -0.0395984 -0.0303809 0.0280756 0.0453744 -0.00666232 -0.0370662 0.0411095 -0.104381 -0.0107812 0.0744653 0.105131 0.0340493 -0.0720268 0.0403815 0.00442789 0.0303045
sign 1.46831 0.983034 -1.61409 1.81782 -0.390224 1.59523 -1.02573 0.126934 3.96331 0.799257 -1.61841 -2.54455 -0.54593 -1.03651 -1.16174 -0.288705 0.0820083 1.44811 -0.843917 -0.13729 -0.364379 0.0778943 1.17802 -2.26955 0.0423593 0.107448 -0.409109 2.94264 0.371807 1.50246 0.977772 0.970791 1.13042 0.544151 0.908222 -1.90377 0.750804 -2.70593 -1.7272 -0.396239 0.940045 0.364799 3.77994 -1.25923 2.48228 -0.767645 1.2134 0.316242 0.900431 1.61367 0.531671 0.153756 -2.43007 -1.57343 -0.07062 3.58172 -0.359894 0.795522 -1.85947 -0.676417 2.26429 -0.365079 -0.0247696 1.56113 -0.0937433 -0.283191 -0.255995 0.716605 -1.18604 -0.0225443 1.09643 -0.676585 2.46103 0.318138 -1.34269 -0.209883 -0.870266 -1.5985 0.509542 -1.03523 -0.989807 -2.09233 -0.269501 0.770401 3.10005 -2.91802 1.27305 0.248579 0.183308 -3.62565 -1.04593 1.74157 -0.276721 -1.38137 -1.53391 0.349667 -0.396948 -0.186102 1.19334 -2.62176 0.565579 -1.03027 -1.50143 0.154326 1.17073 1.65806 -1.14208 -1.92505 1.18177 -0.692168 1.90357 0.412812 -0.0318356 -2.00418 0.131207 0.0603813 2.58228 1.68044 1.64797 -0.271426 0.773966 1.3106 1.42656 1.38112 -0.510634 -1.5917 1.23883 2.21516 3.41863 0.00703804 -0.77938 -0.500095 0.6413 -0.167163 2.03511 0.40113 2.12246 -0.727535 -0.964834 1.02461 -1.28714 -0.710365 -0.965723 -1.31618 -0.971937 0.762559 -2.3664 0.167976 -2.74295 0.865578 -1.46537 0.272376 0.784712 1.5638 -0.953348 -1.20294 -1.77246 0.799672 -2.0115 -0.347654 -2.05029 -1.73426 -2.99041 1.16541 0.636121 -0.474565 -2.77901 -2.39846 1.41248 -0.877757 -1.45761 -0.809147 -1.93437 1.58378 1.70967 1.7477 3.36428 -2.18872 0.34123 1.06054 0.518808 -1.08222 -0.0427681 3.52234 -0.94192 1.66321 -0.420009 -0.529617 -1.12256 1.10546 0.186506 1.93066 0.863914 -0.950161 -1.10683 -1.28902 -1.54423 2.00988 0.452346 0.252298 -0.128526 -0.0947745 0.283762 3.05093 -0.604302 -0.441016 1.28858 2.13627 -1.20904 -0.245113 0.537093 1.55376 0.517283 -1.08399 -0.932377 -0.930795 3.32221 1.14456 0.23999 -3.14792 0.43019 -0.11102 0.3794 0.91992 -1.68778 -0.0934248 0.112346 1.62733 -0.321652 2.73798 -0.595581 0.484585 1.02229 0.314006 2.21763 0.29332 -0.0749902 -0.104739 0.330453 -0.642038 0.416607 -2.31071 0.983791 -0.2053 -1.37999 -0.244831 0.48307 -1.19173 -1.62638 0.820821 -2.27165 0.150336 -0.285674 -1.41036 1.80652 -0.734837 -0.883306 -1.72907 -0.215569 -1.32915 2.19954 -1.59472 0.729563 -0.60503 0.112305 -3.96552 0.309799 1.94219 1.09729 -0.706208 -2.07414 -0.0940961 1.53314 -0.119951 -1.296 1.05643 0.143808 -0.542648 -0.961789 -0.935611 1.05605 1.33029 2.35684 -2.76718 1.65538 -1.77443 -2.28731 1.83167 0.538296 2.36269 0.0844426 -1.24161 0.294712 -1.15086 0.88003 -1.45858 -0.415724 -1.04162 -2.07522 1.59051
street -1.1528 -1.83371 -3.85327 1.77581 1.93442 1.32146 0.917664 1.32478 2.22779 0.377235 0.372615 0.400427 -0.699129 -1.79818 0.926662 0.442416 0.869198 0.135527 -1.28609 0.526015 -1.85315 -4.19206 2.23829 -0.371817 2.01318 -1.4592 0.915826 0.325035 0.29168 1.46488 -0.955864 0.550373 -0.794635 -1.6496 -2.51991 -0.887123 3.80383 1.60759 -0.000949094 -0.509875 1.31176 -1.80315 0.185455 1.38137 1.28321 -0.631486 0.209872 -1.19877 0.631274 -1.32771 -0.0736826 -0.246964 0.8269 0.65543 -0.247659 -0.872133 -1.39558 -0.669828 0.104658 -0.532178 -2.97437 4.3059 -1.28404 0.21586 1.06359 0.154211 0.708657 -0.344337 -2.11268 -0.904718 0.389504 -3.60354 -1.65841 0.0308042 -3.86726 -0.933154 -1.27253 -0.644125 1.42682 0.77803 -0.416916 -0.63408 -1.69749 -2.92999 0.50535 0.69251 -2.34497 -0.021123 0.665947 -1.71859 -0.800934 1.2227 -0.311268 0.669565 -0.663273 1.22978 -1.95977 1.94508 0.583359 -0.881106 1.66542 -1.37173 0.714034 0.225467 -1.89139 -1.25894 0.947981 -2.38936 -1.81934 0.482406 0.160251 0.547328 -1.24891 1.3406 1.82574 2.46899 1.88533 -0.119041 -1.98918 3.42111 0.491036 0.628133 -0.560123 -1.79907 -1.04161 -0.491235 0.332923 -2.605 0.510226 -2.89866 1.18027 -1.89329 -0.280434 -0.916383 0.849719 0.480539 -1.54339 0.313435 1.36272 -0.169504 2.63809 0.861305 -2.91617 -2.10104 1.91374 -1.15824 -1.66376 -2.30007 -1.54954 1.54474 -2.35258 -0.103221 0.0314731 0.00685801 0.772629 1.7223 0.260579 -0.840069 -2.47466 2.31587 0.998524 -0.785768 1.12639 -0.980158 -2.61158 0.642463 -0.57715 1.09787 -0.354291 -0.191336 0.0916906 1.78624 -2.16513 0.909243 2.97676 0.523194 0.572132 -0.00273912 1.21872 1.76673 -1.74166 -1.22616 -1.35072 -0.117606 -0.677458 -1.00813 -0.370354 1.34176 -0.3887 -0.669743 -0.0845838 0.132932 -1.04613 -0.761751 -0.468607 0.649292 2.10105 1.34969 0.119065 1.72125 0.715344 1.07055 -0.493613 3.88269 0.0223471 -1.31213 1.10931 0.29591 -0.300572 0.412954 -0.549959 -2.6393 1.28338 1.69707 1.74729 3.40706 3.69723 -1.15433 -0.197686 1.50029 -0.137684 -2.71356 -0.040036 0.952498 0.657186 0.113307 -0.467664 1.35792 -1.11785 -0.0195739 -0.563836 2.07819 -0.200211 1.79771 -0.592195 1.79541 0.710728 -3.49002 -1.51839 -0.752488 -0.253972 -0.769735 1.58992 -1.2533 1.19818 2.12593 0.175606 0.952875 -2.19639 1.11613 -1.65743 -2.30912 0.0561342 0.0762094 -0.755955 -3.45511 -0.729068 -0.115628 1.02122 0.00597724 -0.35769 -1.95041 -0.275971 0.313848 -0.644335 1.84508 -2.56383 0.138486 3.48193 -0.271854 0.261508 0.476922 1.88193 -2.78004 0.687575 -3.6819 0.173264 -1.03132 -2.53414 1.0616 -1.54002 -1.10228 0.453594 3.40579 1.35959 -0.513999 -2.65654 -0.293836 -1.74388 -0.931743 -1.55527 -0.577983 2.36229 -1.86255 0.964085 1.12405 2.86265 0.393269 1.75231 2.06778
video -0.559208 2.105 -0.0131544 -0.985428 -0.489467 0.0532937 1.23616 4.77847 0.190327 0.363068 -1.34497 -2.0342 -1.33888 -0.334667 2.50361 0.793447 -1.10535 0.607147 -0.966901 -2.71017 0.582228 -2.20407 0.319359 -0.549005 1.28269 1.78958 0.276575 -1.19534 1.04943 -1.62612 0.986182 2.02062 -3.70984 -0.293695 1.22987 2.12037 1.25609 1.32098 1.30819 -0.819755 -2.42889 -3.24896 0.342429 0.956602 -0.700026 1.64921 -0.0788967 -1.64576 -0.592986 0.24146 1.01081 1.85781 -0.378676 -1.05741 1.70044 2.26316 1.05127 1.11815 -1.92046 -1.38852 -1.56629 0.652412 -1.78424 -0.279931 -2.72417 1.18528 5.31046 0.633669 0.943866 -0.794314 1.54863 -0.213788 -0.70055 -1.23383 0.561596 2.04171 -2.4046 0.594759 1.99182 -1.08192 -2.0003 -0.0768945 -1.59324 -0.866903 -0.104535 -1.57208 -0.380119 1.47689 1.42081 -1.26175 0.195263 1.9409 1.76679 -0.740924 -1.27857 1.13051 0.541828 -0.916643 0.48647 -0.900241 -1.27399 1.72405 0.673076 -1.57696 -0.120013 1.84284 0.316475 2.07803 1.04366 0.183196 1.42778 -0.0925023 0.272537 -0.336728 -0.519 3.65322 0.59602 0.753482 -0.674954 0.236173 0.223333 0.499497 -0.565916 -0.45381 -0.250102 0.24554 -0.826545 0.00749236 0.232833 -2.41119 0.149075 0.349752 1.85399 0.151079 0.173855 -3.27563 1.90097 -1.64663 0.300756 -1.37765 0.871004 0.519673 -2.13618 0.915878 1.32201 1.96991 -1.13535 -0.0247087 1.13977 -3.36654 1.70373 -1.21413 1.4145 -0.0518311 1.27807 1.31823 -0.658172 -0.828939 -0.617792 2.89095 -1.46371 0.134981 -1.22051 0.377012 -1.83371 0.614638 -1.70677 3.41448 -1.18036 1.05593 -2.36435 0.782983 0.853285 3.82015 4.15834 0.791371 0.887047 0.923504 -2.37401 2.51572 -2.28293 -0.203436 -1.10116 -0.129326 1.51996 1.53159 -4.30713 -0.153978 -0.95539 0.187251 -0.270448 -0.696809 1.91216 1.60859 -1.4468 -0.327214 1.6142 1.59701 1.61239 -0.149818 -1.97957 2.94471 -1.86267 -0.138785 2.33099 -0.764934 -0.246711 -1.90398 -1.0917 0.377565 1.85496 1.03764 1.38987 3.06571 -0.0685322 2.99341 -0.676931 2.5651 -0.949966 -1.45247 -0.455891 0.919077 0.667981 0.353467 -0.017022 -1.87085 2.16098 1.55506 -1.52732 0.932548 -2.09813 -1.42894 -1.84607 1.26054 0.554692 2.59263 0.77152 2.78169 -1.98833 0.815507 -1.66519 3.71938 -1.15234 -3.22989 -1.34899 -0.525052 -0.391482 0.606054 -1.31419 -1.53557 0.210558 -2.38011 1.82908 2.05774 -0.500827 1.30407 -1.91198 0.892961 0.973882 1.40978 0.556989 0.353482 1.72852 1.89897 0.513497 -0.0999506 1.16425 -0.489914 1.86378 0.105068 3.54437 -0.18568 0.0156471 -2.75308 1.49013 0.338812 3.28468 -1.62224 0.421155 2.27768 -1.47448 -0.765298 1.28226 -0.762355 1.08196 -1.08714 1.27873 3.13394 0.0473699 0.14487 0.355892 3.93936 -1.00045 1.07261 -1.54279 -0.872387 2.8162 -0.983426 -1.41705 1.23383
lawyer 1.39819 1.85207 -1.17653 0.837365 -2.09784 1.86262 1.4828 1.64296 -1.49453 -1.45124 -1.29837 -0.105727 0.515564 -0.781371 0.281578 -1.52034 1.55889 -0.35696 -2.30996 -1.64047 -0.609465 1.81051 0.681158 -1.18678 1.68995 -2.22995 2.00946 -1.08017 -2.61423 -0.259417 -2.30685 1.12406 0.666228 -0.906354 -2.38486 0.122069 -1.78428 -0.254107 0.769174 -0.506213 -3.05195 0.579377 -2.80201 1.01782 0.409963 -0.613622 -0.868124 0.427146 -2.75439 0.516805 1.37298 -0.778144 2.04737 1.37608 -2.07592 1.63065 3.36187 -0.757742 3.38662 -0.486794 0.715357 -0.763808 -1.09626 0.7221 -0.497103 -0.719477 -1.39684 -1.58796 4.29282 -0.961331 0.245182 3.25059 1.6625 -0.374565 -2.02794 2.27813 -1.35871 -3.36953 2.60006 2.27306 1.82314 -1.62695 0.800877 1.2541 2.97448 0.142496 -0.48639 0.745408 0.131608 -0.304894 1.3259 -1.7454 -0.494126 -0.419888 -0.0394024 3.22143 0.415856 1.26213 1.32601 3.5617 2.16247 0.567018 -2.498 4.07746 -1.36165 -2.14503 1.62537 -1.00096 0.757428 1.22467 -0.993987 4.00784 -1.08527 -1.22248 0.17912 3.04843 0.943431 1.06682 2.49828 -0.288967 0.961996 0.228031 0.11609 0.292798 0.8468 0.586748 -0.137296 1.08933 -0.603425 1.79303 -1.14314 -4.53462 2.10221 1.3768 1.70954 0.328337 0.278271 1.92358 -0.309277 0.466913 -0.614245 -3.38948 1.88744 -0.355312 -1.36343 -0.161051 -0.329364 1.5507 -1.04537 -0.413844 -0.783985 -0.0698912 -0.117063 0.466072 -0.882297 -1.19265 2.23129 -0.307259 -0.457731 -3.36316 2.4457 -0.741224 -0.48556 -1.39018 0.458614 -2.56039 -2.67985 2.17061 0.659606 0.44536 -1.13123 0.350216 1.69126 0.859328 -0.419351 -0.500483 0.263695 0.830184 -1.55501 -0.207006 0.549414 0.136878 -1.81188 -2.23393 -1.46714 2.65585 1.51517 0.301059 -0.0274532 1.12003 0.919667 -1.91206 0.681898 1.22196 0.690196 -0.277898 0.374727 -0.999634 0.254218 -0.225773 0.42349 1.93203 -0.233479 0.169194 0.32364 -0.198647 -3.62021 -0.684847 1.65247 1.3178 -2.27233 -1.09115 -0.754705 0.404495 -2.67879 2.12184 -2.55654 -1.43288 -1.12992 -0.177852 0.690891 0.102557 -1.24114 1.73006 -0.676119 1.0095 -0.450672 1.06426 1.89318 0.251603 0.392452 -0.956894 -1.48528 -1.85401 1.28237 -1.35493 -0.51695 -3.6864 -0.101873 2.73609 -0.649909 1.27449 1.9026 -1.94512 -1.25974 0.971856 -0.675112 0.628194 -1.35743 -3.08571 -1.1338 1.98728 0.375222 -0.0281585 0.251896 -0.482275 0.947549 -0.321001 -2.77162 -0.580656 1.90816 -0.338519 -1.93798 -1.00319 1.80778 -0.0756098 0.805405 0.416326 -0.639324 -2.93027 1.30044 -1.10271 -2.91582 1.6616 -0.527251 1.81838 1.54337 2.47118 0.99062 0.328277 1.25855 0.0160852 -0.680302 -0.181982 -0.539798 -2.13018 -1.3281 1.2208 1.06746 1.16936 -0.494405 0.324546 -0.771852 -0.110402 0.118926 1.00073 -1.23838 -2.75126 -2.0659 -1.89909
depression -1.11721 -0.35318 1.10307 -0.917652 0.3379 -0.141303 -0.973013 -0.612546 2.80972 -0.748641 -0.800629 -0.620649 -1.46943 0.565438 -1.63392 -0.170506 0.815693 -0.616162 -1.55127 -1.52268 0.394017 1.23392 0.634273 0.104454 0.398851 -1.06552 -1.19073 -0.80168 0.183286 -0.806943 1.21649 2.83169 -1.02324 -0.200935 0.421681 -0.821093 2.62537 0.263347 -1.48688 2.09111 0.40239 1.68145 0.894255 -3.65076 0.883588 -0.693959 -1.4957 -1.23518 0.534361 -0.879853 -1.75185 -0.796395 0.537566 -1.31784 -0.393312 -0.266286 -0.202491 0.305925 -0.856839 -1.25751 -0.774575 -2.14287 1.28378 -0.190139 -1.41635 -1.02123 -0.254907 0.181424 0.534078 0.542556 0.796788 -0.256483 -0.697787 0.195177 -1.28748 -1.13544 -0.90289 2.72966 -1.8554 -0.876239 -0.625589 -2.52173 1.15041 -1.99306 1.62887 1.77373 0.209794 1.51943 -0.478474 1.47278 0.321225 -2.15521 -0.684421 -0.0789721 -2.31738 -0.171773 -0.141387 0.109676 -1.3094 2.45232 0.220001 0.324788 2.88755 -0.848053 0.057271 -0.217277 0.200992 -2.3685 -0.512856 1.22444 -1.0446 0.530512 -2.24225 0.10671 -2.04552 -2.78742 -0.158214 0.251853 -0.8127 -0.806314 0.117239 -0.374831 -0.114486 -2.43871 0.360872 -1.94538 0.660323 -0.414172 0.0105256 -1.51865 0.48172 0.68568 -2.28683 3.14335 1.24323 0.403136 -0.740235 -1.31049 1.81529 -0.266277 3.60241 -1.37332 -3.13039 -1.9933 -0.235728 0.112254 -1.04232 0.690644 0.794613 1.05557 -1.21291 0.655941 0.224988 1.15426 -0.0218885 -0.371209 -1.02116 0.570113 -0.511785 0.35617 -1.4086 -1.68908 1.31816 -0.727596 0.70039 -0.373633 0.185668 -0.320045 -0.117582 -0.160226 1.01674 0.16259 0.180521 -0.449821 -0.594871 -0.511244 0.354515 0.531478 1.07865 0.635711 1.87922 -1.38384 -1.03938 -0.328935 -1.00099 -0.799329 1.65586 -0.198991 1.47936 2.68927 -2.14962 -0.428579 1.56501 0.765277 0.0955283 0.847397 1.93826 0.690611 1.55264 0.487039 2.35199 1.53939 -1.03085 0.110778 0.588417 1.4765 -1.0579 1.0131 -0.259823 -2.35786 0.355818 0.0841804 1.25929 -1.38089 1.11066 -0.451837 0.936128 -0.0308802 -1.59479 1.93334 0.790262 -2.0655 -0.901502 2.48876 -0.859142 -0.944927 -1.10783 -3.11272 0.353213 0.901197 -0.944272 0.0431958 1.36909 0.0794427 -1.53351 -2.0912 -0.792863 1.73806 -0.163744 1.45807 0.706622 1.55909 -0.0810655 0.201607 -0.965921 0.354878 0.151321 -0.0585766 -0.679486 0.791986 2.50879 1.27335 -0.430229 -1.44074 0.022414 0.428416 0.284084 -0.285792 -1.32176 0.634216 -1.22069 1.89758 -0.985386 0.102509 0.466815 -0.631697 0.349424 -0.886099 1.01937 0.622598 -0.367398 0.963344 0.981032 -0.20883 -0.249374 1.56505 0.366304 2.24126 0.208948 -1.36417 -0.345772 0.757076 -0.560101 -0.12567 0.882603 0.29653 0.263087 2.24221 0.174975 -1.6297 -1.14484 0.760515 -0.371463 -0.746366 0.268447 -2.34095 -0.755058 -0.846358 0.538516 0.0713468
index -1.21185 3.75164 -1.52645 -0.074759 0.374428 2.19114 -1.47408 1.1862 2.32479 -2.05709 0.803455 -0.645319 -1.75821 -3.32115 0.52306 -0.377679 -0.350458 -0.951685 2.23966 1.704 3.24518 -1.73058 2.95553 1.59195 0.517723 2.45527 -1.76679 0.531943 -0.901538 1.89813 4.54042 -0.0661282 0.534918 1.68248 0.375421 -2.38731 2.77331 -1.73708 1.66829 1.49398 -1.96975 -1.86325 5.97384 -2.14507 2.0338 1.46089 -1.87821 -1.89528 0.738829 1.53894 -0.221501 4.16834 -1.54229 -0.257362 0.955868 1.28001 -1.16274 1.55966 1.23071 -0.109445 -0.500596 2.02727 -1.04243 -2.82264 3.56015 0.659544 0.0879644 -0.205676 -0.920928 1.66162 2.62335 0.238317 -4.38892 -1.55787 -0.0619012 3.33067 1.55229 0.177937 -5.14085 0.812647 -2.34781 -3.39254 -1.16723 -1.67913 -2.39499 1.11042 -2.01647 0.364127 2.72634 -3.15631 -2.55963 -0.206779 0.634485 -0.122414 0.166167 -1.97375 0.664711 -1.43785 0.0833886 -0.388893 -1.16265 -0.538662 0.218159 -0.353747 0.562174 -0.567879 2.01101 0.183365 -0.979747 0.258313 -0.732819 -2.68496 3.48302 -4.863 0.481666 -0.14263 1.08253 3.11511 2.22689 -1.42293 0.921438 1.56444 -0.198114 -1.72781 -1.87408 -0.301324 0.565559 1.1944 4.01133 -1.84163 -0.427936 -0.289891 -3.27391 -0.505205 -1.73958 -2.25488 1.02302 -1.69877 0.919775 3.95706 -2.55583 -0.212475 2.50902 -0.426117 -2.14881 1.12536 -1.82474 2.96768 -1.01146 0.114464 1.42682 -0.280074 -0.14323 2.40233 -3.27971 -0.520684 1.27599 0.643022 0.017612 -2.90967 3.74204 2.89192 2.55098 -1.58159 1.04151 -1.4535 -2.45256 -2.85482 -0.277695 -2.95322 0.456124 2.40536 -3.27776 0.0399208 -5.60889 -1.42964 0.0555938 -1.04968 0.955874 -0.503318 1.38636 4.96777 -4.52194 0.995878 -2.1613 -1.01996 -0.561066 -3.64685 -0.382445 -1.01288 -0.366495 1.41545 -1.86521 -0.185128 -0.969653 1.39608 1.26944 3.05911 3.12777 -2.3966 -1.55128 1.24533 1.40423 2.10591 2.08821 2.936 3.31299 -1.81186 -1.19869 1.30985 -2.62404 1.75214 1.08459 2.26072 1.08651 -0.770339 0.413649 -0.749465 1.40456 -0.371289 -1.6662 -1.53596 1.55373 2.43787 -1.49542 1.38893 -0.109322 -2.67108 -1.10836 1.68156 -0.245794 -0.0797108 -0.291415 1.23035 -2.8518 2.37142 -0.328569 1.45106 1.22562 -1.66597 0.52833 1.01732 -0.0512461 0.873533 0.568746 -0.288244 0.0354597 0.100529 1.57895 1.76818 -3.56042 -2.87095 -1.28149 1.20349 -2.29608 -2.37485 -2.53214 -0.676322 0.879711 -3.19003 -0.423999 -0.933695 0.136166 -0.635146 0.778259 -2.11987 -3.3748 -3.44138 0.6398 0.453201 0.299995 0.778899 -2.04444 -1.68269 -0.741932 -1.9491 1.25953 0.903901 0.731468 -0.0275424 0.509907 0.811068 -3.61391 -1.882 1.74686 -2.39061 -1.35627 2.19573 -0.953277 1.81739 -0.990395 -0.187663 1.20846 0.0921726 0.936594 0.191646 -0.84035 -1.58065 -0.564305 -0.46883
sun -1.85743 0.493195 -1.35036 1.80587 1.14532 -0.191394 1.26361 -0.315829 0.15778 -0.343458 0.191258 0.795977 -0.747609 -0.873635 0.0610103 -0.709774 -0.0625977 1.72437 0.901795 0.40167 1.68477 0.153964 -0.807012 -0.734076 -0.777525 -0.640155 -0.528312 -0.944656 -0.46432 2.2139 1.62059 1.52217 -0.77957 1.8994 -0.0383985 -1.22192 0.483653 -0.844667 -1.03289 -0.123416 -0.120902 0.747152 1.75804 -1.00809 -0.23677 1.90897 -1.81641 -0.305763 0.172673 0.456954 -2.061 -1.65343 -0.012826 0.297629 0.261331 -2.31412 -2.8034 -2.12327 -0.605946 1.18765 -0.78599 0.954954 2.05924 -1.41507 0.36618 0.576242 3.00728 1.31586 -1.26434 -0.673247 0.772372 -2.59764 -0.950881 -2.34314 0.837293 0.908109 -0.552786 -1.81994 0.242474 -1.37095 1.07049 -0.494986 1.27266 -0.0851754 1.60552 0.958086 -0.345869 -0.49058 0.894347 -1.41445 -0.30806 0.460717 1.26715 0.962866 0.271973 -0.92499 0.769983 -0.0634567 -1.19584 1.00267 -0.31016 0.999913 2.28296 0.0165783 -0.288031 0.109644 -1.85761 -0.270573 -1.0099 1.95656 0.269697 -1.55256 -1.37649 -1.32072 1.52332 -0.30051 1.46618 -0.0298319 -2.8823 1.97514 -1.1254 -0.647841 -1.21895 -1.46355 -2.54408 -0.501584 2.76786 -0.770957 0.39575 -0.75434 -1.39586 0.816894 1.1244 0.398125 0.666749 -1.19104 -0.424053 -1.13078 1.59641 0.934318 1.03824 0.817292 -1.3383 1.94027 0.867732 1.26899 -1.41383 -1.13858 0.252632 0.670002 -0.691622 0.421278 -0.12458 1.36635 2.58154 -0.0636011 -2.60883 -0.0895574 0.171831 1.08151 0.58854 0.143597 -0.102763 -0.529839 -0.199871 0.205491 0.510359 -1.00914 -0.71729 0.47821 -1.65215 -0.614775 -0.370524 -0.346055 0.325532 1.66639 1.71149 -0.441751 2.1917 -0.0953414 -0.77684 1.68748 -0.251727 0.12848 0.134471 -1.52853 0.700988 -0.442221 2.03356 0.0666884 -1.8119 0.795692 2.55685 0.617597 0.53965 -0.148128 0.79744 -0.829198 0.145382 0.871102 -1.4771 -1.7532 0.558947 0.638421 2.97687 -0.921368 1.16328 0.874821 0.0895703 1.34465 0.68025 -0.689738 2.3665 -0.0443519 -0.800543 0.405303 0.564665 -0.390636 0.284824 1.00811 -2.18279 -3.68145 -2.29213 0.103839 -0.356308 -0.278263 -0.870164 -0.525166 -1.48869 -0.0429171 -1.12427 1.29769 1.60187 0.609402 -1.95609 0.325758 -0.730528 -1.45 1.7393 0.897898 1.67445 2.1317 0.181539 0.545194 0.945833 -1.25626 -0.788112 0.389563 0.257534 0.702299 -0.608833 -1.17567 0.946446 0.30081 0.275139 -2.52408 -0.453858 -0.132681 -0.946299 -0.116371 -1.1957 0.666667 -0.891434 0.527497 -1.01972 -1.32331 -0.105601 1.19674 1.6532 -0.601894 0.673386 0.862709 0.563702 -2.9628 1.22155 0.689798 -0.0915246 0.572146 1.47185 -0.971794 0.262582 -0.386191 -0.487322 0.427642 0.691185 0.829221 0.920476 0.789205 -1.04223 0.530528 -0.999887 -0.0873856 -1.32487 0.155739 0.145946 -1.96516 -0.912354 1.94408 0.649412 0.910021
cell -1.99842 0.794152 -0.67319 -0.619107 -0.526636 0.0771557 1.27183 2.8867 2.35332 0.701123 -5.75905 -1.84131 -0.870243 -0.90025 -2.45322 -0.915552 -1.56785 -1.28898 0.849022 0.248161 -1.339 -0.987712 1.57912 -1.66976 -0.726184 -1.71536 0.00828054 -4.05697 -0.596356 -0.697716 0.224985 0.793038 2.71159 -2.0362 0.783707 1.07193 2.3006 1.53267 1.02896 0.646277 -2.66172 -1.52862 -0.272705 -1.61188 -1.98861 -1.51445 -2.18833 0.824371 -2.13296 -0.428275 -4.06587 -1.2061 -0.791043 -0.0635341 1.82207 1.69493 0.500666 -0.105555 0.410097 2.02348 -0.819829 -0.108055 1.63227 -1.91307 -0.29421 0.269441 1.33333 -1.2601 -0.0462717 2.69945 0.0920521 0.213646 -0.901561 -2.21001 -0.527182 0.453097 -0.488448 -0.24859 1.1033 2.00075 1.01892 1.3177 -1.64327 -1.75502 0.228851 0.143115 -0.664882 -0.834631 -1.43349 -3.24162 0.803058 0.637918 3.79356 2.1322 0.4685 -1.98351 -1.199 -1.0778 0.82644 1.61729 -0.0596754 2.06793 0.568853 1.01503 1.85078 0.0595293 -0.101931 0.852844 -1.05452 -0.576521 2.38181 0.339541 -0.754717 2.11275 0.380151 -0.329165 4.02229 0.136143 0.680849 -0.880819 0.14896 -3.07153 -1.32758 -0.522671 -1.41356 0.828807 1.6047 0.0296588 -1.92081 1.02532 -0.468892 0.478827 -2.43037 0.872942 -3.73352 -0.169872 2.50515 -0.963248 -2.08824 -1.08114 -1.30836 -0.392105 -0.168292 2.69291 -0.756985 2.52498 -2.63032 1.61683 -1.91061 1.43333 -1.12493 -1.08392 -1.27222 0.520421 -0.0412389 1.12139 0.666792 -0.325626 -0.739597 -0.786688 0.119153 0.305715 2.18554 -1.52609 1.33145 -0.2851 -1.67704 -0.414765 -0.933501 -0.424052 -0.876264 1.40309 -1.14803 4.56974 0.453194 -1.81381 1.15801 -2.20297 -0.913677 -1.61616 0.612873 -0.247332 0.604867 0.128809 -1.01411 -0.325453 0.934318 -0.183018 -2.43258 -0.474387 -2.05727 -1.98368 2.68576 -0.581342 -0.65747 2.44522 0.511187 2.15775 -1.75904 0.242348 2.18217 2.29914 0.971566 0.0213836 1.15815 -1.54008 -0.723855 -0.282607 -0.107496 -0.747058 0.664333 -1.97407 0.113988 0.583225 -1.32648 -1.80604 -1.43389 1.77777 1.02411 0.0963802 0.189937 -1.17542 1.33876 0.620401 3.1021 1.63083 -0.351328 0.41693 -0.0125729 0.521663 -0.12896 0.455316 -0.83755 0.160471 -0.0106849 1.71793 1.02011 1.01161 2.41348 3.48152 -0.404265 2.67798 -1.2317 -6.45222 0.510477 -1.20362 -1.39363 -0.413791 0.666244 2.23521 -1.94427 1.93614 -0.671272 -0.164225 -2.92188 -0.872848 -0.571298 2.43028 0.0147913 1.79572 0.856284 -1.48226 0.280921 -1.15458 0.171184 0.196376 -0.263507 0.024228 0.999344 -1.70936 2.07625 -1.76273 0.227484 -0.463094 1.62195 1.84527 -1.93111 0.012303 -0.410602 0.644134 0.118584 0.103847 -1.35605 -0.709094 -0.543611 -0.923267 -3.11187 1.43626 -2.35632 -0.273494 -2.44787 4.90047 0.501851 0.341209 -1.02253 -0.693795 0.22081 -2.24543 -1.67124 -0.841428
nurse 0.910746 1.54524 -1.0333 0.00260768 -0.280917 1.60414 0.0677656 0.703926 0.294198 -0.293974 -1.18185 0.112855 -0.57345 -0.550512 -1.28085 -0.730386 0.191491 -1.31479 -1.93158 -0.064332 -1.18986 1.22506 0.301965 0.291272 0.296287 -0.209432 1.59448 -0.930807 -1.49713 0.122474 0.224991 1.2609 0.216962 -1.53465 -1.5523 0.122036 -0.680263 -0.346628 -0.18955 -0.986587 -0.994072 0.148592 -1.26824 -0.744293 -0.570118 -0.694048 -0.461965 0.294092 -1.13769 0.329886 0.379573 0.235308 1.61249 -0.177803 0.00395991 0.575975 0.136766 -1.02833 0.685553 -1.01191 -0.512707 -2.09933 -0.977873 -1.43031 -0.506297 -0.121906 -0.846484 -0.977278 0.91332 1.00936 -0.589869 0.346014 0.505766 0.214899 -1.33997 -0.435706 -1.17171 0.125895 0.0902206 0.729889 -0.182376 -1.16735 0.433103 -0.0490328 0.463739 0.792476 -1.06229 -1.2235 0.361513 -0.539705 -1.49979 -1.65122 -1.27888 0.610999 -0.098818 1.5388 0.261002 0.368313 -0.134884 0.767373 -0.778853 0.566104 1.26644 0.965706 0.379102 -1.09456 -0.688077 -0.00718781 -0.277007 0.00339597 -0.136003 2.37128 -1.39581 -0.604695 -0.482406 -0.420552 -1.49584 0.940843 -1.48575 0.160081 -0.569037 -1.13361 0.724095 1.03455 -0.0666957 -0.985926 -0.157272 1.52703 0.802945 0.214827 0.26827 -0.355823 0.693231 -1.61804 0.625943 0.00906601 -0.367914 -0.871502 -0.0258398 0.385077 1.1657 -1.29366 -0.916098 -0.635175 -0.600735 0.141048 -0.262757 0.910201 -0.367088 1.8559 0.50972 -0.885129 -0.693038 0.816415 0.371649 -0.760783 0.563723 -0.893094 0.444208 -0.559093 1.37782 -0.225413 1.05547 0.925392 0.677106 -1.16528 -0.252962 1.29014 -0.0674709 -1.01973 0.545314 1.71686 2.25546 1.56584 0.70323 -1.86548 0.132611 0.797584 -1.79566 -0.618126 -0.0593524 -0.496074 -0.889756 -0.0223379 0.0224335 -1.11215 0.3321 0.437605 -0.347644 -0.46774 0.424684 -0.682386 0.210249 -1.14578 0.0826325 0.0279945 1.1076 0.417898 -0.585772 0.45954 1.24328 0.966939 -0.183385 -0.912542 0.680129 1.07811 -1.12954 -0.664895 -0.418686 -0.352523 -0.677798 1.30944 0.0639818 -0.289602 -1.38835 0.304677 -1.02367 -0.501171 -0.583326 0.642723 0.703869 -2.89575 0.445065 0.867679 -0.778245 -0.201293 -0.560028 -0.340318 0.355378 0.200821 -0.645081 -0.407351 -0.111544 -0.234594 0.950457 -0.515587 0.309637 -1.24485 0.0680498 1.43828 1.33221 1.62839 -1.2014 -0.857526 -1.04747 1.81094 -0.305443 -0.0366896 -1.33655 -0.697019 -0.147248 0.121845 1.25243 -1.17129 -0.485603 1.36586 -0.492448 1.02673 0.269185 -0.577413 0.156441 0.978181 -0.901099 0.0813892 1.8398 0.767516 1.41967 0.950643 0.297054 -0.955799 1.22106 -0.430877 -0.702039 1.01734 1.32315 0.647224 -0.335393 0.14299 -0.00697482 1.41937 -0.0671657 -0.663644 -1.219 -0.207602 1.48349 -0.36454 -2.45853 0.81731 -0.111788 -0.497789 -0.0161269 0.859982 0.105182 0.367478 0.356443 -0.507706 -1.27913 -1.05993 -0.102596 -0.758836
