439 300
similarity 0.294412 -0.178565 0.222365 -0.048917 -0.339751 0.073605 -0.380303 -0.536064 -0.186602 0.086157 -0.138567 0.572014 0.357383 0.659897 0.103795 -0.412424 -0.113413 0.219597 0.295827 -0.04687 -0.352817 -0.382319 -0.19186 -0.202238 -0.268893 0.195173 0.374604 -0.29834 -0.503662 0.019301 0.279838 0.309232 -0.175565 0.431703 0.1283 0.109756 0.005326 -0.038602 0.389131 0.216484 -0.307017 -0.165347 -0.70653 0.404625 0.103834 -0.024822 -0.468074 0.2091 -0.098077 -0.433948 0.14846 0.474404 0.363573 0.373901 0.277661 0.043839 0.139933 0.119039 -0.117488 0.175147 -0.335526 0.28379 -0.046917 -0.041196 -0.450052 -0.132851 -0.230594 0.131745 0.1772 -0.020029 0.173376 0.175259 0.485647 0.15419 0.153228 0.303866 -0.442332 -0.66608 0.005832 0.009963 -0.177466 -0.161163 -0.614603 0.042304 0.162916 -0.857304 0.075003 0.383145 0.713987 0.093058 -0.151025 0.199366 -0.290856 -0.081069 0.23653 -0.356294 0.313171 0.155694 0.412621 0.049164 0.261798 0.290332 0.11764 0.225637 0.292886 -0.650676 -0.039153 0.108989 -0.086099 -0.478625 0.511758 0.674996 0.202091 -0.192315 -0.048067 0.056139 0.146623 0.148849 0.117389 -0.260246 0.550498 -0.102355 0.062735 0.293348 0.210082 -0.18118 -0.112905 -0.032785 0.097902 -0.39515 0.49897 0.318211 -0.216293 0.203944 0.449267 0.132162 -0.05656 -0.484406 0.155568 -0.001996 -0.097645 0.404273 0.267673 0.556492 -0.168733 -0.514398 0.495162 0.507688 0.077082 -0.099955 -0.06711 0.112868 -0.441222 -0.077891 0.4739 0.026184 -0.418145 -0.275573 -0.362431 0.087735 -0.169464 0.01048 0.472944 0.070034 0.862801 0.465695 -0.998757 0.368747 -0.119111 0.026102 0.063624 -0.216883 0.811966 -0.497031 0.267519 -0.068642 0.212299 0.061783 0.056771 -0.404694 -0.306172 0.025967 -0.544409 -0.057258 0.521296 -0.096547 0.091917 -0.38068 -0.059387 0.074682 0.456905 -0.176919 -0.094074 -0.00223 -0.245931 -0.417381 0.420601 -0.416575 -0.20505 0.294162 0.248407 -0.204655 -0.038533 0.177949 -0.000125 -0.316628 0.150987 -0.258666 0.263058 0.011649 0.111029 -0.336915 0.343304 -0.779523 0.068804 0.041364 -0.486666 0.308399 0.166882 0.029473 -0.071525 -0.238431 0.514612 -0.462644 -0.165519 0.232609 -0.138452 -0.133451 0.619074 0.092288 0.440544 -0.091256 0.765214 -0.279917 0.076255 -0.189633 0.021687 -0.134146 0.048062 -0.246255 -0.507025 0.384707 -0.003536 -0.084876 -0.231835 0.063376 0.013025 0.080916 -0.496615 0.403065 0.207032 -0.29914 0.208545 0.26974 -0.250538 0.350996 0.044487 -0.075008 0.737844 -0.300698 -0.400577 -0.016256 0.524541 -0.500833 0.603951 -0.340755 0.13999 -0.288466 -0.381456 0.693747 -0.078111 -0.364524 -0.441722 -0.276258 -0.096895 -0.050723 0.160381 0.373915 -0.173022 -0.338763 0.110757 -0.264301 0.046921 0.013729 0.772629 -0.284071 -0.301991 -0.000533 -0.278689 0.090421 -0.250135 -0.177399 -0.342832 -0.124008 -0.017504 0.335214 -0.189576 -0.053366 0.744957 0.008577
dollar -0.303762 -0.449688 0.062423 0.295125 0.356898 -0.281633 0.535648 -0.820594 -0.558299 -0.079076 0.400456 0.052292 0.036723 0.079481 0.114885 0.136967 0.123241 -0.383652 0.227139 0.151118 -0.739022 0.196569 -0.194843 0.6877 -0.39839 0.113014 0.409791 -0.156126 0.44848 -0.130588 0.343877 -0.097119 0.36285 0.246389 -0.479798 -0.086698 0.503714 -0.107763 0.716817 0.002594 -0.555716 0.283218 -0.291456 -0.049719 -0.133213 -0.090816 -0.046319 -0.471666 0.371959 0.647724 -0.573106 -0.362588 -0.184657 0.205034 -0.250434 0.23943 -0.229468 0.524253 -0.117525 0.795879 -0.37422 0.365134 -0.353899 0.091947 0.771662 -0.612706 0.213995 -0.238677 -0.311091 0.30813 1.03128 -0.27624 0.020934 0.398997 -0.435076 0.559479 0.287004 -1.82001 0.081843 0.563314 -0.096957 0.503048 0.255295 0.506024 0.646406 -0.108761 0.119017 -0.305533 0.158541 -0.183352 1.34402 -0.07171 0.495965 -0.342294 0.597926 -0.471245 0.1673 -0.167697 -0.609285 0.389499 -0.226998 0.177566 0.366914 0.008561 0.158349 0.614749 -0.127624 -0.141948 0.207678 -0.371427 -0.730951 0.135957 0.19697 -0.550433 0.045861 0.323543 0.0018 0.25551 -0.039133 -0.788279 0.51418 0.078341 0.095095 -0.580067 -0.403676 -0.081097 -0.192274 0.200998 -0.01157 0.250514 0.059947 -0.109643 -0.517632 -0.202933 0.160196 0.151107 0.443419 0.126539 0.032981 -0.622662 -0.155509 -0.031806 0.068905 0.3048 -0.166491 0.139847 0.242143 0.044458 -0.112318 -0.272606 -0.160818 -0.291182 0.032376 0.234075 0.15456 -0.296973 -0.556435 0.704377 0.292689 0.451378 0.2665 0.478291 0.158845 -0.720074 0.557764 -0.867199 -0.323323 -0.050629 0.31835 0.089663 1.116 -0.52281 0.353882 0.410545 -0.105436 -0.037772 -0.677599 0.740069 -0.17837 -0.808863 -0.527149 -0.192942 -0.146426 -0.097412 -0.426159 -0.196674 0.055089 0.125513 0.185604 0.121897 0.295258 0.329326 -0.604082 -0.762935 -0.19073 -0.260284 0.478951 0.068399 0.394692 -0.294857 1.08835 0.482263 0.36672 -0.18008 -0.219454 0.378028 -0.263001 -0.395051 0.054375 -0.077435 -0.917977 0.516667 0.478213 0.648293 0.185685 -0.211124 0.044712 0.180103 -0.2126 0.698894 0.410042 0.001133 -0.384627 -0.689512 -0.0727 0.420337 0.180154 0.026094 0.418432 -1.33677 0.176228 -0.75281 -0.6435 -0.03657 -0.907173 0.781153 0.253955 -0.476223 -0.158607 -0.037791 0.709478 0.041737 -0.523408 0.368619 -0.215564 0.038717 0.288926 -2.71012 -0.205881 -0.283171 -0.001006 0.267476 0.398895 0.28405 -0.144326 0.161736 -0.280707 0.12214 -0.204158 -0.095601 -0.215948 0.014076 0.209637 0.507585 0.000341 0.208901 0.286118 -0.251588 0.338136 0.066819 -0.325497 -0.110559 -0.946754 -0.120286 -0.091719 -0.074357 0.322655 -0.109273 -0.493871 0.118323 -0.351225 -0.571474 0.325151 0.41172 0.385486 -0.294585 -0.080642 0.190937 -0.472588 -0.4205 0.066204 -0.376404 -0.225819 -0.200933 -0.597982 -0.16936 -0.242225 0.415406 -0.266857 1.35293
focus -0.121453 -0.352374 -0.036894 0.459865 0.001181 0.20627 0.016119 -0.335192 0.107329 -0.217287 -0.190474 -0.226207 0.242866 0.031517 -0.305149 -0.230869 -0.341935 0.589168 0.431884 0.201205 -0.096307 0.202009 0.071416 0.240388 0.431384 0.162408 -0.216303 -0.02629 0.375311 0.223142 0.012971 -0.355494 -0.145446 0.138271 -0.134158 0.323201 -0.119994 -0.01818 -0.326705 -0.353426 -0.063646 -0.032261 -0.451232 0.034854 0.091167 -0.046118 0.14976 0.143565 -0.31439 0.002597 -0.239526 0.311889 -0.653601 0.350858 -0.333909 0.297221 -0.035044 0.405294 -0.077415 0.497693 -0.472004 -0.136814 -0.30689 0.220256 -0.193759 0.325838 0.560676 -0.031508 0.16575 0.11874 -0.19519 0.290615 -0.579457 0.181073 -0.009082 0.113609 0.47916 -2.63368 0.141985 -0.296103 -0.027223 -0.122379 0.231053 -0.530602 0.19235 -0.167946 -0.141561 -0.087717 0.668095 -0.340297 0.622274 0.101113 0.231695 0.029852 0.437188 -0.115913 0.250738 0.162094 0.46323 -0.344893 -0.654531 0.456014 -0.258192 0.230738 0.046826 -0.158465 -0.058923 0.377635 -0.00811 -0.301163 0.081012 0.498321 -0.275772 -0.437299 0.216736 -0.170377 0.591243 -0.18895 -0.152563 0.43045 0.305616 -0.238956 -0.170365 -0.104694 -0.220243 -0.161753 0.254003 -0.196011 0.157203 -0.202568 -0.050678 0.069984 -0.155073 -0.015569 0.184594 0.163398 -0.25283 -0.318395 -0.16013 -0.063686 -0.013312 -0.066282 -0.364871 0.040818 -0.162454 0.221783 0.260146 0.380643 0.239093 -0.465151 0.55223 0.290524 -0.110871 -0.461336 0.583979 0.137602 0.041819 -0.497012 0.211837 -0.17259 0.10501 -0.135638 -0.417427 0.264292 -0.030609 -0.041856 -0.26186 -0.084989 -0.062648 0.198654 0.191333 0.498201 -0.33972 0.412512 -0.163537 0.152813 -0.012328 -0.274121 -0.331509 0.862435 -0.535057 0.120645 -0.169786 0.180781 -0.019287 0.530863 -0.336479 0.239231 -0.058443 0.696343 -0.246211 -0.15365 -0.383154 -0.275224 0.198924 0.447482 -0.093527 -0.345429 -0.573588 0.513662 -0.261956 0.208123 0.175512 0.235567 0.099386 0.428922 0.185882 -0.083689 -0.277202 0.226955 -0.060851 0.145646 0.07057 0.161993 -0.292409 -0.309843 -0.20823 -0.073188 -0.105921 0.238443 0.06389 -0.012434 0.264097 -0.052424 -0.133525 -0.755275 0.048835 0.218 0.040268 -0.549133 0.295828 -0.258553 0.236795 -0.097984 0.090284 -0.10142 0.360167 0.121265 0.097918 -0.128805 -0.190663 -0.184906 0.104317 -0.146234 -0.332353 -0.26749 0.204384 -2.73203 -0.26936 -0.119689 -0.200578 0.082223 -0.038022 -0.256259 0.57811 -0.236893 -0.335174 -0.195771 -0.022697 -0.163433 0.182393 -0.132213 -0.051685 0.127483 0.309224 0.112663 0.233213 -0.265264 0.199275 0.033642 0.072267 0.265907 -0.076068 -0.082571 0.818536 -0.018832 -0.325207 -0.159957 -0.308485 0.426141 -0.223879 0.327398 0.374205 0.131998 0.265564 -0.310689 0.554307 -0.085502 0.047645 -0.041319 0.115546 -0.162849 -0.245919 -0.176356 0.005195 -0.250894 0.164735 -0.114283 0.377132 0.392881
month 0.068875 0.061341 -0.131066 0.28034 -0.109109 0.350668 -0.052464 0.048015 -0.25052 0.215478 -0.142641 -0.119383 0.146603 -0.11789 0.220961 -0.237193 0.182809 -0.141999 0.392518 0.041564 -0.18681 -0.049219 0.115037 0.41178 0.045422 0.135697 -0.091606 -0.248519 0.016435 0.155401 0.059248 -0.269845 -0.46746 -0.064681 -0.259693 0.239312 0.263694 -0.344317 0.106804 0.080283 0.179242 -0.020682 -0.175928 -0.045532 -0.053109 0.163525 -0.110978 -0.224747 -0.467078 0.072798 -0.23361 -0.78831 -0.110243 0.220777 -0.009446 0.150815 0.162301 -0.118603 -0.091463 -0.587304 0.26258 0.230773 0.06621 -0.383716 0.208775 -0.087862 0.028518 -0.23712 0.117977 -0.175269 -0.011445 -0.202272 -0.010332 -0.154902 -0.557949 0.149844 -0.00835 -3.3258 0.160382 -0.13613 -0.176122 0.516621 -0.283774 0.216557 0.124739 0.479092 0.074292 0.125291 -0.213312 -0.008868 0.181166 0.057465 0.29727 -0.262907 0.183269 -0.08322 -0.116248 -0.076869 0.162164 -0.029296 0.112115 -0.073483 0.30797 0.026148 -0.180185 0.173431 0.183653 0.309349 -0.188189 0.131802 -0.078526 0.389169 -0.216731 0.028791 -0.101165 0.154549 -0.258651 0.204403 -0.073664 0.029443 0.12157 -0.067015 -0.10157 -0.109507 0.108514 -0.257194 0.074201 0.112449 0.046871 -0.310966 0.094765 -0.114491 -0.545799 0.019934 0.324276 0.023412 0.065113 -0.264079 0.059363 0.38599 -0.238954 -0.11822 0.227173 -0.086433 -0.172198 -0.060391 -0.187839 -0.235963 0.35912 -0.903259 0.353542 -0.012073 -0.008223 -0.270179 -0.212396 -0.380824 0.287372 -0.169416 0.112195 -0.049257 0.230425 -0.012837 0.497595 -0.14728 -0.051694 -0.29193 -0.063541 -0.107633 -0.132897 0.180785 0.197495 -0.221531 0.332478 -0.222927 0.227694 0.084011 -0.001206 0.223902 -0.33811 -0.075527 -0.059561 -0.303808 -0.141572 0.141186 0.027863 0.067277 -0.07641 0.056413 0.04734 -0.202028 0.164612 -0.659183 -0.02218 0.191812 -0.001843 -0.089609 0.436742 -0.19363 -0.154444 0.09693 0.496806 -0.39574 -0.16199 -0.04106 -0.103422 0.171204 -0.052942 0.279535 -0.007094 -0.206401 0.170505 0.095651 -0.036823 0.419336 -0.09033 -0.283959 0.418177 -0.290213 -0.049019 -0.108735 0.309256 0.076013 -0.268698 0.232562 -0.084923 0.688687 0.059943 0.175196 0.210501 -1.36551 0.199235 0.175249 -0.27935 -0.191185 0.214507 0.110809 -0.225501 -0.240932 0.089155 -0.34117 -0.280223 0.003175 0.046909 0.206714 -0.093834 -0.354708 -0.102684 -3.28615 -0.27178 -0.326467 0.073869 0.077589 -0.088192 -0.107904 0.157476 0.238114 0.041108 -0.500683 -0.071388 0.465156 -0.177418 0.255379 -0.073345 0.030075 -0.319146 0.078912 -0.231632 0.371629 -0.035334 -0.145301 -0.190207 -0.629785 -0.215095 0.019257 0.024848 -0.009086 0.043884 0.113577 -0.113926 -0.140874 -0.032307 0.053301 -0.086605 0.190062 0.035398 0.12591 0.22493 0.372998 0.607861 0.532329 -0.35168 -0.016551 -0.376816 -0.308169 -0.111808 0.33874 -0.15847 0.008397 -0.092245 0.144938
mile -0.282517 0.125232 -0.006851 0.044071 -0.944473 -0.083359 0.560618 -0.080556 -0.216586 0.75962 -0.177482 -0.054893 0.250211 -1.18144 -0.144492 -0.124228 0.026508 -0.48774 0.251713 -0.324455 -0.185429 0.29514 0.293042 0.259179 -0.201862 -0.268385 -0.050671 -0.283796 0.005877 0.701444 -0.660661 0.095582 -0.217751 0.460315 0.300184 -0.11419 0.127474 -0.473757 0.350835 0.23672 -0.544391 -0.474279 0.011334 -0.105301 -0.236844 0.218911 0.04866 -0.081105 -0.394822 -0.060426 -0.237711 0.134689 0.175777 0.052456 -0.002284 -0.242527 0.192475 -0.643155 0.113842 -0.148238 -0.035308 0.53453 -0.109446 -0.105418 0.439089 0.213636 -0.717594 0.198654 -0.221774 -0.113896 0.924208 0.302278 0.273103 -0.289338 0.102193 0.447474 0.065427 -1.16207 -0.540872 0.11918 -0.131503 0.062849 0.058447 0.23671 -0.216623 0.052953 -0.190481 0.449728 -0.068447 0.458352 0.187736 0.473916 0.068625 -0.255461 0.065723 0.044656 0.167568 0.195132 0.143033 -0.260071 -0.380806 -0.173082 0.57718 -0.101728 1.02021 0.148139 0.083099 0.600622 -0.302802 0.731818 0.213744 0.570056 0.173863 0.448402 -0.276985 0.065565 0.286623 0.142021 0.095374 -0.3295 0.21354 0.161786 0.214981 0.004026 0.168435 -0.004055 -0.332209 -0.005117 -0.493681 0.623589 0.68783 0.760192 0.084798 -0.339985 -0.213406 0.000831 0.135629 -0.242216 -0.148467 -0.366166 0.386123 -0.123339 0.253167 0.343223 0.094946 -0.303598 0.71117 0.671295 -0.216612 0.614633 0.472458 -0.177084 -0.276382 0.355967 0.265216 0.218678 -0.068145 -0.372514 -0.262044 0.335388 -0.099386 -0.112412 0.745963 0.293471 0.00672 0.094619 0.228277 -0.45052 -0.089497 0.582875 0.010131 0.377277 -0.112058 -0.305523 0.132437 -0.321614 -0.02806 -0.314216 0.09016 -0.924094 -0.205461 -0.291172 0.40303 -0.108213 0.446575 0.176168 -0.17498 0.085363 0.659266 -0.10583 0.185195 0.177825 0.92134 0.409752 -0.856429 -0.002993 0.400662 -0.399626 0.016572 -0.150108 0.568413 0.352088 -0.189222 -0.249259 -0.706986 -0.042658 0.311383 0.166384 -0.233376 -0.216879 -0.41096 -0.633105 -0.264071 0.647529 -0.08892 0.097856 -0.429695 0.541207 -0.320904 0.281089 0.001933 -0.27356 -0.10334 -0.445865 -0.373959 -0.239896 -0.462383 0.756983 -0.326065 -0.95217 -0.078751 -0.471101 -0.403453 0.075829 -0.606595 0.02742 -0.047119 0.273171 0.164762 0.209139 0.239612 0.002574 0.578639 -0.337274 -0.367259 -0.286715 -0.023187 -1.6185 -0.07857 -0.877238 0.404314 0.36846 0.163195 0.25867 0.365184 0.51444 0.067491 -0.085153 -0.611061 -0.176952 -0.12176 0.016974 -0.761485 -0.034455 -0.179935 -0.195533 -0.199583 -0.092043 -0.175157 -0.449156 0.242138 -0.233746 -0.120069 0.122249 0.064476 -0.139972 -0.542428 -0.066306 0.134276 -0.145514 -0.181951 -0.045107 -0.184849 0.069228 0.013624 0.040485 0.291675 -0.286151 -0.274161 -0.472232 0.202766 0.327488 0.137958 -0.087809 0.7268 0.554749 -0.429803 -0.016761 -0.074548 -0.31636
computation 0.061529 0.259049 0.153367 -0.05816 0.300767 0.052604 0.029992 0.107205 0.071344 -0.194349 -0.150245 -0.095489 -0.532207 0.135699 0.066179 0.557056 0.08867 -0.248542 -0.259974 0.439339 0.082632 0.040866 0.061401 -0.250382 -0.254586 0.085491 0.234229 0.205662 -0.010406 -0.27502 -0.128513 0.20337 0.024599 -0.30752 0.194806 0.045439 -0.237967 -0.344646 -0.175377 -0.306581 0.166345 0.211172 -0.354417 0.109409 0.234577 0.50634 0.041211 -0.276491 -0.229158 0.048694 0.102973 0.13295 -0.008789 0.578454 -0.666534 0.0879 0.376134 0.221071 -0.073001 0.346511 0.043806 0.139585 0.171976 -0.038008 -0.095743 -0.379917 -0.4353 -0.015116 0.105862 -0.199513 0.282131 -0.210093 0.080034 0.07298 -0.076548 0.013734 -0.117134 0.413697 -0.56451 0.104871 0.628278 0.066573 -0.138153 -0.254474 0.497098 0.335454 0.023236 0.399731 0.508761 -0.411693 0.078065 -0.335294 0.256634 0.111332 0.368885 -0.173692 0.373589 -0.262817 0.104467 0.189508 -0.519757 0.129306 -0.402689 -0.321076 0.13874 -0.562447 0.302252 0.468716 0.497616 -0.23821 0.287812 -0.185821 -0.221568 -0.505758 -0.039121 0.07748 -0.330853 -0.056086 -0.105749 -0.249784 -0.175613 -0.11845 -0.23787 0.142921 0.29236 0.05172 0.405547 0.009561 0.049866 0.32765 -0.235057 -0.243989 0.06668 -0.087192 -0.023719 -0.072843 0.079346 0.060903 0.255946 0.383987 0.306715 0.497385 0.278315 0.269986 -0.215576 0.017613 -0.002006 0.415799 -0.154479 0.071941 0.001281 0.15644 -0.414942 0.229163 -0.296354 -0.114386 0.243907 0.035234 -0.350425 -0.563317 0.503364 0.273405 -0.478197 -0.050409 0.408159 -0.17508 -0.310206 -0.053904 0.021165 -0.103308 -0.042146 0.657327 0.350217 0.331904 0.401373 -0.079936 0.605173 0.371449 0.064292 0.131709 0.269857 -0.399209 -0.603459 0.047417 -0.656811 -0.154354 -0.162134 0.016953 0.002694 0.44784 0.04803 -0.168988 0.296158 0.161306 0.032418 -0.052597 0.198055 0.278549 -0.12308 0.151154 0.289758 -0.289824 0.066538 -0.271832 0.365071 -0.12612 0.158892 0.032465 0.321493 0.209982 0.385607 -0.365502 -0.209716 -0.242262 -0.276767 0.00662 -0.465187 0.168126 0.113431 -0.069048 0.065672 0.069838 0.041824 -0.69986 0.199869 -0.475405 -0.184105 0.288104 0.296915 -0.174184 0.013781 0.056004 0.469983 0.093049 -0.109981 -0.227309 0.05292 -0.370486 0.072872 -0.314839 -0.076314 0.762428 -0.011289 0.229121 0.043987 0.232084 0.211679 0.135139 0.165603 -0.457765 -0.208154 0.16701 0.077041 0.049984 0.26971 -0.102289 0.088288 -0.352915 -0.024366 0.026734 -0.24716 -0.151833 -0.538242 -0.348262 0.145534 -0.115783 -0.172929 -0.582201 -0.777248 0.439855 -0.262653 -0.080842 -0.107861 0.063062 0.284407 -0.290817 -0.314962 0.092849 0.356573 0.122296 0.067512 -0.188792 0.430843 -0.139354 -0.165078 -0.012569 0.273277 0.027218 0.179639 0.199994 0.026745 -0.194018 -0.151111 -0.069828 -0.477441 0.065994 -0.326695 0.06382 0.126577 0.046608
skin 0.541258 -0.770249 0.227616 0.501841 -0.606526 0.106567 -0.071843 0.234578 0.334791 0.663339 -0.066266 0.385472 -0.115656 0.506539 0.260934 -0.132881 -0.113264 0.102241 -0.550926 -0.001312 0.484753 -0.626058 -0.111275 0.100497 0.707772 -0.214886 0.810518 -0.40981 0.014892 0.800306 -0.045464 0.277599 0.353706 -0.740614 0.743398 0.091915 0.265867 -0.090503 -0.084144 0.013823 0.109017 -0.187726 -0.41447 -0.421951 -0.286161 -0.249456 -0.382306 0.537393 -0.896861 -0.071963 0.036581 -0.703568 -0.137189 0.208822 0.519538 0.171197 -0.375138 0.064596 -0.335497 -0.047274 -0.894103 0.198727 0.367628 0.491281 0.297853 -0.067967 0.219129 0.026943 -0.132701 0.067035 0.421767 0.680278 -0.321493 -0.078089 0.576493 -0.312208 -0.677566 -1.79884 -0.289254 -0.163798 0.208227 -0.482993 -0.174166 -0.068185 0.262953 0.460314 -0.567401 -0.080385 -0.303244 0.754797 0.171684 0.521232 -0.205907 0.126913 -0.184965 0.060997 -0.167621 -0.403389 0.370099 -0.251104 -0.322462 0.389375 -0.1919 -0.184265 1.10106 0.420207 -0.078664 0.179028 0.108088 -0.225399 0.193165 -0.159932 0.14823 -0.61302 0.219654 -0.322656 -0.601828 -0.071455 0.275123 -0.114366 -0.197871 0.138725 -0.537529 0.43125 0.294806 0.477173 0.504454 0.273082 -1.06801 -0.143232 0.600727 -0.041569 0.214081 -0.04994 0.468752 0.716041 -0.844371 0.05243 -0.261924 0.12175 0.633722 0.571497 0.143689 0.065378 -0.123909 0.323634 0.371833 0.211065 0.0325 0.240363 0.071836 -0.408206 0.249823 -0.7789 -0.056555 0.335738 -0.105561 -0.791707 -0.092437 0.095135 -0.039388 0.789768 -0.305875 -0.201925 -0.054472 0.031282 -0.785776 0.221785 -0.207038 -0.122387 0.319768 0.364952 0.40415 0.62012 -0.550935 -0.656493 -0.13397 -1.4999 -0.101605 -0.130054 0.120884 -0.031085 0.236797 0.391118 -0.432518 0.202334 -0.307392 -0.310956 -0.322764 -0.090391 -1.28126 0.101066 -0.458692 0.321026 0.24577 0.274641 0.457136 -0.853916 0.126076 -0.561671 -0.870479 0.872451 0.539209 -0.060501 -0.32233 2.7e-05 -0.361997 -0.051271 0.710645 0.229306 -0.028754 -0.25326 -0.260243 0.235312 0.920255 0.245791 -0.72105 0.169228 -0.237255 -0.45296 -0.542077 0.593518 0.432462 -0.175866 0.278795 0.311176 0.167805 -0.366558 0.349324 -0.269084 -0.231409 -0.292725 -0.410725 -0.234362 0.057374 -0.496054 0.323046 0.270924 0.867531 0.308822 0.620235 0.288719 0.310994 0.573245 0.303993 -0.088185 0.147782 -1.63038 0.243794 0.528892 -0.0213 0.097425 -0.131167 -0.097611 -0.024229 0.26557 -0.401971 0.210161 -0.539545 0.413063 -0.279923 -0.016912 -0.281839 0.454713 0.015631 -0.057061 0.809761 -0.594796 0.046409 0.058761 -0.024582 0.055807 0.021795 0.722488 0.268531 0.050302 0.144822 -0.259239 0.07836 -0.021736 -0.344745 -0.345134 0.117613 -0.579402 0.569825 -0.317028 -0.347525 -0.266698 -0.043098 0.569723 -0.196626 0.301028 -0.313361 -0.764248 -0.36135 0.155771 -0.568961 -0.199684 0.214119 0.091456
children -0.422189 -0.004898 -0.248764 0.14722 -0.084314 0.072728 -0.099881 0.362102 -0.177392 -0.339389 0.407631 -0.109369 0.345439 0.093306 0.737128 0.019693 -0.028964 -0.371716 -0.179748 -0.093949 0.559021 0.174947 -0.229999 -0.049627 0.307224 -0.157918 -0.21151 0.25535 0.320343 -0.027856 -0.067277 -0.145278 -0.291583 0.101297 -0.193788 -0.117106 0.457415 -0.078505 -0.22722 -0.078674 -0.077123 0.653611 -0.090006 0.106065 -0.537008 0.118734 0.081889 -0.233568 -0.339592 -0.237625 0.135627 -0.170857 0.034078 -0.380638 0.539537 0.247018 -0.124811 -0.101271 -0.050112 -0.3959 -0.686438 0.24026 0.214157 0.078882 0.227541 0.543227 -0.046983 -0.044982 0.570713 0.428234 0.014659 -0.038067 -0.731972 -0.049034 0.220815 -0.336031 0.296948 -2.87283 0.196938 -0.069059 -0.571375 0.080224 -0.259667 0.033368 -0.616427 -0.070102 0.31831 0.21759 0.947254 -0.008165 -0.088055 0.323613 0.217184 0.148237 0.127439 0.275018 0.047946 0.130664 0.552549 -0.387949 -0.587047 0.448586 -0.115104 0.060683 0.250899 -0.10863 -0.371703 -0.29507 0.190436 -0.399079 0.419047 -0.054848 -0.989964 0.56663 0.045882 -1.22688 0.16089 -0.319788 0.908436 0.357777 -0.496567 0.284765 -0.37957 0.499228 -0.012976 0.190648 0.181183 -0.447769 0.163004 -0.391959 0.224583 0.022679 -0.223608 -0.579844 0.007468 0.009437 -0.850247 0.559059 -0.264551 0.153086 0.598111 0.618397 0.291355 -0.072347 0.059798 -0.634129 0.640576 -0.1172 -0.556595 -0.051537 0.373632 -0.286109 0.415201 0.038439 -0.222859 0.126519 0.076285 -0.102937 -0.568267 0.450645 0.330069 -0.221041 0.533459 -0.284253 0.214116 0.548537 0.006219 -0.176564 -0.248723 -0.394333 -0.2349 0.778495 0.431341 0.368166 -0.051039 0.163537 -0.222482 -0.600548 -0.10549 0.267471 0.416045 -0.050967 0.160607 0.168022 -0.28555 -0.246504 -0.294795 -0.165128 -0.018414 -1.17353 -0.086579 0.540945 -0.042879 0.195124 -0.242714 0.070192 -1e-05 -0.104619 -0.427983 -0.538408 -0.39299 0.495367 0.447465 -0.371564 -0.36819 0.330637 -0.216404 -0.193104 0.65429 -0.445336 0.276787 -0.072768 0.178019 0.084563 -0.378266 0.26129 0.001093 -0.193484 0.232788 0.044814 -0.014821 0.560213 0.232197 0.016801 0.166928 -0.213392 -0.214986 0.05295 0.024858 -1.95169 -0.514306 -0.062477 0.589992 -0.3499 0.938914 0.157938 0.459787 0.325346 -0.599816 -0.291375 0.232551 0.773476 -0.027891 -0.075682 -0.145937 -0.035098 0.233086 -2.93571 -0.377383 -0.125334 -0.286469 0.201308 0.690225 0.048611 0.260041 0.309749 -0.306357 -0.339479 0.062421 0.181992 0.532885 -0.048973 0.277953 0.336161 0.38897 -0.375414 -0.047045 0.505126 -0.113418 -0.436165 0.35958 -0.142841 0.635046 0.355706 -0.104845 -0.408811 -0.051773 0.33071 -0.396151 0.463492 0.173745 -0.55469 -0.004279 -0.135331 1.06901 -0.373359 0.00701 -0.251514 -0.496169 0.320195 -0.122256 -0.273771 0.106537 0.091049 -0.233435 0.6344 0.008644 -0.020451 0.085486 -0.060034
row 0.127426 0.316096 -0.124493 -0.057738 -0.028319 0.299537 0.256562 -0.121088 -0.128444 0.333237 -0.034395 0.090154 0.031768 -0.218184 0.92721 -0.163032 0.482656 0.12204 0.21635 0.275825 -0.045471 0.332944 -0.12607 -0.432814 -0.216707 0.371514 0.083862 0.084025 -0.153977 -0.300553 0.01671 0.17854 -0.357314 -0.120956 -0.394219 -0.158452 0.774665 -0.445447 -0.234427 0.454972 -0.541126 -0.106837 0.019679 -0.16655 -0.105171 0.035193 0.165416 0.255851 0.054884 0.200269 -0.796833 -0.113274 0.17152 0.071127 -0.157815 -0.142984 0.171019 -0.513422 0.109065 0.175195 0.319256 -0.153289 -0.094159 0.351945 0.354276 0.173073 -0.150848 0.263487 0.042765 -0.02988 -0.092744 0.37048 0.735297 -0.091074 -0.199052 -0.131139 -0.573561 -2.67913 0.003836 0.306748 -0.213918 -0.125073 0.042224 0.134658 -0.498802 -0.01116 -0.089812 -0.31802 -0.639477 0.218091 -0.201589 -0.060346 -0.091716 0.044415 -0.459356 0.331805 0.139673 0.044571 0.600531 -0.184033 -0.125226 -0.173809 -0.138324 0.278762 -0.0604 0.346302 -0.05273 0.485467 0.201441 -0.116478 0.115435 -0.278401 0.089422 0.106129 -0.177451 0.044836 -0.570872 -0.554497 -0.041239 -0.01329 0.042344 -0.32863 0.238311 -0.192407 -0.245646 -0.360783 -0.775049 0.06072 -0.194858 0.175585 0.01435 -0.206111 0.410352 0.206021 0.218404 0.287218 0.226119 -0.198429 -5.9e-05 -0.125863 0.045754 -0.50134 -0.203133 0.777985 -0.023299 0.315118 -0.236873 -0.253263 0.341567 -0.410515 0.297143 0.123239 -0.452338 -0.190984 -0.296172 0.251458 0.037503 -0.116025 0.329268 0.20679 0.404773 0.216052 0.345971 0.158004 -0.089081 0.301358 -0.003516 -0.276496 0.124072 -0.485332 0.425418 -0.076575 0.340826 -0.101632 0.131131 0.464576 0.004928 0.730768 -0.104183 0.314641 0.089427 -0.204823 0.22351 0.093309 0.131943 0.163407 -0.07532 -0.381524 0.145494 -0.250954 0.027402 -0.483024 0.495902 0.294856 -0.644242 0.132249 0.27073 0.034637 -0.458788 0.311103 0.7195 -0.019014 0.175362 -0.134756 -0.142428 0.846318 0.119661 0.260355 0.160238 -0.261437 0.49589 -0.023526 0.287622 0.219818 -0.416373 -0.346243 0.41229 -0.536577 0.840633 -0.718033 -0.454365 -0.296846 -0.308168 -0.30251 0.100112 -0.097336 0.060452 -0.044067 -0.061833 -0.807192 0.467703 -0.574457 0.272712 -0.126918 0.072069 -0.176685 -0.094085 -0.147195 -0.316593 -0.128819 0.202821 0.187587 -0.451768 0.265306 -0.312141 0.499956 0.054934 -1.91493 -0.068839 -0.090353 0.004917 0.185483 0.337484 -0.290834 -0.399389 -0.159458 0.372952 -0.202216 0.193935 0.596895 -0.060078 0.437261 0.197235 -0.436908 0.350667 -0.214518 0.395124 -0.061879 0.536816 0.091231 -0.073955 0.092729 -0.032231 -0.198534 -0.062471 0.110226 -0.670338 0.198505 -0.151754 -0.751179 0.068484 -0.170688 -0.321656 -0.053359 0.393151 0.22206 0.104939 0.63174 -0.024482 0.701996 0.06683 -0.079386 0.196474 -0.338526 -0.200433 -0.225256 -0.21814 -0.420948 -0.218291 0.017478
wizard -0.196167 -0.250073 0.198172 -0.175554 0.250564 -0.531202 -0.197548 0.381141 0.830364 -0.566307 0.224563 -0.278205 -0.481365 -0.102861 -0.097152 0.198476 0.002988 0.105761 0.033826 0.23817 0.548064 0.437098 0.561618 -0.279362 0.093563 0.605999 0.180974 -0.682384 0.350169 0.100903 0.275045 0.321447 0.018548 0.134382 -0.192721 -0.383706 -0.301942 0.203805 0.086107 -0.693082 -0.085713 0.503526 -0.34598 0.104535 -0.061542 -0.44773 -0.527115 -0.124142 0.160054 0.66602 -0.295841 0.023667 0.248058 -0.482147 -0.044127 -0.37807 -0.119462 0.03043 0.047728 0.274019 -0.397796 -0.145347 -0.363637 -0.552229 0.785577 0.384412 -0.594232 0.099088 0.148922 0.261957 -0.093623 0.331911 0.134459 -0.259309 0.225854 -0.118671 0.548362 -0.321258 -0.375793 -0.100333 -0.550299 -0.123692 -0.043336 -0.068631 -0.226012 -0.633618 0.565245 -0.812742 0.074508 -0.131014 0.501397 -0.150954 -0.084477 -0.635163 -0.394372 0.012838 0.234572 -0.076421 0.015657 0.545341 0.19612 -0.44953 -0.032112 0.320481 0.128168 -0.177398 -0.295035 0.226871 -0.394464 -0.056706 0.134379 0.271961 -1.08672 -0.056563 -0.179033 -0.276053 -0.302567 -0.632232 -0.14365 -0.532805 -0.343386 0.136268 -0.26035 -0.016064 0.379091 -0.18045 -0.641772 -0.215385 -0.280226 0.285698 0.29862 0.25226 -0.323588 -0.105728 -0.258867 -0.210679 -0.029659 0.485982 0.445681 0.39482 -0.71542 -0.093861 0.719527 -0.05456 0.177267 -0.128812 -0.732685 -0.07808 -0.436153 0.179244 0.082544 -0.220148 -0.06436 0.658733 0.413723 -0.19993 -0.719028 0.276459 -0.634695 0.004074 -0.219604 0.154806 0.069536 0.072328 0.416258 0.358258 0.463185 -0.077463 0.122954 -1.00634 -0.409058 0.27587 -0.253519 0.887378 0.099134 0.035242 0.08812 -0.253614 0.252706 0.078667 0.340397 -0.34959 -0.792078 -0.14216 -0.351376 -0.351437 0.017784 -0.484338 -0.463859 -0.208567 0.634002 -0.586093 -0.544197 0.111935 -0.192739 0.101248 -0.169351 0.439719 -0.474436 -0.389318 -0.086133 -0.417512 0.349252 0.222918 -0.293286 0.541186 0.16751 0.59973 0.149149 0.054913 -0.121711 -0.100269 0.033144 -0.468907 -0.434508 -0.048169 0.293254 -0.102299 -0.061066 0.062335 -0.388492 -0.401332 -0.043272 -0.221591 0.619527 -0.185837 0.292289 -0.454087 -0.002882 -0.18956 0.057205 0.670819 -0.156845 0.050315 0.232808 -0.349807 0.668043 -0.375241 -0.170091 -0.066691 0.419318 0.023603 0.594745 -0.22877 -0.464072 0.786019 0.178159 -0.417324 0.000821 0.056496 -0.544034 -0.460669 -0.222955 0.495212 0.314814 0.139563 -0.056168 -0.482441 -0.640769 -0.130047 0.254541 -0.061395 0.089989 -0.168241 0.006591 -0.112183 -0.207096 -0.311923 -0.357578 -0.112068 -0.383195 -0.272599 0.123044 -0.355738 0.26241 -0.134139 0.362355 -0.020908 -0.528004 0.129689 0.129981 0.245658 -0.141732 -0.194383 -0.432242 0.864889 -0.931908 -0.4407 -0.23363 0.438116 -0.030424 -0.017425 0.02881 0.149031 -0.32299 -0.442662 0.703258 -0.167913 -0.180138 0.027484
disability 0.099832 0.357845 -0.016333 0.249437 -0.214893 0.353938 -0.321826 -0.647397 -0.067183 -0.533345 -0.057958 -0.28778 -0.123683 0.001638 0.293711 0.172694 0.120094 -0.103879 0.700581 0.361159 0.34979 0.022106 0.356374 0.000134 -0.123673 0.105552 0.035643 -0.224916 -0.095975 0.003734 -0.14585 0.472086 -0.123418 0.459558 0.274824 0.329247 0.107603 -0.167642 -0.04765 0.348786 -0.108917 0.295082 -0.50979 0.2838 -0.629021 0.084852 -0.362876 0.652649 -0.501333 -0.085471 -0.23692 -0.736389 0.110134 -0.363576 -0.379318 0.240264 -0.119352 -0.23413 0.212657 0.331263 -0.210263 -0.39985 0.106737 0.036538 -0.015754 -0.293576 0.081538 -0.384427 0.331975 -0.194975 -0.129446 0.103375 -0.71163 0.024378 -0.489934 -0.2137 -0.353903 -1.29735 -0.138493 0.41523 0.544005 -0.195254 0.094234 -0.5492 0.273225 -0.044268 -0.034274 0.481643 -0.055146 -0.252912 -0.001371 0.060575 -0.113629 0.205671 -0.557422 0.840682 0.248709 -0.605267 0.444569 -0.163315 -0.389865 -0.183679 0.096222 0.425211 0.779486 0.2002 0.256323 0.548062 0.285628 -0.254681 0.032916 0.074221 -0.329341 0.128791 0.347059 0.480835 0.246879 0.7032 0.272585 -0.138807 -0.753053 0.376542 -0.205305 0.472658 -0.050448 -0.144001 0.529296 -0.083986 0.507101 -0.000251 0.171139 0.047235 -0.674778 0.127651 0.08986 0.223813 -0.381929 0.02446 -0.2678 -0.134326 0.537411 0.510087 0.207364 -0.258881 0.063774 -0.290796 0.535254 0.09864 -0.755666 -0.426703 -0.493435 -0.111349 0.096537 -0.324185 -0.278097 0.143335 0.707376 -0.072746 -0.160974 0.397947 -0.029592 -0.043268 -0.635892 -0.335926 0.042798 0.050158 -0.216124 0.171191 -0.95585 0.022871 0.205402 0.272387 -0.032367 0.118434 -0.129336 -0.126949 -0.69924 -0.126841 -0.271703 -0.354627 0.458327 -0.146326 0.171768 -0.422698 0.364127 -0.356931 -0.24434 0.281406 -0.658198 -0.488457 0.150521 0.621589 0.184717 0.529982 0.275092 -0.725963 0.392239 -0.078183 0.077942 -0.495494 -0.155969 0.096853 -0.138352 0.209254 -0.662954 0.147133 -0.10967 -0.033441 0.312826 0.275299 -0.014211 -0.378955 -0.159142 0.257384 -0.373763 0.676927 -0.224163 0.150944 0.237492 -0.322507 0.521544 0.577213 -0.491696 -0.032523 -0.50694 -0.374557 0.418335 0.039976 -0.578267 -0.403746 0.267904 -0.031947 -0.102875 0.366726 0.230387 0.276769 0.430047 -0.623561 0.092964 -0.46533 0.260134 -0.364072 0.447824 -0.465966 -0.312259 0.222356 -0.34012 -1.32207 -0.135951 -0.571295 0.264531 -0.323208 -0.119423 -0.019699 0.142061 -0.039971 -0.14488 -0.267848 0.746627 -0.45739 0.404418 -0.478064 -0.371442 0.257595 -0.061287 -0.300323 0.013874 -0.403315 -0.217784 0.291823 -0.106478 0.000745 0.593775 -0.010233 -0.034561 0.023929 0.324959 0.329439 0.236391 -0.36042 0.17699 -0.145142 -0.458855 0.445254 0.118755 0.085802 -0.346166 -0.399797 0.501143 0.479389 -0.263468 -0.353114 -0.106302 -0.173157 0.13674 0.057454 -0.00561 -0.315423 0.161424 0.236152
environment -0.550324 -0.147904 -0.044967 -0.162193 -0.040562 -0.265737 0.542036 0.103782 0.190208 -0.33062 -0.036255 -0.3838 0.18317 0.003813 -0.235571 0.393307 0.019293 0.020904 0.207581 0.022497 -0.099445 -0.704837 -0.290428 -0.144899 -0.247103 -0.305345 0.095115 -0.037209 0.468404 0.201741 0.207777 0.199969 -0.217209 -0.616979 0.735303 0.463512 -0.172228 0.27943 -0.312498 0.564751 0.019439 0.5668 0.096036 -0.280041 0.26969 0.48532 -0.436974 0.181374 0.102928 -0.31938 -0.028351 0.1717 -0.219888 0.218059 0.443915 0.3022 0.582387 -0.318849 0.384161 0.346991 0.137509 0.138028 -0.212644 0.563835 -0.053428 0.403141 0.06021 0.095902 0.156061 0.268549 -0.405634 0.146716 -0.378722 0.517433 -0.022344 0.275999 0.317686 -2.25039 0.0878 0.110829 0.102972 -0.342766 0.097882 0.163432 0.394747 -0.243451 0.360392 -0.110439 0.192652 0.389746 0.685559 0.786205 0.138998 0.292259 -0.155799 0.398909 -0.160979 -0.587382 -0.078259 0.009417 -0.149771 -0.040171 0.191225 0.161477 0.256774 0.08497 0.135335 0.274668 -0.119119 0.051432 0.174748 0.10387 0.041266 0.188585 -0.224684 -0.248696 0.408986 0.202822 0.161062 -0.050252 -0.143408 0.162403 -0.357099 -0.209752 0.126041 0.264786 0.635769 -0.310856 0.499154 0.110214 -0.172402 0.3479 -0.278453 0.271621 -0.085836 -0.682679 -0.013464 -0.479898 -0.116297 0.449788 -0.307269 -0.12255 0.779614 0.644081 -0.07609 0.386169 -0.041664 0.370061 -0.735064 0.060129 0.552216 -0.335144 -0.06722 0.112028 -0.398443 0.175993 0.276841 -0.30595 -0.070682 -0.245519 0.413727 0.229359 -0.644178 -0.215363 0.095331 0.225581 -0.822684 -0.163003 0.173847 -0.299922 0.044064 -0.140304 -0.363938 -0.059096 -0.45796 -0.074396 -0.28327 -0.494924 -0.516933 0.717427 0.212788 0.640133 0.376654 -0.018235 -0.397157 0.575318 -0.213531 0.078715 -0.354901 0.122236 -1.05522 0.799265 -0.154222 0.081111 0.26299 -0.196565 0.21885 0.437904 -0.567602 -0.100722 -0.257549 -0.160996 -0.283458 0.032511 -0.492054 0.204983 -0.450948 -0.008531 0.286034 0.408548 -0.711287 0.409727 -0.156046 -0.389813 0.346419 0.593541 -0.078198 -0.297749 -0.373203 0.182024 0.395706 0.055615 -0.225277 -0.102512 -0.019184 0.027519 -0.082318 -0.028502 -0.052401 -0.457004 0.289466 -0.01549 -0.207768 -0.034652 -0.150486 0.014884 0.076564 0.01418 -0.29249 -0.192553 0.225965 -0.360246 0.066193 0.109724 0.435083 -0.29747 0.391967 -2.64391 -0.623877 -0.207705 0.108958 0.620926 0.569699 -0.023191 -0.235056 0.670429 -0.842551 0.118358 0.090119 0.205385 0.337665 0.146175 -0.129925 0.177211 0.165706 -0.153049 0.229968 -0.056121 0.042653 -0.327164 -0.27046 0.215442 0.163838 -0.118163 0.363569 -0.500607 -0.241214 -0.154793 -0.249363 -0.25563 0.288822 0.805739 -0.03027 0.783756 -0.015905 0.295434 0.042338 0.509955 -0.112306 0.163358 0.160335 0.214666 0.448987 0.479813 -0.110249 -0.343443 0.511465 0.502447 0.426464 -0.284762
terror 0.21566 -0.158988 -0.250725 0.280996 -0.634885 0.049095 -0.090397 0.633668 -0.063365 -0.132175 -0.699707 0.150105 -0.339578 0.380022 0.169223 0.494145 -0.314323 -0.124283 0.045968 0.730931 0.788105 -0.320512 0.161429 0.387087 0.058864 0.85271 -0.024694 0.253295 -0.490409 -0.634247 0.052801 -0.722069 -0.036077 0.037647 0.592906 -0.295934 0.082097 0.480691 0.086992 -0.081051 -0.511352 0.425188 -0.065204 -0.009281 0.392528 0.086719 0.469009 -0.137822 -0.338749 -0.168763 0.252394 -0.017089 0.430945 -0.013084 0.069178 -0.162875 0.636735 0.443567 0.233283 0.231807 0.682256 -0.365 0.288104 0.155053 0.194163 -0.118254 0.405935 -0.018352 -0.192521 0.254641 0.268054 0.599975 0.210024 0.354892 0.167424 -0.033577 -0.010237 -2.77559 -0.707543 0.550207 -0.49203 -0.144899 0.768259 0.316396 0.423238 -0.271274 0.058148 0.211576 0.552101 -0.453797 -0.138718 -0.059259 0.748949 0.202324 -0.070798 0.31111 0.879348 0.106523 0.774142 -1.00782 -0.062991 -0.372213 0.215062 -0.063931 0.055512 0.130736 -0.602445 -0.302008 -0.285755 0.560124 0.694545 0.133766 -0.695712 0.457198 -0.182858 -0.545482 0.011763 0.108454 0.577459 0.076649 -0.126043 -0.16781 -0.678279 -0.563838 -0.427589 -0.089445 -0.245995 0.07498 0.566266 -0.132447 -0.31488 -0.267774 -0.784032 0.107324 0.586263 -0.078639 0.099465 -0.646963 0.206515 0.419835 0.117545 -0.429827 -0.159503 -0.190492 -0.344128 -0.363262 0.002105 0.217579 0.296243 -0.446465 0.366006 -0.35535 -0.007401 0.287093 0.532925 0.33111 -0.27165 -0.090515 0.195377 0.42152 -0.457248 -0.250034 0.184424 0.176056 -0.2741 0.179049 0.289586 0.136025 -0.207318 0.590291 -0.519697 -0.184415 -0.865272 0.109797 0.383992 0.856586 0.076642 0.120692 0.110568 -0.036902 -1.01711 0.26695 -0.228676 -0.227029 -0.467365 -0.362969 -0.042786 0.186411 -0.714444 0.133915 0.039101 0.013675 -0.660732 -0.540528 0.510911 0.237416 0.046296 -0.299415 -0.082571 -0.252132 -0.343867 -0.060223 -0.550672 -0.179471 0.288241 0.140164 0.188813 0.423874 -0.394061 -0.810997 0.036673 -0.112525 0.293906 -0.012735 0.313204 0.235914 -0.312273 -0.371041 -0.22574 0.241644 -0.36002 0.004781 0.107821 0.248771 0.147933 -0.088139 -0.180021 0.276769 0.174149 -0.077012 -0.042909 -0.579611 -0.474166 0.345015 -0.106287 -0.042662 -0.24172 -0.481516 0.1692 -0.20459 0.53165 -0.391057 -0.354466 0.09842 -0.268148 -0.360259 -0.174268 -1.46025 -0.311516 0.529844 0.185282 0.014159 -0.288599 0.448108 0.142152 -0.484662 0.345809 -0.34953 0.767246 0.654879 -0.113896 0.231853 0.185972 -0.377027 -0.031594 -0.159388 0.216126 -0.045883 0.230908 -0.026626 -0.179891 0.078863 0.403995 -0.339603 -0.159705 -0.520203 -0.642161 -0.009917 0.074506 0.410571 0.345544 0.793341 0.108567 -0.130624 0.14635 0.501497 -0.325863 0.174168 0.009397 0.042424 0.219323 0.244592 -0.263818 -0.589903 0.438683 0.266775 -0.430899 -0.231862 -0.304742 0.121729
smile -0.003776 -0.011682 0.210965 0.307067 -0.279747 0.377032 -0.22856 -0.145942 0.429376 0.708195 -0.201262 0.10466 0.030979 0.690732 0.393284 -0.769786 -0.368797 0.332449 -0.043324 -0.123147 0.735396 0.02698 -0.214747 -0.073297 0.538898 0.361261 -0.287064 0.373765 0.010183 0.639417 -0.333436 -0.101606 -0.210796 0.141315 0.085726 0.002827 -0.09416 -0.273881 0.69869 -0.401576 -0.153874 0.076599 -0.588986 0.23873 0.076994 -0.561902 -0.654092 0.31167 -0.110232 0.315886 0.096204 -0.326218 -0.002341 -0.049765 -0.178368 0.495823 -1.11879 0.143863 -0.223408 0.13899 -0.137317 0.141013 0.03981 0.043551 0.663268 0.060367 0.38597 -0.508021 0.095401 0.588001 0.105962 -0.063948 -0.010802 0.103202 0.190329 -0.230777 0.117385 -1.55721 0.136156 -0.177454 0.150768 -0.162953 0.212239 -0.579632 0.353145 -0.219721 -0.65602 -0.199011 0.626918 0.188836 0.202493 -0.332597 -0.021164 0.465 0.393815 0.225107 0.220958 -0.110478 -0.754593 -0.351039 -0.210479 -0.049237 0.129883 0.244958 0.334834 -0.383216 -0.856099 -0.528638 -0.615523 -0.579123 0.047078 0.010772 0.468508 0.120961 -0.091787 -0.197669 -0.158268 0.05656 -0.224474 -0.176136 -0.587764 -0.005313 0.214466 0.428846 0.141277 -0.262654 0.151791 0.293731 -0.549403 0.523927 0.246696 -0.086496 -0.192735 -0.309811 0.51425 0.320613 -0.604514 -0.019622 0.658037 -0.725197 -0.182384 0.624118 -0.46116 -0.04652 -0.651341 -0.052542 0.980817 -0.50214 -0.193831 0.217419 0.308503 0.230375 -0.006421 -0.118879 0.662409 0.359398 0.129388 -0.071654 -0.355879 -0.320065 -0.571913 0.757771 0.149615 -0.085198 -0.151025 0.327956 -0.484106 0.108151 0.00907 0.279162 -0.505633 0.279752 -0.299926 0.040141 -0.343964 -0.116482 -0.272652 -0.539841 -0.494222 0.601891 -0.140201 -0.005068 -0.232514 0.469097 -0.759499 0.154622 0.280397 -0.368783 -0.448633 -0.620703 0.292216 0.436871 -0.058385 1.00373 0.201231 0.250425 0.125618 -0.03201 -0.417222 -0.25007 0.418903 -0.462078 1.00403 0.500529 0.488191 0.155113 0.169608 -0.471083 -0.584947 0.022264 -0.488942 0.085428 0.547231 0.083213 0.896838 -0.01208 0.044285 0.116136 0.84472 -0.918794 -0.770198 -0.036536 0.309914 0.455766 -0.065115 -0.85463 0.098107 -0.1093 0.42249 -0.587205 0.046534 -0.329413 -0.001069 0.231652 0.257732 -0.163123 0.05152 -0.228689 -0.11182 0.331229 0.493943 0.153346 0.688068 0.11445 -0.01648 0.222339 -0.146649 -0.815353 0.288385 0.04274 -0.14974 0.274054 -0.307084 0.008768 -0.168968 0.413795 0.069529 -0.091865 0.082017 0.588048 -0.418709 -0.275931 -0.33819 -0.243484 -0.107177 -0.317183 0.188795 0.47509 -0.113601 -0.362398 -0.557433 0.349697 -0.420953 0.215174 0.049212 0.156863 -0.42995 -0.042011 0.149315 -0.199721 -0.761294 -0.344325 -0.324531 -0.112131 -0.37639 0.134322 -0.580462 0.74049 -0.649746 -0.166137 -0.458137 -0.020691 -0.108055 0.499059 -0.430573 0.010363 0.068715 -0.266222 -0.480894 -0.093201
woman -0.057977 0.550049 -0.076645 0.518214 0.22259 0.127086 -0.184129 -0.32405 0.286091 0.421244 0.092167 0.671837 -0.047648 -0.508809 0.634931 -0.325732 -0.508408 -0.464667 -0.528987 -0.203737 -0.094303 0.189491 -0.193108 -0.508905 -0.058554 -0.259217 0.316853 0.135886 -0.363192 0.289958 -0.166815 0.534478 -0.171824 -0.311537 -0.080338 -0.250869 -0.162333 -0.446741 0.161405 0.409752 0.190737 0.009539 -0.229072 0.6373 -0.297705 -0.418181 0.242017 0.06526 -0.10118 0.149659 0.155569 0.221139 0.186456 0.05433 0.218557 0.431671 -0.431432 0.030043 -0.275742 0.293691 -0.348939 0.258953 0.200559 -0.307599 0.701449 -0.053007 0.243536 -0.381093 0.207674 0.474158 0.392763 0.055828 -0.197587 -0.075851 -0.397308 0.322053 0.0755 -2.91903 0.484467 0.145487 0.09417 -0.187231 -0.133561 -0.148803 -0.810564 0.021245 -0.043726 -0.15908 -0.215538 0.777464 -0.535924 -0.525351 0.004468 0.324053 -0.474462 0.275758 0.331566 -0.235001 -0.344088 -0.198544 -0.193791 -0.004836 0.274496 0.306646 0.29446 -0.333656 -0.250829 0.215522 -0.06089 -0.181362 0.196455 -0.111058 -0.713634 0.001732 -0.1004 -0.821074 -0.016387 -0.754149 -0.198076 -0.152848 0.095669 -0.067734 -0.137892 0.042249 0.218266 0.366236 0.181786 0.024597 0.304269 -0.068471 -0.034468 0.017891 -0.192565 0.222943 0.321233 -0.047458 -0.779752 -0.685846 -0.091387 -0.289654 0.03476 0.117726 0.031506 -0.662243 -0.461457 -0.312913 -0.112145 -0.257083 0.646056 -0.232803 0.110915 -0.145856 0.053525 -0.35826 0.228258 0.508164 0.060576 -0.421364 0.382703 0.339095 -1.06489 0.37576 0.175928 0.065212 -0.051256 -0.016721 -0.768899 0.107403 0.236876 -0.04635 0.124853 0.401495 0.546229 -0.182708 0.416242 -0.353592 0.397696 -0.079756 0.167397 -0.204245 0.355744 0.051441 -0.179938 -0.424542 0.125703 -0.635686 0.094161 -0.226709 -0.213819 -1.07214 0.079601 -0.197987 0.570397 0.833374 0.153854 -0.120515 0.723723 -0.280627 0.14539 -0.293462 -0.533884 -0.604302 -0.110835 -0.36752 0.120743 0.943875 -0.311089 -0.257108 0.49699 -0.468293 0.128742 -0.080553 -0.504605 0.065974 -0.165172 0.209878 -0.724584 0.196394 0.073445 -0.733938 0.467918 0.372444 0.073574 0.000942 0.464373 -0.297354 -0.089859 0.398688 0.175938 -1.12136 -0.58648 -0.081104 -0.003959 0.021799 0.112826 0.076874 0.00268 0.519159 0.651819 -0.120573 0.331074 0.197771 -0.151705 0.639032 0.279236 -0.275118 0.012497 -2.3885 0.323395 0.247724 -0.239032 -0.026823 0.271947 0.016408 -0.09332 -0.030457 -0.128318 -0.049408 0.107097 -0.342859 -0.135784 0.111191 -0.430796 0.755196 -0.119758 -0.66217 -0.257136 0.449519 -0.301831 0.006658 -0.582852 0.157267 0.118945 0.001299 -0.098987 0.560458 -0.665523 0.522238 -0.361894 -0.383515 -0.102288 -0.092619 -0.427023 -0.160252 -0.049106 0.52626 0.103055 -0.285284 -0.498167 -0.030652 -0.001456 -0.322927 -0.268523 -0.109579 0.042225 0.491224 -0.303661 -0.09003 -0.470947 -0.312382
string -0.064864 0.19418 0.297168 -0.120762 0.25332 0.248965 -0.008719 0.225392 0.033821 -0.048481 0.19331 0.376017 0.196096 0.652671 -0.144703 -0.402192 -0.128609 0.593499 -0.095755 0.014212 0.1499 -0.203367 0.654931 -0.04634 0.370546 0.140042 -0.172979 -0.310654 0.012372 0.122305 0.492208 -0.345408 0.268619 -0.629452 -0.123599 -0.309201 0.355133 -0.130628 0.376263 -0.300894 -0.748115 0.146903 -0.422075 -0.071852 0.32687 0.338445 0.391861 -0.207067 -0.435718 0.19363 0.205647 -0.370335 0.697761 0.39071 -0.723333 -0.267917 -0.079102 0.035774 -0.10645 0.100757 0.362781 -0.19933 0.047143 0.376541 0.231167 0.169079 -0.301677 -0.277288 0.140579 0.080297 -0.271314 -0.20736 0.479561 -0.54317 -0.155994 -0.03937 0.191184 -2.37746 -0.332005 0.627861 -0.526509 -0.139919 -0.490178 -0.014156 0.258276 -0.298044 -0.025344 -0.031389 -0.345262 -0.327144 0.21576 -0.030571 0.100333 -0.283865 -0.34103 0.184356 -0.471302 0.188823 0.308809 -0.256887 -0.243278 -0.072686 0.098136 0.362238 -0.192675 -0.250667 0.085698 -0.196066 -0.449577 0.014466 0.002089 -0.130059 -0.072575 0.072088 0.093197 -0.56569 -0.645371 -0.450844 -0.298473 -0.240944 0.436872 -0.28774 -0.219161 -0.143337 -0.581888 -0.089612 -0.46904 -0.187819 -0.311608 0.771001 -0.138257 -0.376538 0.058138 0.226967 0.270544 0.040641 -0.604956 -0.253386 0.068154 0.120615 0.137638 -0.262043 -0.067879 0.172664 0.455225 -0.085401 0.185378 0.182701 0.551783 -0.275055 0.311735 0.02499 0.057103 -0.09062 0.028157 0.363651 0.167321 0.460453 -0.073385 -0.033169 0.274238 0.354666 -0.05836 -0.133413 -0.143242 0.237633 -0.023693 0.033893 0.287866 0.129138 0.0012 -0.022518 0.115534 0.474117 -0.071564 0.558903 -0.064804 0.524103 -0.302236 -0.342437 -0.344596 -0.15906 -0.486205 -0.45935 0.382886 -0.114243 0.014819 -0.218858 -0.51652 0.00601 -0.567662 -0.230005 -0.7965 0.096043 0.199453 -0.349257 0.079769 0.045725 0.034654 -0.043298 0.467268 -0.010009 0.398222 -0.061907 -0.024098 0.439022 -0.247981 -0.056378 0.697107 -1.11732 -0.01793 -0.009172 -0.328229 -0.081559 -0.286755 -0.376476 -0.31098 -0.368405 -0.052944 0.195067 0.068011 0.079013 -0.030796 -0.213338 -0.267116 0.134414 0.098432 -0.106322 -0.19209 -0.430747 0.273582 -0.293981 -0.222229 0.387948 -0.344318 -0.004405 0.060711 0.262515 -0.014059 0.254887 0.028203 0.009132 -0.291721 0.372154 -0.116772 -0.129085 0.273034 -1.4747 0.203727 -0.008627 -0.340365 -0.225393 0.060646 -0.016409 -0.385571 0.13186 -0.422655 -0.431602 0.183501 -0.1363 -0.106391 0.108218 0.007454 -0.185192 -0.183087 -0.073582 -0.499094 -0.263758 0.048452 0.091084 -0.240394 -0.538688 0.200473 -0.510694 0.37611 -0.456424 0.112236 -0.184255 -0.335857 -0.010612 -0.37459 -0.199224 0.0075 -0.111692 -0.221684 0.280977 -0.322709 -0.031619 -0.26175 0.165892 -0.030297 -0.015808 0.505836 0.059938 0.207918 -0.102974 -0.139319 -0.5438 -0.129242 0.058142
Maradona -0.429443 0.121424 -0.04684 -0.15078 0.084458 -0.068543 -0.187232 -0.004665 0.147911 0.592903 -0.027167 -0.087272 -0.139097 0.526306 0.173244 0.343769 -0.011678 -0.409287 -0.210374 0.00048 -0.428392 0.112285 -0.210888 -0.513858 0.052462 0.043868 -0.027446 0.45085 0.115587 0.166185 0.014015 -0.084057 0.020246 0.122378 0.110927 0.361704 -0.481239 -0.403057 0.054455 -0.023159 -0.176733 -0.646167 0.03369 0.412288 -0.213694 -0.396464 -0.206046 -0.245761 -0.248953 -0.123542 0.072354 -0.532006 0.407893 0.326718 0.1526 0.640902 0.102403 -0.226249 0.064827 -0.38099 0.233167 -0.073879 -0.330533 -0.248525 0.349372 0.407755 0.431585 -0.336715 -0.069143 -0.340337 -0.283311 -0.237438 -0.316586 0.053886 0.382142 0.345702 -0.229381 -0.61209 0.074556 0.079634 0.186855 -0.094508 -0.448164 -0.378142 0.387868 -0.226103 -0.175136 -0.406115 0.19734 0.471589 -0.055655 0.188566 0.143199 0.024384 0.096267 0.248958 0.890422 0.140929 -0.150543 0.024678 -0.398118 -0.550118 0.638093 0.258212 0.084972 0.048464 -0.251336 0.559522 -0.164524 0.631991 0.269099 0.300798 0.067381 0.022017 -0.040147 -0.570184 -0.458085 -0.21923 -0.084059 0.391014 0.769722 0.24528 0.38632 0.505957 -0.636117 0.210038 -0.087834 0.38578 -0.512267 -0.059128 0.111968 -0.123701 0.016396 0.099066 0.165548 0.267477 -0.533618 -0.168401 -0.359783 0.200219 0.224282 0.24578 -0.304038 -0.15451 -0.158869 0.222 -0.049331 -0.039018 0.51548 0.398746 0.778637 0.22829 0.157427 -0.244807 -0.270735 -0.777002 -0.205076 0.140171 0.273084 -0.503401 0.044483 0.314497 -0.011083 -0.19169 -0.032168 0.309577 0.193729 -0.287592 0.198109 -0.117748 0.082676 -0.383205 -0.062894 0.427946 -0.050889 0.668661 -0.512337 -0.008075 -0.153885 0.101688 -0.108891 0.106463 0.073096 -0.124828 0.087096 -0.388937 0.223126 0.338818 0.351179 0.460135 0.386139 -0.086496 -0.027861 0.5904 0.128478 -0.390025 0.085326 -0.026459 0.317043 -0.229539 0.240394 -0.521842 0.193493 0.509319 0.160561 -0.052969 0.209424 -1.01733 -0.605401 0.420022 0.554708 -0.13537 0.485762 -0.148753 -0.094549 0.53324 -0.156201 0.136615 0.332393 -0.54839 -1.08055 -0.428278 -0.274948 0.190529 0.208695 0.08957 -0.052342 0.077741 1.10062 0.08293 0.086906 -0.258289 0.192239 -0.271496 -0.055597 -0.218934 0.28737 -0.281226 -0.035608 -0.135587 0.222977 0.443805 0.098706 -0.16567 -0.048232 0.260336 -0.061919 -0.456167 0.295802 0.121815 -0.374578 0.39495 0.45384 0.761016 0.138499 -0.120311 -0.684791 0.446815 0.470002 -0.190485 -0.508266 -0.183407 0.171702 -0.543877 -0.020264 0.198731 -0.19746 0.32961 -0.296489 -0.93309 -0.480238 -0.417659 -0.221293 0.057466 0.228416 0.864028 -0.163876 0.180237 0.172904 0.132637 0.633252 -0.348207 -0.121962 0.07 -0.927472 0.06919 -0.341314 0.268573 0.867007 0.154988 0.575895 0.230982 0.173971 0.42807 0.364281 -0.152849 -0.016579 -0.333132 0.134549 -0.118684
liability 0.10764 0.259456 0.695272 -0.282483 -0.084979 -0.187077 0.47819 -0.47338 0.557431 -0.379728 -0.35979 -0.068798 -0.071494 0.411063 0.147576 0.435001 -0.213072 -0.557472 -0.237267 -0.080185 -0.513452 -0.259173 0.566872 0.323948 -0.52631 -0.401385 0.476732 0.438004 0.081085 0.091175 -0.281464 0.011941 0.340028 0.311979 -0.067568 0.117477 -0.101701 -0.208431 -0.079135 -0.105362 0.134977 -0.070928 -0.130384 0.491216 0.290547 -0.086744 0.123077 0.105062 -0.479794 0.003299 -0.335077 -0.103819 0.363947 -0.260624 0.216049 0.226025 0.297847 0.913821 0.338156 0.647687 -0.024057 -0.53114 0.050012 -0.254707 0.194507 0.231478 -0.488032 -0.85136 -0.25921 0.026472 -0.220142 -0.305655 -0.423167 0.368476 0.49371 -0.279361 -0.311258 -0.977436 -0.387722 0.148688 0.009876 -0.420763 0.172726 0.062723 0.214275 -0.373995 0.096049 0.313128 -0.059041 0.088437 0.045553 0.03167 0.353628 -0.213103 -0.30721 0.348207 -0.359696 -0.402197 0.042902 -0.106581 -0.257946 -0.192223 -0.110455 -0.45093 0.850619 0.245223 -0.021407 0.065377 0.389882 -0.179804 0.331215 -0.131223 0.346181 -0.435701 -0.178927 0.842345 0.135286 -0.273692 -0.067494 -0.165949 0.341858 0.118258 0.308165 -0.215611 -0.556745 -0.431971 0.260239 0.436889 0.078344 0.042401 0.168397 -0.109155 0.228189 0.337658 0.310479 0.116028 0.423537 -0.229007 0.13933 -0.173928 -0.093355 0.330025 -0.119916 0.623791 -0.158408 -0.241455 -0.285394 0.33101 -0.414182 -1.36807 -0.004968 0.166827 0.152858 0.185327 -0.64517 0.474598 0.395282 0.336196 -0.314139 -0.470766 0.104954 -0.293472 -0.118515 -0.435611 0.070158 0.52769 -0.513047 -0.571561 -0.265464 -0.027193 0.254442 0.006833 0.054342 0.09151 -0.146688 -0.248295 -0.056 0.12072 0.243563 0.057834 0.073051 0.087207 0.619739 -0.205177 0.474705 0.032903 0.137525 0.49603 -0.741484 0.031756 -0.097964 0.371698 -0.609233 0.129675 0.171231 -0.403697 -0.041255 0.227942 0.236757 0.3427 0.001935 0.399794 -0.305573 0.345122 -0.198963 -0.56691 -0.085614 0.056874 0.872041 -0.069328 0.134775 -0.067024 0.413234 -0.033264 0.250905 -0.132737 0.473137 -0.017358 0.076174 -0.296764 0.381969 0.3689 0.241752 -0.233809 -0.230265 0.041492 -0.181918 0.033032 0.102228 -0.100249 -0.261806 -0.076249 -0.005898 -0.331812 0.113722 0.005794 -0.076995 0.064903 0.033037 0.203249 -0.322982 0.15576 0.451637 -0.717614 0.076116 0.382431 0.262902 -2.01444 -0.294066 -0.387113 -0.153879 -0.030575 -0.10203 -0.314685 -0.013775 -0.11725 -0.457649 0.185543 0.519815 0.089679 0.079437 -0.238545 0.229438 0.118228 0.094215 0.118561 0.043926 -0.756452 -0.01133 -0.085723 0.064114 0.110303 0.306917 0.319186 -0.405321 0.11243 0.75087 0.042423 0.429245 0.35384 -0.098575 -0.453425 0.028511 -0.335375 -0.123487 0.741949 0.064163 -0.115921 0.084196 0.411702 0.162139 -0.552919 0.164073 -0.554749 0.364403 -0.436988 -0.263823 -0.457438 -0.145242 0.463066
ticket -0.490576 -0.178882 0.313624 -0.399562 0.189998 0.146649 -0.039393 -0.304885 -0.170097 -0.13938 -0.262634 -0.153449 -0.597289 -0.201147 0.293086 0.211141 0.088285 -0.45559 0.120486 0.110464 -0.131494 0.455543 0.447059 0.069009 0.221486 0.008921 -0.226163 -0.154621 -0.507122 -0.309423 0.299587 0.040702 0.089047 0.065868 0.199194 -0.135884 -0.657959 -0.047116 0.590683 0.28996 -0.225843 -0.164971 0.328314 0.162423 0.101774 -0.034334 -0.353316 -0.086789 0.363366 -0.020725 -0.145302 -0.12779 -0.282077 0.56776 0.498966 0.501858 -0.009874 0.067285 0.335202 0.073641 0.501304 -0.09407 -0.487191 -0.22192 -0.590373 0.25837 -0.376683 0.435143 -0.283118 0.776849 0.731837 -0.455803 0.606652 -0.033476 -0.402489 0.204014 -0.004241 -1.46893 0.397452 0.481481 -0.235046 0.705185 0.046968 -0.228353 0.393906 0.004451 -0.057734 0.025674 0.105114 0.420768 -0.314121 -0.039791 -0.464779 -0.335813 -0.628719 0.172891 0.621622 -0.089782 -0.237953 -0.29484 -0.101354 0.219219 0.13252 -0.123397 -0.006913 0.178078 -0.033206 0.115755 0.091901 0.323811 0.264231 0.137537 0.302279 -0.317853 -0.177457 -0.158808 0.583747 -0.24698 -0.156144 -0.285451 -0.442672 0.003927 0.117783 0.039141 -0.270926 -0.501775 0.663567 -0.698264 0.220967 -0.690699 -0.077668 -0.017911 -0.579493 -0.560083 0.254075 -0.102357 -0.058636 -0.098568 -0.025684 -0.362954 -0.691703 -0.282532 0.19743 -0.542863 -0.097581 0.255785 -0.265029 -0.294855 -0.198238 0.26591 -0.244791 -0.664858 -0.61671 -0.123785 -0.356692 -0.144827 0.227403 -0.066851 0.188239 0.218467 -0.41387 -0.041227 0.795992 -0.410188 -0.173497 0.126409 -0.202607 0.021885 0.329863 1.18574 0.254707 -0.252716 0.393626 -0.070285 -0.137494 -0.624976 -0.345207 0.188361 -0.023579 -0.499496 -0.417425 -0.449137 0.083856 0.205835 0.243736 0.314504 0.540078 0.286256 -0.148213 -0.022481 0.323542 -0.134626 -0.179491 0.523041 0.041812 0.113542 0.108505 0.019261 0.201998 0.216423 0.352932 0.472285 0.370434 -0.671571 0.251304 0.071248 -0.543126 0.392432 0.363355 -0.103593 -0.131608 -0.135127 0.434484 -0.755756 0.315112 0.14382 -0.77301 0.460985 0.759518 0.156635 0.388944 -0.113301 0.237782 -0.170302 -0.194421 -0.422599 0.311292 -0.051007 -0.241302 -1.43009 0.085171 0.440411 -0.333736 -0.001276 0.488336 0.051678 -0.574196 0.507612 -0.441042 0.963679 0.100789 -0.596409 -0.359591 0.044015 -0.384356 -0.3284 -0.160038 -2.4138 -0.611003 0.167951 0.06519 0.539488 0.127644 -0.190097 -0.1214 -0.14606 0.177222 0.315187 -0.42835 -0.0558 0.113843 0.648496 -0.62515 0.390119 -0.301231 0.205586 0.324133 -0.349663 0.303192 -0.491396 0.239983 -0.219769 0.395808 0.165158 -0.648437 0.172934 0.024703 0.484578 0.370055 0.150384 -0.069848 0.223846 -0.352751 -0.327459 0.30192 0.552669 0.305123 -0.196709 0.048799 0.481756 0.009962 0.410743 0.360618 0.376913 -0.567702 0.38104 0.64518 -0.526441 -0.057688 0.949585
school -0.073425 -0.42937 0.134489 0.387448 -0.059807 -0.139656 -0.118664 0.531808 -0.606531 -0.27548 0.665089 -0.111604 0.343557 -0.652563 0.184357 0.363875 0.169858 -0.157812 -0.387629 0.360219 -0.547954 0.184174 0.500846 -0.311219 -0.169827 -0.003707 -0.620951 0.020189 0.370635 0.633896 -0.194787 0.361613 -0.013516 -0.315118 -0.140678 -0.256523 -0.174334 0.487538 -0.033151 -0.248401 -0.193992 0.287484 -0.202408 0.152532 -0.410724 -0.030218 -0.299001 -0.472786 -0.279451 -0.135214 0.459257 0.015904 -0.440889 0.016232 0.380415 0.155508 -0.440539 -0.579031 0.347072 -0.597575 -0.162539 0.134895 -0.112044 0.066318 -0.102313 0.026144 0.216935 -0.141959 -0.037218 0.076498 0.248567 -0.052622 -0.525094 0.207651 0.256207 -0.309578 -0.022243 -2.67476 -0.472897 0.01853 0.092394 0.048889 0.193976 -0.728873 -0.27122 -0.568115 0.225943 0.149703 0.778067 0.710313 0.256401 0.504579 0.012251 -0.215294 -0.841129 -0.371817 0.10406 -0.057612 0.387842 -0.309268 -0.253639 -0.17877 0.403787 0.005443 -0.527639 -0.161086 -0.747818 -0.232679 -0.313001 -0.06601 -0.183685 0.121342 -0.296826 0.045357 0.557828 -0.204525 0.297881 -0.095322 0.580024 0.42501 -0.431678 -0.078546 0.286838 -0.031543 0.412318 -0.152785 0.103862 -0.663338 0.104227 -0.227945 0.001358 0.119276 -0.300323 -0.212225 0.062204 -0.089358 -0.906775 0.116751 -0.256454 0.104059 0.14536 0.423573 -0.185149 -0.461703 0.20333 -0.035371 0.200525 0.132466 -0.265194 0.200599 0.198656 0.020426 0.314084 -0.466911 -0.118134 0.146019 0.16816 0.437927 0.022971 0.404347 0.15897 -0.731006 1.03689 0.130521 0.104793 -0.175372 -0.028223 -0.070041 -0.328924 -0.586502 0.142012 0.446993 0.27222 0.214508 0.197405 0.383464 0.019657 -0.319156 -0.164181 0.2908 0.202952 -0.098681 0.05902 -0.208431 0.061395 0.150789 -0.181126 -0.14798 -0.0846 -1.03388 0.276229 0.06423 -0.083982 0.423618 -0.366407 0.633158 -0.371479 0.211707 -0.140377 -0.593338 0.133289 0.125682 0.049957 -0.384935 0.035734 0.259135 -0.182484 0.030882 -0.001883 -0.074342 0.436602 -0.421084 -0.233438 -0.19015 -0.308089 0.353293 -0.017136 0.178607 0.252093 0.387305 0.380301 0.570766 -0.028935 -0.290987 0.177703 0.187365 -0.340759 0.537506 0.114262 -1.54813 0.074193 0.312944 0.553143 -0.352541 0.426098 0.650699 0.204535 0.170509 -0.272456 -0.161006 0.361693 -0.071528 0.194888 0.20352 -0.325518 -0.31162 0.369963 -3.16257 0.484909 -0.828763 -0.243743 -0.00658 0.331913 -0.12883 0.211433 -0.176468 -0.101051 -0.145307 0.195399 -0.1947 0.341851 -0.334953 0.140755 -0.518067 0.37088 -0.060139 0.266699 -0.095179 0.267333 0.270741 0.205717 0.07332 1.03311 0.087304 0.291847 -0.273531 -0.538084 0.525762 -0.570326 -0.248022 0.276119 -0.65746 0.060683 0.315137 0.082827 0.037531 0.204822 0.396157 -0.222568 0.309909 0.179216 -0.190611 0.583009 1.17134 0.912014 0.618052 0.303566 0.022062 -0.440682 -0.2362
gender 0.109174 -0.120026 -0.134622 0.459595 -0.355697 0.108146 0.130738 -0.657295 0.133823 -0.017305 -0.905096 -0.06978 0.271289 0.856142 0.690365 0.394376 0.053382 0.35019 0.208889 0.649724 -0.088099 0.160053 0.512991 -0.489067 -0.44602 0.015852 0.562734 -0.114858 0.184309 0.589893 -0.083653 0.458499 0.089337 -0.680667 -0.126532 -0.21973 -0.226308 0.012819 -0.996811 0.28132 -0.169107 -0.102687 -0.614407 0.218732 0.023925 0.253195 -0.30025 0.107528 -0.266837 -0.207876 -0.215785 0.104863 -0.139068 0.281723 0.105503 -0.478109 0.215326 -0.271523 -0.089111 0.005602 -0.935627 -0.082177 0.167442 0.607793 -0.4805 -0.205542 -0.084839 -0.536643 -0.079198 -0.354376 0.463334 0.149423 -0.666544 -0.063788 -0.300157 0.024226 0.057475 -1.44473 0.235246 -0.031795 0.228914 0.286499 -0.036883 -0.515252 0.072245 -0.038709 -0.022803 0.075486 0.545731 0.264609 -0.144122 -0.18335 -0.459024 -0.158424 -0.59407 0.046195 0.375116 -0.290528 0.05784 0.065248 -0.761744 -0.394115 0.419663 0.54564 0.245377 0.127674 -0.638916 0.295303 -0.097443 0.068445 0.326894 -0.275888 -0.495848 -0.073619 0.522345 -0.182418 0.258446 -0.167837 0.178454 0.448921 -0.125001 -0.124078 -0.126425 -0.205856 0.294659 0.120227 0.309089 0.100703 0.403329 -0.558158 0.114966 0.424654 -0.224538 0.274778 0.251248 0.268789 -0.331137 -0.103163 -0.256628 -0.31764 0.23999 0.059122 -0.046668 0.027576 -0.195867 -0.183742 0.863963 0.043687 -0.428274 -0.416267 -0.47212 0.044045 -0.469253 -0.602025 -0.179181 0.291651 0.217035 -0.628165 0.306473 0.36725 -0.47138 -0.360374 -0.615257 -0.715101 0.265249 0.048811 -0.44006 0.323764 -0.370114 -0.295272 0.434785 0.427688 0.154446 -0.136862 -0.12417 0.12557 -0.157394 -0.582479 -0.248833 -0.890755 0.268903 0.193156 0.212078 -0.522851 0.087694 -0.015179 -0.190509 0.525122 -0.787952 -0.306653 0.034388 0.702497 -0.412187 0.613832 0.000135 -0.512331 0.772702 0.055389 -0.443247 0.173365 -0.383129 -0.437362 0.443842 -0.340447 -0.526145 0.600873 0.39069 -0.052346 0.26362 0.125532 -0.374213 0.10606 -0.045951 -0.007431 -0.71097 0.007352 -0.819875 0.300941 0.38504 -0.317843 -0.021438 0.174599 0.033979 -0.428193 0.085027 -0.317215 0.143264 0.509488 -0.041986 -0.023429 0.484883 -0.500461 0.416153 0.269525 0.297712 -0.727603 0.153051 -0.641496 0.35734 0.204252 0.341504 -0.675267 0.144714 -0.437666 0.154713 0.578609 0.385186 -1.38592 0.271201 -0.049638 0.297727 0.129436 0.828891 -0.258713 -0.047918 0.154046 0.410919 -0.225739 0.496359 0.017644 0.197233 0.189044 -0.27941 -0.092065 -0.128952 -0.649665 -0.277356 -0.294046 -0.491222 0.631331 0.158998 -0.216492 0.335945 0.239408 0.094513 0.131881 -0.087656 -0.053195 0.448106 -0.426542 -0.201288 -0.553451 -0.120618 0.402487 0.441067 0.127133 -0.03303 0.619739 -0.021977 0.332274 0.38226 -0.269943 -0.248464 0.387416 -0.21157 0.157311 0.223914 -0.084195 0.501134 0.444477
brother 0.103833 0.296841 -0.135997 -0.161066 0.316273 -1.04312 -0.359085 0.4161 0.320364 -0.259994 0.412378 -0.35628 -0.259251 0.389637 -0.441081 0.118128 -0.273307 -0.076839 0.000921 0.22498 0.506463 -0.15493 -0.389213 0.163523 0.663377 -0.081118 0.229252 0.080261 -0.041083 -0.048391 -0.2092 -0.58124 0.123523 0.424821 -0.249657 0.341923 0.284659 -0.371095 -0.078993 -0.563532 0.064429 0.037994 -0.257974 0.206117 -0.173853 -0.259641 0.250597 -0.418369 -0.514949 -0.107304 -0.22631 0.080321 -0.15602 -0.719034 0.140777 0.728125 -0.783764 -0.344046 0.425611 -0.254784 0.012968 0.071618 0.226853 -0.224591 0.370557 -0.416431 0.014211 -0.373129 -0.1762 0.348425 -0.233721 0.100462 0.318545 0.339835 0.110714 0.474535 0.105162 -2.80929 -0.297529 -0.083753 -0.055158 0.0294 -0.087428 -0.314916 -1.04548 -0.290321 0.216592 -0.127437 0.439344 0.076339 -0.196862 0.072336 0.52416 0.115781 0.274165 0.231788 0.551625 0.053358 0.284311 0.040234 -0.329918 -0.074938 -0.002556 0.140587 -0.400034 -0.036838 -0.201869 -0.176346 0.484089 0.207599 -0.202809 -0.10281 -0.045992 0.309282 0.205246 -0.589274 -0.232285 -0.576698 0.259132 -0.033678 -0.21717 0.233039 -0.540316 0.152557 -0.310768 -0.05255 0.025956 -0.370338 0.091669 0.352842 0.869985 -0.120474 0.873333 -0.261915 0.294495 0.076529 0.031762 0.346449 -0.498704 0.30493 -0.384224 0.405116 0.43632 -0.278141 0.441215 -0.622016 -0.393156 0.137696 -0.252801 0.08032 -0.583611 -0.0076 0.274207 0.069085 0.29847 0.046451 -0.478849 -0.015685 -0.193978 0.125563 -0.292936 0.646652 0.538953 0.174861 -0.528119 -0.149421 0.681237 -0.245634 -0.527015 -0.039811 0.175954 -0.416634 -0.016049 -0.37168 0.435515 -0.0706 -0.155413 -0.142605 0.393325 0.054351 0.186142 0.02541 0.025638 0.560762 0.478249 -0.780411 -0.354936 -0.482294 0.234301 -0.731604 0.455937 0.189989 0.703011 0.851423 -0.359131 0.394217 -0.171637 -0.118055 -0.037229 -0.325762 -0.211378 0.323767 0.17073 0.113952 -0.320069 0.577427 0.023817 0.122204 -0.212486 -0.195191 0.090518 0.115532 -0.345419 -0.278188 -0.066747 0.172224 -0.137814 0.515776 0.558952 -0.332227 -0.080665 0.246363 0.164356 -0.263257 0.279277 -0.247414 0.077604 -0.184056 0.12229 -0.949154 -0.41291 0.355263 -0.082262 0.267718 0.264774 0.166442 0.30197 0.071224 -0.410142 0.189533 0.060323 -0.148133 0.016093 0.146112 -0.498024 0.328009 0.05747 -1.5908 0.260017 0.092009 0.035892 -0.425982 -0.067989 0.136657 -0.045702 -0.166183 0.270764 0.302245 -0.222211 -0.059958 -0.665671 0.033991 0.646155 -0.26329 0.086108 0.00663 -0.148631 0.555314 -0.18869 -0.133309 -0.193312 -0.243648 0.154917 0.306795 -0.02488 0.351284 -0.072702 0.586477 -0.392535 -0.262644 0.433088 -0.032142 -0.244947 -0.476982 -0.047819 0.337007 0.137503 0.143498 -0.221147 0.149175 -0.37619 -0.213468 0.137203 0.337749 0.325584 -0.172816 0.126337 0.476082 -0.326852 0.334141
team -0.187652 0.072385 0.353577 0.174628 0.223708 -0.130594 0.039069 -0.102064 -0.055004 0.436911 0.015322 0.318781 -0.354984 -0.407486 0.665769 0.832514 -0.563361 0.316524 0.423235 -0.203331 0.276174 0.355492 0.052923 -0.190239 0.207826 -0.219108 -0.201801 0.136382 0.420632 0.374859 -0.309764 0.187134 0.329433 0.265077 0.098442 0.243025 -0.411559 -0.396988 -0.063744 -0.363735 -0.090479 -0.391605 -0.190391 0.073208 0.069049 -0.231684 -0.323488 -0.453394 0.027831 -0.302778 0.215356 0.008123 -0.347542 -0.041445 0.103171 0.638907 0.391101 0.278057 0.451234 -0.207744 -0.204098 0.424727 -0.181979 0.532437 0.126586 0.136879 -0.520011 0.11459 0.100036 -0.09017 0.023589 -0.337231 0.379569 -0.322045 0.176288 0.450374 -0.786322 -4.02606 0.421456 -0.027242 0.022001 -0.204416 -0.228132 -0.567793 0.50384 -0.132963 0.058356 0.021653 -0.03891 0.372023 -0.581457 0.429879 -0.034898 0.458617 -0.364256 -0.10884 0.12832 0.111427 -0.031804 -0.476533 -0.277298 0.273733 -0.124674 -0.012353 -0.045727 0.226607 -0.274748 -0.120782 -0.194855 0.226711 0.191525 -0.317512 0.522044 -0.167459 0.044722 -0.311696 -0.290453 -0.156157 0.346314 -0.234178 0.248603 0.077357 -0.131039 0.08343 -0.468986 0.133497 -0.500128 -0.113183 -0.348992 0.831296 -0.189108 0.068728 -0.732497 -0.37962 0.115966 -0.036976 0.120209 -0.240117 -0.231589 0.096574 -0.233903 -0.019589 0.291081 -0.069058 0.332594 0.211565 -0.28283 -0.137425 0.361073 0.257925 -0.272972 -0.0701 0.413249 -0.26675 -0.687478 -0.648755 0.12825 -0.167154 -0.08704 -0.230506 0.250506 -0.046076 0.087241 0.325558 0.231458 -0.507627 -0.212217 0.008994 -0.161934 -0.831586 -0.115991 0.018721 0.205423 0.104762 -0.174433 -0.319241 0.377282 -0.126876 -0.413109 0.003792 -0.216126 0.294653 -0.141867 -0.312288 -0.015412 0.411677 0.21594 0.400048 -0.5306 0.180661 0.071883 0.16119 -0.246082 -0.004202 -0.026973 -0.576988 0.912379 -0.103766 -0.671298 0.240084 0.41446 -0.187454 0.457895 0.5113 0.133974 0.410787 0.180262 0.611502 -0.528269 0.584046 0.657992 0.076839 -0.216599 -0.31119 -0.195627 0.497625 0.051141 0.309855 0.05074 0.075289 -0.617553 -0.249659 0.363185 0.031136 0.195438 -0.368259 0.496981 0.156243 0.161358 -1.54536 0.060817 0.353126 0.66094 -0.002331 -0.049018 0.284379 0.338983 -0.467669 0.454612 0.428527 -0.211704 0.035646 0.06144 0.110127 -0.202055 -0.142185 0.407506 -2.44966 0.633982 -0.025391 -0.445887 0.769732 0.026416 0.335015 0.41663 -0.587211 0.045786 0.221014 0.134534 0.18518 0.892023 -0.595735 0.112201 -0.989145 -0.362578 0.312852 0.157911 0.160888 -0.231439 0.179382 0.105107 0.122845 0.21391 0.376528 0.420728 0.450963 -0.19388 -0.179392 0.174802 -0.159244 -0.076356 -0.7426 0.727439 0.502094 -0.760461 -0.210067 0.416073 0.025644 0.424941 0.180121 0.600329 0.251606 0.158293 0.336457 0.442117 -0.031013 0.271151 0.038896 0.022218 0.08179
mammal 0.32152 0.069706 0.046492 -0.317131 0.082397 -0.914784 -0.243418 0.002115 0.364839 0.305553 0.43896 -0.123533 0.062763 -0.327497 0.776081 -0.044665 -0.273447 -0.305614 -0.197854 -0.083353 0.632431 -0.281489 0.454126 0.00334 -0.061188 -0.016317 0.114603 0.158684 0.46537 0.132672 -0.17878 0.290604 -0.660981 0.142348 0.133923 0.014912 0.312948 -0.300164 0.262673 0.779874 -0.146605 0.438243 0.303447 -0.336415 0.027399 -0.526915 -0.359041 0.044397 -0.10213 -0.293155 0.029331 0.114303 0.600488 -0.15269 -0.27714 -0.54742 0.696697 -0.317095 -0.313375 0.044567 0.241232 0.454276 0.532644 -0.496624 -0.145535 0.214521 0.277408 0.073447 0.090675 0.227404 0.015594 -0.762075 -0.541663 -0.541088 -0.478768 0.390422 -0.558286 -0.601328 0.042329 0.445259 0.045207 -0.600943 -0.075582 0.05957 -0.277762 -0.514148 -0.17176 0.320454 -0.199979 0.731432 0.015139 0.529863 0.104807 -0.205747 0.112125 -0.13636 0.159122 0.061538 -0.047974 0.062359 -0.084578 -0.48942 0.039831 0.105847 0.067395 -0.10321 0.036316 -0.07003 0.089915 -0.794626 0.746904 0.047942 -0.011824 -0.067445 0.19157 0.094191 0.223119 0.274463 0.119457 -0.308664 0.259857 0.050439 -0.269024 0.377511 -0.073992 0.495291 -0.229312 -0.226355 0.014402 0.377026 -0.230684 0.451804 0.166546 -0.027963 0.095648 -0.374736 -0.438738 -0.116909 0.309299 0.159895 0.362464 0.083914 0.655398 -0.009136 -0.074773 -0.005854 0.26443 -0.013687 -0.051442 0.229876 0.054773 -0.296094 -0.326566 0.181552 -0.396417 -0.278491 -0.197683 -0.089285 -0.808507 -0.374418 0.234561 0.467623 -0.556881 0.571906 -0.11507 -0.223162 -0.051291 0.051836 0.51841 0.225439 0.079457 -0.541741 -0.352527 0.164839 -0.238035 -0.089616 0.536675 -0.625027 -0.177579 0.312205 0.27481 -0.355067 -0.464392 0.083251 0.053442 -0.284328 0.450069 -0.31193 -0.442444 0.243924 0.414235 0.436688 -0.013884 0.223821 -0.085231 -0.748522 0.455787 -0.631141 0.386841 -0.090507 -0.253525 0.120761 0.190467 0.54874 -0.209128 -0.209987 -0.229842 0.026909 0.160206 0.340903 0.199317 0.155641 -0.141676 -0.502135 -0.502571 -0.185114 0.038829 -0.32103 -0.886357 -0.817317 -0.028757 -0.088707 0.007596 0.496637 -0.367539 -0.769772 -0.18507 -0.367235 0.031158 0.277438 0.100177 -0.215526 -0.303296 0.161441 -0.15046 0.254072 0.017182 0.493832 0.368547 0.545922 0.192422 0.426173 0.452515 0.043172 0.446796 -0.169858 0.592973 -0.123801 0.267489 -0.117956 0.162799 0.458817 0.294876 0.014859 0.163674 -0.094087 -0.375131 0.032723 -0.071482 0.559015 0.025418 -0.141188 -0.684613 0.034131 0.690852 0.322353 0.130316 -0.234579 0.147215 -0.163747 -0.102671 -0.540228 -0.212221 -0.53574 0.126879 -0.11948 -0.369736 -0.314628 0.064672 -0.444389 -0.215603 -0.645118 0.236336 0.106899 -0.128695 0.651325 -0.391558 0.464238 0.074505 -0.084952 0.322608 0.120024 -0.39156 -0.680109 0.061589 0.022418 -0.250815 0.413284 0.203429 0.22355
round -0.089889 -0.097289 0.339334 0.403417 0.439902 -0.002514 0.0998 0.393965 0.138078 0.129878 -0.080769 0.103982 0.282392 0.268067 -0.032131 -0.973235 -0.665591 0.129737 0.253511 0.200529 -0.072179 0.225213 0.235612 -0.173906 0.134638 0.283815 -0.322161 0.029443 0.019895 0.458978 0.415317 -0.780249 -0.190493 -0.009988 0.365149 0.409447 0.559083 0.284991 -0.337812 0.221556 -0.129634 0.079227 -0.392722 0.090278 0.057382 0.164123 -0.033634 -0.583083 -0.034524 0.585878 0.230526 -0.323102 -0.064419 0.300835 0.298941 0.158928 0.267755 -0.987829 0.317385 -0.156294 -0.294521 0.282366 -0.47728 0.20743 0.476699 0.398214 -0.079647 -0.012351 0.237683 -0.441057 0.175196 0.678365 0.552885 -0.236655 -0.213363 -0.230547 -0.474987 -2.84566 0.54407 0.140844 -0.278585 -0.201019 0.007105 0.473598 0.111017 0.464168 -0.429458 -0.284629 -0.213389 -0.009252 -0.59159 0.118438 0.074957 0.426691 -0.386552 -0.275556 -0.260901 0.35752 0.171315 -0.07637 -0.145581 -0.020037 0.427331 -0.381571 0.163346 0.35092 -0.130131 0.074317 -0.271945 -0.624192 0.038658 0.286316 0.533572 0.155038 -0.083515 0.340918 -0.283735 0.383276 -0.432436 -0.162897 0.032696 0.069581 0.128775 0.617973 0.44489 -0.237537 -0.382045 -0.084322 -0.916392 0.162303 -0.459749 -0.14193 -0.28615 -0.18446 0.195797 0.140094 0.090107 -0.084316 -0.400135 0.106432 0.177853 0.388748 -0.131198 0.322728 -0.459379 0.084383 -0.194031 -0.089062 0.071537 0.0768 -0.487412 0.055439 -0.61908 0.000116 -0.188377 -0.221528 -0.553299 0.080408 0.013971 0.380991 0.076205 0.557323 0.517291 0.49014 -0.662564 0.057588 0.259184 0.256032 0.066146 -0.009796 0.139996 0.094828 0.233081 0.164818 -0.24455 0.294206 -0.393284 0.204588 -0.46766 -0.141434 0.267168 -0.385572 -0.136261 0.140033 0.083388 -0.011924 -0.205602 -0.201194 0.009979 0.43562 -0.071506 0.078744 0.366813 0.788388 -0.165519 0.499281 0.130733 -0.279686 0.249157 0.02084 0.823315 -0.464817 0.18398 0.116494 0.143398 0.24733 0.159409 0.894994 0.158632 -0.507121 0.532499 0.391085 -0.125095 -0.191737 -0.287242 -0.14987 0.00964 -0.039086 0.178244 0.319535 -0.53835 0.28581 -0.21207 -0.107093 -0.045258 -0.516541 0.301351 0.324531 -0.092804 -1.06746 0.438795 -0.557164 0.329132 -0.165356 -0.475116 -0.127756 -0.041181 -0.033749 -0.324055 -0.176287 0.55726 -0.070066 -0.547402 0.08682 -0.783199 0.026789 0.203138 -2.44517 -0.213553 -0.02833 -0.045128 -0.192539 0.355378 0.151941 -0.57452 -0.114724 -0.193493 -0.482486 -0.551083 -0.09696 -0.509586 0.557483 -0.645083 -0.253602 -0.449159 0.206971 0.365136 0.135308 0.199679 -0.164127 -0.372755 -0.070285 -0.527188 -0.150164 0.421207 0.092655 -0.276026 -0.272821 -0.03384 0.071535 -0.232463 -0.645954 0.148479 -0.073278 -0.406655 -0.151183 0.005408 -0.672652 -0.177015 0.165936 -0.004967 0.397735 -0.458767 0.533902 -0.074551 -0.692697 0.286607 0.000137 -0.307117 -0.510818
clothes -0.146921 -0.345632 -0.182026 0.666105 -0.346181 0.099124 -0.049341 0.061424 0.31729 0.494214 0.428881 0.345807 0.254024 0.112297 0.351943 -0.223321 -0.277378 0.155722 -0.434362 0.480228 -0.311716 -0.020091 0.551905 -0.603169 -0.161184 0.474419 -0.100555 -0.236615 0.128425 0.376277 -0.448734 0.038918 0.318346 -0.641834 -0.021803 0.00369 -0.376197 0.028197 0.445223 0.182986 -0.101701 0.650175 0.039412 0.31952 0.029656 0.093323 -0.370617 -0.354784 -0.150482 -0.400306 0.376175 -0.23441 -0.145934 0.06618 0.390398 0.55491 -0.318496 0.36677 0.292094 0.408138 0.161925 0.599566 0.040415 -0.06245 0.301275 0.160795 -0.070204 0.071571 0.513947 0.652133 -0.036091 0.130242 -0.243957 -0.295907 0.027337 0.477983 -0.369209 -1.40123 -0.132648 0.173638 -0.388402 0.689525 -0.004096 -0.402297 0.075514 -0.592438 -0.454929 -0.510285 -0.011397 -0.0925 -0.076098 -0.072515 -0.137765 0.417362 0.220908 0.307353 -0.27906 -0.164611 0.09446 -0.349931 -0.191975 0.797961 0.352682 0.226814 0.446835 0.28988 -0.108834 -0.11901 0.141798 -0.193906 -0.137381 -0.078552 -0.277299 0.19856 0.3448 -0.711402 0.409106 -0.363757 0.456383 0.393239 -0.490362 -0.659179 -0.37343 0.116067 0.234004 -0.12577 -0.081112 -0.198465 -0.041322 -0.304873 0.366503 -0.594596 0.269793 -0.501367 0.324515 0.514337 -0.445832 0.160539 -0.028903 0.130458 0.092686 0.320897 -0.110162 -0.281703 0.219817 -0.598611 -0.226761 -0.186202 0.274045 0.438839 0.36939 0.420188 0.310146 0.791358 0.444711 -0.566847 -0.50085 0.172954 0.350659 -0.551936 -0.469352 0.058059 0.761027 -0.459887 -0.378042 -0.053571 -0.337697 0.364946 0.316688 -0.469958 0.277189 0.167284 -0.160073 0.056152 -0.17996 -0.604954 0.505384 -0.663785 -0.199395 0.43521 -0.008774 -0.26565 0.392239 -0.41111 0.15032 0.138147 -0.032474 -0.577494 -0.202239 -0.312294 -0.206985 0.224997 0.019842 0.491982 0.150156 0.668469 -0.178579 -0.299535 -0.742354 -0.658531 0.311075 -0.477997 0.141063 -0.830642 -0.018018 0.446433 0.070959 -0.448891 0.620805 0.089499 -0.034786 0.209064 -0.173977 0.643317 0.49715 -0.201762 0.161359 0.295048 -0.399966 -0.37386 -0.363964 -0.142881 0.031234 0.037779 0.166368 -0.1654 -0.404589 -0.196778 0.241081 -0.721133 -0.383802 0.210917 -0.430046 -0.033092 -0.229191 -0.171008 -0.018732 -0.202183 0.108899 -0.16509 -0.010943 0.551034 0.298259 0.259569 0.602494 -0.251139 0.021515 -2.0274 -0.159076 -0.30665 -0.001129 0.068712 -0.139343 -0.558975 -0.098155 0.242589 -0.324412 0.674057 0.04934 -0.346856 -0.178334 0.472094 0.413064 0.420175 -0.915184 -0.292778 0.40357 0.080618 0.766077 -0.035773 -0.060973 -0.081571 0.358528 0.35444 0.002982 0.199344 -0.060738 0.3771 0.074184 -0.256536 -0.598407 -0.133596 -0.368605 0.522096 0.688069 -0.028755 -0.000777 -0.604903 -0.772797 -0.118462 0.194067 -0.093938 0.036499 -0.410483 -0.690398 0.477434 0.205157 -0.558747 0.238815 0.077289
carnivore -0.156714 -0.013938 0.189638 0.071521 -0.22951 -0.534146 -0.039469 -0.554924 0.569086 0.13208 0.412326 -0.043802 0.018559 -0.075134 0.028326 0.041071 0.179856 -0.311201 0.16251 -0.133112 0.1503 0.436669 0.397219 -0.078758 0.083116 -0.119632 0.434908 -0.053314 0.219844 0.112948 -0.030574 0.205286 -0.215728 -0.002814 0.425936 0.200949 0.094187 -0.194106 0.133001 0.460368 0.185866 -0.007407 0.318426 0.776517 0.168764 -0.860682 -0.106598 0.42582 0.08143 0.070013 0.161879 -0.00968 0.012119 0.185591 -0.201528 -0.154879 0.755717 0.248677 0.297736 0.181612 -0.367812 -0.408882 0.716047 0.225363 0.361368 -0.384983 0.319134 0.030409 -0.078167 0.079987 0.161398 0.012329 -0.111778 0.026945 -0.401575 0.668894 0.277499 -0.174905 0.010994 0.023407 -0.077701 -0.429649 -0.248333 -0.076824 0.50583 -0.468129 -0.129642 0.127914 -0.111532 0.246899 0.293149 -0.201808 0.098426 0.027188 -0.455568 -0.110991 0.091496 0.153672 -0.106815 -0.463885 -0.38824 -0.003394 0.325337 -0.001565 0.010077 -0.046503 0.187794 0.070095 -0.30624 -0.341897 -0.044191 0.05085 -0.669559 0.004444 -0.36756 0.791139 0.220483 0.416678 -0.596876 -0.184879 -0.169043 0.236549 0.176591 0.027925 -0.176308 0.071449 -0.08822 0.202889 0.287324 0.488638 -0.314768 -0.112415 -0.056522 -0.083174 0.367691 0.243136 -0.704238 0.16666 0.288876 0.372774 -0.091184 0.539661 -0.27104 -0.128755 0.337536 -0.136448 -0.215687 0.231882 -0.340716 -0.009995 -0.661154 -0.222202 -0.252415 0.10188 -0.201534 0.214416 -0.142853 0.017432 -0.625326 -0.150666 -0.15706 0.347413 -0.058204 -0.13337 -0.098718 0.351832 0.080796 0.021725 -0.4046 0.381074 0.069573 -0.420709 0.32977 -0.492764 0.3646 -0.218948 -0.021303 -0.706109 -0.171618 0.261499 0.623308 -0.371562 -0.474823 -0.05083 -0.092091 0.057722 -0.143758 0.053439 -0.201365 0.337786 0.118106 0.413427 0.30768 0.408105 0.345198 -0.212286 0.394976 0.069641 0.190442 -0.250487 0.077185 0.143823 -0.088107 0.549396 0.034651 -0.343317 0.410368 0.458305 0.204744 0.08933 0.32187 0.6532 -0.072279 -0.392755 -0.592448 0.253816 0.100874 -0.658179 0.001016 0.013837 0.381948 -0.499634 -0.196901 0.154123 0.049253 -0.203408 -0.378082 -0.485689 -0.608113 0.232042 0.085537 -0.127159 0.106759 -0.079815 0.148321 0.285916 0.201563 -0.055002 0.005874 0.07557 -0.067005 -0.075093 -0.2299 0.259564 0.3565 -0.113951 -0.419637 0.668119 0.370906 -0.141653 0.228413 -0.035909 0.08222 0.316593 -0.032779 -0.150171 0.208293 0.145438 -0.050026 0.057666 0.22777 0.022528 -0.033618 0.108437 0.279795 -0.447097 0.009096 -0.703709 0.334507 -0.415346 0.002692 -0.340877 -0.110387 -0.099661 0.081706 0.177358 -0.494197 -0.169868 0.227808 -0.390752 -0.13278 -0.308062 0.305816 0.008886 -0.102038 0.076252 -0.263018 0.817559 0.516403 -0.213637 0.484578 0.036567 -0.317745 -1.01937 0.068779 -0.358708 -0.409959 -0.041876 -0.029375 0.529052
sign -0.385152 0.102917 0.389682 0.051494 -0.400606 0.219453 -0.08707 -0.098388 -0.084095 0.104176 0.142891 -0.321137 0.455147 -0.280613 0.205741 -0.517996 0.347698 -0.520427 -0.214083 0.147538 0.449441 -0.17693 -0.04882 -0.059131 -0.687165 0.279421 -0.067145 -0.055986 0.002669 0.260465 0.208219 0.040632 -0.105061 0.00165 0.062827 -0.400188 -0.600886 -0.083614 0.436439 -0.305972 0.375235 -0.277927 -0.646334 -0.528099 0.157973 0.232001 -0.507058 0.175668 0.242598 0.126585 -0.002857 -0.081519 0.250243 -0.118595 0.327576 -0.032715 0.013762 0.469988 0.35325 0.169084 -0.217299 0.242308 -0.297232 -0.278311 -0.128728 -0.404942 0.196169 -0.245505 0.264021 0.236516 -0.178055 0.052116 0.157334 -0.233852 -0.532804 -0.097694 -0.415642 -2.77593 0.333197 -0.057886 -0.047199 0.417092 -0.172875 0.599418 0.382035 -0.05626 -0.185132 -0.032092 -0.218165 -0.124922 0.766391 0.439235 -0.290192 -0.042146 0.164164 0.134605 0.203295 -0.383238 -0.361905 0.079852 0.087427 -0.427229 0.334291 0.039323 -0.034577 -0.209555 0.292584 -0.631014 0.208419 0.365032 -0.296691 0.2029 0.148809 -0.09923 -0.345303 -0.982616 -0.275462 -0.018643 0.091765 -0.398604 -0.507805 -0.209105 0.318329 0.215331 -0.097367 -0.649897 0.355863 -0.105686 -0.105284 -0.109999 0.038323 -0.159413 -0.797025 0.193051 0.194458 -0.085293 0.567649 0.31515 0.076557 0.113023 -0.422509 0.154086 0.019922 -0.012036 -0.168809 -0.107814 0.434526 0.067843 0.107046 -0.542263 0.101005 -0.089909 -0.135075 -0.319369 -0.303233 0.273786 -0.401247 0.459728 -0.002585 0.11948 -0.236655 -0.454947 -0.116979 -0.286091 0.613866 0.185226 0.495266 0.125264 -0.073046 0.027798 -0.031558 0.155895 0.090224 0.33599 0.061506 0.295672 -0.08878 0.034078 0.256915 -0.062102 -0.233226 -0.347177 -0.098528 0.051443 0.037737 0.199082 -0.084708 -0.288083 -0.248484 -0.65475 -0.235397 0.067951 -0.103122 -0.318164 -0.241226 0.486955 0.267967 0.207289 -0.225904 0.359016 -0.054268 -0.257694 -0.335999 0.038129 0.587073 0.629623 0.373422 -0.498806 -0.063249 -0.133001 -0.347846 0.065253 0.332241 -0.382751 0.486431 0.001346 0.24826 0.258234 0.461741 -0.431854 -0.786978 0.457609 0.068123 0.350493 -0.228204 -0.184389 -0.550264 0.441463 0.608341 -1.39344 0.407451 -0.185305 -0.401854 -0.543792 0.288532 0.240806 -0.631658 0.055756 -0.63849 0.021624 -0.539368 -0.468107 0.369657 0.234884 0.010475 0.188334 0.45514 -2.15491 -0.259096 0.187999 0.285775 -0.185234 -0.126715 0.307461 0.174388 0.752871 0.046334 0.534229 -0.001076 -0.256737 -0.104633 -0.109246 -0.019394 -0.209125 0.004268 0.049644 0.333487 0.057461 -0.095885 0.355783 0.001938 -0.289218 0.007639 0.135214 -0.108026 0.10098 0.10915 0.104455 0.092253 0.095697 -0.151165 -0.338631 -0.160568 -0.41274 0.629175 0.222234 0.050341 0.26078 0.223764 -0.070017 -0.349621 0.279051 -0.212807 -0.014409 0.123305 -0.585646 -0.466487 -0.303503 0.179641 0.336497
street -0.303267 -0.035993 -0.358067 0.21937 0.132427 0.506533 0.050923 -0.023565 0.166883 0.310583 0.592772 -0.406888 0.320714 -0.164704 0.537776 -0.248902 -0.388194 0.100945 -0.204192 0.13264 -0.102123 -0.29703 0.373679 -0.233573 -0.443418 0.315125 -0.116172 0.144165 -0.004373 -0.0592 -0.536744 0.053213 0.100803 -0.323089 0.463475 0.242965 0.063307 -0.198648 0.338782 -0.07055 -0.106326 -0.539785 -0.086052 0.006939 0.423176 0.495731 -0.664181 0.093976 -0.021812 -0.146312 0.074004 0.316712 0.161488 0.114178 -0.088017 -0.084387 -0.492208 -0.069695 0.22583 0.664591 0.49646 0.961429 -0.478927 -0.227493 -0.12772 -0.135131 -0.327437 0.22832 0.618908 -0.256472 0.111766 0.241619 0.035143 -0.159638 0.258685 0.556264 -0.101251 -2.33228 0.172919 -0.348738 -0.250353 1.03712 -0.201834 0.270149 -0.166637 0.195932 -0.10695 -0.070118 -0.091567 -0.033693 -0.406276 -0.009693 0.236634 0.40683 -0.42807 -0.321194 0.156361 0.274374 -0.263818 -0.600032 -0.536121 -0.538625 -0.029407 0.274122 0.044466 -0.143981 -0.284775 -0.113214 0.100842 0.037975 0.018878 -0.638609 -0.100837 0.272546 0.105765 -0.140417 -0.003231 0.222643 -0.037137 0.191281 0.145997 -0.652181 0.111524 0.110227 0.192065 -0.059217 0.518355 -0.352252 -0.054698 0.0919 -0.436195 0.236168 -0.00116 0.013872 -0.014237 -0.085135 -0.153062 -0.587118 -0.11429 -0.420341 -0.03074 0.120397 0.044366 -0.054414 0.639006 -0.501308 -0.015858 0.164498 0.242558 -0.019325 -0.147723 0.381583 -0.227719 0.243788 0.433178 0.64678 -0.092215 0.425264 -0.220309 0.013761 -0.101765 0.201404 0.279771 0.11972 -0.187807 0.10705 -0.230423 0.02713 0.563297 -0.09649 -0.187476 0.106069 -0.496889 0.255276 0.076555 0.272499 -0.164871 0.075797 0.479225 0.273905 0.039398 -0.393021 0.044555 -0.081422 0.462075 0.37916 0.078613 -0.387682 0.034708 -0.560368 -0.077617 -0.335663 0.700017 0.311195 -0.433658 0.128542 -0.291777 0.005962 -0.090229 -0.586576 0.188561 0.00342 0.528134 -0.61621 0.019224 0.383281 0.565453 -0.113368 0.388122 -0.084126 0.736784 0.105164 -0.00552 0.520008 -0.116402 0.064868 0.09789 0.079882 -0.295522 -0.147969 0.009799 -0.018894 0.146215 -0.489427 -0.085019 -0.524024 -0.560957 0.532805 -0.23777 -1.29565 0.493771 -0.074145 -0.346511 -0.059949 -0.008569 0.201124 -0.108399 0.08665 0.037098 -0.758451 0.646261 -0.136379 -0.004361 0.329482 0.29386 -0.449476 0.049693 -2.35468 0.021478 -0.487806 -0.326429 0.3819 -0.039335 -0.719894 0.162505 0.111383 -0.042161 0.359644 0.003213 -0.719202 -0.333551 0.109063 0.018486 0.145434 -0.293936 -0.324525 0.142697 0.496322 0.479281 0.220208 -0.263241 -0.561282 -0.253975 0.467258 -0.008833 -0.05004 -0.391136 -0.243404 -0.206537 -0.422866 -0.167291 0.42356 -0.725654 0.35421 0.721383 0.074834 0.258868 0.670309 -0.12707 -0.285865 0.115048 0.032251 0.16844 -0.145926 0.133688 0.558755 -0.600233 -0.498156 -0.344536 -0.547562
video -0.176903 0.305564 -0.15216 -0.154393 0.150489 0.660848 -0.318544 0.58292 -0.269682 0.065616 0.043972 -0.095025 -0.464567 0.092783 -0.320779 -0.42859 -0.483244 -0.172811 -0.00215 -0.457121 0.571235 -0.117951 -0.32255 -0.256397 -0.43172 0.215172 -0.000171 0.542842 0.785296 -0.261498 0.519675 0.187834 -0.317176 -0.063415 -0.034449 -0.186597 -0.580461 -0.056844 0.472233 0.483288 0.087589 0.074815 -0.048608 -0.25092 -0.225129 0.137804 0.858562 -0.631706 0.103759 -0.108794 -0.201621 -0.183955 -0.006429 -0.392228 -0.168705 0.181185 -0.258104 -0.118817 -0.24595 0.550938 0.704253 0.641124 -0.010209 -0.50839 0.255297 0.684496 -0.289216 -0.080743 0.320108 -0.074407 -0.293127 0.902397 0.055964 0.103168 -0.201016 0.733226 -0.120566 -2.27621 -0.641213 0.082034 0.229455 0.28429 -0.09736 -0.167822 0.424294 0.738631 0.20499 -0.005452 0.157659 -0.264303 0.357999 0.444722 -0.209789 0.173864 0.25479 0.144721 0.020162 -0.368991 -0.414098 0.061532 0.113734 -0.429954 0.202078 -0.793361 0.133007 -0.433141 0.060521 0.275039 -0.029716 0.070707 -0.298471 0.106881 0.556143 0.576831 0.619461 -0.520139 -0.384711 -0.356495 -0.854884 -0.474851 -0.34268 0.103692 -0.258661 -0.82044 -0.328326 0.311472 0.220158 -0.337117 0.108388 -0.838886 0.164892 0.263715 -0.119597 -0.147121 0.409251 -0.688933 -1.02661 -0.650633 0.2639 0.044436 0.223354 0.006007 0.634524 -0.027997 0.051017 -0.596865 -0.111551 -0.003574 -0.269563 -0.339221 0.223234 -0.304093 -0.074517 0.352673 -0.040943 -0.521903 -0.016299 0.449347 0.420985 -0.091502 0.334883 -0.467709 0.428965 -0.092595 -0.476691 0.329117 0.160364 0.277024 -0.024879 0.097494 0.409764 0.050743 0.421825 -0.14672 -0.03909 0.100412 0.274396 -0.113899 -0.504744 0.620271 -0.371973 -0.193558 -0.397246 -0.072334 0.14216 0.549295 0.496861 0.508475 -0.052298 0.066037 0.110685 -0.424496 0.251294 -0.007086 0.894573 0.236603 0.245086 -0.375481 -0.451203 0.223288 -0.403903 -0.520059 0.975867 0.223905 0.409919 0.970977 -0.134056 0.244948 0.021838 0.357835 0.736286 -0.411188 0.273819 0.774455 -0.6272 0.327949 -0.028319 0.066617 -0.265449 0.578999 0.520622 0.028275 0.456298 -0.503044 -0.086494 0.280956 0.170171 -0.076792 0.112463 -1.0366 0.062047 0.358398 -0.204294 0.423624 0.496272 0.037456 0.316195 0.469183 0.35795 0.077029 0.256434 0.047412 0.476811 0.166604 0.542223 0.604382 0.549148 -2.52593 0.231443 -0.071292 -0.332434 -0.504043 0.051256 0.056515 0.073354 0.001861 -0.037518 0.111442 -0.078596 0.458237 -0.175639 0.538386 -0.129054 -0.671334 -0.062577 -0.023474 0.164831 0.104411 -0.221539 0.144426 -0.47617 -0.242389 0.878482 -0.403628 0.416266 -0.346378 -0.491416 -0.419839 0.203187 -0.637653 0.26918 0.353642 -0.225545 -0.949312 0.987364 -0.60497 0.165893 -0.355065 0.048869 -0.873153 -0.951414 -0.068799 -0.072769 -0.198889 -0.085807 0.226176 0.206288 -0.35562 0.309561 -0.705819
lawyer -0.049561 0.356989 0.184945 0.59075 0.328109 0.404973 -0.249255 -0.325722 0.362641 -0.426354 -0.135562 0.658234 -0.2365 -0.25881 -0.175879 -0.024246 -0.405333 0.15208 0.293777 -0.434279 0.303565 -0.029167 -0.526771 0.602054 -0.073141 -0.05971 0.261265 0.268298 -0.836365 -0.245543 -0.120899 0.102667 0.296553 0.021984 -0.123822 -0.290132 -0.37496 -0.270695 -0.227508 -0.064236 0.339422 -0.386741 0.146632 0.370224 0.148962 -0.653294 -0.316855 -0.002963 0.083958 -0.657971 0.312752 -0.536658 0.062498 -0.440258 -0.159743 -0.040773 -0.32901 0.090482 0.112613 -0.137229 -0.170809 0.118686 -0.280339 -0.228466 -0.162138 -0.690131 -0.062252 -0.411238 -0.236088 0.816733 -0.588118 0.075607 0.31539 0.480266 0.083104 0.076076 -0.400304 -2.89112 0.122817 -0.139927 0.238089 -0.067192 0.236192 0.414144 -0.67599 -0.16312 -0.221252 0.262334 0.78101 -0.147698 -0.69542 -0.755399 0.104706 0.359517 0.067379 -0.094677 -0.025934 -0.593098 -0.388545 0.247677 0.066453 -0.18034 -0.313197 -0.182997 -0.314822 -0.263029 -0.210076 0.283417 0.47248 -0.243533 -0.219723 0.013544 -0.03535 -0.181384 0.028302 -0.894494 -0.275488 -0.978294 0.194405 -0.472341 0.009713 0.785905 0.229182 0.285996 0.441908 -0.230933 -0.325217 -0.514417 0.029579 0.311845 0.561986 -0.144524 0.407833 0.277574 -0.275105 -0.084318 0.258019 0.074207 -0.014167 0.537272 -0.223334 0.036958 -0.709878 -0.383557 -0.445414 -0.315913 -0.581751 -0.305669 -0.192834 -0.673776 -0.026141 0.313518 0.551326 0.698542 -0.010475 -0.022391 0.130176 0.556728 0.253712 0.238637 -0.289686 -0.672095 -0.037538 0.166155 -0.184842 0.751569 0.255939 0.179048 -0.036072 -0.057717 0.609647 -0.294022 0.078663 0.450984 0.658225 -0.125721 0.42328 -0.105884 -0.079034 -0.154088 0.751728 -0.17159 0.621408 -0.240746 0.2113 -0.275273 -0.65606 0.223676 -0.384002 -0.234408 0.287607 0.160929 0.107278 0.465103 0.072691 -0.033621 -0.015511 -0.156833 0.472126 -0.470139 -0.690132 -0.168379 0.066825 0.137291 0.070426 -0.007809 0.233311 0.017763 -0.357161 0.231659 -0.091862 0.190405 0.348752 -0.297282 0.343044 -0.019261 -0.07119 -0.532156 -0.597599 -0.243218 0.784115 0.279789 -0.139033 -0.739982 0.148037 -0.006355 0.460298 0.304364 -0.336981 -0.661363 -0.465007 0.065875 -0.499312 0.198884 0.331003 0.26194 -0.29718 0.414583 -0.164638 0.328979 0.134307 0.061659 0.206278 -0.103412 -0.045398 0.237935 -0.10393 -1.86656 0.071895 -0.215279 0.150903 0.461129 -0.19228 -0.572942 0.301167 -0.564034 -0.576049 -0.150918 0.112002 -0.286503 -0.507255 -0.112911 -0.121709 0.080422 -0.055488 -0.181408 -0.460944 -0.095675 0.964574 0.051408 0.200669 0.027369 0.243248 0.622227 -0.221697 -0.548092 0.310097 0.823122 0.007316 -0.219654 0.570787 0.151865 0.251423 -0.178315 -0.729213 -0.185762 0.2269 0.277724 0.243785 0.826669 -0.036448 -0.157595 0.135114 -0.154448 0.392615 -0.524512 -0.379434 0.520031 -0.97612 -0.25664
depression -0.337246 -0.027829 -0.250591 0.037189 -0.40768 0.134528 0.335454 0.086214 0.111771 -0.544772 0.187604 -0.243574 -0.28843 0.071203 0.206748 0.090054 -0.198788 0.285582 -0.344426 0.90604 -0.010356 0.469005 -0.336726 0.095612 0.104406 0.12127 0.313338 -0.643215 0.47428 0.662945 -0.258228 0.210897 -0.093785 -0.140534 0.477472 0.241027 0.406624 -0.450328 -0.219003 0.215246 -0.188308 0.102875 -0.931723 -0.303132 -0.896198 0.314307 -0.238888 0.610768 -0.023999 -0.158766 -0.44912 -0.25645 0.373246 -0.313853 0.34192 -0.076311 -0.038326 -0.039554 0.250978 0.26314 0.18346 -0.406076 0.455733 0.013628 -0.289038 0.280737 0.407006 0.476234 -0.244157 -0.097889 0.638682 -0.411364 -1.38181 0.411696 -0.427114 0.244303 0.36343 -1.90294 0.375008 0.024151 -0.492587 0.200184 -0.049699 -0.045414 0.483943 0.076238 -0.087651 0.655546 0.103468 -0.327064 0.106533 0.317095 0.01997 0.086699 0.11155 0.202297 0.077788 -0.411237 0.073321 -0.278765 -0.036403 0.184543 0.003652 0.189218 0.876432 -0.2303 0.271962 -0.157586 0.06624 0.372342 0.329926 -0.081223 -0.682585 -0.102974 0.474947 0.185368 0.110211 0.266651 -0.159375 -0.134171 -0.079579 -0.060842 0.309643 0.198389 0.122958 0.567554 0.143278 -0.177816 0.117421 0.42695 -0.43369 -0.046091 -0.183562 -0.144216 0.035413 -0.03861 -0.627078 0.060552 0.030346 -0.405824 0.493551 0.628743 -0.488967 0.33784 -0.151692 0.176948 0.113221 0.032134 0.658965 -0.660935 0.120691 -0.267325 0.035931 -0.431435 -0.321568 0.594646 -0.205419 -0.276519 -0.193319 0.504904 -0.058485 0.454804 -0.194277 -0.329507 0.10643 -0.319229 -0.282952 -0.06907 -0.211222 0.004329 0.044866 0.425377 0.178603 0.432826 0.479275 0.232737 -0.190683 -0.313273 0.142687 0.287108 -0.168961 0.077398 0.557899 -0.252686 -0.228566 -0.710019 -0.577846 0.127945 0.016272 0.076355 -0.111718 0.150765 -0.238101 0.573172 -0.43679 -0.137654 0.618805 0.4175 -0.168995 -0.643399 -0.052551 0.408289 0.170192 0.204478 0.195964 -0.274924 -0.232743 -0.155832 0.056737 0.278017 0.038199 -0.476147 -0.137579 -0.383322 -0.730066 0.248832 -0.238092 0.168153 -0.487486 -0.680284 -0.110711 -0.116251 -0.661502 -0.35709 -0.208528 -0.197337 -0.175078 -0.041805 0.402735 -0.584235 -0.225201 -0.075882 -0.106139 0.275366 -0.126083 0.181497 0.081367 -0.168739 0.026759 -0.358125 -0.183102 0.171641 0.078719 0.444994 -1.18632 0.065318 -0.182758 -1.12682 0.133567 -0.151773 -0.200269 -0.290918 0.341173 0.242649 0.267026 0.429218 -0.452716 0.065631 0.135446 -0.443895 0.467351 0.442933 0.208035 0.167543 -0.257663 -0.296375 -0.161565 0.232787 -0.272989 1.01926 0.477953 0.554584 -0.522763 0.575914 -0.192853 -0.29355 -0.116174 0.499975 -0.23688 0.478433 0.260697 -0.499202 0.104387 -0.20539 0.095826 -0.060158 -0.133196 0.103913 0.05375 0.243287 -0.22656 -0.58523 -0.573553 -0.441933 -0.337818 -0.329914 0.103634 0.158106 0.521562 0.204377
index -0.140063 0.080936 0.144927 0.561179 -0.064431 -0.097539 -0.283597 0.751102 -0.072265 -0.049215 -0.49216 -0.590898 0.121798 0.49778 -0.21544 -0.263072 0.462206 0.108578 0.124497 0.802997 0.178017 -0.319032 -0.226876 0.510434 -0.977997 0.384807 5.9e-05 -0.850562 -0.600388 0.665222 0.308123 0.215015 -0.907676 0.76553 0.17524 -0.379961 0.645536 0.037111 0.934321 -0.01117 0.559586 -0.242234 0.204213 0.240421 -0.586945 0.432067 0.139687 -0.861489 0.866329 0.625544 -0.634015 -0.349619 0.103481 0.584348 -0.170302 -0.590262 0.02863 0.111819 0.290578 -0.57921 -0.602359 -0.50907 -0.188542 -0.054404 -0.080704 -0.549655 0.699 0.735719 -0.178604 -0.196339 0.681838 -0.811165 -1.23328 -0.169023 -0.823419 0.45528 0.208734 -1.32004 -0.439254 -0.353582 -0.196188 0.124329 -0.036806 0.219658 0.439935 0.092607 -0.303708 0.462488 0.722251 0.352111 1.33229 0.04869 -0.010223 0.393514 0.343496 -0.487502 -0.068828 -0.023602 0.817465 -0.47445 0.142236 -0.499282 0.148379 0.19386 0.003935 -0.382812 -0.566934 0.583104 0.970168 0.205594 -0.954848 0.588667 -0.20722 0.089242 -0.850328 0.216094 -0.231609 0.607193 1.23857 0.032019 -0.629346 0.116401 -0.5878 -0.344602 0.373351 -0.412769 -0.602076 0.134122 0.821636 0.549072 -0.439398 0.015871 0.089442 -0.260278 0.381669 -0.064573 0.744278 0.443031 -0.191526 0.044005 -0.45035 -0.008527 -0.222955 0.883956 0.242297 -0.477467 0.350734 -0.85474 0.088942 0.524866 0.17855 -0.225396 -0.740837 -0.264852 -0.441294 0.447554 -0.473491 0.011312 -0.420869 -0.677983 -0.001051 0.36057 -0.103467 0.253402 0.799639 0.24617 -0.704974 0.499494 -0.174525 0.672001 1.02364 -0.389201 0.512455 -0.161966 0.092773 -0.009879 0.542964 0.129557 -0.377608 -0.696116 -0.227255 -0.406404 0.925077 0.133572 0.038466 0.48757 -0.633334 0.433782 -0.938634 0.047788 1.04085 -0.389492 -0.537134 -0.271276 -0.232899 -0.448952 1.47591 -0.002297 -0.718797 0.60835 0.641693 -0.165382 0.36156 0.168635 -0.202152 -0.010656 0.222024 -0.181806 0.043181 0.327803 -0.309827 0.067292 0.326746 0.302694 -0.468793 -0.581777 1.07059 0.987077 0.282658 0.310044 0.423324 -0.027237 -0.572554 -0.532082 0.018429 0.20098 0.693664 -0.255637 0.24497 -1.0115 -0.139084 -0.494343 -0.595261 0.504322 -1.32515 -0.844583 0.282463 -0.496415 0.645108 -0.773748 -0.219662 0.854559 -0.235579 -0.155299 0.399298 -0.717345 -0.359192 -2.25598 0.503702 -0.285945 0.261482 -0.565696 -0.609959 0.141875 0.469026 0.084891 0.090952 -0.066243 -0.654811 0.507896 0.189722 0.031847 -0.237562 0.987557 -0.144216 0.003139 1.07029 0.241621 0.635268 1.09598 -0.151177 -0.488946 -0.808178 -0.207063 0.339048 -0.390486 -0.799899 -0.444721 0.393807 -0.425501 0.336791 -0.308655 0.315434 0.261054 0.316326 0.110499 -0.911117 1.4e-05 -0.312688 -0.251111 0.149352 -0.514201 -0.246565 -0.639914 -0.246377 0.116876 -0.593056 0.002255 0.196685 -0.171489
sun 0.125308 -0.108862 0.196001 0.337275 -0.534857 -0.359347 -0.387152 0.297956 0.109677 0.523239 0.198485 0.03567 -0.034342 -0.146679 0.484326 0.144088 -0.189836 -0.377946 -1.02337 -0.532696 0.05693 0.063864 0.017963 0.292243 0.09896 0.01758 0.298939 -0.111616 -0.458056 0.288271 0.31756 0.220844 0.201402 -0.122581 0.463974 0.642111 0.178186 0.54736 0.527303 -0.012694 0.225604 0.176237 -0.019241 -0.305187 -0.006841 -0.046141 0.049662 0.027884 -0.52162 -0.218246 -0.220108 -0.466634 -0.814493 -0.06251 0.363569 0.692851 -0.105477 -0.17724 0.324143 0.105167 -0.172098 0.794323 -0.230429 0.076012 0.097722 0.515452 0.072096 -0.069538 -0.066352 -0.262564 0.196753 0.280853 -0.979816 0.776313 0.479609 -0.286303 -0.023004 -1.57386 0.36191 -0.540961 -1.09839 -0.387095 -0.172682 -0.322673 0.034506 -0.019395 0.061314 0.618284 -0.956776 0.530148 0.560624 0.49502 -0.063564 -0.034463 0.438948 -0.253233 -0.241521 -0.194688 0.022352 -0.268132 -0.205508 -0.188959 0.458201 0.286538 0.876219 0.239 -0.096717 0.009427 -0.389994 -0.872621 -0.001134 0.005272 0.076852 -0.079609 0.208255 -0.310147 0.017222 0.315851 0.396236 -0.764356 0.145421 0.156501 -0.164598 0.383314 0.050141 -0.40526 -0.63284 0.170261 -1.15654 0.603873 0.195132 -0.196482 0.188586 -0.606456 0.434173 1.08831 -0.233557 -0.219443 -0.072352 0.347275 0.128994 0.623818 0.019342 0.419608 -0.063463 0.046937 0.277167 0.222066 0.192439 0.19457 -0.092571 0.569311 0.043889 -0.144785 0.337996 0.372955 -0.121475 -0.119279 -0.216361 -0.173818 -0.361689 -0.153517 0.633654 0.134781 -0.490915 0.217339 -0.733095 0.277456 0.588758 -0.369245 -0.333192 0.537201 -0.114109 -0.368148 0.014053 -0.38844 0.083365 -0.431687 0.354453 -0.024072 -0.064238 -0.38315 0.460545 0.557471 -0.940272 0.588018 -0.589783 -0.36842 -0.110622 -0.280779 -0.051546 -0.058121 0.324584 -0.141991 0.165014 0.165963 -0.267459 0.041168 0.113934 -0.057735 0.094298 0.01249 -0.002893 -0.425818 0.599859 0.009756 -0.17816 0.198899 -0.103066 0.549947 -0.241731 -0.017382 -0.200344 0.560361 0.327086 0.461653 -0.573742 -0.244029 0.696048 0.59853 -0.032558 0.041832 0.170249 -0.414076 0.465988 -0.323791 -0.43638 -0.384387 0.179479 -0.219434 -0.05201 -0.221294 -0.058889 -0.119006 0.149858 -0.04361 -0.175506 0.276159 -0.073913 0.374606 -0.126142 -0.333383 0.201594 -0.084115 -0.153226 -0.23248 0.5606 -1.70428 -0.230332 0.730748 -1.05231 0.175137 -0.12761 0.281907 0.12439 0.362514 -0.05176 0.20395 -0.607917 -0.144519 -0.271081 -0.047778 -0.299329 0.799728 -0.368742 -0.271656 0.749477 0.144038 0.046166 -0.241416 0.429958 0.311215 -0.606627 -0.634732 0.248361 -0.419476 -0.196256 -0.41716 -0.258868 0.350698 -0.081964 -0.603715 -0.164703 0.478171 0.53601 0.320812 -0.010892 0.298406 -0.407008 -0.324802 -0.588654 0.301959 -0.30027 -0.099026 -0.45484 -0.26357 -0.537626 -0.459437 0.636643 0.070595
cell -0.047794 -0.128336 -0.447742 0.132958 -0.045011 0.205458 -0.395551 0.702211 -0.32605 0.572931 -0.13699 0.556531 -0.701081 0.383405 0.114961 -0.027421 -1.15154 0.406502 0.020214 0.032425 0.718356 -0.353681 -0.085638 -0.032877 0.499854 0.414035 -0.738019 -0.254562 0.155398 0.264694 0.355795 0.129969 0.186996 -0.245638 -0.050955 0.044409 -0.212089 -0.106508 -0.044683 0.0133 0.534073 0.078622 0.518936 -0.513101 0.160861 -0.101427 0.497373 -0.126282 -0.280807 -0.739976 0.649211 -0.082206 0.078517 -0.408693 -0.278435 -0.356588 -0.086426 0.15037 0.728712 0.77855 0.124908 0.231053 -0.213867 0.439161 -0.353833 -0.374144 0.645502 0.102798 0.095622 0.151676 0.105909 0.643347 -0.338342 0.133498 0.013026 0.121718 -1.15052 -1.80885 0.558929 0.154204 -0.234321 -0.498502 0.193317 0.196643 0.519457 0.247931 -0.930397 0.451266 -0.124654 0.136695 0.702868 0.42769 0.257684 -0.284854 -0.269771 -0.612547 0.201337 -0.028105 0.192327 -0.366578 -0.294251 -0.256341 0.073527 -0.484211 0.328639 0.450251 -0.105885 -0.361176 0.140565 -0.052302 0.73144 0.360262 -0.638794 0.092845 0.005387 -0.081543 0.137591 -0.380194 0.119483 -0.124845 -0.568192 -0.753866 -0.814391 -0.703013 -0.137609 0.859897 0.163166 -0.011118 0.028207 -0.524799 -0.38317 -0.242591 0.284033 -0.554649 0.501163 -0.459769 -0.404945 -0.62274 -0.468998 0.102539 -0.379873 -0.19788 0.380345 -0.135248 -0.151396 -0.373029 0.244866 0.509249 -0.1256 -0.599122 0.214965 -0.190429 0.578857 0.505715 -0.178667 0.153291 -0.326841 -0.087717 0.261764 0.05528 0.09852 0.35767 0.34695 0.300407 0.025512 -0.549617 -0.051759 -0.712431 -0.145527 -0.096402 0.174487 0.360631 0.390193 -0.867257 -0.026002 -0.299498 0.16601 -0.23059 -0.445006 0.005412 -0.278842 0.464511 -0.066369 0.189046 -0.536102 -0.594193 -0.241533 0.347669 -0.040756 0.222721 0.139476 -0.219323 -0.093743 -0.328527 0.556062 0.264052 0.525036 -0.570948 -0.093483 -0.216634 -0.811393 0.493391 -0.113829 0.129106 0.060032 -0.017898 -0.019046 0.148718 0.05181 -0.089003 0.012814 -0.976226 -0.603869 -0.277699 0.364535 0.461599 -0.052785 0.131008 0.021129 -0.173133 -0.416 0.337753 -0.032209 -0.163933 0.22655 0.61746 0.059508 0.357208 -0.216524 -0.769988 0.542284 -0.495084 -0.645139 0.204763 1.08071 -0.002206 -0.801848 0.530054 0.006632 0.304923 0.437806 -0.47357 0.091491 0.807752 0.623437 -0.049274 0.905939 -2.42324 0.386647 -0.318696 0.206697 -0.316909 -0.317393 -0.252022 -0.127292 0.080483 -0.188865 0.833831 0.223851 0.316871 -0.080537 0.291241 0.100734 0.266285 -0.684752 -0.238317 0.116374 -0.260805 -0.179999 0.129106 -0.637729 -0.388515 -0.223526 0.002615 -0.215995 -0.916265 -0.575551 -0.370667 0.038463 0.206752 0.164517 -0.432465 0.214558 -0.681601 0.047475 0.524705 -0.198476 0.373216 0.310173 -0.164502 -0.156466 -0.005727 -0.126476 -0.00631 0.321126 0.430191 -0.329253 -0.577299 -0.171902 0.162296
