439 300
similarity -0.428089 0.218602 0.0846935 0.143018 0.236198 -0.141879 -0.299704 0.315013 0.0653519 0.205918 -0.559467 -0.1172 0.0137065 0.178965 0.303484 0.0477756 0.159892 -0.00835647 0.0344652 -0.181258 -0.263576 0.102946 0.212955 0.0466945 0.407338 -0.180198 0.110529 -0.203926 -0.304591 -0.172503 -0.138778 -0.0945549 0.324203 -0.150514 -0.0216678 -0.013741 0.386943 0.147791 -0.099578 0.0654248 0.0130113 0.0741778 -0.113876 0.111012 -0.16265 -0.203008 0.111099 -0.250375 0.249479 -0.140298 0.161833 0.182029 -0.639818 -0.224023 0.109743 0.0238297 -0.373444 -0.0506861 -0.142154 -0.10947 -0.00911116 0.430664 0.0888949 -0.0781381 0.296046 0.020614 -0.208474 0.0845361 0.224947 -0.0739134 -0.0970914 0.12669 -0.474235 -0.0293708 0.393127 -0.174935 -0.0208679 -0.286379 -0.100243 0.0727542 0.315441 -0.247561 -0.122972 -0.198036 -0.159238 -0.0854461 -0.250072 -0.351776 0.444325 -0.0579123 -0.173054 -0.402923 0.284568 0.649609 -0.0924444 0.192523 0.47612 -0.00867298 -0.0299132 0.172723 0.0497155 -0.321044 -0.146573 -0.0620528 -0.397326 -0.0144508 -0.133806 -0.597681 0.51654 -0.105557 -0.200077 0.113614 0.280254 -0.148251 0.111887 -0.0918215 -0.713425 0.146143 0.6621 -0.0299563 0.0108461 -0.355197 -0.487845 -0.178954 0.276842 -0.12585 0.315468 0.174807 -0.0154691 0.249548 0.121706 0.21721 0.0436384 -0.00665781 -0.203532 -0.135526 -0.420416 0.0859748 -0.109479 0.419635 -0.276442 -0.334366 -0.354874 -0.312332 -0.069799 0.0108583 0.46207 0.055832 -0.376653 -0.402604 -0.141535 -0.177129 -0.672876 0.310378 -0.261718 0.500833 -0.0458131 -0.0578798 -0.0695613 -0.156003 -0.120192 -0.184626 0.262799 -0.171864 0.0492588 -0.129163 -0.316836 0.041437 0.027012 0.0786939 -0.00098113 -0.188623 -0.0219287 -0.249662 0.354354 -0.319617 0.242925 -0.0437039 0.460834 0.312347 0.165279 -0.30935 0.0456953 0.100644 -0.136219 -0.133207 -0.0340605 -0.208168 -0.376736 -0.145817 -0.194439 0.00745361 -0.449207 -0.259548 -0.402401 -0.157812 -0.0104968 0.0128815 -0.0812554 -0.333721 0.439349 -0.129312 -0.228475 -0.286609 -0.715335 -0.0640911 0.571336 0.0871055 0.0404102 0.0534162 0.149818 -0.0491028 -0.624606 -0.443609 -0.0113753 -0.315526 -0.0696095 0.586794 0.121044 -0.209248 -0.301309 0.152417 0.00134253 0.248293 -0.404575 -0.417182 0.0458465 0.0564792 -0.0624647 0.105753 -0.229051 -0.212131 -0.099974 0.70803 -0.146695 0.356884 -0.474 0.404938 -0.419151 -0.147004 0.36148 0.300242 0.162158 0.270306 0.414853 -0.288962 -0.0891133 0.0744247 -0.114795 0.00713815 -0.296039 0.0653246 0.167082 0.0689718 0.0895574 -0.0227354 -0.25442 -0.0527306 -0.145938 -0.105755 0.188921 -0.0469956 0.378292 0.203624 -0.330065 -0.0786331 -0.274844 -0.189041 -0.0419765 0.00849163 0.462881 -0.275866 0.176825 -0.0624822 -0.249531 -0.0357949 0.0391542 -0.0144068 0.520475 -0.115957 -0.454178 -0.089406 0.277568 0.0161854 -0.114994 -0.457309 0.262553 0.0396488 -0.0469988 -0.281623 0.151697 0.0318696 0.242917 0.258371 0.0488337 -0.231974 -0.205767 -0.445108 -0.284241 0.0118591
dollar -0.316007 -1.61819 0.751997 -2.16932 1.57755 -1.44424 -2.23751 -0.485069 -0.2425 -0.577182 1.67393 1.25403 -0.0337434 -0.213635 -2.2417 -3.02925 -0.251463 1.69703 0.567931 0.102278 1.02108 1.72188 -0.768392 2.38723 -1.88779 -1.0931 -1.81084 2.53867 -0.746711 -0.943662 -0.733124 -0.139064 -1.22342 -0.70727 -1.24435 -2.18658 -1.89096 2.06956 -3.48252 -1.9946 -0.0703715 0.901866 0.783408 -0.733048 -0.590665 0.302535 -2.42438 -1.45554 0.433947 1.3168 -0.599201 1.51754 1.69146 -0.456552 1.66769 1.06022 1.43332 -0.294203 -1.96515 -3.20215 -0.126947 -3.13829 -0.490709 2.38823 -0.578266 -0.816974 -0.614087 -1.22439 -2.19896 -2.70983 0.509878 -1.91771 -4.04771 -1.00065 -3.1631 2.62327 0.2953 0.305743 1.12221 -1.2295 -0.554284 0.56973 0.715012 -0.7078 2.40084 -0.577763 -2.26672 0.110561 -1.94005 2.0961 -0.194849 -0.558629 -2.31767 0.0568188 0.36142 0.599125 0.586575 -1.40857 1.13545 1.10652 1.73541 1.23145 -0.785051 -0.586432 0.488404 1.45983 1.20805 -0.703368 -1.76555 0.42517 0.88283 0.266494 0.760152 -0.287018 1.30987 -1.10247 2.44422 -0.199673 -0.301668 2.79198 -1.18495 -0.18981 -1.84282 -0.129739 0.350742 0.132446 1.94877 0.571498 -0.470856 -1.70908 -0.294226 0.341483 0.966903 0.248484 2.24615 -1.24484 -4.09479 0.683686 0.394565 1.28754 1.03883 -3.23644 -1.59447 0.161143 -1.03296 2.22052 2.3071 1.80433 -0.351247 -0.558341 -1.80533 1.14793 0.822939 -0.918361 -0.276513 1.96646 -1.08952 0.318974 -0.453522 0.608528 -0.636511 -0.787166 -1.04809 0.354925 -0.960765 -0.673954 -2.59559 -0.309453 0.0400771 2.47258 0.438723 0.118899 -1.89111 -2.31402 -0.722826 1.73952 -0.763477 -2.39847 -0.920061 -1.76779 3.04618 1.20781 -1.26238 -0.211291 -2.28795 -0.340856 0.382125 -0.653394 0.124029 0.0585155 -0.396855 -1.32475 0.459399 -1.34873 -1.70433 0.581662 0.959775 -2.77652 1.48891 -3.29019 -0.57807 0.045192 0.340554 0.107143 1.65357 1.97468 0.131041 1.62996 -0.892375 -0.0630129 0.981962 -0.50761 -0.0735986 1.12586 1.96231 -0.0369411 1.43956 -2.13627 0.13888 2.43346 -0.919647 1.70626 -0.0615273 -2.51322 -0.544101 -0.776147 -0.874689 -0.291493 -2.5818 -1.50876 -1.68144 -0.425166 -1.35202 0.697352 -0.0293484 -1.2259 -0.434769 0.910349 1.06048 -0.406151 0.401567 -1.35347 1.57745 0.610844 -0.425524 -2.83244 -0.614864 -2.04229 -1.09833 -1.32732 2.18368 -0.120136 -1.12531 -1.4386 2.42017 -1.1896 -1.05545 -0.67852 0.0846717 -0.11103 -1.14781 -0.0682629 2.05492 0.163246 -1.39311 -0.517871 1.27007 0.993147 -0.095369 -0.126298 -0.184576 -0.752264 -0.161655 0.357597 -1.70643 -0.622988 1.14822 0.739755 -1.14101 1.23205 0.711992 2.84157 0.506684 -3.01246 1.97768 0.318484 1.03816 -1.32675 -1.04366 -1.87378 -0.709833 -2.28544 0.156086 -1.84002 -0.0621598 -0.812834 1.47882 0.52111 -2.36439 0.0321644
focus 1.78249 -1.20975 0.508086 -0.674247 0.0109499 -0.828396 0.687984 2.76637 -0.191892 -0.238929 -0.81273 0.194325 -1.96789 -1.17345 -0.447668 -0.127923 -0.748578 0.902823 0.202425 0.486854 -0.0741446 1.26351 0.00719023 -1.40889 -0.0720376 -0.679729 -0.777327 1.117 -1.5965 -1.03332 0.804095 1.17974 2.3463 -0.391893 1.76132 -1.37352 3.03127 0.359103 1.9464 2.15022 0.629394 0.813807 0.88831 0.985535 1.31505 0.46227 -0.341223 3.66597 -2.378 -1.30263 0.242939 -0.822835 0.623462 -0.744456 1.37038 2.0115 -0.879876 2.2806 1.27159 0.642328 -0.737557 -3.29008 -0.367493 0.0344126 0.069633 -0.713677 -0.460785 -1.89409 1.12596 1.63545 0.251683 0.768215 0.731566 -0.122379 -0.448924 1.74207 -0.150665 0.156531 2.28592 0.608931 0.444901 0.227133 -3.93914 2.52575 0.0719403 -1.06964 0.222857 -1.64027 1.1956 2.60714 0.359554 0.836109 1.50455 1.00179 0.810661 2.12525 0.81889 -1.41806 -0.277561 -0.119481 -0.595226 -0.486241 2.72104 -1.7888 0.618293 0.64167 -0.189619 -3.25651 -0.625049 1.5701 -0.162879 -0.0517228 -1.16842 -1.81331 0.48473 0.689793 -1.1237 0.160467 1.38188 2.59305 -0.40563 -0.814634 -1.03619 1.05467 1.72637 -0.463021 1.15041 0.00777632 -1.62186 0.0172409 -0.341909 0.628754 -1.34223 -0.561446 1.31728 -1.32403 1.40482 1.51388 1.08842 -1.35472 -0.763605 -1.99671 1.36166 0.291536 -0.956364 1.77542 -0.580219 -1.32743 1.34776 0.137223 -1.35883 0.812963 -2.72997 -2.41924 -2.24314 2.64747 -1.13299 0.728754 0.726601 2.33579 -0.550841 -0.175502 0.59952 1.62477 -1.14698 1.3424 0.957368 -0.0598125 -1.26449 1.16254 -0.010076 -0.463421 0.261393 -2.10521 -0.835332 -0.572676 -1.02497 -0.945497 1.81946 0.502257 0.0982891 0.324055 0.313157 0.425903 0.193583 0.679313 -1.22051 2.83715 1.40392 -0.571321 0.639034 0.0756264 -1.29675 1.02951 -1.24303 0.144166 0.697925 -1.54184 -0.51165 -0.224262 -2.34785 -2.29745 1.36852 0.256716 0.235671 -0.10773 -0.764775 -0.608144 -2.00419 -0.85516 0.765594 0.532218 -1.41399 -0.43786 -1.05582 0.188206 0.326771 0.557209 1.0421 -1.30243 0.784185 0.413071 -0.101888 -2.00243 -0.503656 -1.04278 0.194214 0.312286 -0.737496 0.649449 -1.35834 -2.35023 -1.51918 -0.504936 -2.93469 -0.511739 -1.31922 0.971856 -0.70739 -1.76717 0.917865 -1.34822 1.85941 0.0875181 -1.32587 -0.456927 1.88159 -1.9762 0.221483 0.431032 -0.688321 0.54625 -0.991029 -1.17886 0.417617 1.12714 0.544299 -0.469253 -1.79962 2.54746 -0.815264 -1.15588 0.913929 1.81904 -2.08906 -1.75083 0.27479 1.33995 0.241489 0.988645 -1.28872 -1.35492 0.289245 0.999755 -0.0682482 0.764763 1.70081 -0.0209519 0.0547454 -0.934864 -2.29501 0.14273 -1.58763 0.433315 0.75287 -1.0285 0.234585 2.03815 -1.06042 -1.27941 2.48471 -0.0579303 0.552109 -0.175915 1.06804 -2.29804 2.25693 -1.01113 1.21098 -1.06189
month -2.08571 -1.98611 -0.0890104 -0.24495 0.991258 0.701048 0.596321 1.64456 0.360781 -0.686853 1.17347 0.0566373 2.338 0.14245 0.338738 -0.615383 -1.63241 0.67676 -2.20598 0.471281 1.99268 -0.818807 0.048431 0.208019 -1.35852 -0.985425 -1.20021 -2.26948 4.27068 -1.45468 -0.0522785 0.0114335 -2.89622 -0.929642 -0.826686 -1.78543 -0.390344 1.94849 0.0417283 1.48833 2.39125 0.104952 1.38807 -0.408925 -3.53133 -2.26042 0.294723 -1.84226 -0.00513625 -1.23675 -0.685199 1.78907 -2.29234 -0.323763 0.0763837 -0.202117 -0.561074 -0.276028 -0.897924 -0.699986 0.212963 -1.50099 -2.47041 1.32293 -1.37002 -1.34446 -0.0319799 2.32302 -1.54597 -3.1685 3.17017 -0.979799 -1.0144 -1.04785 -1.10177 3.09395 0.520717 -1.5276 -0.759231 0.432588 -2.30239 -1.17143 -0.268651 -0.968302 -1.57532 2.15823 -0.313736 -1.0909 0.0624592 2.17257 1.37869 0.715666 -1.44212 0.236978 -1.51292 1.21034 -1.01885 1.31861 -0.353807 1.33531 -1.60859 -1.55749 -0.680821 0.221033 -0.372565 -1.51553 -0.393726 0.622944 -1.99994 1.62755 1.04231 1.98891 0.929249 -0.604397 -0.00333948 0.52745 1.67582 1.53588 -1.09799 2.54379 -0.859469 -0.956896 -1.92945 2.0154 0.75071 3.17321 3.47106 1.23404 0.185575 0.255893 -0.667292 -0.224824 0.788488 -1.81151 0.138039 -0.198669 -3.13593 0.848359 1.96079 -0.606014 0.722636 -0.625228 0.950192 2.65881 -0.115335 0.502024 -1.56392 1.29922 -2.03776 0.333184 -1.79849 0.762508 0.707808 1.52283 1.79073 -0.383092 1.16192 1.37725 0.463215 0.943947 -1.5872 1.40433 -1.47024 -0.166492 -0.592411 0.327101 0.301228 -0.261585 -0.309955 1.90033 2.85348 -0.554575 1.20954 -2.22647 1.12109 -2.68986 -1.5888 0.517502 -1.36596 -4.70954 2.23788 0.528875 -0.88485 -2.35887 -0.808741 -1.71095 0.288369 2.09357 -0.40801 -1.64509 2.34653 -0.991126 -0.564361 -1.13791 2.82094 1.24009 0.621875 2.13182 -0.113363 1.22722 1.77807 0.952646 -0.746271 -1.47224 2.05716 -3.4955 -0.393075 -1.91445 2.65762 -1.56816 -2.45902 0.588917 -0.484571 -1.21254 2.78888 -2.0643 -0.840315 -0.156208 0.828104 -2.34372 1.4856 -0.0625687 -1.78303 -0.314376 0.124944 -3.46382 1.19152 -0.796104 1.81489 0.354354 -2.67166 -0.389394 0.990377 -0.568317 0.166548 -0.753128 2.43172 -0.127994 -0.431034 -0.0122068 0.931527 -0.904927 2.14182 0.4668 -0.193653 0.569771 0.455051 -1.90167 -0.116895 1.29763 1.69549 -1.41829 -0.756005 1.17899 2.08633 -0.524422 0.799001 1.56847 1.03456 -2.25922 -0.217898 1.71097 1.02097 0.749331 -0.0573007 -0.965941 -1.26181 -2.35683 1.74458 2.20902 -0.317944 -0.486922 0.825188 -0.537582 -1.53159 -0.120666 2.11409 -0.0773816 0.294804 -2.30711 1.88527 -0.386849 0.945519 -0.447722 2.61656 -2.31039 -0.20315 -1.34826 -1.31083 0.700267 -3.11789 2.72211 -0.667816 0.160734 -1.07597 0.99991 -0.864268 -1.18239 1.19887 -1.12436
mile -1.7568 -1.81958 2.62409 0.628658 -2.02973 0.508784 0.449572 1.10747 1.88375 -2.6535 0.833938 0.677356 1.21821 0.612759 -1.02321 -0.731562 -1.73826 0.909817 -0.981642 -0.325393 0.913324 -0.882747 -0.614257 1.43719 -2.02386 -1.03067 -0.594233 3.37715 0.270771 -0.757675 0.719246 0.712227 -0.873887 -0.277446 1.27253 -0.832427 -2.06719 -0.0397514 1.2456 1.22986 1.5558 -0.777704 0.676544 0.675682 -0.395703 -1.0838 0.272355 -1.68808 -0.524414 1.39992 -1.05369 0.087685 -1.21718 -2.87645 0.814817 -0.364425 -0.842342 0.348458 0.729109 -1.03582 1.06975 0.668012 -1.9457 -0.874849 2.54157 0.728055 0.841197 1.98048 -0.273743 1.06118 0.483721 -0.849873 -2.36921 -0.175647 -0.0458181 -0.40907 1.4481 -0.399603 0.0119315 0.486305 -1.94626 -0.805596 0.0753604 -2.1718 -0.902534 0.0188375 0.758127 0.0340792 -1.74813 -0.79868 -0.925466 -0.179165 -0.625671 0.411915 -0.223716 0.0238956 0.908018 1.30628 -1.09563 0.015841 0.309394 1.96411 -0.435835 0.63577 2.08049 -1.30807 -0.0232739 -1.19244 -0.347553 -0.530816 0.0406255 0.40038 -0.183292 -0.599529 1.52154 -0.905176 -0.976034 0.0543578 -0.188794 2.0227 -0.482888 -0.413269 1.05256 0.0343594 3.10072 3.35886 2.3772 1.40658 -3.01265 -1.53516 0.213631 -0.536273 -0.105767 0.254427 3.05519 -0.344325 -2.71432 0.656906 -0.155177 0.855775 1.41639 -0.971621 -0.133345 1.37605 2.13815 -2.2112 0.754448 2.65096 -0.389178 -1.4864 -0.318651 -1.14864 -1.14506 2.39698 2.56851 0.0364303 0.0560013 0.836328 0.371905 0.87945 1.43555 -1.62498 1.21122 -0.752791 -1.45429 -1.43451 -2.50035 -0.120104 -1.38822 -0.749283 1.96633 1.09994 -1.26303 2.55802 -0.195266 -0.353323 -0.920343 0.385852 0.458054 -1.60116 2.12116 2.10585 -0.34687 0.270523 0.811439 -0.992391 1.22031 2.04456 -0.978061 0.705885 0.674684 -0.423748 -0.773967 -1.88613 -0.166504 -0.146204 -1.47459 -0.664951 -1.06547 2.86358 1.76418 0.706105 -3.07098 -1.64625 -0.523148 -0.745504 -0.350756 0.528658 0.92958 -1.25941 -1.46468 -0.243832 0.651242 -2.93949 1.56004 -1.39083 -0.259387 0.687181 0.546558 -3.10496 0.01139 1.43479 0.396737 -0.75974 -0.464538 -0.716197 0.594258 -2.02939 0.0933595 -1.38724 2.3002 -0.356693 -0.731862 0.16724 1.31949 -0.64717 1.73473 -0.718772 0.0789363 -0.057671 0.357141 1.20959 -1.01229 0.497266 1.56555 0.485788 -0.39615 -0.201567 -0.297397 -0.10235 1.20989 -1.74859 -1.43099 0.707406 0.473552 -0.8976 -0.99411 0.190972 -0.710801 -0.393344 2.51525 -0.834396 1.72973 -1.81091 1.70927 -1.28159 1.04823 -1.10808 -0.780431 0.694622 0.862304 0.813599 2.47985 -0.8033 0.75251 -1.16817 -0.157491 -1.48768 0.273759 0.688958 1.15604 0.634337 0.964044 -0.982967 1.0408 -0.0781155 -0.0424238 0.81156 -3.61783 0.263817 2.16119 1.07358 0.772583 -0.116257 -1.86911 -0.220721 -0.405815 0.465444 -1.08487 -2.08312
computation 0.145559 -0.0032372 -0.0339526 -0.0342641 -0.00935116 0.08605 0.0144897 -0.21238 -0.0655883 0.0177069 0.0636586 0.0489202 -0.161791 -0.109765 -0.0916215 0.132542 -0.00890855 -0.0497965 0.113581 0.0664462 -0.113369 -0.0592578 0.0817326 0.0523485 -0.148506 0.0328743 -0.112488 0.0328745 -0.0547661 -0.0768235 -0.0319993 0.101097 0.140253 -0.0399007 -0.0538461 0.00766278 -0.0123942 -0.0165632 0.09846 -0.0893491 -0.0543302 0.0562796 -0.155686 0.00988602 -0.0568202 -0.0320268 0.045998 -0.0169957 0.00476787 0.0813407 -0.0684104 -0.0043041 -0.0986162 -0.0359631 -0.0060914 0.00617681 0.00834868 0.0414999 0.0559421 -0.087796 -0.182032 0.125881 0.0069507 0.027831 0.00880277 0.0847256 -0.127063 -0.175497 -0.0707287 0.020235 -0.0331043 -0.101897 -0.267537 0.0621888 -0.0101367 -0.0690574 0.0272737 -0.175961 0.116209 0.0410349 -0.00109493 -0.124543 0.0242507 0.0346246 -0.0601272 0.0353366 -0.310264 -0.114563 -0.0711693 -0.0995565 0.03939 0.0626482 0.077814 0.049717 0.0258903 -0.0313653 0.0506658 0.00958364 -0.0833414 0.100458 -0.00532429 0.0995401 -0.0249203 -0.0273803 0.0613794 -0.0237887 0.168399 -0.101122 -0.139212 -0.102331 -0.033232 0.0471959 0.112187 -0.0781754 0.0320345 -0.0453986 -0.0685507 0.103041 -0.0131237 -0.00499183 -0.0520224 0.0364502 -0.0926952 0.0396163 0.00721076 -0.00265091 0.134023 0.080252 -0.0243954 0.0612228 0.0050741 0.186811 0.0939437 0.00124168 -0.0724688 -0.0395074 0.113169 0.0416399 -0.0374941 0.227404 -0.275322 0.0160761 0.177218 -0.00655664 0.0252869 0.10645 -0.258407 0.209262 -0.0132288 -0.0282046 -0.0375293 -0.0935269 0.0857211 0.0474745 -0.140354 0.0377752 -0.0234662 -0.075401 0.055648 0.043302 -0.0341538 0.0264708 -0.0744304 -0.144204 -0.0149098 -0.033773 0.045709 9.06562e-05 0.0832897 -0.00797857 -0.00761791 -0.0229147 -0.071206 -0.0415302 0.0715499 -0.0249563 -0.0418773 0.0293886 0.0702721 0.0738816 0.0358466 0.0819133 -0.0711959 -0.0247397 0.012913 -0.0111314 0.154133 -0.135352 0.0979861 0.201624 0.0345511 -0.189643 0.0649213 -0.0617174 -0.0798059 0.0533444 -0.032366 -0.0384629 0.221582 -0.175881 0.131669 0.0157272 0.0596526 -0.0746902 -0.106874 -2.43121e-05 0.0249258 0.147289 -0.0233496 0.0408429 -0.034122 -0.0377096 -0.0481928 0.00460358 0.0335928 -0.0542076 0.0275768 0.068709 0.188702 -0.128405 -0.147155 0.0725111 -0.0450364 -0.00481545 -0.0835784 0.0500473 0.0781584 -0.00599434 0.156158 -0.114673 -0.0123056 0.0830684 -0.0608346 -0.0547655 0.152128 0.033319 -0.0534963 0.000175229 0.0470906 -0.128507 0.00605638 -0.014268 0.0354764 -0.0393262 -0.0559849 0.125002 -0.00386685 -0.00359163 -0.00656374 -0.0310839 -0.0638299 -0.035343 -0.0875912 0.00140555 0.071885 -0.0046496 0.0305074 -0.109175 -0.0564705 -0.0945792 0.126109 -0.0501165 0.0472542 0.130604 0.0698452 -0.0253204 -0.084963 -0.0571851 0.0293779 0.0304041 0.0430353 -0.0989388 -0.0338211 0.0454986 -0.163637 -0.232487 -0.0182783 0.0235395 -0.167252 -0.0473014 0.082875 0.0196715 -0.0101895 -0.023655 0.101856 -0.0889115 -0.00387701 -0.0980713 -0.143997 -0.130282 0.120112 0.101486 0.0248098 0.287065 -0.0200508 -0.059767 -0.158953 0.0286742 -0.104209 0.137097
skin -2.01786 1.16517 0.693729 2.82927 0.63649 -1.50916 -0.98933 -0.367442 1.49841 2.47745 -0.778783 -1.70943 -1.01429 1.04653 0.814003 -0.642378 0.0247934 2.94323 -0.482003 -0.987287 0.36183 -0.134002 0.0732886 0.612792 0.450386 0.63403 -1.72233 0.794371 0.729179 -1.32506 -1.5256 -0.0334994 -0.699844 -1.59773 -0.194821 -0.141916 0.710446 0.487625 1.22257 -1.59326 -1.39573 -0.999549 1.33651 1.48105 0.00652466 1.63475 0.458356 0.0374576 -0.10114 -0.986073 1.50602 0.390789 0.0780198 -0.285401 1.65265 0.361189 0.230917 0.935498 1.36959 -0.652456 0.145001 0.952255 1.56861 -0.422812 0.437678 1.20509 1.93522 -0.794512 0.720265 -0.152906 0.780434 -2.68986 1.6579 -1.10827 0.740501 -2.28178 -1.41107 -2.02097 1.75009 0.0535335 1.46959 1.55776 -1.39061 -0.216993 -0.368125 0.592902 -1.47529 -1.71772 -0.721454 0.206333 0.118409 -1.16897 0.509697 0.657584 -0.943623 -0.131086 1.34407 1.32756 -1.11529 1.46969 0.493093 -0.595424 0.842813 -0.19706 -1.06086 0.0597614 -0.588664 -1.33893 -1.43626 1.51996 -2.43079 1.42319 -1.90369 1.45751 0.561062 -2.29411 -1.58218 0.548492 1.95268 1.33034 -1.8544 -0.114467 -2.34849 0.107995 0.648999 -1.40733 -0.493332 1.18393 -0.838638 0.384556 -0.716662 -0.8723 0.161547 -1.1735 1.28082 -0.806711 -1.22268 0.817013 -0.880006 2.96797 0.501635 -0.408956 0.457149 0.79386 -0.455318 1.04751 -0.908464 0.494427 1.0969 -0.162677 -0.678929 -0.93728 -1.63052 -0.45781 0.00316716 1.79755 1.96193 -0.196435 1.20042 0.771643 -0.452486 -0.30768 -1.60009 1.9188 -1.67611 -0.521766 -2.03831 -0.275941 -0.533324 1.21956 0.567039 2.72571 0.165353 -0.186506 -0.0829038 0.664711 -0.486137 -0.526354 1.76256 1.46941 2.52953 -1.17099 -0.105256 2.94426 -1.60909 0.42153 -0.438633 -1.75566 -1.08532 0.187339 1.83178 -0.244929 0.372126 -0.557669 -0.0951911 -1.5523 0.296202 -0.0746898 0.161768 0.381838 1.46215 0.224599 -0.537915 -0.712416 -0.907892 0.715503 0.0805711 0.813808 1.17482 -0.774442 1.24802 -1.0915 -1.4562 2.04936 0.122929 -0.989038 -0.727097 -0.632225 0.300695 -1.29772 -0.79928 -0.014594 -0.0493024 -0.19374 1.40947 -0.259079 0.970236 -0.567839 0.477194 -1.76552 -1.23469 -0.296415 -0.850775 -1.8507 -0.342084 1.23779 -2.19729 0.580326 0.222235 1.80651 1.2527 -0.521297 0.345759 -0.139878 0.784811 -0.230529 -1.776 -0.270416 1.64564 0.00944725 -0.626228 1.05294 0.733137 -1.09905 1.60019 -1.23316 -0.416593 -0.106922 -2.19089 0.0478147 0.804245 1.69178 1.32089 1.15613 -1.23446 0.0418545 -0.271453 0.68801 -0.0283047 1.18412 -2.21398 0.57492 2.24448 -0.651641 0.195079 -1.41706 -0.549981 0.674983 0.521856 0.425993 -0.570534 -1.67312 -0.126955 -1.52894 0.629007 0.192126 2.77322 0.308721 -0.295556 -2.7983 3.17344 -2.10551 -0.981876 -0.713418 0.0491159 0.85741 -0.387588 0.187379 0.557077 -0.147527
children 0.504528 -0.610245 -1.62402 0.586652 2.39307 -1.44485 1.68109 -1.72899 4.01234 1.39573 -1.76485 -0.223516 -1.8782 0.0394423 -0.147301 0.165361 -2.46219 1.85943 -0.0270397 -0.238547 -0.00409116 -2.08296 0.498813 2.10535 4.05791 -2.29982 -0.561398 0.177105 -0.33508 -0.0277714 -2.446 0.0620016 -1.48431 -0.265866 -0.609552 -1.57575 -1.19227 -0.782931 1.93221 0.261875 0.995646 -0.7135 -0.797367 -0.102766 1.87814 3.73306 0.712779 -0.105696 -1.0391 -1.57272 1.89064 -0.0669151 -0.0696223 1.50052 0.890714 -0.80237 -0.555834 0.392225 -0.724055 -0.100808 -0.717425 0.618746 -0.571769 -1.67682 2.52108 0.141757 -1.80101 0.102741 0.332744 -1.51696 1.29086 -1.38937 -0.114421 0.502125 -1.96415 -3.42075 -0.245834 -1.15587 0.622134 1.16374 -0.173647 1.13022 2.70497 -1.37319 -1.1144 -0.86925 -0.353751 -1.0105 0.330704 0.458212 -1.30019 -0.380635 1.22442 0.302296 -0.979201 3.23853 1.88967 -0.182637 -0.492026 2.90343 1.79465 -0.0466247 2.2309 1.04165 -0.612525 0.319573 2.53362 -2.88015 1.74985 0.548741 -0.742405 0.110056 0.196388 1.32783 0.0783549 -2.36491 0.731125 0.670931 0.364691 1.09586 -1.34133 -0.661027 1.20318 -1.30224 -0.484579 0.825832 -0.0189726 1.18805 -0.770323 -0.300786 1.76004 -1.1958 -1.94133 -0.620461 -0.570513 -1.92491 -1.219 1.79298 -0.72188 0.490802 2.02104 -0.872967 1.69131 0.686121 -0.792661 1.27624 1.87136 3.56146 -0.576072 -1.17025 0.942723 1.43266 -1.27119 1.358 0.0571169 0.746863 -0.262656 -1.23472 0.840196 1.8624 1.04321 -1.29601 -0.969041 0.64481 -1.74334 -0.894194 -3.52135 0.854355 -0.675371 1.18901 3.05885 0.428286 -0.0159896 -1.88379 0.885926 -2.35401 -0.293522 1.22675 0.586493 1.88757 1.38314 -1.60819 -1.7871 1.76143 0.351546 -0.651378 0.334967 0.729459 -0.912753 2.24331 -0.558841 -1.74453 0.665377 1.15551 1.93513 -2.3269 0.301239 0.276076 0.137073 2.40108 0.0213355 -0.642832 -0.568335 -0.713122 -2.86992 -0.496869 -0.708463 2.21756 3.54666 -1.19852 -0.577623 -0.325149 0.132441 1.52412 0.183515 -2.04328 -1.61797 -2.63079 -2.66314 -0.272825 -0.990073 -2.28669 0.422713 0.527718 -0.998567 0.19608 0.623198 -0.881911 -0.142372 -1.42694 0.956226 -0.211972 -2.50087 -3.5774 1.02686 -2.12654 -0.491209 2.13875 0.330642 -0.0146081 -2.67639 0.911945 -0.803373 1.22635 2.93336 -2.37632 -1.56704 0.0380464 -0.872432 -0.757541 1.59553 0.086067 0.474807 -0.314183 2.12592 -0.655329 0.410006 -0.610577 -2.49519 1.97503 -3.02742 1.85288 -1.19786 -0.618117 -2.38576 1.98475 2.41129 0.262399 0.882183 2.85681 -0.026857 1.61793 -0.118077 0.560589 0.109332 0.803076 -1.08462 0.24645 -0.80415 -0.626967 -1.43815 -1.00079 0.0661406 2.03836 -1.10092 -2.12453 -0.840438 0.911396 -1.5769 -1.04566 0.882429 0.192577 1.02671 -0.905574 0.0444827 -0.110216 -1.82592 -0.553543 -1.61135 0.789896
row -1.30219 -0.279549 1.07078 1.07224 0.0998652 0.129333 0.0491417 -0.470788 1.58164 0.855961 -0.908761 -1.7368 1.79525 2.18556 1.03012 0.363889 -1.42581 -0.188457 -0.952516 -0.83116 0.0794274 0.154119 0.980953 0.600859 1.02938 0.0708033 0.110824 -1.96265 1.08722 -1.44053 -0.875498 -1.72114 -1.18796 1.32801 0.485073 -0.296675 1.28864 -0.830025 -2.73911 1.20373 0.713786 1.21463 0.151442 -0.450005 -0.266441 -3.08277 -1.43211 -0.935146 2.2815 -0.528936 1.36593 1.02264 0.0372682 0.661326 -1.70736 -0.632857 2.77939 1.82387 -0.0868938 -0.12627 0.0668048 0.0950808 0.397137 1.49513 -0.212777 -2.8412 0.273563 -2.01436 -1.84422 -0.335451 -1.79279 0.200936 0.345213 0.122818 0.190986 -0.118169 0.685 -0.493115 -0.112423 0.117854 0.149128 -0.227821 0.739983 -0.455007 -0.174543 0.495363 2.20005 -1.15278 1.59801 0.707101 0.525715 0.517393 -0.0894819 0.407264 -1.67394 1.22971 0.723446 -1.21662 0.762647 0.978208 1.35402 0.228577 -0.273704 1.36601 1.98167 -0.299767 -0.931084 -0.121821 -0.190499 -0.679576 1.10059 0.696254 -0.41609 -2.21544 0.020931 -0.206339 -1.56694 -0.95919 0.66297 0.598895 0.562734 -1.58732 -0.30111 0.412694 1.30024 1.2737 1.01559 1.72432 -0.044988 -0.548164 0.13306 -1.33496 0.180052 0.192392 1.22693 1.33386 -0.762002 -1.15101 0.170211 -0.69958 -1.54738 0.232285 0.444584 -0.554099 1.73006 0.0587394 -0.366657 -0.242709 -0.388063 1.62529 -0.970994 -1.11458 -1.09838 1.28116 -0.440599 2.43641 -0.146314 -0.520494 -2.77837 -0.567387 1.94698 -1.14171 0.630092 -0.712474 -1.27961 -2.42236 -1.38738 0.504295 0.332237 1.17304 1.39518 -0.982714 -0.837738 -0.380145 0.986216 -0.525598 1.05963 0.0198052 0.926213 -1.76522 2.48694 0.0998544 0.592637 -1.56326 0.757596 1.24253 1.11609 0.571487 -0.113626 0.216976 -0.948063 0.896099 -0.929351 -0.182019 0.703726 2.00507 -2.07802 1.4549 -0.101706 1.48959 -0.669354 -1.54709 1.46162 -0.699895 -3.10766 -0.612431 -2.11534 1.36134 0.461976 -1.11353 0.950149 -1.03802 1.68891 -0.738172 0.308852 0.879125 -0.489974 0.381272 -1.73219 -1.05508 1.31472 1.24355 -0.588185 -1.4342 -0.249073 -2.42195 0.0895453 -0.0486906 -0.742559 -0.549935 -0.0934101 -1.07312 1.23483 0.0128114 -1.48707 -0.906108 1.37359 -0.00500315 -1.2277 -0.703957 -1.67765 -0.569056 -2.37106 0.447288 3.7779 -0.238859 1.73263 -1.45984 2.09638 -0.975992 1.5451 -1.4432 0.666009 1.88323 1.44721 0.889628 -0.269751 1.93921 -1.23526 -0.425306 0.907967 0.75878 0.0597517 1.54634 -0.140986 -0.299372 -0.267003 1.17279 -0.749086 0.520312 -0.544179 -0.0194134 0.225913 1.31156 -1.76944 1.0889 -2.38653 3.34528 -0.0629687 0.296061 0.492986 -0.532107 0.659187 0.0159636 -0.840929 -1.08226 1.56678 -2.25562 -2.91022 2.53585 -0.209492 -0.0440816 1.92988 -1.65537 -1.68838 -0.887811 1.0324 1.85273 -0.319946 0.626903
wizard -0.469094 -0.319018 -0.0917208 0.100776 -0.217454 -0.304595 -0.57276 0.141384 0.428359 -0.141082 0.0956573 -0.0611959 -0.263205 0.345804 -0.0975201 -0.0518983 -0.0769693 -0.291937 -0.510055 -0.49837 0.0925345 -0.173204 0.335835 0.399144 0.407424 -0.205713 0.144137 -0.377284 -0.118051 -0.355316 -0.15973 -0.515967 -0.457959 -0.165931 0.0919389 0.150615 0.174594 0.0869563 0.352656 -0.639222 0.0103361 0.000217261 0.449894 0.151183 0.105805 -0.0632616 -0.0111371 -0.0775319 0.106592 -0.0455093 -0.135733 -0.27033 -0.0167173 -0.101975 -0.105559 -0.106925 -0.0816447 -0.0259597 -0.29386 -0.0985779 0.0407535 -0.260296 0.327579 -0.219227 0.189673 -0.24104 0.217433 -0.136989 0.491941 0.0742111 -0.20623 0.0900279 0.338112 0.341787 0.187071 -0.330606 0.239804 -0.318898 -0.102833 0.454276 -0.296205 0.130794 -0.487933 -0.209525 -0.262747 0.111925 -0.250752 0.0361338 0.294941 -0.249492 -0.00697172 -0.159672 0.293175 -0.0951898 -0.174246 -0.0801912 0.185781 0.236216 -0.18378 -0.138391 -0.273322 -0.53632 -0.646171 0.0321001 0.00594835 -0.135153 -0.00746831 -0.331626 0.0881998 -0.476838 0.179796 -0.0245682 -0.286991 -0.164768 -0.0538931 -0.255775 -0.212759 -0.0502873 0.060061 -0.0854341 0.315481 -0.229744 -0.336017 0.103907 -0.162332 -0.366311 0.0296426 -0.220865 -0.594323 0.0686114 0.198154 0.134933 0.311366 -0.176492 -0.27584 -0.0679578 0.0648243 0.418934 -0.0852538 -0.0898213 -0.0446645 -0.555708 0.0714236 -0.416081 0.200378 0.711355 0.197296 0.468101 -0.117592 -0.00614503 0.550557 -0.184104 -0.281132 -0.500551 -0.10396 0.381278 0.0656814 -0.367311 0.365473 -0.484104 0.108138 -0.0310735 -0.0867927 0.126631 -0.348753 0.261992 -0.473762 0.0843795 0.321347 0.0646088 -0.0995338 -0.107268 0.301047 0.0911797 0.128325 -0.446648 0.400844 -0.0893769 0.65637 -0.00823459 -0.322821 -0.503583 0.646481 -0.0519532 0.0394152 -0.582046 0.236075 -0.252007 -0.468634 -0.0356426 0.47237 -0.126308 -0.290766 0.0458495 0.148802 0.227212 0.171173 0.0769487 0.157249 0.241744 0.118585 -0.125583 -0.313496 -0.401692 0.125483 0.120347 -0.0865715 0.314901 -0.27191 -0.109484 -0.207004 -0.217569 0.28928 -0.450225 -0.291625 0.298051 -0.554632 0.446791 -0.387092 -0.347171 -0.346992 -0.207836 0.0688476 0.144868 -0.350484 -0.578295 -0.0491508 0.173487 0.104928 -0.435387 0.448593 0.0525277 0.132835 -0.293183 -0.220595 -0.294589 -0.712558 -0.373411 -0.0536417 -0.148948 -0.0860632 -0.0949206 -0.299501 0.278353 -0.0172259 -0.128753 -0.145068 0.661768 0.0387295 -0.190177 -0.0349715 0.030956 -0.0194544 0.0621438 -0.0291251 0.675733 -0.109183 -0.262523 0.356895 -6.22314e-05 0.159555 -0.665554 0.178196 -0.111822 -0.069212 -0.138701 0.562904 0.0486385 -0.135014 -0.363013 0.0666395 -0.410182 0.0578264 0.343726 -0.43147 -0.0206193 -0.357316 0.00770938 -0.288035 0.461378 -0.107575 0.0320957 -0.214447 0.443466 -0.218601 -0.407908 0.0644263 -0.223255 0.318711 -0.237492 -0.309101 -0.029577 0.0683278 0.0510353 -0.0965751 0.315294 -0.202066 -0.0874044 0.0600404 0.0654493
disability 0.638561 0.933094 -0.36237 -1.10929 0.274583 0.493735 0.743177 0.286412 0.626861 0.162838 -0.180065 -2.04713 -0.260776 -1.26781 0.837533 0.109356 -0.0677823 1.17962 0.576222 0.506991 -1.14685 -0.404209 1.29568 -0.61159 0.922814 -0.543925 0.132872 -0.137608 0.528054 0.114351 0.231127 -0.25992 -0.641162 -0.39196 -0.101706 0.75647 0.355193 0.847534 0.674829 -1.00916 0.243079 0.260849 -0.322295 0.510064 -0.331455 0.194147 0.13171 0.396326 0.569772 -0.609542 -0.0240154 0.199203 0.762344 0.220563 0.209902 -0.567053 -0.076765 0.726486 -0.458308 0.693633 1.66813 0.171224 1.22067 0.350333 0.540146 1.42809 0.255855 -0.699407 -0.638073 -0.100239 0.0108507 -1.37704 0.927041 -0.344014 0.499279 -1.1584 0.0942418 -0.300845 1.09478 0.325243 -0.729855 1.0206 -0.546952 -0.87158 -0.183277 0.0257715 -0.288495 -0.30843 -1.00704 0.108968 1.60062 -0.168977 1.03863 -0.838585 -0.226628 0.98202 1.41702 0.0586951 -0.168938 0.815231 0.792589 -1.17139 0.591748 2.33094 -0.375439 0.211999 0.0382926 -0.498779 -0.123999 1.53488 0.0370504 0.736071 0.232116 0.199317 -0.595122 -0.482721 0.639313 -0.434255 0.080315 0.992716 -0.991755 -0.629868 1.63767 0.989399 0.0421979 -0.773006 -0.03277 -0.233023 -0.259952 -0.494317 0.191198 -0.789962 0.458853 0.422198 -0.243927 0.295203 1.13202 0.325866 -0.880326 0.732901 1.03702 0.0422361 0.25864 0.824545 -0.581201 0.889286 -0.4421 -0.0731756 0.299988 1.11999 0.13441 0.500622 0.107019 0.330713 1.47284 0.900377 0.843611 0.641251 1.05431 1.23681 0.418001 0.163942 -0.323283 1.10129 -0.725206 -0.450273 -0.677326 -0.843516 -0.26222 1.79644 0.757976 -0.00584538 0.856493 0.0292351 0.442584 -0.463324 -0.318965 1.57262 0.538891 1.17854 1.67767 0.832342 -1.33305 -1.08025 0.517393 0.392417 -0.287046 0.0507723 0.236314 0.971497 1.02061 -0.542722 0.159116 -0.0331904 -0.787842 1.13691 0.206489 -0.782034 0.251504 0.460642 0.314993 0.714865 -0.618316 0.25909 -0.0945898 -0.287272 -0.40131 1.73534 0.377256 0.394598 -0.415006 -0.204264 -1.04496 0.538351 -0.871788 -1.2784 -0.630286 -1.35913 -0.322967 -0.721355 0.369634 0.582963 0.530014 1.36019 -0.215112 -1.07957 -0.618309 -0.121601 -0.264975 -0.632884 0.240578 0.260999 -0.998699 -0.417225 1.1748 -0.876047 0.38193 -0.0287552 0.300835 0.842696 -0.301239 -0.994855 -0.637084 -0.320515 0.595508 -0.511663 -0.169665 -0.17344 -1.82399 -1.11388 0.0257116 1.55476 -0.0781609 -0.699119 -0.496175 -0.208685 0.271251 0.583865 -0.383361 0.129864 -0.71252 1.18304 1.24513 -0.549137 0.409459 1.42692 1.1747 -0.0661789 -0.592579 0.0962154 0.242416 0.258089 0.698089 2.27125 0.422392 0.116089 0.885013 0.0557273 -0.237254 -0.26164 -0.429104 -1.59516 -1.56893 0.891061 -0.458548 -0.39347 -0.863256 -0.292803 -0.364179 -2.12072 0.633557 1.03522 -0.318962 -1.01848 1.81143 0.139864 -0.576777 0.42589 -0.165567 1.01563
environment 0.517496 -1.88128 0.0263376 -0.863045 -1.46194 -1.33803 -0.129483 0.369809 1.61533 0.451672 -1.19795 -0.55738 -0.743678 -0.72021 0.455695 -1.09125 0.716758 1.81469 1.90585 -0.0801731 0.520239 0.731885 0.566118 -0.544177 0.447839 -1.87039 0.117942 0.376321 1.38588 0.493589 -0.632854 0.782391 0.202009 -0.0429473 -0.887965 -0.633096 0.474566 1.70142 1.11649 0.792381 1.36499 -0.367631 -1.56398 0.0288374 -0.0457172 0.29988 -0.231985 -0.478961 1.0516 -1.31246 3.02257 -0.187422 0.101374 1.49563 0.636978 0.227843 -0.553031 0.831286 0.968467 -0.761869 -2.48331 0.378755 1.39781 1.1645 -1.50386 0.637739 -0.910824 -2.17501 0.763648 -1.54725 2.27107 -1.3672 -1.22361 1.04421 -1.91646 0.119373 -0.0614411 -0.0956989 2.24009 -0.799067 0.989069 1.11704 -2.59154 0.139384 0.76527 -0.214464 0.0100881 -0.474497 -0.513811 -0.454381 -1.07505 -1.39076 0.315469 2.28148 -1.27444 -0.196129 0.998895 -0.926512 0.973499 0.439247 0.582212 1.87205 0.957039 -0.813843 0.262848 1.83324 2.98869 -0.915058 -1.45584 -0.0199333 -0.405414 -0.23882 -1.74941 -0.916226 -0.996352 -0.0699025 -0.213704 -0.996833 2.19865 1.77815 -1.96325 1.10557 0.234422 1.83708 0.9425 -0.617141 0.261413 -1.47279 -1.64634 0.573681 -2.53487 -0.0603471 1.44344 -1.69867 0.321809 -0.473571 1.10324 0.25139 1.93078 0.403742 -0.628386 0.365638 1.29065 2.3631 -1.01672 1.42666 -0.22546 -0.790702 0.538269 -0.653838 -0.490235 1.22794 -0.269139 -1.91479 0.972489 1.82924 1.71343 -0.486381 0.349389 0.672452 0.719812 -1.13108 -1.81823 0.132325 1.17241 1.42163 0.16666 -3.08618 0.773022 0.323551 -0.461301 -1.44018 0.405296 -0.887618 -1.58164 -0.521921 0.137624 -1.30056 -0.709889 1.04994 0.391473 -0.32762 0.0547136 -0.652147 2.64651 0.645304 -1.62721 1.37703 1.94504 2.35706 -1.02771 -0.8982 0.600563 -1.41972 -1.25744 -0.495095 -1.38015 -0.791602 0.199584 0.669334 1.58923 -0.747333 0.64724 -0.163784 -0.962796 -2.84022 1.78444 0.908739 0.098597 -1.75926 0.585481 -1.59075 0.712158 -0.460786 -2.41827 -1.42328 0.815616 -1.25783 -0.177397 -0.0993742 -1.26101 1.47493 0.86459 -2.34573 -0.372593 1.01055 0.912057 -0.547706 1.46247 0.504055 0.0652753 0.611276 -2.78036 0.104877 -0.275719 0.82458 0.268276 0.911188 0.441132 -0.202443 0.730778 -0.966192 0.611968 -1.73014 1.04417 0.821219 0.913297 -0.158608 -0.727778 -0.213602 -0.666334 -0.359472 -0.888377 -0.0961943 -0.311833 -0.683109 -0.598904 -1.45009 -2.47013 -0.0265886 -0.175037 -1.02036 -0.757967 -0.0302553 -0.973669 0.754712 1.30524 -0.48042 -0.0249119 -0.0805516 0.384349 -0.693051 0.36487 -0.792823 1.4758 -0.280334 2.78858 1.8455 0.910057 0.867766 0.0373313 -0.194702 -0.556397 -1.47815 0.624201 0.705036 1.98158 1.05887 -1.76184 -2.81283 -0.865084 -0.217822 -0.722429 -1.49678 1.46452 -1.38253 1.56291 0.536703 -1.02198 0.13109
terror -0.334903 0.605154 1.40534 -0.383321 1.20669 0.99936 -0.327417 1.03158 -1.89304 1.49934 -0.612537 0.936049 0.493163 -1.17424 -0.357675 -0.356763 -2.33063 1.4355 -0.142652 0.550701 -0.15635 -1.60705 -0.128624 -1.76726 1.2673 0.0749129 -1.11773 2.33659 -0.879479 -0.949904 -0.59661 0.678721 0.964923 -1.52028 0.799846 0.0656373 1.02432 0.910426 -0.513965 1.58157 -0.345399 -0.234093 0.914375 0.8192 0.649619 0.556777 0.596029 -0.327411 -0.721217 -0.460081 1.61821 -1.1049 1.96289 0.0424588 0.235622 1.17844 0.388492 0.819669 0.91617 3.04233 0.973205 -0.627397 -1.12434 1.48673 1.64383 -1.37246 0.841917 -0.836235 -1.0444 -0.317573 2.72445 -0.423256 -0.289681 2.18053 -1.14931 -1.09761 -0.604611 0.69543 -0.135817 -2.11929 0.240847 -0.22986 -0.696154 0.64314 0.377595 2.00015 -0.390646 0.738066 0.342032 -0.768049 -0.0978601 -0.87438 -1.267 -0.23054 0.151443 0.769736 1.45486 -1.02112 0.400008 -1.06579 -0.66025 -0.749622 -0.372145 0.920725 1.22791 -0.338311 -0.517479 -1.10021 1.17695 0.53684 0.100655 0.0924237 -0.645092 -1.74312 -0.957749 -2.65311 -0.0568984 0.538472 -0.626435 -0.431252 -1.40206 -0.611706 -0.0708948 1.39705 0.888594 -1.00854 -0.424648 0.325638 0.286664 -1.19765 1.28905 1.51285 -0.649019 0.246458 -0.38255 0.717275 0.368818 -0.102513 -1.06342 -1.94106 -1.36173 -0.332187 -0.816514 0.556763 -1.40599 2.60835 0.763524 0.111046 -0.0760944 -0.169684 -0.205519 -0.412111 -1.06724 -0.508287 0.220352 1.11612 0.0262812 -0.131223 -0.604431 0.798767 -0.763696 0.214056 -0.203206 -0.711786 1.05661 1.4392 -0.000275703 0.103403 -1.03362 -1.06783 1.0631 0.783304 0.48402 -0.996962 -0.778258 0.0329067 0.473373 0.0345798 0.731526 0.0917672 -0.804141 0.48347 0.31716 0.604081 -2.91952 1.87768 0.788034 0.240661 1.37762 0.215443 1.87087 0.273342 0.259436 0.376533 1.65428 0.61297 1.03226 -0.0522719 -0.253388 -0.298872 -1.37882 -1.14623 2.24481 1.84058 0.668237 -0.923482 -0.095914 0.431379 0.117823 -0.827261 2.54509 -1.42763 -1.21634 1.93241 0.501509 -0.404747 -0.491469 -0.507828 -0.456763 0.866413 0.813058 -1.5083 0.16229 -1.71748 -1.17469 -0.322782 -0.238063 0.948566 -0.676044 0.589714 2.0262 0.555718 -0.843505 -0.160702 -0.464562 -0.583558 1.15801 1.12679 0.908952 0.599927 0.081344 -0.450774 1.22781 0.425309 -1.05922 -0.422426 -0.493282 0.0811491 -1.23302 0.00515217 0.439262 -0.888949 2.7421 0.057822 1.53278 0.263575 -1.5762 -0.0246475 -2.04282 0.626579 -0.324817 0.973083 1.24381 0.642581 -0.357722 -0.841251 -1.23958 -1.77065 1.66227 -0.474878 1.06808 1.0966 -0.386584 1.12019 -0.64108 0.277794 -0.671636 2.43278 0.715403 0.574811 -1.5035 1.67839 0.825688 -0.763999 0.797678 -0.88154 0.590325 0.698413 -1.32387 -0.44801 0.332981 0.480625 1.44554 -2.08797 -1.20928 -0.535041 0.504952 -2.2112 -0.679523 -0.504248
smile -1.3518 0.71336 0.777135 0.85018 -1.10586 -1.80276 0.579404 0.339277 -0.0185115 1.43381 -0.786921 -1.21099 -1.06985 1.22648 0.63249 -0.853862 -0.34448 0.821123 -1.88542 -0.447143 -0.102769 0.196071 0.866574 1.03506 -0.224406 0.43074 0.601049 0.829616 0.47962 -1.53157 -0.494533 -1.99515 -2.28719 0.190466 -1.57971 1.13991 1.00303 0.526283 1.69756 0.939744 -0.800639 0.589093 -0.14373 0.769669 0.557615 1.65536 -0.0885532 0.521487 1.87761 -1.82916 0.380706 -0.13174 -0.904489 -1.092 -0.597752 0.527901 0.243947 0.345013 -0.505922 0.94442 -0.23381 -0.146052 1.57854 0.739308 0.100289 0.0632613 0.414862 -0.697894 -0.556957 -0.312995 -1.00455 0.0454084 1.37264 1.71446 -0.401048 -0.549185 -0.409192 -1.66726 0.381202 1.06524 0.315355 0.0703963 -1.69697 -0.569531 -1.66819 0.852325 0.911012 -1.56363 0.146874 0.293287 -0.870118 -1.36083 -0.172156 0.900248 -2.59044 1.99935 -0.473448 0.0173441 -1.4678 -0.853831 -0.115971 -0.238207 -1.98025 -1.10891 -0.677347 0.21448 0.285086 -0.358551 -2.27853 -0.818466 -2.07093 0.86714 -0.0420309 -0.491009 0.666661 -0.951123 -1.74688 -0.181951 2.91795 1.35506 -0.323562 -0.643003 -3.10166 -1.31809 0.192222 0.419388 0.346597 -0.129069 -1.10595 -0.204662 -0.0871221 -0.0489814 -0.185617 -0.631452 1.30949 -0.160579 0.337254 1.39066 -0.534635 0.271565 -0.226778 -0.385257 -0.772564 -0.131857 -0.382322 0.165342 -0.0275871 -0.926621 -0.136463 -0.986078 -1.55082 0.240247 -1.92856 -1.07571 0.532054 0.504719 -0.0345225 0.440947 0.624681 0.0509271 -1.28696 -1.34977 0.00773327 -0.125823 -1.28533 0.972836 -1.75024 -0.575351 -0.647042 1.6673 -1.07092 0.265997 -0.329014 0.56332 0.248827 0.322204 -0.239478 1.19597 1.23047 0.211478 -0.0203278 -1.12511 0.689835 0.713458 -0.827603 0.279131 0.479625 -0.153278 -1.97762 0.557281 0.748569 0.928949 0.182661 -0.274047 0.0291377 -1.3833 0.285419 -0.0549399 0.728762 0.532044 1.53734 0.572808 -0.741949 -1.90599 -0.332909 0.913189 -1.21645 -0.314561 -0.107384 1.42035 1.72305 -0.540921 -0.0611814 0.0635108 1.0096 0.518372 -0.769531 0.242528 0.0394092 -0.0904016 -0.265208 1.29156 -0.919105 1.22414 -0.952852 -1.08328 -0.30796 -0.185541 -1.24114 -1.13997 1.0541 -0.926454 -0.24788 0.490375 -0.702028 0.131099 -0.674987 1.3838 0.618947 0.858249 0.764304 0.639151 -1.75739 0.909838 -1.02194 -1.20895 0.284062 -0.864302 0.627247 -1.04216 0.869324 1.54624 0.640482 -0.492786 1.40119 0.638829 -0.118975 1.22048 0.191713 0.260245 1.98525 -0.717621 -0.280468 0.923905 -0.651135 -0.038573 2.13127 -0.0519977 0.742807 0.0581096 0.687429 -0.791397 0.719525 0.351288 -0.0240004 -0.944801 -1.73145 -1.66997 0.428904 0.714703 0.264196 -0.155505 -0.618629 -0.436401 0.0362931 -0.587845 2.23228 1.13427 0.178843 -0.887159 0.222393 -0.764281 -0.850327 0.382814 -0.751982 -1.69236 0.387153 -0.374494 0.584293 -1.71565
woman -3.97184 -0.78013 -0.332207 -1.19303 1.39119 -1.21571 3.65195 -1.16588 3.10883 2.85285 -1.49066 -4.19448 0.0639049 1.12219 -2.31802 -1.92049 0.334795 2.86839 -2.10131 -0.849108 -0.0137734 -0.930394 0.018885 1.17202 0.305137 -0.984227 -1.3497 0.386487 0.149236 0.847365 -1.98741 -1.93168 -1.77328 0.869015 0.16849 -0.0415883 -2.13354 1.98489 0.610839 -0.317101 1.12556 0.859859 0.471276 0.0409362 -2.94253 0.258829 -0.00533682 -1.05299 0.693908 0.0375637 1.99429 0.586707 -0.40667 0.0179247 0.827397 -0.277081 1.12948 0.10334 0.853029 0.834865 -1.01255 -0.447436 -0.142618 0.688101 -0.453214 0.78659 1.18385 -0.563124 -0.208372 -0.509311 0.293116 -0.825425 1.86347 1.92029 0.251211 -1.37904 -1.99329 -1.67774 0.764058 0.91481 0.821249 -0.896059 -1.13854 0.81775 -1.00083 1.28238 1.35459 -0.939604 -0.844219 -0.365474 -1.39769 -1.25337 0.0171379 -0.155037 0.520126 1.63221 0.843528 1.77861 0.138641 0.733753 -0.0786194 -0.545129 -1.23933 -0.537598 0.373136 -0.0972179 3.05591 -0.306139 -1.80569 0.691503 0.404205 1.52022 -0.0246885 0.766144 -0.00274562 -1.77381 -1.62911 -2.07438 2.83541 2.20362 -0.144397 -1.696 -0.257958 -0.159936 -2.8777 -0.435661 1.69192 -0.037354 1.31665 -0.585028 2.39614 -2.09121 -2.42256 0.655271 -1.87466 0.200267 -1.63282 2.56474 -0.164781 -0.76334 0.220978 -0.645556 0.525843 -0.292376 -0.478124 2.05517 0.959391 2.0073 -0.611095 1.16559 0.687748 -0.185072 -0.50348 2.35479 0.1692 -0.221226 0.711967 -0.494304 1.56612 1.22969 0.894412 0.201988 0.124938 -0.767283 -0.243165 -1.11157 -3.21761 -1.67327 -1.33454 1.03727 1.81655 -1.20535 -0.398859 1.09748 0.717897 -0.0767919 0.0590046 2.10433 0.780212 -2.5824 1.05414 -0.963056 0.0896351 -0.711699 0.210816 0.137276 1.23578 0.533991 -2.95535 0.205535 1.46764 -0.562669 -2.54966 1.04661 0.887773 -1.55844 -0.668063 2.29125 -1.31065 2.51086 -0.858512 2.02156 -1.26806 -0.238094 -1.51622 0.410484 -1.26354 2.09777 -0.322363 0.183682 -0.829233 0.148193 -3.32357 0.807061 1.3749 0.804093 -1.68467 0.116183 -1.03978 0.261107 0.381033 0.142983 0.383999 1.98611 -1.50401 -1.45484 -0.525111 -3.1855 -1.00818 -2.13725 -0.944864 0.240159 0.99021 -1.81825 0.258735 -2.27767 0.968994 1.88941 1.0405 1.7658 1.22691 0.515768 -1.88149 0.846536 1.96439 -0.250087 -0.547196 0.352446 -2.10926 -0.948824 0.114589 -1.41808 2.4511 -1.52333 1.76185 2.1081 -0.151889 -0.942614 -2.29848 0.309255 1.21641 -1.01616 -0.13329 0.164362 -0.661175 0.188152 3.11366 -2.0301 0.352112 2.21931 0.606445 0.259698 0.426579 1.86115 0.597106 0.774786 -1.37366 -0.378812 -0.782288 0.744123 0.349876 -0.106526 1.10702 0.392028 0.326889 -0.5207 0.722942 -0.441299 -0.552498 0.185608 -0.31663 -1.40034 1.32664 -0.363063 -0.463392 -1.25859 -2.26764 0.425106 -1.32178 -2.18837
string -1.01453 -0.0153805 -0.0165996 0.123991 0.759543 -1.67437 1.17668 2.69557 0.0957114 -1.80807 1.72979 -0.991945 0.759509 -0.360796 -0.848807 -0.690676 -2.66168 -0.051902 -0.133464 -1.82858 -0.558344 -1.49652 -0.818775 -0.603713 1.03543 2.7725 -1.5415 0.162316 2.06405 -0.156349 -0.491477 -2.01369 -0.147708 -1.3175 1.25488 0.828421 1.51751 0.833095 -2.20699 1.16389 -0.434727 0.143703 1.61754 -1.17938 -1.1142 -0.0809086 1.30048 -1.99779 1.09996 0.166773 2.04251 -0.0261092 -1.08803 2.03433 0.834878 0.018151 1.20517 1.01409 -1.10359 0.896681 0.657606 -0.467394 -0.936754 2.67182 -0.284078 -2.97735 0.277082 -0.645548 -0.220917 -1.53704 -1.24698 -0.285618 -1.09797 0.0818591 1.79124 -0.332308 -1.40723 -2.91907 0.276359 -0.890482 0.528328 -0.84844 -0.143426 -0.457024 -0.176148 2.76937 1.45256 -1.40692 1.58161 0.0350045 1.0451 0.572719 -0.680457 1.31375 0.493171 0.82483 2.05531 0.0405589 -0.294692 0.78947 1.04078 0.0971301 -1.29121 0.817908 0.193972 -0.698993 -0.566239 -0.620141 -0.977718 -0.666855 -0.398757 -0.0483089 -0.738758 0.585997 -0.368334 -0.405349 -1.60086 0.606309 -0.727189 -0.913495 0.593569 -0.735479 -2.11917 -0.468137 1.61396 -0.0653609 0.527442 0.900093 -0.376193 0.280152 0.312193 -1.13792 -0.0910695 1.01813 -0.375444 1.1447 -0.683125 0.507288 -1.55577 -1.5154 -0.276105 -0.495247 0.677416 0.187044 1.73923 0.83836 -0.162093 -1.58481 -0.414641 -0.393952 -1.71425 -0.620965 -1.07644 0.301304 -1.27573 0.155657 0.977681 -1.43833 -0.555601 -0.797292 -1.8161 0.0937722 -0.19138 0.751264 1.11066 0.0454506 -0.312823 0.431524 -1.02297 0.773231 -0.537867 -0.638758 2.10689 0.534151 0.585393 0.181514 0.846053 -0.115715 0.836715 -0.0321644 -0.512067 0.675335 1.48232 -1.23429 1.26541 -0.0782649 -0.606911 0.777237 -0.856393 1.06267 1.64117 0.604866 -0.746787 1.23405 1.01915 1.24043 -1.03884 0.184643 0.472864 0.0921407 0.69026 0.49291 -0.288889 -0.891172 -0.132214 0.277995 -1.30235 1.39482 0.249828 -1.89408 1.12655 0.382197 -0.303709 0.160268 0.777432 -0.79233 -0.856838 0.609333 -1.438 0.425681 2.10384 -0.199053 0.147848 1.37476 0.66405 -0.73154 1.10428 -2.31369 -1.62942 -0.449577 -1.01239 -0.903126 0.381594 -0.583704 -0.753355 0.0854761 0.86298 0.862844 -0.634001 -1.0507 -0.312414 -0.401471 -0.164361 0.799292 1.21882 0.727304 0.521014 -0.0820455 0.308529 0.966085 0.25614 0.617706 1.27488 1.34887 0.192137 -0.253802 -0.117295 0.682758 0.0691976 -1.06474 0.978765 -1.05788 0.472148 1.9112 -0.730204 -0.257414 -0.184051 -0.260831 0.383365 -0.102247 -0.489342 0.486614 -1.27447 0.279222 -0.627838 0.256894 -0.255657 -0.138281 0.0845347 -0.323062 -1.08106 1.79329 0.139562 -0.458892 -0.415407 -1.79679 2.46152 -1.67911 -2.10338 -0.959775 0.0184415 -2.03543 1.67851 -0.644101 0.145781 -0.549321 1.63844 -1.21111 1.32258 1.23024
Maradona -0.231522 -0.411122 0.245859 -0.0509921 0.533286 0.10852 -0.704653 -0.269655 -0.140817 -0.303361 -0.374466 -0.338065 -0.343481 0.803374 0.707261 0.0163349 -0.229765 0.291904 -0.921299 -0.108342 -0.868608 -0.176051 0.229436 0.0566917 0.110376 0.364415 -0.505303 0.266963 0.238382 -0.306797 -0.0265601 0.0656377 -0.190665 0.241284 -0.0853748 -0.215866 0.0382496 0.342005 0.197873 0.57048 -1.1158 -0.549564 0.400727 -0.89707 -0.424096 -0.31455 -0.105038 0.00408193 0.802822 -0.0398248 -0.347041 0.215395 0.0493299 -0.0298671 -0.319663 -0.0500994 -0.0148088 0.581926 -0.189143 -0.0343646 -0.0156541 -0.360329 0.805948 -0.0255759 -0.554516 -0.649024 -0.422752 -0.0689387 0.427734 0.132478 -0.221622 0.49367 -0.275341 -0.031349 -0.593795 -0.0761189 -0.367693 0.371618 -0.310909 0.300857 0.759285 0.173496 -0.41848 -0.659433 -0.920947 -0.16051 -0.439862 -0.312186 0.731158 -0.168724 -0.393424 -0.564121 -0.726764 0.515212 -0.0355188 -0.300773 0.149786 0.461758 -0.309424 -0.227312 -0.275911 -0.0868989 0.515888 0.0851639 1.18799 -0.524403 0.479723 -0.113346 0.158715 0.488384 0.725159 0.39284 -0.697247 -0.0316908 -1.35919 -0.833713 -0.370863 -0.940356 0.547424 -0.44547 0.580912 -0.671014 -0.192495 -0.560243 -0.376942 -0.0501362 0.0180955 0.380156 0.459234 0.330463 0.140808 0.542647 0.625542 -0.122248 0.420128 -0.8004 0.488068 -0.547166 0.114717 -0.732714 -0.223724 -0.32134 -1.0743 -0.401974 0.492848 0.386547 0.55857 0.551213 0.0550282 0.282817 0.377368 -0.325266 0.384349 -0.204364 0.0194021 0.305846 -0.57615 -0.319042 0.903076 -0.00299021 -0.447595 0.454117 -0.661895 -0.803217 -0.313028 0.169443 0.183483 0.268195 -0.349689 0.524672 -0.30241 -0.501464 0.247407 -0.0803145 -0.341296 -0.317634 -0.589135 0.447315 0.0112735 -0.916653 -0.776889 0.561901 -0.333857 -0.27595 -0.188884 -0.144755 -1.06353 -0.317725 -0.00384705 0.170678 0.678927 -0.348696 -0.809148 0.823819 1.20562 -0.264884 0.443544 -0.0594708 0.140397 -0.0566487 0.426254 0.250234 -0.485534 -1.10461 -0.292899 0.862607 0.123487 0.624757 -0.854745 0.512757 -0.688198 0.74187 0.438242 0.0387015 0.557012 0.593527 0.602579 0.678823 0.396164 0.0026746 -0.560637 -0.100419 -0.00955822 -0.986016 0.0661847 -0.64552 -0.457629 -0.710273 0.360751 0.375026 0.337062 0.63436 -0.133223 0.203627 0.149285 0.20105 -0.77277 -0.400591 -0.092134 0.0672899 0.447656 0.750742 -0.384034 0.44261 -0.455268 0.00515062 0.644628 0.0371119 -0.697269 0.101696 0.293089 -0.0943474 0.656042 -0.133685 1.55753 0.844238 0.26661 0.749288 -1.26793 -0.656132 0.140481 -0.0480964 -0.74323 -0.56439 0.779522 0.417767 1.11857 0.522778 -0.552758 -0.164639 -0.72979 0.050461 0.484212 0.132048 0.972574 0.801081 0.260171 -0.450236 -0.0494465 -0.194103 -0.658533 -0.307001 -0.984939 1.20152 -0.195615 -0.416498 -0.381767 0.061333 0.651447 0.503966 -0.499217 0.54044 0.847759 -0.733425 0.403253 -0.273885 -0.428582 0.49023 0.160252 -0.415036
liability 0.791882 -1.27183 0.559541 -0.0515597 -0.259942 0.933834 -0.0354413 0.627755 -1.23353 0.228845 0.887148 -1.7638 -0.550015 -1.51714 0.192593 0.414294 1.22958 0.135191 0.334881 1.50812 -0.841562 -0.541229 0.698209 -1.37945 -0.214638 -0.672231 0.144516 -0.388962 -0.18739 0.410884 0.118412 -0.80561 0.87652 0.904233 0.370843 -1.05809 -0.729721 0.444845 -1.25329 -1.17012 0.742024 1.01505 -0.105909 0.886146 0.83021 -2.10361 0.99562 0.157947 1.5682 -0.974236 1.83242 -0.541186 1.14448 -0.745696 0.0241981 -0.717172 0.019078 0.126826 -1.68973 0.835017 0.128695 -0.256409 -0.0191125 1.89187 -1.00711 0.822732 0.314696 -0.288254 -1.05864 -0.96919 1.08203 -1.32005 0.000427626 -1.34451 0.209452 -1.32071 -0.618811 -0.143584 1.0605 -0.172937 0.218607 -0.441246 -0.151167 -0.676264 0.163748 0.115377 -0.493139 0.501192 -0.827481 0.741687 1.18747 -0.251452 -1.15026 -0.824516 -0.242129 1.87246 1.14766 0.813873 -0.951504 -0.0436735 1.5913 0.0734426 0.801158 0.893897 -1.18387 -0.745853 0.610681 -1.47533 1.24875 1.37725 -0.0231502 0.214516 -0.33456 0.172859 -0.149325 -0.923181 0.2195 -0.389455 0.705759 -0.476676 -0.813727 -0.0183349 1.06015 0.169414 -0.984999 -1.01423 0.345253 -0.645943 0.524337 -0.997421 -0.590512 -0.555471 1.30078 -0.864523 0.235688 -0.232293 -0.0766775 0.121187 0.0684203 1.3901 -0.359316 -1.18013 0.660487 0.22614 -0.109694 0.763618 -0.678659 -0.521906 0.331563 0.760071 0.363821 0.272425 0.067955 -0.041139 -0.578911 0.884065 0.139531 1.36576 -0.333132 -1.00737 0.015594 -0.246571 -1.4647 -0.226494 -0.542354 -0.177005 0.909735 -0.807868 0.3114 0.499765 0.437606 -0.0868094 0.573079 -0.758571 -1.0092 0.466814 0.183072 1.01841 0.384306 0.611687 0.631512 0.0336031 -1.1662 -0.32601 -0.0228346 0.593479 0.382742 -0.764067 1.28506 0.898827 1.24648 -0.471451 -0.0782398 0.469256 -0.861742 -0.333901 0.250684 -1.03155 0.346187 -1.94952 1.32597 -0.898542 0.159967 -1.44132 1.27214 0.584808 -0.599386 0.403781 -1.54643 0.826794 -0.10605 -0.606181 -1.69514 -0.828211 -1.11656 -0.176527 0.230094 -0.876307 -0.614289 -1.49719 0.121398 0.756458 -1.23906 0.55763 0.453879 -0.746112 -0.000640692 -0.368809 0.324582 -0.337193 -0.0549914 0.65278 -0.356331 0.605751 0.734542 -0.981185 1.59512 1.24865 0.991934 -0.0332619 -0.505629 -0.846869 0.895563 -0.776747 0.433105 -1.1951 0.0751948 -0.349589 -0.230342 0.856366 -0.396087 0.682153 -1.12867 -0.275582 -0.17551 -0.924331 -0.342613 0.450814 0.0736911 0.633296 0.631447 1.52975 0.617197 -0.184409 0.0728492 0.371852 -1.29642 0.184179 -0.933237 -0.409162 0.154717 -0.0886912 0.372982 1.38566 0.425677 0.670026 0.588257 0.354757 0.274229 0.0326573 -1.39984 -1.17141 -0.671997 0.488114 1.07444 -0.490505 0.364543 -0.865701 -0.31766 -0.1147 0.667974 0.392196 0.76143 -1.24049 0.787258 -0.616171 1.11014 0.125306 0.70943 0.887097
ticket -0.396493 -0.126075 0.120882 -0.229412 -0.652407 -0.835849 -0.422241 1.136 -0.458303 0.309943 1.2452 -0.424085 0.119462 -0.187943 -0.642295 -2.51889 -0.166347 -0.770799 -0.0438102 1.25822 -0.272772 1.3469 0.369319 0.224596 -2.40535 0.578364 -1.12989 -0.0625175 -0.0421957 -0.606644 -0.0464088 -1.73312 0.199802 3.5723 -1.09241 -0.72388 0.061492 -0.118893 -0.370836 -0.732866 1.52198 -1.25527 -1.57048 -1.8484 0.359596 2.61851 0.634083 -1.36651 1.82495 -1.22398 -1.6267 0.397444 -0.327284 -1.83199 -0.380402 -1.57313 -0.0409904 0.814349 -0.214442 -2.5023 0.928036 -0.726754 -1.11859 0.643778 -0.359382 -1.19566 0.172257 0.258068 -0.568218 -0.389806 0.661109 -0.822969 -0.987254 0.40605 -1.40368 1.57168 1.10253 -2.61785 -0.50949 0.977135 0.630014 0.0893882 -0.644904 0.803372 2.53114 2.95229 0.111133 -1.09906 -1.37286 -0.293795 -0.129275 -0.460918 0.922654 0.714825 0.120085 2.15861 0.261483 -0.645046 -0.996824 -0.648668 1.60618 0.792672 1.28456 -0.275605 -0.726275 -0.568036 -0.177605 0.431767 -0.668913 1.83773 1.41748 0.989385 1.253 0.655837 -0.213055 -1.02793 0.39185 -1.31699 0.788584 1.53473 0.408967 -0.95827 -0.949172 -0.321579 1.01954 0.385774 0.854814 -0.838889 -0.131305 -1.26164 -0.978549 -0.619647 -2.50768 -0.514385 -0.0715019 2.57156 0.558147 0.817373 -0.128178 1.54743 0.969104 -1.20038 0.328236 0.939422 0.758705 0.593311 1.43211 0.185381 1.14279 0.339228 -0.0357409 3.6957 -0.727849 1.7669 0.0500671 0.173647 -0.183837 -0.251748 -1.89096 -0.433675 -0.186258 -0.661876 -1.23279 -0.99633 -1.74963 -0.83344 0.228418 0.755251 0.164627 -0.0517388 0.241882 -0.1457 -1.58277 0.0370913 0.298376 -0.404447 0.806464 1.03792 0.872823 -0.495307 -2.02398 1.5375 -1.22343 -1.14842 -0.724997 0.284788 0.486331 0.545954 0.869088 -0.65191 -0.871912 1.76869 0.304039 0.671454 -1.71596 0.261905 0.201453 0.529671 0.735424 0.208023 1.32234 -0.034534 -0.244231 -0.591978 2.23106 -0.323191 -0.481525 0.68641 -0.679098 0.119282 -0.435987 0.623205 -1.02033 -0.337192 1.41808 1.3927 -1.58385 -0.178089 0.130381 0.0733008 -1.50109 -0.654621 0.852648 -0.194034 -0.424071 -1.54704 0.00546769 0.0495358 -0.861178 -1.06951 0.597202 0.731676 -0.680851 -0.171358 0.52871 -1.83676 1.49304 2.08484 0.311216 2.61894 0.706894 0.288928 -1.42032 0.160588 0.0657293 -0.686174 2.84771 -1.80957 -0.54333 0.395624 0.793523 1.22611 -0.508856 -0.876627 0.65732 0.980831 1.152 0.279738 0.975223 0.345582 0.647294 -1.43965 0.793036 0.165786 0.0642235 -1.22945 -0.0782552 0.997589 0.723562 -0.869267 -0.850693 0.0313067 0.833716 0.133054 -0.848848 -0.562541 -0.719749 -0.669443 -0.862149 0.488455 -0.516076 0.944612 0.900882 -0.0273463 1.40572 -1.14972 -0.581792 0.199899 -1.26413 0.880148 0.317343 2.6168 -2.43808 -2.62828 -1.71444 -1.75389 0.636346 0.695736 -0.0518877 -1.47829
school -0.470598 -2.63514 -1.05832 0.133629 -0.398135 -0.560747 1.44377 0.972018 1.91533 -1.07617 0.605571 1.25561 -0.0128713 0.501739 -1.47493 -2.49377 0.875105 1.66019 -1.94362 0.0709478 -2.14187 -2.32756 -1.85929 2.00714 -1.18301 3.12611 1.94865 -0.758739 1.13246 0.812299 0.661066 -2.49513 -1.62278 1.73709 -0.518257 -2.73519 -0.708674 0.903437 0.853838 0.182838 0.855696 -0.0828489 0.0883062 0.540346 0.194382 0.0335253 -0.787417 0.450753 0.825351 -1.95411 -0.00831544 0.698604 -0.147304 -1.17074 -1.98895 1.70164 0.604932 -0.380842 -2.49299 0.768605 -0.57214 -0.760563 -1.31781 -0.15404 2.05335 0.919673 0.304556 0.00480396 0.444739 -0.269269 -1.62319 0.809837 -0.604602 1.66256 1.38728 -0.806967 0.143487 1.05637 -0.983528 -0.851299 0.534635 0.908957 -1.2291 -0.620958 0.294177 0.803436 0.519293 -3.63927 1.08679 -0.0933083 -3.5168 1.19507 0.0191792 0.307649 1.5201 1.04855 2.46756 -0.78099 1.15367 1.48955 -0.994551 2.43008 1.69851 1.71334 1.13204 -0.312515 0.265957 -1.21846 -2.2504 -2.3251 -1.2213 2.82554 1.00354 -0.0548676 -1.07036 -2.39009 2.90171 -0.43687 0.454992 -0.90202 0.527322 -2.95225 1.26898 -0.691854 -1.99268 -1.00706 0.502602 -0.468844 -1.14055 -0.17132 2.18183 -1.00895 -1.41831 1.50845 -0.03104 0.536794 -1.68362 1.58646 -1.04857 0.811175 4.27939 0.321125 2.37601 -2.06452 2.27909 0.181652 -1.37175 2.36453 -0.0820301 0.250052 -1.55736 0.157333 -2.14971 -2.53993 1.70929 0.160514 2.07797 1.28517 1.04286 0.464968 0.0811201 -1.81534 -1.19441 1.79333 -0.244337 -0.52357 -2.66112 -0.525753 -2.12204 1.05201 0.0543214 0.827746 0.247315 -1.79977 1.02947 -0.799385 -0.0195832 1.47389 -0.604481 0.417495 0.701398 1.22931 -0.997677 -0.505983 0.881895 -0.73376 0.302908 1.30479 1.19647 1.74748 0.816775 -1.81331 0.247595 0.451658 1.1486 1.18459 -0.57672 1.05854 1.66045 2.63792 -1.44663 -0.867086 -0.136543 1.05448 -1.74422 1.72894 1.16485 -0.433528 0.511311 -1.29707 -1.06585 -1.88319 -2.28493 -0.677385 -0.0186246 -0.00122248 1.37239 -0.127387 -2.06902 -0.102096 -0.515904 1.93356 0.085087 0.124646 -0.551137 -2.58396 -1.65126 0.603343 -0.496636 -0.772948 0.469907 -1.47855 0.36462 -0.31295 1.66778 0.715568 0.545657 1.8184 -1.01439 0.679721 -0.978241 1.62796 0.0574961 0.327617 1.9743 -0.786338 -0.128544 -1.812 -0.720229 0.605307 -1.34372 -2.58741 0.214936 -0.816008 -1.00084 1.26291 0.524998 -0.480963 -1.86566 0.803492 -0.502305 -0.453542 -0.74943 0.343994 -0.942554 1.68197 1.04356 3.03861 2.51426 -0.19054 0.0263665 2.24978 -0.244378 1.73609 -0.687807 -1.01204 1.46193 -1.51884 -0.0807222 -0.485867 -1.05104 0.029715 -0.165851 1.55254 -0.432389 0.359551 1.01083 0.788748 -0.49517 -0.73075 -1.52218 2.99346 0.812718 -2.51616 0.88671 0.0186197 -2.96627 0.351787 -0.467399 0.445744
gender -1.33895 0.385657 -0.261806 0.168578 -0.159568 -0.981688 0.761959 1.49103 0.732227 2.03805 -1.47948 -1.50838 -2.9346 0.285549 -1.51547 -0.192177 1.2565 0.183444 1.14451 1.361 -2.30993 0.963799 1.75584 0.50017 1.32539 -1.29666 -1.69346 -0.636887 1.28544 -0.583801 1.32394 0.230854 0.688529 -0.63582 1.2932 1.04846 -0.216948 1.01642 -0.356309 -1.09099 0.757958 1.04037 -0.0921596 0.725725 0.0979663 0.325264 -0.419001 0.716651 0.297031 0.505713 1.34379 1.42028 0.592352 -0.577056 2.44047 0.257546 -0.00354885 1.10461 1.59424 0.832304 -1.00322 0.176031 0.920834 0.496394 0.66911 0.546502 -0.306423 -0.430446 0.0685189 -0.940617 1.50597 -1.07857 -1.35221 0.468898 1.7005 -0.85149 0.256659 -0.28017 0.0454183 0.201036 -0.257084 1.06776 -0.708174 -0.342351 -0.830817 1.52565 -0.1143 -1.25915 -0.561547 -0.486938 1.82674 0.868676 1.51491 -0.832681 0.0958955 -0.754935 1.79352 0.19886 -0.199209 0.0227212 -0.141496 -0.665055 1.95813 1.44343 1.11558 1.48216 -0.177615 -1.56341 1.22511 0.211045 -0.906276 -0.290541 -0.00721809 -0.55425 -2.50312 0.0545921 -1.03945 -0.867122 1.19863 2.11689 0.378731 0.387032 0.878948 -0.0986886 0.787674 -0.533452 0.917275 0.120102 -0.156389 0.487693 0.492571 0.386964 -0.272854 0.990018 1.54658 0.350735 0.328311 1.16514 -0.835144 1.4102 0.978057 -0.242308 -1.09275 1.13757 0.483434 -0.226429 -0.791416 0.20437 0.836276 0.585663 0.241641 0.314752 -0.43266 -0.909151 0.337916 0.754352 0.708951 0.317682 1.00684 1.02422 -1.3133 -0.33763 -0.095749 0.989307 0.732909 -1.35952 -0.615101 -1.04758 0.716384 -0.481165 1.48896 -0.248039 0.499298 -1.22925 1.2788 -0.0269382 -0.727417 0.846651 0.590996 2.69424 1.50476 0.653816 1.05404 -0.0646548 1.4572 0.156317 -0.508088 -1.7044 -0.888605 -0.447427 2.17428 1.03841 -0.441024 0.0400124 -1.69294 -0.365303 0.0465748 1.00106 1.14673 -0.453565 0.199396 -0.891509 -1.56755 0.160119 -0.792736 -0.165721 0.786142 1.03584 0.471828 -0.30813 0.154725 -0.940318 -3.35914 2.30831 -1.59088 -0.24899 -0.715715 -0.850582 -0.579858 -1.11272 0.425708 -0.618118 -2.35945 0.109746 -1.26426 0.196789 -1.95065 -0.149313 -0.175642 -0.0629583 -0.675866 -0.223094 -1.82123 -0.989258 1.01721 -0.689304 -0.0859303 1.25593 0.0615215 -0.220488 -0.13469 0.240496 1.04162 -0.555705 -0.601345 0.104826 0.471612 -0.457199 -1.30706 -1.71614 -0.557808 0.788418 0.702979 -1.3635 0.343406 -0.879705 -0.566864 0.200891 -1.44761 -0.0854994 0.249008 0.827578 0.190563 0.761833 -1.36829 1.09871 1.23849 -0.389727 -0.605228 1.05856 0.946314 0.000385895 1.34748 1.24166 0.131097 -0.479377 0.241294 0.682166 0.0128516 0.379006 -1.47302 0.200064 -0.0245248 1.33616 -0.799758 1.02272 -1.07017 0.109934 -0.593809 0.158877 0.409814 1.7588 -0.403783 -0.885496 1.68105 -0.695187 -0.641396 0.933621 0.335987 1.32806
brother 0.339622 -0.488098 -0.611188 -0.12676 -0.488979 1.6225 -0.0273961 -1.21366 2.49195 -1.23521 0.365458 -1.30981 -0.69396 0.580413 0.368499 -2.19362 -0.690175 2.37621 -2.96176 -0.040529 0.904018 -0.0264396 2.67785 -0.0666256 0.811104 -1.40746 -0.436979 -0.481047 -3.52196 0.393786 -0.124898 -2.05018 -3.35279 0.624262 -0.513397 -0.339344 0.00944937 -0.567721 1.53474 -0.285778 0.631596 -0.804588 1.41477 0.924219 -0.203253 0.241689 1.29037 -1.54894 -1.89391 -1.38004 0.784841 0.507382 1.46444 0.315232 -1.04954 -0.503559 -0.32247 0.801188 0.150624 0.772827 -0.755739 -1.20441 1.24865 -0.206203 -0.187344 -0.875255 0.30223 -0.104057 2.51907 0.392547 -0.852097 2.16932 0.297053 0.998753 -1.03454 -0.724198 -0.192383 -0.0337618 -0.405196 0.457446 -1.46842 -1.05111 0.75951 -0.679288 -2.85568 0.0381431 0.589961 0.753407 1.46148 -1.03715 -1.72981 0.765116 -2.17252 0.988274 -1.25611 -0.33661 -0.819802 1.14344 -1.1578 2.10635 -0.450579 -1.65686 -0.595526 1.10048 0.282938 -0.664159 -0.157902 -2.42578 0.695075 -0.74344 0.90503 2.1995 -1.19604 0.19193 1.37792 -0.519344 -2.24883 1.09733 1.67585 0.091975 -0.299566 -1.3888 -0.0768479 -0.94697 -2.68377 0.587854 -0.719043 -0.96653 -1.1086 0.772229 0.441758 -0.519813 -0.983339 0.234605 -0.86294 -0.566832 0.39992 2.6883 0.714067 2.36125 1.17404 -0.0433911 -0.197748 0.175477 -0.0833838 0.419526 1.34071 1.90777 -1.47154 0.296652 0.0633987 -0.0966316 -0.796845 1.99913 -2.21998 0.2858 -0.470592 0.573193 4.06158 0.257669 1.333 0.0415582 1.26027 -1.35766 -0.354354 -1.5154 -1.97339 -0.893578 0.735662 0.464952 0.602881 0.947973 3.05105 -0.346978 -0.340946 -3.50814 -0.358886 0.847812 -0.214691 -0.177043 -0.6675 -0.615525 -1.50899 0.263871 -1.94312 -1.41709 0.259354 -1.54272 -1.88135 1.52988 -0.633544 -2.50039 -0.805718 -0.0212953 1.40073 -1.11504 0.762008 2.69426 -0.570584 2.04223 0.433899 1.1634 -0.39683 -1.09842 -0.380159 2.85433 -0.888544 1.72363 0.863939 1.66207 -1.00231 -0.934439 -0.99297 0.667367 0.0580847 -0.359296 -2.97201 -0.31868 0.299847 -0.0378258 0.262235 -0.189073 -0.802501 2.26448 -1.36663 -0.975611 -2.22454 0.397962 0.785292 -0.325834 -0.684536 -0.701013 -0.191841 -3.1202 1.45185 0.0073266 -1.45631 -0.445717 0.00234063 1.38791 -0.238908 1.22135 -1.33599 0.294732 0.383185 -1.31004 -0.354003 0.0917743 -0.828512 0.755865 0.58683 1.67039 1.16897 -0.0275298 2.72036 2.00028 -0.217679 -0.274127 -0.950425 2.09107 0.431935 -0.746839 0.0044004 -1.38969 0.266299 -0.196166 2.61656 -0.0598441 1.34194 -1.36341 1.30879 0.873356 -1.50136 -0.36844 -0.674728 1.63973 -1.91495 -0.403027 0.280219 0.0986031 -1.02223 1.36027 -1.82016 0.832911 0.235017 -1.68572 -1.41855 1.32228 -1.4808 -1.152 -0.657141 -0.508713 1.37396 0.770765 -1.10119 -1.49116 -0.312922 -0.320123 -0.0238784 -1.15002
team -0.0675102 -1.37374 0.813098 -0.0576027 -0.883847 -0.507388 0.284026 -1.41971 0.573125 -0.16507 0.259353 -0.250501 0.500648 2.31021 -2.02132 -2.62638 0.424108 0.0616334 0.0381406 -0.0795353 0.446039 1.67576 0.00704987 -1.0785 0.19579 0.801861 1.08872 0.855679 0.206872 -2.53859 1.09752 -0.986567 -0.846555 0.218414 -0.189183 -1.31148 2.01933 -0.276253 1.98992 0.0307218 -0.207317 0.418241 0.209641 -0.410341 -0.399899 0.172661 0.162084 -1.06126 0.470721 -0.395812 0.365915 1.71392 1.30585 -1.46631 0.14828 -0.595849 1.05239 1.75915 1.23334 -0.73429 -2.45876 -0.928008 1.22036 -0.335366 0.349971 -0.169765 -1.85487 0.41976 0.528589 -2.06444 -0.0636535 0.78733 0.926012 0.080038 -0.151727 -0.0412674 -0.622754 -1.46825 -1.89905 1.12801 0.831214 -0.917777 0.028677 -0.0780177 0.195445 2.24116 -0.854077 -2.45328 1.50562 -1.60496 0.268232 0.208805 0.165982 0.346952 -0.487532 0.743991 1.89392 -0.483685 -2.41224 1.82024 0.545395 2.16403 0.0509268 -0.401253 0.248738 0.662601 1.37849 -2.15253 -0.596944 -0.419233 0.751952 2.19587 0.271899 0.840075 -3.15448 -1.47915 0.72328 -1.40561 1.97178 0.64148 1.20595 0.321084 -0.213883 -1.58628 -0.474082 0.0806325 1.95729 0.114099 0.62642 -1.33595 -0.731856 -1.05584 -0.937214 0.873794 0.429887 -0.377269 0.634135 1.10969 -0.87613 -0.717585 -1.04823 -0.627968 -2.35616 0.875447 1.84231 3.64193 1.01554 0.365274 -0.132612 0.515141 -3.25749 -1.30766 1.4949 -0.358675 -2.66494 -0.185205 -0.990346 -0.441367 1.54322 0.742429 -0.218388 -1.08404 -3.45817 0.385775 -0.270412 0.803585 -0.416714 -1.20711 -0.130226 1.05657 0.211033 -0.297985 1.16047 -0.190613 -1.97465 -0.449873 -0.593271 0.394455 -1.36409 -2.73264 -0.54053 -0.0165806 -0.186935 0.220992 0.435624 -0.727447 -2.38126 -1.0197 0.90098 -0.200884 -0.937354 -1.00437 -1.87012 -0.0326556 0.375904 -0.601194 0.521658 0.319928 0.269301 1.84211 1.78657 -1.17894 -1.11801 0.347776 1.52748 0.826688 0.638516 0.547475 0.623931 0.388342 -0.610685 -0.0279603 1.31558 -1.25672 -0.568347 -1.73555 1.16292 1.84748 -1.41413 -1.30891 -0.873634 0.198282 2.18123 1.06973 -0.0539532 -1.59092 -2.03687 0.468052 1.42657 -0.266969 -0.170898 -0.464454 -1.78225 0.2156 -0.40553 0.355144 1.22305 0.679203 0.375473 0.56184 1.35049 -0.0164871 0.424424 0.936325 1.35567 -2.13942 0.944211 -2.48804 -0.765297 2.54519 -0.98564 -1.30512 0.943136 1.13432 0.277104 1.04534 -0.00711151 1.56443 -0.36104 -0.631383 -0.387252 -1.10434 -0.457228 1.54895 -0.0534462 1.17544 -0.876585 3.71081 -0.754706 2.12614 -2.65665 0.897814 0.0797452 -1.88597 0.443432 0.397153 0.184601 -0.316666 -0.136962 -0.938517 0.598253 1.49237 -3.09468 -0.533949 -0.00394427 -2.02092 -0.173772 0.824942 -1.26665 -0.889226 -1.17704 1.63423 1.55551 0.222799 -0.689248 -0.814509 -0.530252 -0.515127 -1.86683 -1.38861
mammal 0.168055 -0.205979 0.0437923 0.303906 -0.258812 -0.0171243 0.15451 -0.0204079 0.652395 0.0349432 -0.022645 0.120947 -0.0374366 -0.0525352 0.223401 0.301251 0.0278255 -0.0722904 -0.114195 -0.32418 0.304205 -0.182665 -0.0453825 0.100511 0.272104 -0.344722 -0.0721617 0.891993 0.123658 0.387944 -0.620015 0.272136 0.309298 -0.402721 -0.11134 0.154064 0.00689049 0.408712 0.282042 0.125864 0.239303 -0.0348665 0.333999 -0.0741307 -0.135396 -0.209681 0.184186 -0.410616 -0.27533 0.297032 0.00685229 0.206183 -0.0687536 -0.104915 -0.112357 -0.267494 0.0973127 0.00345086 0.241552 -0.11201 -0.720519 0.0756935 0.0934667 -0.104684 0.207725 0.136347 -0.0371163 -0.258795 0.552172 0.135783 -0.257489 -0.0486526 -0.18982 0.0202401 0.421476 -0.109046 0.253734 -0.42791 0.236009 0.103168 0.191893 0.0321737 -0.0139697 -0.693465 -0.247294 -0.00577315 -0.407058 -0.235547 0.0452175 0.241804 -0.270548 -0.173865 -0.135213 0.229161 0.00907987 0.0769786 0.0204932 0.0661633 0.0309735 -0.0521162 0.217218 0.0531859 0.0274213 0.0473885 0.0267 -0.202168 0.250833 -0.401427 0.0953306 -0.0114164 -0.02249 0.252223 -0.157501 -0.223765 0.0918356 -0.203672 -0.0422927 -0.833551 -0.0219241 0.158375 -0.377466 0.0384993 0.0396174 -0.130801 -0.0939003 -0.449001 -0.0577141 -0.142466 -0.0363392 0.230375 -0.205496 -0.162636 -0.127477 -0.0483324 0.0188602 0.03365 0.0483732 0.0478394 -0.0823868 -0.321154 0.0829779 0.00104242 0.191078 0.346702 0.18812 0.538147 -0.16114 0.544364 0.297203 -0.103119 0.117924 -0.05573 0.20359 0.179057 -0.146316 -0.0585109 0.287523 0.0966783 -0.0129892 0.0647019 -0.301287 0.0754749 -0.400916 -0.25351 -0.0784895 -0.18218 -0.378991 0.00200036 -0.0976811 -0.0454171 0.508294 -0.124513 -0.131779 -0.119167 0.036148 -0.10763 0.194253 -0.32946 0.693113 -0.38131 0.858679 -0.0849297 0.0218269 0.146916 -0.178061 -0.148305 0.2125 0.331375 -0.02937 0.41414 -0.00334791 -0.0588358 -0.0853243 0.0249921 -0.0872924 0.117787 0.282818 -0.0704918 -0.159145 0.0793484 0.413205 0.0812826 0.0923583 -0.474936 -0.443818 -0.0859412 0.427735 0.482031 -0.460152 0.339447 -0.325903 -0.239617 0.0386989 -0.0706249 -0.11941 0.0699033 -0.206647 0.289641 0.143471 -0.250486 0.038411 -0.395045 0.393469 0.455509 -0.166097 0.00583719 -0.131624 -0.282336 0.0874905 -0.518177 0.243965 0.473935 -0.288973 0.136176 -0.0447562 0.257276 -0.0802925 -0.0771501 0.174428 0.297636 0.0524579 -0.373191 -0.146785 -0.169442 0.0616397 0.0468343 -0.528739 -0.0307847 -0.017051 -0.0270281 -0.180764 -0.0765996 0.509388 0.239434 0.142164 -0.0958334 -0.0764197 -0.489895 -0.19819 -0.355087 -0.150587 0.147611 -0.0821951 -0.103099 0.0271283 -0.511655 -0.486814 0.0521963 0.0248278 0.0251912 -0.10755 0.0713491 0.185547 -0.46128 0.207999 -0.0956553 0.0411364 0.030141 0.322766 -0.0215039 0.0197927 -0.125742 -0.0697926 -0.809445 -0.148788 -0.452949 0.172605 -0.360571 -0.354471 -0.0504662 -0.276145 -0.246358 0.573141 0.0602325 0.229709 0.210671 -0.0469328 -0.19114 -0.218971 -0.0590792
round -1.05316 1.85551 1.0406 -2.25192 -0.19689 -3.35067 2.01681 0.821196 2.00969 0.352062 2.63702 -1.80611 2.31289 1.9844 0.484003 -0.945824 -0.430329 0.246121 0.564561 -1.66908 -0.140425 -0.211018 -0.296337 -1.06254 -1.33834 1.39852 0.37198 0.360247 0.870608 -2.04275 0.848042 -0.974265 -0.625184 -1.2052 0.31173 0.380934 -0.962843 -0.343396 -1.33133 -0.241556 0.918639 -1.73877 0.973153 -1.02679 -3.29082 -0.757385 -1.34787 -1.52604 1.33608 0.142912 -0.717652 2.53624 -0.797983 -0.456681 0.728654 0.907644 0.0764024 -0.731632 -0.476827 0.25585 -3.20101 -0.65221 -0.85472 -0.514927 -0.58141 -2.33201 -0.156709 1.07172 -0.876525 -0.404111 -1.59808 1.406 0.101154 0.968415 0.373212 1.98752 -3.54205 -1.45386 -1.06429 -0.984969 1.70024 -0.726606 -0.806135 -1.77464 0.26582 -0.149289 0.468039 -1.14892 1.41692 0.88925 -0.916257 0.0388957 -0.337087 0.826864 -0.721814 0.976377 0.0116806 0.587239 -0.144953 2.28505 1.10948 2.08319 0.513466 0.469587 1.66876 -1.50283 -0.907331 0.327299 0.914804 -0.737569 0.993518 1.4692 1.75425 1.1974 -0.327976 -0.762349 0.412343 0.406899 0.398249 -1.05582 0.557157 -2.26992 -3.20828 -1.32102 1.76139 0.659755 1.84936 3.42755 0.818265 -0.712589 -0.807145 -1.77885 0.362793 -1.62933 1.17502 1.39148 1.5372 -0.647668 3.1523 -2.17686 -0.421166 0.0309776 -1.24698 2.03144 0.525473 1.23887 -0.396231 -2.45119 0.756107 2.0949 -1.87503 -0.94459 -0.426094 1.43099 0.100523 2.65606 1.69904 -1.06607 -0.205387 -0.0212413 -2.301 -1.01677 -2.25966 1.38021 0.553016 -2.38519 -2.58853 0.434817 0.662499 0.493593 -0.78365 0.604512 1.23302 0.38535 1.97486 -0.730918 0.614246 -0.104597 -0.200816 -0.515595 1.69863 1.14211 -0.490815 -1.03396 -0.220549 -0.47399 -0.148288 -0.924216 0.757021 0.547458 0.43445 0.074723 -1.68609 -0.199981 1.61171 0.808114 -0.714993 1.22564 0.0871472 0.469757 -2.04013 -0.225292 -1.79511 -1.14006 -1.05884 -0.812889 -0.467934 -0.595871 2.31369 -0.349674 1.7432 -0.680817 -0.514303 1.04446 0.52362 -2.09953 -1.82978 1.19949 -2.24628 -0.0526532 1.17697 -0.491781 -2.17024 -0.454337 0.599284 -0.946371 0.688513 -0.588862 -0.226241 -1.33214 -0.795053 -0.529169 1.12709 0.00908137 -0.900491 1.62557 -0.367034 -0.611423 1.34481 0.550183 -0.71023 1.32506 0.660708 0.0685557 0.210321 -0.249131 0.235844 -1.12765 1.37704 1.9285 2.70691 -0.533065 -2.28601 -0.858086 -0.511021 -1.20862 0.939106 2.95232 -0.564163 -1.06341 0.911391 -1.15265 -1.17536 1.33453 0.412767 -1.33804 -0.179903 0.680649 0.577736 -0.912641 -0.609531 -0.793378 0.571583 0.239081 1.06963 -0.626967 0.628692 -0.295025 -1.15992 -2.55106 1.02684 -0.0162524 0.286186 -2.2159 2.26256 -0.12578 -0.269119 -0.404923 -1.92601 0.609415 -0.0466523 -0.901916 0.139551 -0.0353135 -0.88259 0.939741 -0.431848 -0.976183 0.186947 -2.13075
clothes -2.45156 -0.747717 -0.616912 2.42266 1.67631 -0.858481 -0.591357 -0.787936 1.22487 2.57152 -0.240668 0.149109 -1.33567 0.816667 0.346014 -0.969688 -0.695899 1.23359 0.309613 -1.13907 -1.23832 0.0264033 -0.119692 0.484449 0.425315 0.188903 -0.467112 0.48078 -0.574981 0.604628 -1.11754 -2.26516 -1.08833 1.1786 -0.543191 -1.61246 0.786782 -0.372422 1.27889 1.24542 0.305348 -2.15054 -0.894956 -0.0741012 0.511023 2.48634 0.704893 -0.721026 0.260897 0.94296 -0.849184 -1.22801 -0.157787 0.145072 -0.564931 0.258101 -0.480523 -0.371991 -0.516557 -0.0873789 -1.86725 1.78287 -0.442313 0.674497 0.323051 1.38153 -0.167461 1.35077 0.0822185 -2.73406 -0.922878 -0.439396 0.92136 1.08135 -0.0617656 -1.83488 1.1297 -2.51874 0.724733 0.0506608 -0.118146 1.21727 -0.152259 -0.893577 0.456649 1.07403 -1.69941 -1.04531 -0.29142 -1.46446 -0.560292 -0.167885 0.367054 1.06323 -0.863119 2.97113 -0.676876 1.57621 -0.285861 0.837308 0.957278 -1.01575 -0.400894 -0.755308 0.116525 0.332198 -0.293152 -1.39121 -1.13857 1.80737 -2.19762 1.92689 -0.726448 1.62051 2.38517 -0.751899 0.487202 0.330975 1.88549 0.488597 -1.25364 -1.42927 -2.40351 0.320879 0.108188 -0.706586 0.533968 -0.128063 -1.19369 -0.245855 -0.337462 -0.653046 -0.929207 -1.76637 0.123253 -1.36013 -0.292003 2.31304 0.733007 1.78575 0.481069 -0.753179 1.3187 1.09852 0.74528 -0.011678 0.701293 0.00171526 -0.494067 -1.15875 0.244384 1.49769 -1.45524 -0.892714 -0.472004 -0.144082 2.45192 0.915966 -0.0561895 -0.233635 0.404739 -1.35022 -1.11054 1.72957 -0.423234 1.13284 -0.719982 -0.393908 -1.45678 1.49231 -1.4405 2.53749 0.683376 -0.497639 -1.51659 0.536531 1.9531 0.300437 1.31221 2.10007 -0.212998 -1.03572 -0.774726 -0.836866 0.342293 -0.550064 -0.596749 -0.393906 -2.38223 0.346392 0.513685 0.543439 2.03861 -0.875778 0.506119 -1.80937 1.30041 0.484836 -0.112607 0.209439 0.164618 -1.70228 -1.00185 -0.13215 0.16241 0.466481 0.875461 0.558619 0.550037 -1.09593 0.190979 0.47141 -1.08685 2.0427 0.237475 1.4286 -2.11894 -0.865964 -0.346034 -0.26118 -1.45979 -1.06252 -0.0194453 -0.881194 0.428053 -1.33704 -0.902575 -0.05993 0.00506856 -1.24283 1.13832 -0.650504 -1.23007 -1.19783 -0.919438 0.37397 -1.22342 1.20205 0.474251 1.32836 0.902304 -0.789654 -0.420077 1.46718 0.401267 0.578552 0.820546 -0.82544 0.533275 1.08206 -0.267534 -0.134957 0.0379143 0.845335 1.09388 1.33081 2.11672 0.0246977 0.223697 0.700135 -0.259724 -1.64436 0.195835 -0.615919 -1.854 0.351353 1.20434 2.00956 1.59772 1.04842 -0.566873 0.799672 1.58461 1.24553 -0.340249 -1.95208 -0.246009 -0.524136 -0.174768 2.5435 0.691803 0.955503 1.39451 -1.15852 -0.750647 -0.285463 -0.76947 1.97805 -1.06783 -0.544748 0.705547 -1.22258 -0.963009 0.919056 -0.3295 -0.839059 -1.41471 0.231532 -0.0236138 -0.0103972
carnivore 0.0605575 0.0440351 -0.0164827 0.0804563 -0.0882001 0.107685 -0.0322359 -0.0395387 -0.0223645 -0.0166964 -0.00993463 0.0422274 -0.119002 0.0510034 0.0498159 0.0285568 -0.00756719 -0.0587922 0.0984055 -0.0353108 0.0257778 -0.0120038 0.0925798 0.0474327 0.0817457 -0.118756 -0.0205673 0.0602511 0.0142808 -0.0137916 -0.162644 -0.00792009 -0.0649462 -0.177111 -0.0591392 0.0479488 -0.0629784 0.141196 0.0119251 -0.0646667 -0.0886818 0.103671 0.0149711 -0.110226 -0.0253577 -0.0835307 0.0892265 -0.124828 0.0269036 0.0279238 -0.109655 0.122745 -0.207794 -0.170524 0.0363203 0.0630614 0.0506016 0.0110035 0.0519367 0.028041 -0.24096 -0.0170366 0.0596386 -0.0696266 -0.0267681 -0.0422395 0.0194834 0.011083 0.301044 0.0214944 -0.0200371 0.0171365 -0.0398355 0.00488835 0.0557859 0.0548418 0.0407106 -0.240611 0.0988938 0.0677805 0.103208 -0.00532165 0.00411748 -0.201676 -0.175733 -0.0334797 -0.0902546 -0.168862 -0.144547 -0.0621685 0.0243238 -0.104673 -0.0366487 0.000821586 0.0450869 0.0486919 0.0201359 0.0317044 -0.106705 -0.0873076 0.0214716 -0.0496084 -0.0695434 -0.21164 0.0526119 -0.0840516 0.166331 -0.0178252 0.00833354 -0.046297 -0.153795 -0.00307393 0.036487 0.103505 -0.0670213 -0.0975628 -0.0419782 -0.00285383 0.095958 0.00903268 -0.045697 -0.0492678 -0.00239855 -0.134936 0.0327568 -0.170366 -0.0336649 -0.0138537 -0.00666514 -0.0652314 -0.000422574 -0.00938209 0.0348357 -0.0399142 0.0735431 0.00604145 -0.118296 0.0688411 0.128475 0.155653 0.0105304 -0.0322734 0.191841 -0.121061 0.0607379 0.114516 0.0262681 0.234279 0.0595356 -0.0783567 0.0406771 0.0778237 0.0807088 0.155819 -0.0802746 -0.0521532 -0.00734153 -0.0409372 0.0614469 -0.00331794 -0.119559 0.0310176 -0.104978 -0.0248066 -0.117979 -0.0365646 -0.179866 -0.0958901 -0.0157468 0.0465628 0.222431 -0.222287 0.0885043 -0.0509111 0.0218054 0.0435077 -0.0412343 -0.0376081 0.200372 -0.0047285 0.124587 0.0993087 0.0164539 0.0442732 -0.0784617 -0.0327654 0.0451326 0.111059 -0.0498622 0.239713 0.0894222 0.0631847 -0.000341254 0.0462736 -0.0273577 -0.0888281 -0.0754108 -0.0264234 0.00752421 -0.0617791 0.1984 0.190545 0.0269316 -0.194012 -0.0921582 -0.00753926 0.0806037 0.0610667 -0.166893 0.0720399 -0.148654 -0.06275 -0.0627531 0.0114285 -0.00475366 -0.0740739 -0.109762 0.0471698 0.0319087 0.00443698 0.181086 -0.0600676 0.0470752 0.227662 -0.234579 -0.0313195 -0.0623583 -0.0479917 -0.0724412 -0.109098 -0.0138754 0.0465573 -0.0067886 0.0306565 0.0507661 -0.0463096 0.018102 -0.0154904 0.0252948 0.0333918 -0.0248992 -0.0325256 -0.022102 0.0263428 0.0179373 0.0187276 -0.176449 0.0551271 0.187984 0.0407458 -0.0820936 -0.0927514 0.138547 0.0588779 0.0403879 -0.0329636 -0.0500302 -0.116394 -0.0174366 -0.0771434 0.135291 -0.160032 0.00757064 0.101799 -0.067964 -0.00523161 -0.0389943 -0.0561861 0.0849578 0.0291345 0.0433429 -0.0641211 -0.0251249 -0.108724 -0.0831454 -0.189953 -0.0236011 -0.042951 -0.0321639 0.100868 -0.0419134 -0.15148 -0.0775737 -0.0873633 0.0136349 -0.0994286 0.18549 -0.0970398 0.0451055 -0.0614339 -0.0213976 -0.095582 0.135216 0.0178275 0.108644 0.0543733 -0.0186719 -0.123547 -0.0218049 -0.00924107
sign 1.54863 0.0506296 -0.248026 -1.86751 2.46574 0.993481 -1.05039 2.1635 -0.701364 -0.105938 -1.39569 -0.536861 0.707393 -2.01851 0.662215 -0.07606 -0.939705 0.601801 2.2347 -2.3161 -1.38439 -1.05273 -0.356746 -1.08962 -1.23184 1.48306 -0.686243 -2.01 2.09947 -0.315429 1.39692 -0.33517 -1.25734 -0.151786 -0.910424 1.06687 -1.3871 1.6007 -1.16416 2.44705 -2.30968 -0.681732 -0.219278 -0.146805 -0.875471 -0.10176 -0.0956187 0.965411 0.0968105 -1.45305 -0.660703 -1.50016 -1.20339 -1.90855 1.1351 2.38244 -1.62355 -0.60838 -1.44403 -0.200021 -0.33522 -0.493602 0.716802 -0.185145 1.01374 1.44518 0.39666 -0.418715 1.13785 1.35303 0.142477 -0.225946 -0.292485 0.344975 0.55478 0.642719 0.0511227 -1.1772 0.560893 1.36602 -0.237366 -0.468014 -0.145828 -0.472718 1.27561 -1.49088 0.403692 -1.08571 0.442262 1.01201 0.643304 0.19225 -0.273152 0.237532 -0.920984 2.48536 2.95622 0.131928 0.846337 -0.557128 -0.584871 0.155354 0.480733 -1.13383 -0.047257 -0.121036 -0.399652 -0.207742 -0.43781 0.90872 2.11665 -0.913242 -0.00339918 1.33906 -0.709645 -0.560039 -1.03055 0.851316 1.24994 0.351471 0.34501 -1.64801 -0.965177 1.27446 0.180223 0.699319 -0.335809 0.533992 1.1944 0.249929 2.37302 -1.24906 0.620713 -0.670715 0.252592 0.043168 -0.475864 -0.511024 -1.07992 -2.12799 -1.09224 -1.58779 -1.45066 1.47496 0.257979 0.618552 1.83971 -0.681129 0.982704 1.89432 0.570545 0.945514 -0.543548 -1.44661 0.275577 -0.871285 -1.31111 1.65573 -1.36953 -1.13165 -2.06442 -1.56007 0.500844 0.534764 1.473 1.01709 -1.24922 -3.22584 -0.170147 0.189519 -1.95486 0.542288 -0.644193 -0.649546 -0.235383 -0.86061 0.146556 1.0194 -0.29531 -0.45433 2.12731 -0.123494 -0.620021 0.0434658 -0.172731 0.621822 -1.10374 -0.0509821 -0.507295 -1.39956 0.768041 1.43562 -2.28619 -2.20945 0.132052 -0.880725 0.148182 2.64384 1.3345 0.0342793 -1.20445 -2.19341 1.04987 -1.40287 -0.0979062 1.47354 -1.4367 1.80091 -0.469215 1.05904 0.0407904 1.54389 -2.83563 -1.44406 0.19663 0.419168 -0.704215 0.167859 -0.112307 0.711932 0.881273 0.835011 0.122826 -0.910501 -1.0301 -0.681508 -0.457243 0.798348 1.44115 0.596848 -0.901552 -1.45939 -1.21135 -0.880087 -1.55425 -0.320921 -0.139426 0.439373 -0.274773 0.819018 1.28548 -0.262415 -0.840344 0.180278 1.15609 -1.78439 -0.852279 -0.464653 1.84612 0.378358 0.295209 -0.725853 -2.32862 -0.676711 1.65993 -0.546406 -1.35622 0.499749 0.914796 1.65218 -1.0013 -0.494649 -0.135518 -0.0933208 -3.12318 -2.3385 -0.834046 0.474357 -0.256389 0.354458 -2.05623 0.717171 -0.328005 1.5053 2.00487 0.430951 -1.15125 -1.61222 1.18583 0.493647 -0.877647 -0.268068 -0.760019 -0.715477 0.565938 -1.59267 1.43732 -0.719076 0.505465 0.364334 -3.0725 -1.40327 0.795346 -1.77482 -1.27927 -1.18864 3.05076 -2.27503 0.178379 -0.367037
street -1.8129 -0.247842 0.812862 0.645627 1.47291 -0.417013 0.00345112 0.991883 1.71606 0.387611 -2.14351 -0.422635 -0.491157 0.0763275 -2.79 -1.1382 -0.612411 0.562848 1.16305 0.643233 -0.536003 -0.0879426 -2.45626 1.78104 -0.433838 -0.519452 -0.583583 1.96948 0.397371 0.627155 0.325831 -0.791549 0.0163916 -1.46806 -1.87071 -1.00746 1.00266 0.0968066 0.131785 1.41414 0.336734 0.108061 0.837471 0.14043 -0.110372 0.0805786 -1.2898 -0.00915591 -1.47819 -1.93558 -0.902395 -0.379215 -2.11616 -1.28468 -1.47183 1.02138 -2.19045 -0.246794 -1.59019 -1.4957 -0.201469 -0.924849 -1.31795 1.3022 0.334567 -0.772929 1.29636 -1.1197 -0.762089 -0.535055 -2.66935 -0.067414 -0.857783 0.639878 -0.915388 -0.359046 0.158094 -2.53372 -1.08155 0.192278 0.0641511 -0.0332396 -0.585405 -1.73747 -0.751666 1.60335 1.71817 -0.548102 0.55775 -1.36414 -1.67784 -1.11936 -0.882867 0.727677 -0.543775 2.3314 -0.487679 -0.872974 0.837387 -0.640568 -1.33784 -0.525779 -0.768024 -0.547972 0.933448 -1.66336 -0.435379 0.041071 -0.622668 0.19821 -1.13518 2.2944 -0.178557 0.295034 1.39808 -1.18998 0.0487551 1.45911 1.80826 -0.907395 -1.02192 -2.24536 1.01749 1.89514 1.39017 0.480428 1.48571 -0.0293266 -0.504174 -0.960583 0.77294 0.370331 -1.0965 0.708051 0.574365 0.697784 -0.950228 -0.710913 0.515932 1.30916 1.22057 1.35229 2.29595 -1.40493 3.33376 -0.942063 0.529542 1.60981 1.61169 0.522003 -1.25664 1.32027 -1.67076 -0.237239 0.802329 -0.47631 -0.140404 1.8425 -1.05234 1.19762 -0.450429 -0.699125 2.53666 -0.179681 -1.43188 1.53287 -2.06662 -1.69877 -1.29871 2.00156 -0.677658 0.400594 -0.775227 1.02118 0.36072 1.46932 1.65036 -1.28533 2.73004 -0.860618 -0.0117521 -0.0665209 -0.432842 -1.20636 1.08943 -1.57083 -1.40369 0.602921 -2.0625 0.888668 2.04766 0.622428 -0.821902 0.204681 1.51308 0.59162 0.396899 1.47276 -0.470611 1.85553 -1.47341 -2.68689 -0.963228 1.11751 0.0416083 0.916589 -0.668074 1.43642 -0.723545 -1.66231 1.39355 -0.962368 -1.68714 -0.27658 1.22116 1.14607 0.748224 0.690971 -0.793061 0.733192 -0.827861 0.485652 -0.445992 -1.84239 1.45152 -0.664152 1.07226 -0.442201 0.0765212 0.202774 2.04386 0.585759 0.657787 0.608772 -0.851319 -0.570235 0.420382 1.38423 0.87251 0.467621 0.822869 1.37917 -0.0949403 0.00829266 -0.442219 0.82793 0.440322 -1.34643 -1.02231 0.548606 -1.40592 -1.75152 2.48726 1.84896 1.82547 -0.745991 1.74703 -2.98191 -0.0427396 0.147451 1.6786 -1.25143 0.0486068 1.27293 1.56654 -0.738901 0.61299 0.763436 1.58397 -0.4615 0.0825695 -0.787426 0.666738 0.542213 0.985315 -1.23594 1.4591 0.873722 0.585945 1.35898 -0.92136 0.00589001 1.92649 1.15498 0.209705 -0.498976 1.75264 1.0052 -1.57606 0.437877 0.869366 0.486378 -1.72417 0.253945 -0.0523489 1.00112 -0.107745 0.512567 0.0329102 0.428024
video -2.21665 -0.334841 -0.777552 2.14443 -0.825226 -0.878739 -1.21873 2.14428 -0.0940613 -1.45869 -1.3523 0.474844 -0.690132 -0.798033 -2.62909 -0.924664 -1.07706 -0.933788 0.840929 0.93365 0.676118 0.0819501 -0.241197 1.13135 -0.832427 3.23103 -2.8639 -0.0956512 0.974894 -3.0089 0.499018 -0.675449 0.843214 -0.805252 0.0997647 -0.49188 -0.42632 1.14204 0.698795 -0.139032 0.0147072 -0.559258 2.1707 0.496477 0.0664259 -0.180217 0.797636 0.884863 0.940231 -0.967714 -0.444105 -0.87204 -0.869968 -0.105952 -0.467654 1.58259 -0.0531397 1.86373 -0.135958 -0.714724 0.478554 0.214766 -0.495775 -0.252057 -0.0202198 -0.457322 2.1649 -2.58646 0.283846 -0.765498 -0.175061 -1.3139 -0.44739 0.974731 -0.45161 0.400048 1.69578 -3.6084 -0.0489448 0.857364 -0.213261 -1.18335 0.926763 -1.24555 -1.38418 1.58852 1.61976 0.414906 2.00374 -1.9976 0.333928 0.48633 0.550561 1.47147 0.0749092 1.78543 -0.0729177 -0.703777 1.22563 0.700208 -0.461468 -0.858494 -1.94393 0.28177 0.172351 2.20031 2.96999 -1.06839 0.675797 0.318903 -0.109758 0.206723 0.551387 -1.03075 -1.51551 -1.89672 0.416859 1.17239 -0.201121 1.0739 -0.423156 -0.215246 0.904117 0.517654 -1.55214 -1.39181 -0.629506 0.26478 0.20591 -1.02351 0.943737 -0.819395 -1.543 -0.491959 -0.0456237 -0.00216253 0.756174 -0.914268 -1.57732 0.129474 -0.849766 1.25266 0.381234 -1.22646 0.0480587 2.14942 0.324101 -0.791239 0.788184 -1.24927 -2.29111 0.868614 -1.86596 -1.28875 -0.522571 1.19372 -2.42558 -1.15578 2.80969 -1.36834 -0.537118 -1.33145 -2.47253 0.0621467 -0.742569 0.0347442 -1.11029 -1.35609 -0.378149 1.88575 -1.45592 0.592969 0.867171 -0.546891 0.0109736 -2.17648 1.33397 2.12176 1.43836 1.40622 -1.10237 -0.00294084 0.53839 -0.593263 1.02251 -0.267017 2.4033 -1.17299 0.19438 0.653671 0.278191 -0.60241 0.000780938 0.393754 2.16968 1.9867 1.91823 0.565893 -0.117323 0.611333 1.04498 1.13636 1.00774 -0.478957 1.40361 -0.779861 0.392927 1.99725 -0.783919 -0.996412 -0.0785888 0.611858 0.867343 0.966225 0.777714 2.17202 -2.14459 1.39676 -0.537983 -0.301984 0.212563 2.25721 -0.122123 -0.7312 -0.239626 -0.703658 0.604316 -0.917279 0.309383 0.043791 -0.85537 0.90157 0.896356 -0.322539 -0.405123 0.378193 0.425804 1.08275 0.465349 1.78813 0.049999 -0.153193 -1.11659 -0.545434 -1.8517 0.691915 1.25044 1.47161 1.76123 -1.12043 -0.215207 -2.41467 -0.790151 0.785111 0.322002 1.88459 -2.15588 -0.451433 -2.1661 0.210352 0.330724 -0.929178 -2.05856 -0.0974119 -0.0426593 1.02352 0.339952 -0.0261694 1.58519 0.0521228 0.136128 -1.65485 0.292626 -0.809727 -0.0323822 1.93988 -0.793461 0.0313533 -0.178533 1.49304 0.501676 -0.216855 2.00505 -1.19905 1.1247 -0.383375 -1.4958 0.668143 -0.275367 0.737732 -0.0748152 1.3453 -1.97608 -0.496815 -1.77872 1.07275 0.283266 -0.0786536 0.556763 -0.598162
lawyer 1.52384 -1.15532 -1.0251 -1.97925 0.635526 3.1792 1.09577 -0.612474 0.45032 -0.652457 -2.61519 0.347024 -0.982054 -0.624919 -0.157764 -2.0698 2.05719 1.60713 0.089716 2.17451 0.0449349 0.0761351 1.33721 -2.11778 0.949967 -1.96265 2.58907 -0.562548 0.0749146 2.11144 0.132612 -1.13111 -1.38091 1.65296 -1.05697 1.60266 -1.86875 -0.119539 1.23815 -0.291084 -0.434761 1.29239 0.521908 -0.0979508 0.0387063 0.627548 0.531053 -0.703857 0.206423 -2.60394 2.70815 0.383993 4.00225 0.81973 0.117251 -0.651682 1.47295 2.43511 0.850079 0.183426 -0.0623315 -1.81706 0.710989 0.284154 -0.741675 0.221288 1.1748 0.466062 -0.110015 -0.1308 -0.904197 3.63282 1.06186 0.844878 0.0143957 -0.751242 -1.31716 0.651304 0.0581243 -0.835166 0.334487 -0.480279 0.0764605 0.000386704 -0.653916 1.51712 -0.115745 0.224686 -0.211575 -1.39121 0.0285857 -0.0485428 -1.13634 -2.6024 -1.02645 1.212 0.0727573 1.30913 -0.8216 0.188656 0.264627 -0.65417 -2.01928 0.822017 -0.228585 -1.92129 2.01152 -0.491133 0.586492 0.0887492 -0.750816 1.2127 -0.39024 1.98248 -0.925831 -1.04754 -2.87397 1.5661 0.0865137 -0.540274 -1.8528 -0.575285 -0.429784 1.05491 -1.81796 -0.75349 -0.431195 -0.276497 2.48448 -0.281211 -0.661491 -0.923684 -0.822093 -0.254927 -1.94168 -1.45522 0.64999 1.99573 0.316351 0.454326 -0.43319 -0.276564 2.0302 -0.223303 -0.548121 1.48212 0.978068 -0.588953 0.666298 0.177275 -1.05175 -1.48566 0.853148 0.743509 -0.350599 -1.81381 -0.990726 2.12632 0.87002 0.546089 0.926164 1.36667 -0.969314 1.32764 0.139201 -0.888467 0.895683 -1.69255 -0.272537 0.510928 -1.48348 -0.97273 2.06928 -0.589267 -0.702234 -1.01614 -0.505001 2.17906 -0.722049 -0.732124 -1.181 -0.0937014 -0.129315 -2.34147 -1.50666 0.239436 1.95367 -2.69684 -1.74171 0.592142 -0.0342147 -1.38093 -1.33397 -0.207053 1.05425 -2.74117 0.593466 0.397006 -1.21685 1.43171 1.08448 -0.25195 -0.541793 -0.229143 1.14603 1.92274 0.347389 -0.312917 -0.395693 2.50889 -1.94198 -0.186597 0.73379 0.564826 0.512398 0.967045 -2.00021 -0.802138 0.0225015 -1.06936 1.43882 2.33497 -2.40882 0.541567 -1.57769 0.482071 -2.60217 -1.27439 2.92829 -2.41637 -0.525005 -0.43882 0.6481 -0.11093 0.597631 -2.22111 1.91235 1.4381 -0.548129 0.469642 1.15411 -1.54922 -0.872261 1.92536 2.31524 -1.89124 0.325722 2.3278 -2.33134 -0.155412 -1.65271 0.924998 -1.11182 -0.138922 1.97552 1.22174 -1.04978 0.0803967 0.388272 -1.12863 2.25807 -0.995307 -1.13256 -2.22691 1.02385 -0.919532 -1.48493 -1.20692 0.410908 -1.09753 0.934091 -1.20469 -0.748819 2.53464 -3.51285 0.233532 1.18945 1.1045 1.85551 -0.887902 -0.121132 1.02539 -1.46758 1.61918 0.488277 -0.557682 0.170802 0.648861 0.788357 0.392592 0.268653 -1.25393 1.52371 0.467309 -0.262358 -1.03906 -1.80314 -0.672961 0.605076 -0.958122
depression 1.24905 0.532236 0.323542 -0.356072 2.34827 -1.55662 -0.552995 1.12931 0.656834 1.29622 0.0356633 -1.79953 0.286039 -0.584482 0.265883 -0.486623 0.792585 0.6927 -0.484706 -0.0382266 -0.116157 -0.163048 0.0952025 0.252238 1.69626 0.586142 -0.822906 0.59547 1.41224 -1.19889 -1.70817 0.982618 -0.920835 -0.766555 -0.284071 0.439893 1.25679 1.36758 1.90139 0.119587 0.60636 0.562315 0.391963 -0.0856934 0.913156 0.739294 -0.630491 -1.64664 -1.06265 -0.738141 0.160499 1.4606 0.60996 0.0282215 -0.414506 0.494605 -0.840006 0.73298 0.668313 1.17015 1.47485 0.495332 0.911838 1.14611 1.35522 0.646179 0.787534 -0.514777 -0.755557 0.184291 0.976956 -0.490469 -0.253345 1.04299 -0.714936 -1.87745 -0.799582 0.0945108 -1.13255 -0.70095 -0.45467 0.968507 -1.72187 -1.62708 -1.64989 -0.10867 -0.308753 -2.89711 0.354028 -1.00483 -0.0389949 -1.77421 -0.213119 1.10339 -0.61103 -0.32769 0.716565 0.696853 -2.11158 0.518659 0.877808 0.294147 0.967774 1.00888 1.57512 1.26324 0.258443 -0.58725 -0.55679 0.885937 -1.0214 0.715583 -0.421833 -2.18376 -1.40562 -1.40665 -0.546874 -0.828751 0.0269292 -0.0461455 -2.0524 -1.00244 0.456405 0.82671 0.225119 -1.32629 -0.172067 0.667426 -0.375084 -1.75287 0.132997 0.750437 -0.135747 0.263468 1.15238 -1.12632 0.305085 1.47725 -1.80604 0.727192 1.44501 -0.742487 0.64975 1.49747 0.996829 0.981863 -0.904252 1.05927 -0.667223 0.847327 -0.00478672 0.289693 0.559288 -1.24198 1.40477 2.02926 1.07681 -0.599359 1.22295 0.5995 0.492929 0.367055 0.983395 0.516638 0.148089 -0.0505097 -2.49247 -0.785988 -0.374715 1.89243 1.66148 -0.136351 1.32906 0.0935841 -0.670223 0.0963199 -0.740344 1.34336 -0.458302 1.13764 2.54453 -0.28832 0.183832 0.315106 -0.294379 -0.207244 -0.992776 0.294632 -0.358423 1.69345 0.261676 -0.258524 -0.945746 -1.34495 -0.183174 1.44357 1.22973 -0.514704 0.931945 0.134043 0.964737 1.27657 -0.979513 -1.1431 0.111211 1.84736 0.596916 1.37451 0.0240289 0.6272 0.786677 -0.307213 -0.844706 -0.765544 1.38674 -0.825884 0.385061 -3.15099 0.548397 0.122666 -0.00947073 0.940983 -1.27531 1.52938 -0.736587 -0.679697 -0.0457125 0.50766 -1.37515 -0.916533 -1.5754 0.146593 -0.31934 -1.55282 0.553695 0.0233738 -2.5131 0.620131 0.762547 1.02151 0.884817 0.825015 -0.340434 0.0787441 0.343671 0.239506 -1.73108 -0.581601 -1.52019 -1.06887 -0.195558 1.39165 1.03777 -1.61375 0.0492317 -0.919136 0.213861 -0.123741 -1.1398 0.281227 -0.238412 2.23306 -0.255021 1.47559 -1.87597 1.87363 -0.0506037 0.323699 -1.1348 1.0221 -0.311721 0.0893941 -0.966496 1.83044 1.39981 0.282606 0.482855 1.44994 -0.550534 -0.444094 -0.749338 -0.256675 -1.20836 0.156263 1.08719 -0.258382 1.28159 -1.43249 -0.913156 -1.96595 0.300123 -1.04192 -1.0705 0.084587 0.0353894 -0.238048 1.53732 -0.717002 -1.51158 0.818441
index 1.01933 0.503454 -2.27168 -0.849697 3.6991 1.10904 -2.17016 -0.184697 0.946036 -0.721369 3.10622 -1.16061 0.349242 -0.181665 -1.91699 0.751128 0.241827 0.28389 -2.20053 1.75839 -2.84552 -0.113157 0.870175 3.48621 -1.80239 -0.771141 -1.35327 -0.908951 0.28269 -0.879818 0.158073 1.46021 -0.938547 0.740993 0.625187 -1.72098 -0.355524 -0.320092 -3.80508 -0.438835 -0.30561 2.14367 -0.373824 -2.38653 -1.06331 0.621159 -1.39705 0.184395 -0.632987 1.82234 -0.886656 -0.297288 0.535518 -0.636015 2.21257 0.727526 0.393673 2.98857 0.019036 0.952164 2.19555 0.414019 -0.934359 -2.96252 -0.354115 1.33056 -1.99772 -1.51817 -1.31531 -0.949544 0.521837 -1.39905 -2.23263 1.82408 -0.89402 2.2416 1.30864 -1.17138 -0.804967 2.26291 1.3692 -0.1991 2.1966 -2.08343 -0.925802 0.112939 -2.02583 -2.00439 0.758261 1.24938 1.9796 1.3466 0.367871 0.974119 0.457251 0.28052 1.8168 -0.501259 -0.718081 0.216991 1.16758 -0.326912 -0.0829367 -1.04044 0.790352 0.937346 0.794478 -2.59656 -0.261725 1.23291 1.69498 -2.24763 1.18826 -3.07423 0.428382 -1.68433 -0.328283 1.21414 0.72653 2.1807 -0.151489 1.29783 -1.0642 0.673941 2.39655 -0.470027 -0.140376 3.05724 -1.29093 -2.05825 0.320609 2.40682 2.51027 0.586696 -1.52494 -2.57346 -4.88728 2.66777 -0.722851 0.436557 -0.556066 -0.768445 0.698647 1.39449 0.747474 1.2974 -0.494772 -0.611679 0.373832 -0.106426 2.05846 1.38066 1.03209 -2.94829 2.03901 -1.28585 1.74479 -0.281512 2.80338 0.39508 -1.83723 2.27858 -0.336437 0.289325 0.577228 -2.00876 -2.3114 -0.936811 -0.278286 1.05544 1.31133 -1.61004 -0.790971 -1.27353 0.617191 1.33861 -0.593497 0.783769 -0.674511 -1.10586 1.96103 1.02109 0.243659 -1.97401 -0.258694 -0.944025 1.72723 -1.52958 -1.29841 -0.0775375 0.0482061 -1.16466 1.08632 -1.95116 1.43464 2.37037 1.53153 -0.588948 4.05621 -1.39865 -2.75346 0.819926 1.36381 1.79135 0.841089 1.31386 0.415691 1.20076 -2.66971 1.39935 -1.07711 -1.0487 -1.35742 0.522614 0.493356 0.426248 0.626157 -1.02733 -0.927218 0.583734 -1.77676 1.4327 0.296007 -1.54729 -0.7224 0.474096 0.599576 -0.855411 -3.13866 0.709075 -0.29237 -0.680912 -1.83653 -0.772398 -1.47458 -0.942507 0.364712 2.0766 0.883093 -1.96022 0.232793 1.65172 0.596161 -0.239825 0.582822 0.125859 -0.313904 -2.78697 0.870294 2.90869 -1.66091 -2.14259 1.9132 -1.7279 2.04551 -0.51649 -0.811438 -0.112204 -2.60032 0.818137 0.120972 -0.206869 1.35138 2.49527 -2.88331 -1.9868 -2.64631 2.06231 -0.699345 -1.81088 -4.51812 -1.83792 -0.22602 -0.145254 -1.12625 -4.39278 3.66932 0.806391 0.440716 0.328431 3.4563 0.332338 -0.461563 -2.67115 2.55672 0.195433 -1.45433 -1.18573 -4.47709 -0.96306 -1.91683 -1.88055 -1.84776 2.1549 -1.53994 0.568557 3.42 -1.47018 -0.404739 1.14406
sun -1.95531 0.982926 0.753115 2.07441 1.09044 -1.35968 -0.531139 1.63937 3.07781 1.39912 -0.725229 -0.843214 -0.183166 1.41234 0.167385 -1.16372 -0.214223 0.131443 0.0731964 -0.309729 -0.272779 -1.05181 0.1379 0.0789792 -0.707182 0.403185 -0.902506 2.20319 -0.994388 -0.487901 -2.36337 1.02703 -0.629857 -0.0896404 -1.68794 -0.85356 -0.385474 0.582407 -0.473867 -1.4578 -0.0112649 -0.200496 -1.37068 1.0321 -1.74947 0.391284 -0.278915 -2.40536 -1.3011 -0.173991 -0.101521 0.610485 -0.979691 -2.55514 -0.0684537 0.977284 -0.0928493 0.63966 -0.182916 -0.171329 -2.53161 0.811629 0.739053 -0.101024 1.34489 -0.0537983 1.82229 -0.0325774 -0.506283 -0.854779 -1.49801 -1.1567 -1.97436 1.32165 -0.0721248 0.111786 0.594014 -0.12891 0.930134 1.21088 0.174812 1.69562 -1.6497 -0.262341 -0.138104 0.482902 -1.61781 -1.11608 0.766304 0.126654 -1.23421 -0.665534 0.102806 0.123525 -0.517055 0.432754 1.03743 0.536463 -0.0558773 0.685829 0.203004 1.23054 -0.322393 -2.25853 0.722587 -0.892806 -0.714419 -0.330246 -1.8566 1.24244 -1.10162 2.16501 -0.899902 0.114132 0.326495 -4.4642 1.32025 -1.55157 1.75959 1.4902 -0.99554 0.625088 -1.89697 -0.114543 0.85988 -0.893252 -0.472184 2.58286 -1.57763 -0.0358686 -0.0223309 0.748465 0.413038 -0.0301019 1.21366 -1.69153 -1.10898 0.194587 -0.963579 0.881771 2.88386 0.498506 -0.281958 -1.29809 -0.987105 1.01689 -0.966224 -0.660855 1.56463 -0.276962 0.103702 0.0248703 -3.10125 -1.69124 2.33101 1.07187 0.025064 0.376204 0.512313 -0.793539 1.83863 -1.37726 -0.580473 -0.115844 -0.786979 -1.23748 0.262236 1.00979 -1.05544 -0.105276 1.38198 -0.635896 -1.28177 -0.623913 -1.55887 0.943375 0.430035 -1.30503 1.28222 0.642119 1.07325 0.0303083 -1.09514 1.13448 -1.55503 0.460704 0.636348 -0.76104 1.42535 -1.1609 0.353485 0.0387457 1.05579 -0.81658 0.66928 -0.0850881 -1.2674 0.10863 0.0331229 1.72663 0.348629 -1.1118 0.505423 0.778272 -2.0087 0.531074 1.87486 1.77063 0.320686 1.65299 0.844504 -0.859516 -0.593856 0.0428084 1.14452 -0.000286761 -0.617639 -0.0372105 0.160571 -0.67053 -2.31052 0.561415 -0.0117355 -0.960431 -0.000279705 0.0794362 -0.024628 0.243534 -0.0665419 0.427391 1.55213 1.27304 -0.591824 -0.311029 0.183121 1.36487 -1.17489 0.4995 1.45552 -0.617088 2.07223 1.16199 -1.57613 0.623808 0.770266 1.14569 -0.469222 -1.49956 1.85849 -1.34972 1.09865 0.609585 1.68866 0.848728 2.3889 -1.58566 -1.27825 -0.432275 -1.41026 -0.417228 0.81224 1.37147 -1.18617 1.03274 -0.212476 -1.01248 0.751813 0.914966 0.79889 1.49289 -0.384532 -0.987644 1.19935 -1.81986 1.56389 -0.371998 -1.31015 0.729606 1.09963 1.09838 2.404 -0.638541 1.68969 -1.68813 -0.0139655 -0.0356227 0.443665 -1.21636 -2.35208 -1.6564 0.0268434 -1.61481 -0.503878 -0.294206 -0.89039 -1.56381 0.77895 0.692807 -1.67598 -1.19981
cell 0.869821 0.785805 -2.6994 0.470806 -0.23676 1.04215 -1.20754 -0.0806615 2.03795 -0.832665 -1.95723 -0.0548813 1.59912 0.521736 -0.0477848 -2.41834 -0.83643 0.646353 -0.288842 2.45076 -0.536684 -1.90442 -0.0273086 1.19277 -0.628379 0.621518 -0.120796 0.865944 0.948165 -1.35784 -1.28155 -0.96387 1.2002 1.42601 0.721093 -0.196688 -0.316139 -0.106505 0.73805 0.566791 -0.997199 -0.925479 2.29199 1.43755 -0.91997 0.222498 0.653522 -0.528291 -0.582414 0.669201 0.776291 -0.499123 1.65287 -0.397017 -1.97805 -0.275715 0.514171 1.81158 1.52874 2.76175 0.363385 1.13704 0.545511 -0.306595 1.77602 -0.0127148 0.676044 -0.495984 -0.552995 0.267281 -0.692744 -1.8204 0.279374 -0.236334 -1.90678 -1.40329 -0.476547 -0.925328 2.25381 2.28093 -0.988292 -0.483445 0.891063 -0.323519 -0.111791 1.36828 0.201794 -0.291833 0.203212 -1.04737 0.965168 -0.506678 0.408223 0.548506 -0.848144 -1.60236 0.00505788 0.108565 -0.218242 0.36117 0.170216 -1.44621 -0.350161 0.887702 1.72345 0.694785 -0.82853 -0.610032 -0.944355 -0.0569283 -0.519214 0.810019 -1.32365 1.35643 0.936362 -2.821 -0.658568 -0.75338 -0.312251 -0.927398 -1.37037 0.351299 -0.291226 1.03434 0.419431 -0.807747 0.256 -1.08962 -0.818907 -1.31128 0.954122 0.151831 -1.05362 -0.983047 -0.741996 -1.36271 -0.673938 -0.428054 -0.131102 0.455327 -1.61372 -0.224065 0.76878 1.73474 -0.117967 2.2771 0.978763 2.86221 0.994196 0.90156 -1.47343 -0.881362 -1.54177 0.876354 -1.4936 0.0401117 0.146675 0.424287 1.047 1.44525 0.168818 0.0979407 -1.46731 0.614243 0.456618 0.133999 -1.0263 -1.33276 -1.43176 0.962173 0.399858 0.300269 -0.70364 -0.60745 0.778972 0.363216 0.697841 -0.342803 2.0468 -1.62324 0.685953 -0.635351 -0.97891 -0.258264 -0.0613946 -0.521272 1.0922 -0.089384 0.120679 -1.04968 0.78337 -0.712617 -1.01051 -0.290951 1.418 1.41679 0.901915 1.61336 -0.157201 -2.64562 0.226656 0.790061 1.1946 -1.75701 -0.873569 -0.342137 1.85157 -0.594362 -0.159058 -0.54392 0.329726 -0.526033 -2.08806 2.53878 -0.746646 -0.0942334 -0.467409 -2.30317 1.32941 -0.466126 1.16218 -1.61076 0.180804 -1.10169 -0.040839 0.375223 0.282904 -0.48387 -0.119818 0.0124402 0.825785 2.04923 -1.96509 -1.19027 -0.48017 1.8578 0.68677 1.52562 0.283437 2.62268 0.765047 0.0718061 -1.35055 -0.0379955 1.11616 -1.69664 -0.497896 0.286851 0.233282 1.30751 -0.165143 -1.62067 -1.14103 -1.42084 1.59393 -1.05049 0.793899 -0.477059 -0.683256 0.75487 0.352134 -0.0725692 2.24873 -0.425153 -1.53449 -0.157196 0.69899 1.91561 1.0664 1.85524 0.482891 0.891293 2.48246 -1.67323 -1.98088 1.08378 -0.499086 -0.185789 2.3052 -0.962357 0.0600008 0.170023 -1.52203 -0.255242 0.369456 -0.068255 0.899271 0.787074 -1.66218 0.0924132 0.0305671 0.318009 0.172981 -0.121508 -1.65834 -1.07758 -0.305389 -0.845153 0.486963 1.09071
nurse -0.466788 -1.34627 -1.20262 -1.15171 1.77427 0.0712151 1.51016 -1.54946 1.32178 0.685165 -0.843016 -0.61155 -0.513762 -0.0322202 -0.0737925 -0.313717 1.05927 1.34562 -0.643434 -0.344897 0.803513 -0.801601 -0.790862 0.127769 0.323187 0.133883 1.07201 -0.0358726 0.81456 0.529419 -0.178586 -1.73499 -1.00102 0.646872 -0.676299 0.599868 -0.883582 -0.243516 2.66858 0.30351 0.89159 1.08431 0.540187 -0.374787 -1.475 0.75428 0.502002 0.28979 0.582218 -1.35678 0.216014 0.391688 1.03795 0.158314 0.066555 0.48501 -0.140931 1.20392 0.993719 0.294614 0.0230772 -0.106576 0.164136 0.273105 -0.723977 0.42727 0.478654 -0.647369 1.56656 0.415069 -0.292843 0.264348 0.829626 1.10306 -0.0803222 -0.899436 0.0462457 0.403261 0.516386 1.11392 -0.775671 -0.00801052 -0.380414 -1.12448 -0.975139 0.114064 0.0612536 -1.85623 -0.923286 -1.18845 -0.8022 -0.95846 -0.433565 -1.30001 0.712513 0.589926 1.00408 0.943442 0.727136 0.154634 -0.348974 -0.377568 -0.0770976 0.468179 -0.819188 0.826773 0.529429 -0.832007 -0.91363 -0.686232 -0.512015 1.53157 0.426075 1.13458 0.0421166 -0.919536 -0.729261 -0.478267 0.895166 0.290826 -1.24654 0.264356 1.00137 0.541258 -1.03584 -1.51768 -0.408964 0.0146797 1.68736 -0.736625 0.695882 -0.606197 -0.371229 0.104991 -0.987801 -0.199433 0.519414 1.33656 0.175337 0.0440904 1.08201 0.280331 2.55464 -0.40862 -0.297319 0.575817 -0.696795 1.16256 -0.253289 0.46379 1.52367 -0.777222 1.23466 0.661944 1.25321 -0.995965 -1.0007 0.177971 1.42518 1.12419 0.870402 -0.389657 -1.20563 0.664492 -0.474933 -1.24911 -1.78413 -0.844064 0.0256244 1.16594 2.075 -0.185402 -0.0596009 0.399526 -0.558895 -0.288707 -2.38888 2.2439 -0.512827 -1.26001 1.68997 -0.492468 -0.679432 -1.51957 0.435648 -0.249012 -0.074378 0.638968 -1.1796 2.77281 -0.0937612 -0.462898 0.258397 -0.364616 0.397823 -1.00716 0.196466 0.707035 -0.357295 2.1478 0.886114 2.64234 -0.591656 -1.55104 0.723515 1.29251 -0.690207 0.768864 -0.769006 0.375176 -1.30595 -0.530127 -0.294675 1.70474 0.203793 0.00164418 -0.99998 -0.617604 0.111618 -0.223361 1.08139 0.408921 0.33919 1.11027 -0.91605 -1.27706 -0.562205 -0.935294 0.0529923 -1.92116 0.704357 -0.564986 0.219552 -0.733854 1.0319 -0.845992 0.523811 0.64574 -1.29335 0.586994 1.46344 -0.612298 -1.74045 -0.861382 -0.0471939 -0.358052 -1.03417 0.46506 -1.47267 -0.523227 -1.08718 -0.0918794 0.329002 -0.514031 -0.663742 1.99822 -0.991185 -0.895818 0.44355 0.633644 0.856716 -0.00187439 -0.567132 -1.63446 0.412565 1.19634 0.384807 0.50689 -0.672375 0.498986 -0.371935 0.314356 0.468913 1.83418 -1.22112 -2.06698 -0.748336 -1.07753 0.259262 -0.100913 0.164248 0.15594 -1.33684 1.85671 -0.149737 -0.441856 -0.309842 1.02145 0.262423 -0.615937 -0.134654 1.27659 1.21252 -0.35 0.336491 -0.380386 -0.714132 0.573018 0.0430842 0.029704
